{
  "bounds": {
    "center": [
      0.066081045,
      0.499990106,
      -0.049094345
    ],
    "diagonal": 0.157289113,
    "dimensions": [
      0.10730276,
      0.07268393,
      0.089123674
    ],
    "max": [
      0.119732425,
      0.536332071,
      -0.004532509
    ],
    "min": [
      0.012429665,
      0.46364814,
      -0.093656182
    ]
  },
  "centroids": {
    "surface_area_weighted": [
      0.067187467,
      0.500484004,
      -0.038232286
    ],
    "vertex_mean": [
      0.070561259,
      0.494575289,
      -0.048494707
    ],
    "volume_if_watertight": null
  },
  "cleaning": {
    "degenerate_faces_removed": 0,
    "unused_vertices_removed": 0,
    "vertices_welded": 0,
    "weld_tolerance": 0.0
  },
  "counts": {
    "analyzed_face_count": 1312,
    "analyzed_vertex_count": 738,
    "source_face_count": 1312,
    "source_vertex_count": 738
  },
  "declared_bounds_validation": {
    "declared_key": "position_bbox_m",
    "max_absolute_error_native": 0.142958592,
    "max_error_native": [
      -0.000873386,
      -0.053777229,
      -0.000716028
    ],
    "min_error_native": [
      0.142958592,
      0.096575081,
      0.062765196
    ],
    "rms_error_native": 0.078098913,
    "status": "mismatch",
    "tolerance_native": 1e-06
  },
  "mesh_name": "VH_F_lingula_superior_bronchopulmonary_segment",
  "pca": {
    "basis": "exact_uniform_surface_moments",
    "eigenvalues": [
      0.001413603,
      0.000312603,
      0.000186615
    ],
    "oriented_bounds": {
      "center": [
        0.008522388,
        -0.010585825,
        0.000669891
      ],
      "dimensions": [
        0.135792407,
        0.068940029,
        0.067097887
      ],
      "max": [
        0.076418592,
        0.023884189,
        0.034218834
      ],
      "min": [
        -0.059373815,
        -0.04505584,
        -0.032879053
      ]
    },
    "principal_axes_world": [
      [
        0.797498077,
        -0.263766364,
        -0.542608628
      ],
      [
        0.588662008,
        0.143133604,
        0.795606569
      ],
      [
        -0.132188723,
        -0.953907793,
        0.269418011
      ]
    ]
  },
  "registration_to_reference": {
    "bounds_normalized_to_reference": {
      "center": [
        0.574341992,
        0.776999089,
        0.381135361
      ],
      "dimensions": [
        0.110913887,
        0.043618692,
        0.195753618
      ],
      "max": [
        0.629798936,
        0.798808435,
        0.479012168
      ],
      "min": [
        0.518885049,
        0.755189742,
        0.283258551
      ]
    },
    "centroids_normalized_to_reference": {
      "surface_area_weighted": [
        0.575485649,
        0.777295484,
        0.404993077
      ],
      "vertex_mean": [
        0.578972982,
        0.773749578,
        0.382452421
      ],
      "volume_if_watertight": null
    },
    "containment": {
      "aabb_fully_inside_reference_aabb": true,
      "center_inside_reference_aabb": true,
      "per_axis_overlap_fraction_of_mesh_bounds": [
        1.0,
        1.000000014,
        0.999999989
      ]
    },
    "coordinate_convention": "0 is the reference AABB minimum and 1 is its maximum on each world axis; values outside [0,1] lie outside the reference bounds",
    "ratios": {
      "aabb_volume_over_reference_aabb_volume": 0.00094704,
      "closed_volume_over_reference_closed_volume": null,
      "diagonal_over_reference_diagonal": 0.079443557,
      "dimensions_over_reference_dimensions": [
        0.110913887,
        0.043618692,
        0.195753618
      ],
      "surface_area_over_reference_surface_area": 0.001901436
    },
    "reference": {
      "mesh_name": "united-female-v1.5_united_reference",
      "source": {
        "aggregate": true,
        "filename": "united-female-v1.5.glb",
        "format": "glb",
        "logical_mesh_index": -1,
        "logical_mesh_name": "united-female-v1.5_united_reference",
        "path": "/Users/eimis/Documents/HACKTHONS-2025/ServerPodHackathon/3D world/reference-atlas/models/hra/united-female-v1.5.glb",
        "sha256": "472567a56896b9b7890508da6501fbf858e56aaa30745365f7a71ade782b529c"
      }
    },
    "status": "registered"
  },
  "sampling": {
    "cross_sections_pca": {
      "pca_axis_0": {
        "axis": 0,
        "in_plane_axes": [
          1,
          2
        ],
        "slices": [
          {
            "boundary_samples_normalized": [
              [
                -0.008638,
                0.0352228
              ],
              [
                -0.0105488,
                0.0304724
              ],
              [
                -0.0122754,
                0.0264377
              ],
              [
                -0.0215789,
                0.0040474
              ],
              [
                -0.030188,
                -0.015537
              ],
              [
                -0.0349083,
                -0.0262661
              ],
              [
                -0.0450615,
                -0.047678
              ],
              [
                -0.0511633,
                -0.0606661
              ],
              [
                -0.0534238,
                -0.0653074
              ],
              [
                -0.0775751,
                -0.1156685
              ],
              [
                -0.0797586,
                -0.119964
              ],
              [
                -0.0830426,
                -0.126953
              ],
              [
                -0.0958542,
                -0.1539149
              ],
              [
                0.0588866,
                -0.166002
              ],
              [
                0.0642796,
                -0.1432087
              ],
              [
                0.0699216,
                -0.12251
              ],
              [
                0.0762887,
                -0.0857699
              ],
              [
                0.0776335,
                -0.0770647
              ],
              [
                0.0791214,
                -0.062492
              ],
              [
                0.0826915,
                -0.0291683
              ],
              [
                0.0866558,
                0.0140615
              ],
              [
                0.0874104,
                0.0218664
              ],
              [
                0.0874937,
                0.026415
              ],
              [
                0.0873416,
                0.0772784
              ],
              [
                0.0869151,
                0.0831927
              ],
              [
                0.0862162,
                0.0911165
              ],
              [
                0.0841025,
                0.1153978
              ],
              [
                0.0813511,
                0.1334777
              ],
              [
                0.0798561,
                0.1416882
              ],
              [
                0.0783249,
                0.1453937
              ],
              [
                0.0730655,
                0.1599051
              ],
              [
                0.0684166,
                0.1640154
              ],
              [
                0.0628458,
                0.1663756
              ],
              [
                0.0574344,
                0.1621811
              ],
              [
                0.0505795,
                0.1597281
              ],
              [
                0.0477228,
                0.1551462
              ],
              [
                0.0390791,
                0.1441998
              ],
              [
                0.0389206,
                0.1438557
              ],
              [
                0.0384601,
                0.1430634
              ],
              [
                0.0309804,
                0.1286838
              ],
              [
                0.0277942,
                0.1231471
              ],
              [
                0.0233316,
                0.112421
              ],
              [
                0.0169278,
                0.0982891
              ],
              [
                0.0157675,
                0.0952786
              ],
              [
                0.0134425,
                0.0897967
              ],
              [
                0.0082666,
                0.0765045
              ],
              [
                0.0053814,
                0.0696059
              ],
              [
                -0.0006592,
                0.054096
              ]
            ],
            "bounds_normalized": {
              "dimensions": [
                0.183347906,
                0.332377617
              ],
              "max": [
                0.087493744,
                0.16637559
              ],
              "min": [
                -0.095854162,
                -0.166002027
              ]
            },
            "centroid_normalized": [
              0.02950457,
              0.04115212
            ],
            "fraction": 0.1,
            "mask": {
              "encoding": "rows_top_to_bottom_1bit_text",
              "occupied_bbox_pixels": [
                13,
                11,
                18,
                20
              ],
              "occupied_fraction": 0.0390625,
              "occupied_pixel_count": 40,
              "origin": "bottom_left",
              "resolution": [
                32,
                32
              ],
              "rows": [
                "00000000000000000000000000000000",
                "00000000000000000000000000000000",
                "00000000000000000000000000000000",
                "00000000000000000000000000000000",
                "00000000000000000000000000000000",
                "00000000000000000000000000000000",
                "00000000000000000000000000000000",
                "00000000000000000000000000000000",
                "00000000000000000000000000000000",
                "00000000000000000000000000000000",
                "00000000000000000000000000000000",
                "00000000000000000110000000000000",
                "00000000000000001110000000000000",
                "00000000000000001110000000000000",
                "00000000000000011110000000000000",
                "00000000000000011110000000000000",
                "00000000000000011110000000000000",
                "00000000000000111110000000000000",
                "00000000000000111110000000000000",
                "00000000000001111100000000000000",
                "00000000000001111100000000000000",
                "00000000000000000000000000000000",
                "00000000000000000000000000000000",
                "00000000000000000000000000000000",
                "00000000000000000000000000000000",
                "00000000000000000000000000000000",
                "00000000000000000000000000000000",
                "00000000000000000000000000000000",
                "00000000000000000000000000000000",
                "00000000000000000000000000000000",
                "00000000000000000000000000000000",
                "00000000000000000000000000000000"
              ]
            },
            "plane_coordinate_native": -0.045794574,
            "segment_count": 47
          },
          {
            "boundary_samples_normalized": [
              [
                -0.047375,
                0.0113614
              ],
              [
                -0.0510672,
                0.006123
              ],
              [
                -0.0540642,
                0.0018709
              ],
              [
                -0.0657915,
                -0.0161237
              ],
              [
                -0.0779197,
                -0.0346444
              ],
              [
                -0.0796339,
                -0.0375114
              ],
              [
                -0.0828514,
                -0.0428651
              ],
              [
                -0.0938212,
                -0.0604399
              ],
              [
                -0.0983709,
                -0.0678826
              ],
              [
                -0.1072084,
                -0.0835038
              ],
              [
                -0.1156083,
                -0.0986098
              ],
              [
                -0.1197859,
                -0.1065169
              ],
              [
                -0.1305458,
                -0.1275431
              ],
              [
                -0.1318756,
                -0.1303187
              ],
              [
                -0.1434974,
                -0.1552135
              ],
              [
                0.1509634,
                -0.2183767
              ],
              [
                0.1570871,
                -0.1893344
              ],
              [
                0.1608526,
                -0.1709233
              ],
              [
                0.1667863,
                -0.143243
              ],
              [
                0.1716587,
                -0.1223447
              ],
              [
                0.1800777,
                -0.0783613
              ],
              [
                0.1816854,
                -0.0705098
              ],
              [
                0.1853861,
                -0.0465334
              ],
              [
                0.1899433,
                -0.0131161
              ],
              [
                0.1896441,
                0.0074147
              ],
              [
                0.1879998,
                0.0521076
              ],
              [
                0.1834087,
                0.0993493
              ],
              [
                0.1816214,
                0.1158226
              ],
              [
                0.1811742,
                0.1230129
              ],
              [
                0.1790375,
                0.1567817
              ],
              [
                0.1787783,
                0.1698477
              ],
              [
                0.1785135,
                0.187836
              ],
              [
                0.1788895,
                0.1997297
              ],
              [
                0.1791079,
                0.2142515
              ],
              [
                0.0505762,
                0.1829127
              ],
              [
                0.0410448,
                0.1630116
              ],
              [
                0.0323627,
                0.145723
              ],
              [
                0.0295565,
                0.140503
              ],
              [
                0.0265476,
                0.1351328
              ],
              [
                0.0171058,
                0.1171244
              ],
              [
                0.0084128,
                0.1010672
              ],
              [
                0.004502,
                0.0944268
              ],
              [
                0.0004493,
                0.0877196
              ],
              [
                -0.0089849,
                0.0714797
              ],
              [
                -0.0180898,
                0.0564203
              ],
              [
                -0.0226395,
                0.0494414
              ],
              [
                -0.0270813,
                0.042831
              ],
              [
                -0.0369915,
                0.0272447
              ]
            ],
            "bounds_normalized": {
              "dimensions": [
                0.333440703,
                0.43262819
              ],
              "max": [
                0.1899433,
                0.214251509
              ],
              "min": [
                -0.143497403,
                -0.218376681
              ]
            },
            "centroid_normalized": [
              0.042204245,
              0.015974879
            ],
            "fraction": 0.25,
            "mask": {
              "encoding": "rows_top_to_bottom_1bit_text",
              "occupied_bbox_pixels": [
                11,
                9,
                21,
                22
              ],
              "occupied_fraction": 0.083984375,
              "occupied_pixel_count": 86,
              "origin": "bottom_left",
              "resolution": [
                32,
                32
              ],
              "rows": [
                "00000000000000000000000000000000",
                "00000000000000000000000000000000",
                "00000000000000000000000000000000",
                "00000000000000000000000000000000",
                "00000000000000000000000000000000",
                "00000000000000000000000000000000",
                "00000000000000000000000000000000",
                "00000000000000000000000000000000",
                "00000000000000000000000000000000",
                "00000000000000000000010000000000",
                "00000000000000000100010000000000",
                "00000000000000001111110000000000",
                "00000000000000001111110000000000",
                "00000000000000011111110000000000",
                "00000000000000011111110000000000",
                "00000000000000111111110000000000",
                "00000000000001111111110000000000",
                "00000000000001111111110000000000",
                "00000000000011111111110000000000",
                "00000000000011111111100000000000",
                "00000000000111111111100000000000",
                "00000000000000000000100000000000",
                "00000000000000000000100000000000",
                "00000000000000000000000000000000",
                "00000000000000000000000000000000",
                "00000000000000000000000000000000",
                "00000000000000000000000000000000",
                "00000000000000000000000000000000",
                "00000000000000000000000000000000",
                "00000000000000000000000000000000",
                "00000000000000000000000000000000",
                "00000000000000000000000000000000"
              ]
            },
            "plane_coordinate_native": -0.025425713,
            "segment_count": 46
          },
          {
            "boundary_samples_normalized": [
              [
                0.1906793,
                -0.244412
              ],
              [
                0.192731,
                -0.2371207
              ],
              [
                0.2049894,
                -0.1919039
              ],
              [
                0.2085464,
                -0.1788447
              ],
              [
                0.2190351,
                -0.1384038
              ],
              [
                0.222908,
                -0.1186771
              ],
              [
                0.2292898,
                -0.0834904
              ],
              [
                0.2337887,
                -0.0539025
              ],
              [
                0.2375147,
                -0.0282183
              ],
              [
                0.2431006,
                0.0138656
              ],
              [
                0.2440705,
                0.0218674
              ],
              [
                0.2460938,
                0.0405201
              ],
              [
                0.2483011,
                0.0627896
              ],
              [
                0.2487498,
                0.0699153
              ],
              [
                0.2506027,
                0.0987737
              ],
              [
                0.2513023,
                0.1184992
              ],
              [
                0.2519901,
                0.1347473
              ],
              [
                0.2536156,
                0.1688503
              ],
              [
                0.2538171,
                0.1724356
              ]
            ],
            "bounds_normalized": {
              "dimensions": [
                0.063137804,
                0.416847567
              ],
              "max": [
                0.253817085,
                0.172435611
              ],
              "min": [
                0.190679281,
                -0.244411956
              ]
            },
            "centroid_normalized": [
              0.233826536,
              -0.01870673
            ],
            "fraction": 0.5,
            "mask": {
              "encoding": "rows_top_to_bottom_1bit_text",
              "occupied_bbox_pixels": [
                21,
                9,
                23,
                20
              ],
              "occupied_fraction": 0.012695312,
              "occupied_pixel_count": 13,
              "origin": "bottom_left",
              "resolution": [
                32,
                32
              ],
              "rows": [
                "00000000000000000000000000000000",
                "00000000000000000000000000000000",
                "00000000000000000000000000000000",
                "00000000000000000000000000000000",
                "00000000000000000000000000000000",
                "00000000000000000000000000000000",
                "00000000000000000000000000000000",
                "00000000000000000000000000000000",
                "00000000000000000000000000000000",
                "00000000000000000000000000000000",
                "00000000000000000000000000000000",
                "00000000000000000000000100000000",
                "00000000000000000000000100000000",
                "00000000000000000000000100000000",
                "00000000000000000000001100000000",
                "00000000000000000000001000000000",
                "00000000000000000000001000000000",
                "00000000000000000000001000000000",
                "00000000000000000000001000000000",
                "00000000000000000000001000000000",
                "00000000000000000000001000000000",
                "00000000000000000000010000000000",
                "00000000000000000000010000000000",
                "00000000000000000000000000000000",
                "00000000000000000000000000000000",
                "00000000000000000000000000000000",
                "00000000000000000000000000000000",
                "00000000000000000000000000000000",
                "00000000000000000000000000000000",
                "00000000000000000000000000000000",
                "00000000000000000000000000000000",
                "00000000000000000000000000000000"
              ]
            },
            "plane_coordinate_native": 0.008522388,
            "segment_count": 18
          },
          {
            "boundary_samples_normalized": [
              [
                -0.11999,
                -0.0006382
              ],
              [
                -0.1298325,
                -0.006941
              ],
              [
                -0.1354652,
                -0.0106545
              ],
              [
                -0.1501089,
                -0.0191643
              ],
              [
                -0.1515072,
                -0.0199848
              ],
              [
                -0.1521022,
                -0.020297
              ],
              [
                -0.1678799,
                -0.0285105
              ],
              [
                -0.1751816,
                -0.0320594
              ],
              [
                -0.1843462,
                -0.0370083
              ],
              [
                -0.1982049,
                -0.0434039
              ],
              [
                0.1499787,
                -0.1655701
              ],
              [
                0.1551505,
                -0.1386095
              ],
              [
                0.1575448,
                -0.1276304
              ],
              [
                0.163183,
                -0.1028562
              ],
              [
                0.1660172,
                -0.0913205
              ],
              [
                0.1709677,
                -0.0659334
              ],
              [
                0.1729412,
                -0.0565067
              ],
              [
                0.1773482,
                -0.0292528
              ],
              [
                0.1782463,
                -0.0237081
              ],
              [
                0.1823005,
                0.004534
              ],
              [
                0.182487,
                0.0058196
              ],
              [
                0.1836922,
                0.0137895
              ],
              [
                0.18624,
                0.0325643
              ],
              [
                0.1866949,
                0.0354211
              ],
              [
                0.1898217,
                0.0563858
              ],
              [
                0.1910064,
                0.0629512
              ],
              [
                0.1937146,
                0.0776782
              ],
              [
                0.195937,
                0.0868604
              ],
              [
                0.197878,
                0.0967816
              ],
              [
                -0.0129812,
                0.1037864
              ],
              [
                -0.0231613,
                0.0911762
              ],
              [
                -0.0314094,
                0.0820091
              ],
              [
                -0.0361599,
                0.0763487
              ],
              [
                -0.0481952,
                0.0637952
              ],
              [
                -0.0494038,
                0.06253
              ],
              [
                -0.0499164,
                0.0620315
              ],
              [
                -0.0628727,
                0.048134
              ],
              [
                -0.0688448,
                0.0423903
              ],
              [
                -0.0766238,
                0.0349511
              ],
              [
                -0.088158,
                0.024444
              ],
              [
                -0.0904511,
                0.0222087
              ],
              [
                -0.0967186,
                0.0170215
              ],
              [
                -0.104959,
                0.0102877
              ],
              [
                -0.1084309,
                0.0078308
              ]
            ],
            "bounds_normalized": {
              "dimensions": [
                0.396082904,
                0.269356535
              ],
              "max": [
                0.197877958,
                0.103786406
              ],
              "min": [
                -0.198204946,
                -0.165570129
              ]
            },
            "centroid_normalized": [
              0.019045478,
              0.004902005
            ],
            "fraction": 0.75,
            "mask": {
              "encoding": "rows_top_to_bottom_1bit_text",
              "occupied_bbox_pixels": [
                10,
                11,
                21,
                18
              ],
              "occupied_fraction": 0.044921875,
              "occupied_pixel_count": 46,
              "origin": "bottom_left",
              "resolution": [
                32,
                32
              ],
              "rows": [
                "00000000000000000000000000000000",
                "00000000000000000000000000000000",
                "00000000000000000000000000000000",
                "00000000000000000000000000000000",
                "00000000000000000000000000000000",
                "00000000000000000000000000000000",
                "00000000000000000000000000000000",
                "00000000000000000000000000000000",
                "00000000000000000000000000000000",
                "00000000000000000000000000000000",
                "00000000000000000000000000000000",
                "00000000000000000000000000000000",
                "00000000000000000000000000000000",
                "00000000000000110000010000000000",
                "00000000000000111111110000000000",
                "00000000000011111111110000000000",
                "00000000000111111111110000000000",
                "00000000001111111111100000000000",
                "00000000000000000000100000000000",
                "00000000000000000000100000000000",
                "00000000000000000000100000000000",
                "00000000000000000000000000000000",
                "00000000000000000000000000000000",
                "00000000000000000000000000000000",
                "00000000000000000000000000000000",
                "00000000000000000000000000000000",
                "00000000000000000000000000000000",
                "00000000000000000000000000000000",
                "00000000000000000000000000000000",
                "00000000000000000000000000000000",
                "00000000000000000000000000000000",
                "00000000000000000000000000000000"
              ]
            },
            "plane_coordinate_native": 0.04247049,
            "segment_count": 42
          },
          {
            "boundary_samples_normalized": [
              [
                -0.0548259,
                0.0269361
              ],
              [
                -0.0603745,
                0.0187147
              ],
              [
                -0.0655504,
                0.0106035
              ],
              [
                -0.0764251,
                -0.0056215
              ],
              [
                -0.0766117,
                -0.0059123
              ],
              [
                -0.0770046,
                -0.0064873
              ],
              [
                -0.0889616,
                -0.0221971
              ],
              [
                0.0508081,
                -0.0873689
              ],
              [
                0.0570469,
                -0.0642939
              ],
              [
                0.0574037,
                -0.063118
              ],
              [
                0.0638825,
                -0.0406932
              ],
              [
                0.0640999,
                -0.0399746
              ],
              [
                0.0675187,
                -0.0283956
              ],
              [
                0.0703788,
                -0.0185313
              ],
              [
                0.0705752,
                -0.0177896
              ],
              [
                0.076206,
                0.002132
              ],
              [
                0.0770369,
                0.0052437
              ],
              [
                0.0817049,
                0.0224303
              ],
              [
                0.0830244,
                0.0279836
              ],
              [
                0.0863093,
                0.0404067
              ],
              [
                0.0882703,
                0.04843
              ],
              [
                0.0902826,
                0.0563987
              ],
              [
                0.0930812,
                0.0677153
              ],
              [
                0.0941859,
                0.0720451
              ],
              [
                0.0981129,
                0.0872272
              ],
              [
                0.0981421,
                0.0873389
              ],
              [
                0.011143,
                0.140804
              ],
              [
                -0.0007733,
                0.1184185
              ],
              [
                -0.001381,
                0.1172662
              ],
              [
                -0.0031608,
                0.1140286
              ],
              [
                -0.0131782,
                0.0961409
              ],
              [
                -0.0163634,
                0.0907481
              ],
              [
                -0.0240597,
                0.0770252
              ],
              [
                -0.0311086,
                0.0651976
              ],
              [
                -0.0344029,
                0.0596324
              ],
              [
                -0.0426421,
                0.046023
              ],
              [
                -0.0444528,
                0.0431607
              ],
              [
                -0.0452491,
                0.0419801
              ]
            ],
            "bounds_normalized": {
              "dimensions": [
                0.187103761,
                0.228172913
              ],
              "max": [
                0.098142112,
                0.140804004
              ],
              "min": [
                -0.08896165,
                -0.087368909
              ]
            },
            "centroid_normalized": [
              0.019086719,
              0.031232204
            ],
            "fraction": 0.9,
            "mask": {
              "encoding": "rows_top_to_bottom_1bit_text",
              "occupied_bbox_pixels": [
                13,
                13,
                18,
                19
              ],
              "occupied_fraction": 0.020507812,
              "occupied_pixel_count": 21,
              "origin": "bottom_left",
              "resolution": [
                32,
                32
              ],
              "rows": [
                "00000000000000000000000000000000",
                "00000000000000000000000000000000",
                "00000000000000000000000000000000",
                "00000000000000000000000000000000",
                "00000000000000000000000000000000",
                "00000000000000000000000000000000",
                "00000000000000000000000000000000",
                "00000000000000000000000000000000",
                "00000000000000000000000000000000",
                "00000000000000000000000000000000",
                "00000000000000000000000000000000",
                "00000000000000000000000000000000",
                "00000000000000011000000000000000",
                "00000000000000010010000000000000",
                "00000000000000111110000000000000",
                "00000000000000111110000000000000",
                "00000000000001111100000000000000",
                "00000000000000000100000000000000",
                "00000000000000000100000000000000",
                "00000000000000000000000000000000",
                "00000000000000000000000000000000",
                "00000000000000000000000000000000",
                "00000000000000000000000000000000",
                "00000000000000000000000000000000",
                "00000000000000000000000000000000",
                "00000000000000000000000000000000",
                "00000000000000000000000000000000",
                "00000000000000000000000000000000",
                "00000000000000000000000000000000",
                "00000000000000000000000000000000",
                "00000000000000000000000000000000",
                "00000000000000000000000000000000"
              ]
            },
            "plane_coordinate_native": 0.062839351,
            "segment_count": 36
          }
        ]
      },
      "pca_axis_1": {
        "axis": 1,
        "in_plane_axes": [
          0,
          2
        ],
        "slices": [
          {
            "boundary_samples_normalized": [
              [
                0.1208706,
                -0.02078
              ],
              [
                0.1264229,
                -0.0220252
              ],
              [
                0.1365495,
                -0.0242043
              ],
              [
                0.143408,
                -0.0257053
              ],
              [
                0.1654788,
                -0.0299592
              ],
              [
                0.1727391,
                -0.0313039
              ],
              [
                0.1916486,
                -0.0345327
              ],
              [
                0.2078915,
                -0.0374471
              ],
              [
                0.2184071,
                -0.0393047
              ],
              [
                0.2429524,
                -0.0441186
              ],
              [
                0.0410222,
                -0.0022017
              ],
              [
                0.0535645,
                -0.0050283
              ],
              [
                0.0463496,
                -0.0035317
              ],
              [
                0.0676299,
                -0.0082607
              ],
              [
                0.0618001,
                -0.0070143
              ],
              [
                0.0810132,
                -0.011449
              ],
              [
                0.0840428,
                -0.0121124
              ],
              [
                0.0938645,
                -0.0143881
              ],
              [
                0.1015986,
                -0.0162549
              ],
              [
                0.1129051,
                -0.0189249
              ]
            ],
            "bounds_normalized": {
              "dimensions": [
                0.201930161,
                0.041916956
              ],
              "max": [
                0.242952398,
                -0.002201694
              ],
              "min": [
                0.041022237,
                -0.04411865
              ]
            },
            "centroid_normalized": [
              0.122535353,
              -0.020283515
            ],
            "fraction": 0.1,
            "mask": {
              "encoding": "rows_top_to_bottom_1bit_text",
              "occupied_bbox_pixels": [
                17,
                14,
                22,
                15
              ],
              "occupied_fraction": 0.006835938,
              "occupied_pixel_count": 7,
              "origin": "bottom_left",
              "resolution": [
                32,
                32
              ],
              "rows": [
                "00000000000000000000000000000000",
                "00000000000000000000000000000000",
                "00000000000000000000000000000000",
                "00000000000000000000000000000000",
                "00000000000000000000000000000000",
                "00000000000000000000000000000000",
                "00000000000000000000000000000000",
                "00000000000000000000000000000000",
                "00000000000000000000000000000000",
                "00000000000000000000000000000000",
                "00000000000000000000000000000000",
                "00000000000000000000000000000000",
                "00000000000000000000000000000000",
                "00000000000000000000000000000000",
                "00000000000000000000000000000000",
                "00000000000000000000000000000000",
                "00000000000000000111110000000000",
                "00000000000000000000011000000000",
                "00000000000000000000000000000000",
                "00000000000000000000000000000000",
                "00000000000000000000000000000000",
                "00000000000000000000000000000000",
                "00000000000000000000000000000000",
                "00000000000000000000000000000000",
                "00000000000000000000000000000000",
                "00000000000000000000000000000000",
                "00000000000000000000000000000000",
                "00000000000000000000000000000000",
                "00000000000000000000000000000000",
                "00000000000000000000000000000000",
                "00000000000000000000000000000000",
                "00000000000000000000000000000000"
              ]
            },
            "plane_coordinate_native": -0.038161837,
            "segment_count": 19
          },
          {
            "boundary_samples_normalized": [
              [
                -0.1520538,
                -0.0376487
              ],
              [
                -0.1610396,
                -0.0442577
              ],
              [
                -0.1739956,
                -0.0546662
              ],
              [
                -0.1818476,
                -0.0607837
              ],
              [
                -0.1920442,
                -0.069295
              ],
              [
                -0.203992,
                -0.0794311
              ],
              [
                -0.2120719,
                -0.0868147
              ],
              [
                -0.2290294,
                -0.1014048
              ],
              [
                -0.245098,
                -0.1163424
              ],
              [
                -0.2582833,
                -0.1274213
              ],
              [
                -0.2764016,
                -0.1436998
              ],
              [
                -0.2841647,
                -0.1499428
              ],
              [
                -0.2967114,
                -0.159446
              ],
              [
                0.3418774,
                -0.0319761
              ],
              [
                0.336445,
                -0.0294104
              ],
              [
                0.3156602,
                -0.0211613
              ],
              [
                0.3015318,
                -0.0167769
              ],
              [
                0.2863787,
                -0.0123233
              ],
              [
                0.2684174,
                -0.0086154
              ],
              [
                0.2543181,
                -0.0058644
              ],
              [
                0.236618,
                -0.0026368
              ],
              [
                0.222099,
                -5.52e-05
              ],
              [
                0.205323,
                0.0028066
              ],
              [
                0.1910873,
                0.0055041
              ],
              [
                0.1733359,
                0.0092169
              ],
              [
                0.1627037,
                0.0117651
              ],
              [
                0.1385122,
                0.0176172
              ],
              [
                0.1369083,
                0.0180385
              ],
              [
                0.134444,
                0.0186574
              ],
              [
                0.1132232,
                0.0241297
              ],
              [
                0.0991325,
                0.0274334
              ],
              [
                0.0903167,
                0.0296871
              ],
              [
                -0.0861802,
                0.0016913
              ],
              [
                -0.1000987,
                -0.0054002
              ],
              [
                -0.1038397,
                -0.007692
              ],
              [
                -0.1203843,
                -0.016935
              ],
              [
                -0.1223892,
                -0.0180223
              ],
              [
                -0.1232183,
                -0.018509
              ],
              [
                -0.1409971,
                -0.0298573
              ]
            ],
            "bounds_normalized": {
              "dimensions": [
                0.638588801,
                0.189133034
              ],
              "max": [
                0.34187738,
                0.029687075
              ],
              "min": [
                -0.296711421,
                -0.159445958
              ]
            },
            "centroid_normalized": [
              0.008644339,
              -0.032697855
            ],
            "fraction": 0.25,
            "mask": {
              "encoding": "rows_top_to_bottom_1bit_text",
              "occupied_bbox_pixels": [
                7,
                11,
                25,
                16
              ],
              "occupied_fraction": 0.026367188,
              "occupied_pixel_count": 27,
              "origin": "bottom_left",
              "resolution": [
                32,
                32
              ],
              "rows": [
                "00000000000000000000000000000000",
                "00000000000000000000000000000000",
                "00000000000000000000000000000000",
                "00000000000000000000000000000000",
                "00000000000000000000000000000000",
                "00000000000000000000000000000000",
                "00000000000000000000000000000000",
                "00000000000000000000000000000000",
                "00000000000000000000000000000000",
                "00000000000000000000000000000000",
                "00000000000000000000000000000000",
                "00000000000000000000000000000000",
                "00000000000000000000000000000000",
                "00000000000000000000000000000000",
                "00000000000000000000000000000000",
                "00000000000001000011110000000000",
                "00000000000011111111111111000000",
                "00000000001100000000000000000000",
                "00000000011000000000000000000000",
                "00000000110000000000000000000000",
                "00000001100000000000000000000000",
                "00000000000000000000000000000000",
                "00000000000000000000000000000000",
                "00000000000000000000000000000000",
                "00000000000000000000000000000000",
                "00000000000000000000000000000000",
                "00000000000000000000000000000000",
                "00000000000000000000000000000000",
                "00000000000000000000000000000000",
                "00000000000000000000000000000000",
                "00000000000000000000000000000000",
                "00000000000000000000000000000000"
              ]
            },
            "plane_coordinate_native": -0.027820833,
            "segment_count": 37
          },
          {
            "boundary_samples_normalized": [
              [
                -0.4491639,
                0.0364292
              ],
              [
                -0.4682219,
                0.0188339
              ],
              [
                -0.4713831,
                0.0160404
              ],
              [
                -0.4737912,
                0.0125983
              ],
              [
                -0.4894337,
                -0.0211655
              ],
              [
                -0.4935069,
                -0.0406522
              ],
              [
                -0.492881,
                -0.0633869
              ],
              [
                -0.4888387,
                -0.0893083
              ],
              [
                -0.488127,
                -0.0919392
              ],
              [
                -0.4877249,
                -0.0932957
              ],
              [
                -0.4832128,
                -0.1063326
              ],
              [
                -0.4799967,
                -0.1153883
              ],
              [
                -0.4778935,
                -0.1205607
              ],
              [
                -0.4742945,
                -0.1308087
              ],
              [
                0.4542369,
                -0.04727
              ],
              [
                0.4570111,
                -0.0370017
              ],
              [
                0.4600981,
                -0.026102
              ],
              [
                0.4615373,
                -0.0206979
              ],
              [
                0.4656324,
                -0.0070466
              ],
              [
                0.4659475,
                -0.0059192
              ],
              [
                0.4672922,
                -0.0014832
              ],
              [
                0.4701561,
                0.0086389
              ],
              [
                0.4709257,
                0.0113939
              ],
              [
                0.4741943,
                0.0225274
              ],
              [
                0.4758864,
                0.0281512
              ],
              [
                0.4780175,
                0.0354089
              ],
              [
                0.4807388,
                0.0439585
              ],
              [
                0.4818219,
                0.0476071
              ],
              [
                0.4851447,
                0.0575292
              ],
              [
                0.4858429,
                0.0596051
              ],
              [
                0.4867295,
                0.0696665
              ],
              [
                0.4876402,
                0.074752
              ],
              [
                0.4884001,
                0.0807858
              ],
              [
                0.4903917,
                0.0903063
              ],
              [
                0.4902156,
                0.0905151
              ],
              [
                0.4895768,
                0.0912373
              ],
              [
                0.4606789,
                0.1136439
              ],
              [
                0.4496733,
                0.1165046
              ],
              [
                0.4451047,
                0.1172362
              ],
              [
                0.4348775,
                0.1181561
              ],
              [
                0.4225191,
                0.1192825
              ],
              [
                0.4177189,
                0.1194802
              ],
              [
                0.4012698,
                0.1198556
              ],
              [
                0.398979,
                0.1198836
              ],
              [
                0.3788771,
                0.1210412
              ],
              [
                0.3773809,
                0.1210333
              ],
              [
                0.3559012,
                0.1228196
              ],
              [
                0.3511192,
                0.1226955
              ],
              [
                0.3429084,
                0.1224419
              ],
              [
                0.3201076,
                0.1223817
              ],
              [
                0.2867618,
                0.1216289
              ],
              [
                -0.1680704,
                0.1059561
              ],
              [
                -0.1921803,
                0.1006414
              ],
              [
                -0.2070573,
                0.0974207
              ],
              [
                -0.2152184,
                0.0949786
              ],
              [
                -0.2492828,
                0.087141
              ],
              [
                -0.2656979,
                0.0826817
              ],
              [
                -0.297529,
                0.076349
              ],
              [
                -0.3099787,
                0.0733119
              ],
              [
                -0.3359262,
                0.0686599
              ],
              [
                -0.3493913,
                0.0664251
              ],
              [
                -0.3579093,
                0.0653939
              ],
              [
                -0.3808712,
                0.0608605
              ],
              [
                -0.3967683,
                0.0565346
              ],
              [
                -0.4089874,
                0.0537135
              ],
              [
                -0.4256797,
                0.0480951
              ],
              [
                -0.4294232,
                0.0466961
              ],
              [
                -0.431309,
                0.0456825
              ]
            ],
            "bounds_normalized": {
              "dimensions": [
                0.983898575,
                0.253628237
              ],
              "max": [
                0.490391665,
                0.122819578
              ],
              "min": [
                -0.49350691,
                -0.130808659
              ]
            },
            "centroid_normalized": [
              0.056109535,
              0.042754755
            ],
            "fraction": 0.5,
            "mask": {
              "encoding": "rows_top_to_bottom_1bit_text",
              "occupied_bbox_pixels": [
                2,
                12,
                29,
                19
              ],
              "occupied_fraction": 0.12109375,
              "occupied_pixel_count": 124,
              "origin": "bottom_left",
              "resolution": [
                32,
                32
              ],
              "rows": [
                "00000000000000000000000000000000",
                "00000000000000000000000000000000",
                "00000000000000000000000000000000",
                "00000000000000000000000000000000",
                "00000000000000000000000000000000",
                "00000000000000000000000000000000",
                "00000000000000000000000000000000",
                "00000000000000000000000000000000",
                "00000000000000000000000000000000",
                "00000000000000000000000000000000",
                "00000000000000000000000000000000",
                "00000000000000000000000000000000",
                "00000000000000000000000011111000",
                "00000011111100000000000000000100",
                "00011111111111111111111111111100",
                "00111111111111111111111111111100",
                "00111111111111111111111111111100",
                "00111111111111111111111111111000",
                "00100000000000000000000000000000",
                "00100000000000000000000000000000",
                "00000000000000000000000000000000",
                "00000000000000000000000000000000",
                "00000000000000000000000000000000",
                "00000000000000000000000000000000",
                "00000000000000000000000000000000",
                "00000000000000000000000000000000",
                "00000000000000000000000000000000",
                "00000000000000000000000000000000",
                "00000000000000000000000000000000",
                "00000000000000000000000000000000",
                "00000000000000000000000000000000",
                "00000000000000000000000000000000"
              ]
            },
            "plane_coordinate_native": -0.010585825,
            "segment_count": 65
          },
          {
            "boundary_samples_normalized": [
              [
                -0.3369263,
                -0.0358282
              ],
              [
                -0.334875,
                -0.0488378
              ],
              [
                -0.3319039,
                -0.0704576
              ],
              [
                -0.3278242,
                -0.1008849
              ],
              [
                -0.3241372,
                -0.1195317
              ],
              [
                -0.3164049,
                -0.1523329
              ],
              [
                -0.3110583,
                -0.169644
              ],
              [
                -0.3036039,
                -0.1966898
              ],
              [
                -0.302198,
                -0.2006966
              ],
              [
                -0.3011783,
                -0.2037311
              ],
              [
                0.2956326,
                -0.1443739
              ],
              [
                0.2998274,
                -0.1307746
              ],
              [
                0.3091125,
                -0.1048429
              ],
              [
                0.309244,
                -0.1044925
              ],
              [
                0.3095734,
                -0.1036822
              ],
              [
                0.3186321,
                -0.0772362
              ],
              [
                0.3216993,
                -0.0684844
              ],
              [
                0.3273532,
                -0.0506766
              ],
              [
                0.3319264,
                -0.0370516
              ],
              [
                0.3350056,
                -0.0260246
              ],
              [
                0.3399502,
                -0.009615
              ],
              [
                0.3418423,
                -0.0021988
              ],
              [
                0.3462967,
                0.0155499
              ],
              [
                0.3476532,
                0.0208543
              ],
              [
                0.352052,
                0.03717
              ],
              [
                0.3531726,
                0.0414099
              ],
              [
                0.3566353,
                0.0547739
              ],
              [
                0.3577842,
                0.0586101
              ],
              [
                0.3610626,
                0.0714992
              ],
              [
                0.3622875,
                0.0754903
              ],
              [
                0.3656732,
                0.0875986
              ],
              [
                -0.3299566,
                0.2334335
              ],
              [
                -0.3300085,
                0.2320564
              ],
              [
                -0.3315215,
                0.1958549
              ],
              [
                -0.3342799,
                0.1624647
              ],
              [
                -0.3347913,
                0.1567207
              ],
              [
                -0.3355244,
                0.1503571
              ],
              [
                -0.3397637,
                0.111477
              ],
              [
                -0.3438979,
                0.0753569
              ],
              [
                -0.3456843,
                0.0584694
              ],
              [
                -0.3450787,
                0.045943
              ],
              [
                -0.343068,
                0.0043939
              ]
            ],
            "bounds_normalized": {
              "dimensions": [
                0.71135751,
                0.437164641
              ],
              "max": [
                0.365673202,
                0.233433522
              ],
              "min": [
                -0.345684308,
                -0.203731119
              ]
            },
            "centroid_normalized": [
              0.003091154,
              -0.006376699
            ],
            "fraction": 0.75,
            "mask": {
              "encoding": "rows_top_to_bottom_1bit_text",
              "occupied_bbox_pixels": [
                6,
                10,
                26,
                22
              ],
              "occupied_fraction": 0.140625,
              "occupied_pixel_count": 144,
              "origin": "bottom_left",
              "resolution": [
                32,
                32
              ],
              "rows": [
                "00000000000000000000000000000000",
                "00000000000000000000000000000000",
                "00000000000000000000000000000000",
                "00000000000000000000000000000000",
                "00000000000000000000000000000000",
                "00000000000000000000000000000000",
                "00000000000000000000000000000000",
                "00000000000000000000000000000000",
                "00000000000000000000000000000000",
                "00000010000000000000000000000000",
                "00000010000000000000000000000000",
                "00000010000000000000000000000000",
                "00000010000000000000000000000000",
                "00000010000000000000000000100000",
                "00000011111111111111111111100000",
                "00000011111111111111111111000000",
                "00000011111111111111111111000000",
                "00000011111111111111111111000000",
                "00000011111111111111111110000000",
                "00000011111111111111111110000000",
                "00000001111111111111111110000000",
                "00000001000000000000000000000000",
                "00000000000000000000000000000000",
                "00000000000000000000000000000000",
                "00000000000000000000000000000000",
                "00000000000000000000000000000000",
                "00000000000000000000000000000000",
                "00000000000000000000000000000000",
                "00000000000000000000000000000000",
                "00000000000000000000000000000000",
                "00000000000000000000000000000000",
                "00000000000000000000000000000000"
              ]
            },
            "plane_coordinate_native": 0.006649182,
            "segment_count": 40
          },
          {
            "boundary_samples_normalized": [
              [
                -0.202116,
                -0.0789013
              ],
              [
                -0.192345,
                -0.0965274
              ],
              [
                -0.1666781,
                -0.1299549
              ],
              [
                -0.1625161,
                -0.135201
              ],
              [
                -0.1592946,
                -0.1383147
              ],
              [
                -0.1305098,
                -0.1617839
              ],
              [
                -0.1110907,
                -0.1725065
              ],
              [
                -0.097353,
                -0.1800814
              ],
              [
                -0.0660856,
                -0.1913585
              ],
              [
                -0.0633086,
                -0.1921978
              ],
              [
                -0.047242,
                -0.1951462
              ],
              [
                -0.0284476,
                -0.1986531
              ],
              [
                -0.0252123,
                -0.1988475
              ],
              [
                0.0075173,
                -0.1990017
              ],
              [
                0.0133354,
                -0.1981541
              ],
              [
                0.0448395,
                -0.1916476
              ],
              [
                0.049205,
                -0.1899386
              ],
              [
                0.0694808,
                -0.1800019
              ],
              [
                0.0809349,
                -0.1744084
              ],
              [
                0.0831508,
                -0.1730253
              ],
              [
                0.1078239,
                -0.1522758
              ],
              [
                0.1218286,
                -0.139364
              ],
              [
                0.1310251,
                -0.1278849
              ],
              [
                0.1405909,
                -0.1155354
              ],
              [
                0.1498991,
                -0.0995386
              ],
              [
                0.162223,
                -0.0791591
              ],
              [
                0.1663792,
                -0.0706489
              ],
              [
                0.1684405,
                -0.0666209
              ],
              [
                0.1801978,
                -0.0383227
              ],
              [
                0.1860982,
                -0.0242155
              ],
              [
                0.1926805,
                -0.0079402
              ],
              [
                0.2000697,
                0.0117055
              ],
              [
                0.2086338,
                0.0345981
              ],
              [
                0.2110837,
                0.0407407
              ],
              [
                0.2195982,
                0.0613198
              ],
              [
                0.2203654,
                0.0630523
              ],
              [
                0.2281436,
                0.0798494
              ],
              [
                0.2292992,
                0.0824921
              ],
              [
                0.229378,
                0.0826676
              ],
              [
                0.2382103,
                0.0970946
              ],
              [
                0.2390575,
                0.0989809
              ],
              [
                -0.2067871,
                0.2047439
              ],
              [
                -0.2056925,
                0.1962962
              ],
              [
                -0.2042397,
                0.1872941
              ],
              [
                -0.2040463,
                0.1858662
              ],
              [
                -0.2045473,
                0.1622234
              ],
              [
                -0.2048118,
                0.1575053
              ],
              [
                -0.2057149,
                0.150018
              ],
              [
                -0.2094206,
                0.1166517
              ],
              [
                -0.2118771,
                0.0987511
              ],
              [
                -0.219771,
                0.052751
              ],
              [
                -0.2215556,
                0.0153241
              ],
              [
                -0.2229818,
                -0.0163187
              ],
              [
                -0.2170324,
                -0.0373623
              ]
            ],
            "bounds_normalized": {
              "dimensions": [
                0.462039356,
                0.403745602
              ],
              "max": [
                0.239057535,
                0.204743876
              ],
              "min": [
                -0.222981821,
                -0.199001727
              ]
            },
            "centroid_normalized": [
              0.001371271,
              -0.043825947
            ],
            "fraction": 0.9,
            "mask": {
              "encoding": "rows_top_to_bottom_1bit_text",
              "occupied_bbox_pixels": [
                9,
                10,
                22,
                21
              ],
              "occupied_fraction": 0.091796875,
              "occupied_pixel_count": 94,
              "origin": "bottom_left",
              "resolution": [
                32,
                32
              ],
              "rows": [
                "00000000000000000000000000000000",
                "00000000000000000000000000000000",
                "00000000000000000000000000000000",
                "00000000000000000000000000000000",
                "00000000000000000000000000000000",
                "00000000000000000000000000000000",
                "00000000000000000000000000000000",
                "00000000000000000000000000000000",
                "00000000000000000000000000000000",
                "00000000000000000000000000000000",
                "00000000001000000000000000000000",
                "00000000001000000000000000000000",
                "00000000001000000000000000000000",
                "00000000011000000000001000000000",
                "00000000011111111111111000000000",
                "00000000011111111111110000000000",
                "00000000011111111111110000000000",
                "00000000011111111111110000000000",
                "00000000001111111111100000000000",
                "00000000001111111111000000000000",
                "00000000000111111111000000000000",
                "00000000000001111100000000000000",
                "00000000000000000000000000000000",
                "00000000000000000000000000000000",
                "00000000000000000000000000000000",
                "00000000000000000000000000000000",
                "00000000000000000000000000000000",
                "00000000000000000000000000000000",
                "00000000000000000000000000000000",
                "00000000000000000000000000000000",
                "00000000000000000000000000000000",
                "00000000000000000000000000000000"
              ]
            },
            "plane_coordinate_native": 0.016990186,
            "segment_count": 53
          }
        ]
      },
      "pca_axis_2": {
        "axis": 2,
        "in_plane_axes": [
          0,
          1
        ],
        "slices": [
          {
            "boundary_samples_normalized": [
              [
                -0.1931384,
                0.1770661
              ],
              [
                -0.2035486,
                0.1741
              ],
              [
                -0.2175919,
                0.1688742
              ],
              [
                -0.2378251,
                0.1610511
              ],
              [
                -0.258362,
                0.1514075
              ],
              [
                -0.2713333,
                0.1452348
              ],
              [
                -0.2991109,
                0.1292828
              ],
              [
                -0.3037151,
                0.1266675
              ],
              [
                -0.3193317,
                0.116092
              ],
              [
                0.1734856,
                0.1756761
              ],
              [
                0.1633184,
                0.1791715
              ],
              [
                0.1587729,
                0.1804219
              ],
              [
                0.1227233,
                0.1897028
              ],
              [
                0.1044679,
                0.1932632
              ],
              [
                0.0831234,
                0.1970327
              ],
              [
                0.056057,
                0.2003265
              ],
              [
                0.0446473,
                0.2015077
              ],
              [
                0.0129519,
                0.2032285
              ],
              [
                0.0076059,
                0.2034418
              ],
              [
                -0.0260022,
                0.2033988
              ],
              [
                -0.0283569,
                0.203359
              ],
              [
                -0.0623916,
                0.201592
              ],
              [
                -0.0637733,
                0.2015032
              ],
              [
                -0.0969063,
                0.1980256
              ],
              [
                -0.0988803,
                0.1978094
              ],
              [
                -0.1300772,
                0.1928775
              ],
              [
                -0.133848,
                0.1922803
              ],
              [
                -0.1620726,
                0.1858263
              ],
              [
                -0.1687742,
                0.1843846
              ]
            ],
            "bounds_normalized": {
              "dimensions": [
                0.492817315,
                0.0873498
              ],
              "max": [
                0.173485582,
                0.203441765
              ],
              "min": [
                -0.319331733,
                0.116091965
              ]
            },
            "centroid_normalized": [
              -0.081248678,
              0.181740054
            ],
            "fraction": 0.1,
            "mask": {
              "encoding": "rows_top_to_bottom_1bit_text",
              "occupied_bbox_pixels": [
                7,
                19,
                20,
                21
              ],
              "occupied_fraction": 0.024414062,
              "occupied_pixel_count": 25,
              "origin": "bottom_left",
              "resolution": [
                32,
                32
              ],
              "rows": [
                "00000000000000000000000000000000",
                "00000000000000000000000000000000",
                "00000000000000000000000000000000",
                "00000000000000000000000000000000",
                "00000000000000000000000000000000",
                "00000000000000000000000000000000",
                "00000000000000000000000000000000",
                "00000000000000000000000000000000",
                "00000000000000000000000000000000",
                "00000000000000000000000000000000",
                "00000000001111111111100000000000",
                "00000000111111111111100000000000",
                "00000001000000000000000000000000",
                "00000000000000000000000000000000",
                "00000000000000000000000000000000",
                "00000000000000000000000000000000",
                "00000000000000000000000000000000",
                "00000000000000000000000000000000",
                "00000000000000000000000000000000",
                "00000000000000000000000000000000",
                "00000000000000000000000000000000",
                "00000000000000000000000000000000",
                "00000000000000000000000000000000",
                "00000000000000000000000000000000",
                "00000000000000000000000000000000",
                "00000000000000000000000000000000",
                "00000000000000000000000000000000",
                "00000000000000000000000000000000",
                "00000000000000000000000000000000",
                "00000000000000000000000000000000",
                "00000000000000000000000000000000",
                "00000000000000000000000000000000"
              ]
            },
            "plane_coordinate_native": -0.026169264,
            "segment_count": 28
          },
          {
            "boundary_samples_normalized": [
              [
                -0.4347742,
                0.0396991
              ],
              [
                -0.4441672,
                0.030915
              ],
              [
                -0.4550736,
                0.0214189
              ],
              [
                -0.4671733,
                0.0096047
              ],
              [
                -0.4718187,
                0.0054291
              ],
              [
                -0.4787766,
                -0.0020781
              ],
              [
                -0.4800099,
                -0.0033039
              ],
              [
                -0.4870968,
                -0.0113643
              ],
              [
                -0.4871469,
                -0.0114223
              ],
              [
                -0.4874721,
                -0.0118652
              ],
              [
                -0.4767775,
                -0.0535936
              ],
              [
                -0.4259701,
                -0.0757503
              ],
              [
                -0.4043163,
                -0.0805108
              ],
              [
                -0.4013564,
                -0.0811317
              ],
              [
                -0.3810307,
                -0.0856662
              ],
              [
                -0.3562474,
                -0.0914393
              ],
              [
                -0.3549138,
                -0.0917516
              ],
              [
                -0.3377933,
                -0.096409
              ],
              [
                -0.3283363,
                -0.0989506
              ],
              [
                -0.327546,
                -0.0992184
              ],
              [
                -0.3010257,
                -0.107873
              ],
              [
                -0.2986002,
                -0.1088239
              ],
              [
                -0.2735885,
                -0.1182997
              ],
              [
                -0.2700537,
                -0.1198694
              ],
              [
                -0.2464572,
                -0.1300156
              ],
              [
                -0.2421319,
                -0.1321154
              ],
              [
                -0.2200119,
                -0.1426775
              ],
              [
                -0.2154874,
                -0.1450093
              ],
              [
                -0.1944548,
                -0.1557565
              ],
              [
                -0.1905046,
                -0.1578694
              ],
              [
                -0.1699757,
                -0.1688687
              ],
              [
                -0.1676491,
                -0.170113
              ],
              [
                -0.1490369,
                -0.1802703
              ],
              [
                -0.1466035,
                -0.1815878
              ],
              [
                -0.1463345,
                -0.1817408
              ],
              [
                -0.1458712,
                -0.1820082
              ],
              [
                -0.1236081,
                -0.1943479
              ],
              [
                0.3372763,
                0.1006595
              ],
              [
                0.3109167,
                0.1213638
              ],
              [
                0.2847735,
                0.1384674
              ],
              [
                0.2750764,
                0.1449434
              ],
              [
                0.2612346,
                0.1523928
              ],
              [
                0.2375284,
                0.1652332
              ],
              [
                0.2257064,
                0.1703499
              ],
              [
                0.1989911,
                0.182078
              ],
              [
                0.1740893,
                0.1908508
              ],
              [
                0.1602595,
                0.1957039
              ],
              [
                0.1266172,
                0.2052925
              ],
              [
                0.1220577,
                0.206573
              ],
              [
                0.0980359,
                0.2115322
              ],
              [
                0.0844857,
                0.2141926
              ],
              [
                0.082576,
                0.2144721
              ],
              [
                0.0480396,
                0.2191425
              ],
              [
                0.0419267,
                0.2196635
              ],
              [
                0.0121199,
                0.2215772
              ],
              [
                0.0029083,
                0.2219197
              ],
              [
                -0.0232143,
                0.2222388
              ],
              [
                -0.0345256,
                0.2221508
              ],
              [
                -0.0580348,
                0.2213207
              ],
              [
                -0.0701534,
                0.2204481
              ],
              [
                -0.0926707,
                0.2185358
              ],
              [
                -0.1044332,
                0.217017
              ],
              [
                -0.12708,
                0.2134907
              ],
              [
                -0.1376148,
                0.2113796
              ],
              [
                -0.1613441,
                0.2060499
              ],
              [
                -0.1697906,
                0.2036408
              ],
              [
                -0.1953179,
                0.1957042
              ],
              [
                -0.200805,
                0.1934502
              ],
              [
                -0.2289415,
                0.1821947
              ],
              [
                -0.2308986,
                0.1811383
              ],
              [
                -0.2448397,
                0.174054
              ],
              [
                -0.2593747,
                0.1665285
              ],
              [
                -0.2616808,
                0.1654256
              ],
              [
                -0.2865696,
                0.1504513
              ],
              [
                -0.2936525,
                0.1464665
              ],
              [
                -0.3129161,
                0.133538
              ],
              [
                -0.3248365,
                0.1258648
              ],
              [
                -0.3386309,
                0.1160798
              ],
              [
                -0.3553145,
                0.1041791
              ],
              [
                -0.3635047,
                0.0981875
              ],
              [
                -0.3849176,
                0.0817676
              ],
              [
                -0.387362,
                0.0799343
              ],
              [
                -0.3974449,
                0.0718049
              ],
              [
                -0.4115147,
                0.0599032
              ],
              [
                -0.4155064,
                0.0562684
              ]
            ],
            "bounds_normalized": {
              "dimensions": [
                0.824748342,
                0.416586648
              ],
              "max": [
                0.33727626,
                0.222238782
              ],
              "min": [
                -0.487472082,
                -0.194347866
              ]
            },
            "centroid_normalized": [
              -0.185568345,
              0.058440476
            ],
            "fraction": 0.25,
            "mask": {
              "encoding": "rows_top_to_bottom_1bit_text",
              "occupied_bbox_pixels": [
                2,
                10,
                25,
                22
              ],
              "occupied_fraction": 0.095703125,
              "occupied_pixel_count": 98,
              "origin": "bottom_left",
              "resolution": [
                32,
                32
              ],
              "rows": [
                "00000000000000000000000000000000",
                "00000000000000000000000000000000",
                "00000000000000000000000000000000",
                "00000000000000000000000000000000",
                "00000000000000000000000000000000",
                "00000000000000000000000000000000",
                "00000000000000000000000000000000",
                "00000000000000000000000000000000",
                "00000000000000000000000000000000",
                "00000000000011111110000000000000",
                "00000000011111111111110000000000",
                "00000001111111111111111100000000",
                "00000011111111111111111011000000",
                "00001111111111111111111111000000",
                "00011000000000000000000000000000",
                "00110000000000000000000000000000",
                "00100000000000000000000000000000",
                "00110000000000000000000000000000",
                "00011111000000000000000000000000",
                "00000001110000000000000000000000",
                "00000000011100000000000000000000",
                "00000000000110000000000000000000",
                "00000000000000000000000000000000",
                "00000000000000000000000000000000",
                "00000000000000000000000000000000",
                "00000000000000000000000000000000",
                "00000000000000000000000000000000",
                "00000000000000000000000000000000",
                "00000000000000000000000000000000",
                "00000000000000000000000000000000",
                "00000000000000000000000000000000",
                "00000000000000000000000000000000"
              ]
            },
            "plane_coordinate_native": -0.016104581,
            "segment_count": 83
          },
          {
            "boundary_samples_normalized": [
              [
                -0.4787045,
                0.0199637
              ],
              [
                -0.4799783,
                0.0181099
              ],
              [
                -0.4830751,
                0.005722
              ],
              [
                -0.47844,
                -0.0019717
              ],
              [
                -0.4686095,
                -0.0099468
              ],
              [
                -0.4664946,
                -0.0113936
              ],
              [
                -0.4523543,
                -0.0152478
              ],
              [
                -0.4357324,
                -0.0183442
              ],
              [
                -0.4344774,
                -0.0185009
              ],
              [
                -0.4053318,
                -0.0226089
              ],
              [
                -0.3848197,
                -0.0254912
              ],
              [
                -0.3519387,
                -0.0303879
              ],
              [
                -0.3263018,
                -0.0353314
              ],
              [
                -0.3164693,
                -0.0372081
              ],
              [
                -0.2650868,
                -0.0503994
              ],
              [
                -0.2574619,
                -0.052631
              ],
              [
                -0.2260752,
                -0.0631605
              ],
              [
                -0.203114,
                -0.0724577
              ],
              [
                -0.1891033,
                -0.0785511
              ],
              [
                -0.1644934,
                -0.0894758
              ],
              [
                -0.1332009,
                -0.1045788
              ],
              [
                -0.1002162,
                -0.1209922
              ],
              [
                -0.0847898,
                -0.1295278
              ],
              [
                0.0543391,
                -0.1940413
              ],
              [
                0.0593505,
                -0.1922317
              ],
              [
                0.083464,
                -0.1818564
              ],
              [
                0.1040528,
                -0.1726137
              ],
              [
                0.131672,
                -0.1598994
              ],
              [
                0.1571184,
                -0.1487074
              ],
              [
                0.1682595,
                -0.1441857
              ],
              [
                0.1931642,
                -0.13516
              ],
              [
                0.2077685,
                -0.1306989
              ],
              [
                0.2345146,
                -0.1234031
              ],
              [
                0.2466012,
                -0.1199612
              ],
              [
                0.2754004,
                -0.1135022
              ],
              [
                0.3035375,
                -0.1051562
              ],
              [
                0.3185154,
                -0.1006231
              ],
              [
                0.3455615,
                -0.0909776
              ],
              [
                0.3468818,
                -0.0904323
              ],
              [
                0.3847488,
                -0.0778107
              ],
              [
                0.3966589,
                -0.0734395
              ],
              [
                0.4220563,
                -0.0668736
              ],
              [
                0.4283406,
                -0.0658197
              ],
              [
                0.4424287,
                -0.0634673
              ],
              [
                0.4587375,
                -0.0614208
              ],
              [
                0.4676524,
                -0.0606075
              ],
              [
                0.4829006,
                -0.0597707
              ],
              [
                0.4835861,
                -0.0596807
              ],
              [
                0.4977534,
                -0.052272
              ],
              [
                0.4974009,
                -0.0422756
              ],
              [
                0.4933985,
                -0.0346635
              ],
              [
                0.4835801,
                -0.020527
              ],
              [
                0.4746118,
                -0.0089352
              ],
              [
                0.4522897,
                0.0185581
              ],
              [
                0.4460341,
                0.025971
              ],
              [
                0.4246619,
                0.0498767
              ],
              [
                0.4027407,
                0.0729251
              ],
              [
                0.3850636,
                0.0902
              ],
              [
                0.3770084,
                0.0978683
              ],
              [
                0.3512692,
                0.1203943
              ],
              [
                0.3198353,
                0.1434807
              ],
              [
                0.295545,
                0.1580616
              ],
              [
                0.2556854,
                0.1788451
              ],
              [
                0.2201199,
                0.1940822
              ],
              [
                0.2093567,
                0.1984054
              ],
              [
                0.1714701,
                0.2111999
              ],
              [
                0.154842,
                0.215857
              ],
              [
                0.1197348,
                0.2249381
              ],
              [
                0.0978173,
                0.2297049
              ],
              [
                0.0620501,
                0.2357628
              ],
              [
                0.02688,
                0.2396258
              ],
              [
                0.0077917,
                0.2409
              ],
              [
                -0.0280523,
                0.2417687
              ],
              [
                -0.0422987,
                0.2416226
              ],
              [
                -0.0764967,
                0.2395886
              ],
              [
                -0.0940755,
                0.237331
              ],
              [
                -0.1251245,
                0.2319767
              ],
              [
                -0.1560433,
                0.2250246
              ],
              [
                -0.177867,
                0.2196921
              ],
              [
                -0.2104306,
                0.2083838
              ],
              [
                -0.2180176,
                0.2049863
              ],
              [
                -0.248237,
                0.190847
              ],
              [
                -0.2718205,
                0.1762008
              ],
              [
                -0.3007001,
                0.1564462
              ],
              [
                -0.3234037,
                0.1406012
              ],
              [
                -0.328754,
                0.1367486
              ],
              [
                -0.3534137,
                0.1189818
              ],
              [
                -0.357287,
                0.1162179
              ],
              [
                -0.3838832,
                0.0971571
              ],
              [
                -0.3976931,
                0.0869939
              ],
              [
                -0.4172983,
                0.0724768
              ],
              [
                -0.4351631,
                0.0597691
              ],
              [
                -0.4487355,
                0.050132
              ],
              [
                -0.4626586,
                0.0399761
              ],
              [
                -0.4628148,
                0.0398155
              ],
              [
                -0.4721702,
                0.0305095
              ]
            ],
            "bounds_normalized": {
              "dimensions": [
                0.982919249,
                0.440710373
              ],
              "max": [
                0.499844122,
                0.241768719
              ],
              "min": [
                -0.483075127,
                -0.198941654
              ]
            },
            "centroid_normalized": [
              -0.002304943,
              0.028985175
            ],
            "fraction": 0.5,
            "mask": {
              "encoding": "rows_top_to_bottom_1bit_text",
              "occupied_bbox_pixels": [
                2,
                10,
                30,
                22
              ],
              "occupied_fraction": 0.228515625,
              "occupied_pixel_count": 234,
              "origin": "bottom_left",
              "resolution": [
                32,
                32
              ],
              "rows": [
                "00000000000000000000000000000000",
                "00000000000000000000000000000000",
                "00000000000000000000000000000000",
                "00000000000000000000000000000000",
                "00000000000000000000000000000000",
                "00000000000000000000000000000000",
                "00000000000000000000000000000000",
                "00000000000000000000000000000000",
                "00000000000000000000000000000000",
                "00000000001111111111100000000000",
                "00000000011111111111111100000000",
                "00000001111111111111111111000000",
                "00000111111111111111111111100000",
                "00001111111111111111111111110000",
                "00111111111111111111111111110000",
                "00111111111111111111111111111100",
                "00111111111111111111111111111100",
                "00000011111111111111111111111110",
                "00000000001111111111111111110000",
                "00000000000011111111111110000000",
                "00000000000000000011100000000000",
                "00000000000000000110000000000000",
                "00000000000000000000000000000000",
                "00000000000000000000000000000000",
                "00000000000000000000000000000000",
                "00000000000000000000000000000000",
                "00000000000000000000000000000000",
                "00000000000000000000000000000000",
                "00000000000000000000000000000000",
                "00000000000000000000000000000000",
                "00000000000000000000000000000000",
                "00000000000000000000000000000000"
              ]
            },
            "plane_coordinate_native": 0.000669891,
            "segment_count": 149
          },
          {
            "boundary_samples_normalized": [
              [
                -0.364575,
                0.1094324
              ],
              [
                -0.3666849,
                0.1079294
              ],
              [
                -0.3827874,
                0.0966417
              ],
              [
                -0.3828904,
                0.0965604
              ],
              [
                -0.3836282,
                0.0960048
              ],
              [
                -0.3947296,
                0.0874286
              ],
              [
                -0.3963611,
                0.0861798
              ],
              [
                -0.4054235,
                0.0779242
              ],
              [
                -0.4085245,
                0.0753156
              ],
              [
                -0.4117569,
                0.0716204
              ],
              [
                -0.41804,
                0.0639046
              ],
              [
                -0.4207555,
                0.0581286
              ],
              [
                -0.4231499,
                0.0516593
              ],
              [
                -0.4218166,
                0.0465397
              ],
              [
                -0.4214977,
                0.0401336
              ],
              [
                -0.4169761,
                0.0368215
              ],
              [
                -0.4123909,
                0.0325171
              ],
              [
                -0.4049713,
                0.0299918
              ],
              [
                -0.3997669,
                0.027922
              ],
              [
                -0.3880145,
                0.0263274
              ],
              [
                -0.3844284,
                0.0257176
              ],
              [
                -0.3673663,
                0.0246892
              ],
              [
                -0.366573,
                0.0246628
              ],
              [
                -0.3661657,
                0.0246627
              ],
              [
                -0.3402275,
                0.0243819
              ],
              [
                -0.3192178,
                0.0240379
              ],
              [
                -0.3085106,
                0.0238002
              ],
              [
                -0.2955607,
                0.0231035
              ],
              [
                -0.2701461,
                0.0221148
              ],
              [
                -0.2364522,
                0.0193546
              ],
              [
                -0.2289729,
                0.0189725
              ],
              [
                -0.1851231,
                0.0147135
              ],
              [
                0.2915082,
                0.0011922
              ],
              [
                0.3197136,
                0.0007691
              ],
              [
                0.3402817,
                0.0007328
              ],
              [
                0.3508832,
                0.0005276
              ],
              [
                0.3565031,
                0.0004361
              ],
              [
                0.3769575,
                0.0014113
              ],
              [
                0.3811338,
                0.0013988
              ],
              [
                0.3987118,
                0.0019394
              ],
              [
                0.4045169,
                0.0019773
              ],
              [
                0.4173465,
                0.0021317
              ],
              [
                0.4253514,
                0.0023059
              ],
              [
                0.433065,
                0.0026657
              ],
              [
                0.4453062,
                0.0032289
              ],
              [
                0.1616351,
                0.2313423
              ],
              [
                0.1430378,
                0.235392
              ],
              [
                0.1299329,
                0.2382526
              ],
              [
                0.1190053,
                0.2400163
              ],
              [
