{
  "bounds": {
    "center": [
      -0.003420457,
      0.488743246,
      -0.049147179
    ],
    "diagonal": 0.082707928,
    "dimensions": [
      0.03775191,
      0.066928983,
      0.030592579
    ],
    "max": [
      0.015455498,
      0.522207737,
      -0.03385089
    ],
    "min": [
      -0.022296412,
      0.455278754,
      -0.064443469
    ]
  },
  "centroids": {
    "surface_area_weighted": [
      -0.006519345,
      0.489016798,
      -0.048743569
    ],
    "vertex_mean": [
      -0.004620071,
      0.488626058,
      -0.049395475
    ],
    "volume_if_watertight": null
  },
  "cleaning": {
    "degenerate_faces_removed": 0,
    "unused_vertices_removed": 0,
    "vertices_welded": 0,
    "weld_tolerance": 0.0
  },
  "counts": {
    "analyzed_face_count": 5344,
    "analyzed_vertex_count": 2764,
    "source_face_count": 5344,
    "source_vertex_count": 2764
  },
  "mesh_name": "VH_F_ascending_aorta",
  "pca": {
    "basis": "exact_uniform_surface_moments",
    "eigenvalues": [
      0.000263342,
      7.4383e-05,
      5.8074e-05
    ],
    "oriented_bounds": {
      "center": [
        -0.000263956,
        -0.000144684,
        0.00224395
      ],
      "dimensions": [
        0.06856977,
        0.029200912,
        0.031404621
      ],
      "max": [
        0.034020929,
        0.014455773,
        0.017946261
      ],
      "min": [
        -0.034548841,
        -0.01474514,
        -0.01345836
      ]
    },
    "principal_axes_world": [
      [
        -0.292608105,
        0.955723784,
        0.031185656
      ],
      [
        0.442806123,
        0.106521457,
        0.890267329
      ],
      [
        0.847527719,
        0.274308635,
        -0.454369385
      ]
    ]
  },
  "sampling": {
    "cross_sections_pca": {
      "pca_axis_0": {
        "axis": 0,
        "in_plane_axes": [
          1,
          2
        ],
        "slices": [
          {
            "boundary_samples_normalized": [
              [
                -0.1233897,
                -0.0360676
              ],
              [
                -0.0686597,
                -0.0397346
              ],
              [
                -0.1134497,
                -0.0487093
              ],
              [
                -0.1101498,
                -0.0519358
              ],
              [
                -0.0642036,
                -0.0436111
              ],
              [
                -0.0953788,
                -0.0666377
              ],
              [
                -0.0953517,
                -0.0666651
              ],
              [
                -0.0953451,
                -0.066672
              ],
              [
                -0.0524938,
                -0.0507455
              ],
              [
                -0.0450541,
                -0.0557542
              ],
              [
                -0.0794827,
                -0.0795094
              ],
              [
                -0.0760479,
                -0.082454
              ],
              [
                -0.0349094,
                -0.0599665
              ],
              [
                -0.0625878,
                -0.0909797
              ],
              [
                -0.0557376,
                -0.0957151
              ],
              [
                -0.0447186,
                -0.100802
              ],
              [
                -0.0247864,
                -0.0648485
              ],
              [
                -0.0346239,
                -0.1060384
              ],
              [
                -0.0160721,
                -0.0668379
              ],
              [
                -0.025785,
                -0.1085669
              ],
              [
                -0.0129655,
                -0.1128872
              ],
              [
                -0.0054853,
                -0.1136708
              ],
              [
                -0.0040674,
                -0.0703088
              ],
              [
                0.0089886,
                -0.1157686
              ],
              [
                0.0166959,
                -0.1152041
              ],
              [
                0.0041091,
                -0.0705952
              ],
              [
                0.0309928,
                -0.1145428
              ],
              [
                0.0166418,
                -0.07164
              ],
              [
                0.0412926,
                -0.1120468
              ],
              [
                0.0528229,
                -0.1094023
              ],
              [
                0.0260769,
                -0.0701836
              ],
              [
                0.0687258,
                -0.1030768
              ],
              [
                0.0743204,
                -0.100858
              ],
              [
                0.0372028,
                -0.0687896
              ],
              [
                0.0872288,
                -0.0938792
              ],
              [
                0.0953587,
                -0.0895636
              ],
              [
                0.0504375,
                -0.0644875
              ],
              [
                0.1000172,
                -0.0865182
              ],
              [
                0.0575439,
                -0.0622475
              ],
              [
                0.1158137,
                -0.0760528
              ],
              [
                0.0774462,
                -0.052768
              ],
              [
                0.0774695,
                -0.0527569
              ],
              [
                0.0775169,
                -0.0527277
              ],
              [
                0.1351793,
                -0.0608384
              ],
              [
                0.1353541,
                -0.0607057
              ],
              [
                0.1355045,
                -0.0605724
              ],
              [
                0.0968318,
                -0.0412116
              ],
              [
                0.1535823,
                -0.0442364
              ],
              [
                0.1083026,
                -0.0329603
              ],
              [
                0.1700574,
                -0.0268958
              ],
              [
                0.1701212,
                -0.0268319
              ],
              [
                0.1701763,
                -0.0267696
              ],
              [
                0.11528,
                -0.027854
              ],
              [
                0.1238588,
                -0.0204599
              ],
              [
                0.1846633,
                -0.0095757
              ],
              [
                0.1325859,
                -0.0132149
              ],
              [
                0.139886,
                -0.0061985
              ],
              [
                0.1952979,
                0.0050784
              ],
              [
                0.1969068,
                0.0074336
              ],
              [
                0.1986892,
                0.0107023
              ],
              [
                0.1483027,
                0.0021845
              ],
              [
                0.1563115,
                0.0116786
              ],
              [
                -0.1178673,
                0.0916167
              ],
              [
                -0.118447,
                0.0890549
              ],
              [
                -0.1187331,
                0.0874477
              ],
              [
                -0.1190875,
                0.0812331
              ],
              [
                -0.1500326,
                0.1061157
              ],
              [
                -0.1503745,
                0.1048258
              ],
              [
                -0.1507092,
                0.1025252
              ],
              [
                -0.1208186,
                0.0577282
              ],
              [
                -0.1547518,
                0.07578
              ],
              [
                -0.1190275,
                0.0418032
              ],
              [
                -0.155126,
                0.0586313
              ],
              [
                -0.1175447,
                0.0312549
              ],
              [
                -0.1551237,
                0.0475426
              ],
              [
                -0.1149986,
                0.0245347
              ],
              [
                -0.1531487,
                0.0354332
              ],
              [
                -0.1093624,
                0.0081066
              ],
              [
                -0.1509563,
                0.0204272
              ],
              [
                -0.1456041,
                0.0046448
              ],
              [
                -0.0993106,
                -0.007994
              ],
              [
                -0.0970712,
                -0.0117813
              ],
              [
                -0.1422032,
                -0.0050192
              ],
              [
                -0.1392009,
                -0.0102841
              ],
              [
                -0.0887297,
                -0.0210356
              ],
              [
                -0.0831307,
                -0.0273277
              ],
              [
                -0.0817239,
                -0.0288806
              ],
              [
                -0.1294088,
                -0.0281891
              ]
            ],
            "bounds_normalized": {
              "dimensions": [
                0.353815206,
                0.221884334
              ],
              "max": [
                0.198689178,
                0.106115736
              ],
              "min": [
                -0.155126028,
                -0.115768598
              ]
            },
            "centroid_normalized": [
              -0.007944132,
              -0.034480665
            ],
            "fraction": 0.1,
            "mask": {
              "encoding": "rows_top_to_bottom_1bit_text",
              "occupied_bbox_pixels": [
                11,
                12,
                21,
                18
              ],
              "occupied_fraction": 0.032226562,
              "occupied_pixel_count": 33,
              "origin": "bottom_left",
              "resolution": [
                32,
                32
              ],
              "rows": [
                "00000000000000000000000000000000",
                "00000000000000000000000000000000",
                "00000000000000000000000000000000",
                "00000000000000000000000000000000",
                "00000000000000000000000000000000",
                "00000000000000000000000000000000",
                "00000000000000000000000000000000",
                "00000000000000000000000000000000",
                "00000000000000000000000000000000",
                "00000000000000000000000000000000",
                "00000000000000000000000000000000",
                "00000000000000000000000000000000",
                "00000000000000000000000000000000",
                "00000000000110000000000000000000",
                "00000000000110000000000000000000",
                "00000000000110000000110000000000",
                "00000000000111000001110000000000",
                "00000000000011111111100000000000",
                "00000000000001111111000000000000",
                "00000000000000011100000000000000",
                "00000000000000000000000000000000",
                "00000000000000000000000000000000",
                "00000000000000000000000000000000",
                "00000000000000000000000000000000",
                "00000000000000000000000000000000",
                "00000000000000000000000000000000",
                "00000000000000000000000000000000",
                "00000000000000000000000000000000",
                "00000000000000000000000000000000",
                "00000000000000000000000000000000",
                "00000000000000000000000000000000",
                "00000000000000000000000000000000"
              ]
            },
            "plane_coordinate_native": -0.027691864,
            "segment_count": 86
          },
          {
            "boundary_samples_normalized": [
              [
                -0.172762,
                0.0031575
              ],
              [
                -0.1731693,
                -0.0011553
              ],
              [
                -0.1722027,
                -0.0151297
              ],
              [
                -0.171282,
                -0.0264417
              ],
              [
                -0.1694642,
                -0.0339751
              ],
              [
                -0.1649789,
                -0.0516628
              ],
              [
                -0.1283847,
                -0.0446005
              ],
              [
                -0.1276263,
                -0.0460473
              ],
              [
                -0.1561105,
                -0.0728163
              ],
              [
                -0.1193345,
                -0.0619722
              ],
              [
                -0.1453305,
                -0.0921422
              ],
              [
                -0.1078334,
                -0.0791512
              ],
              [
                -0.132261,
                -0.1109828
              ],
              [
                -0.0940406,
                -0.0960723
              ],
              [
                -0.0862796,
                -0.1045951
              ],
              [
                -0.078314,
                -0.1122703
              ],
              [
                -0.0677243,
                -0.1218713
              ],
              [
                -0.0815558,
                -0.1611356
              ],
              [
                -0.0659876,
                -0.1719142
              ],
              [
                -0.0615592,
                -0.174391
              ],
              [
                -0.0402665,
                -0.1849657
              ],
              [
                -0.0232328,
                -0.1491769
              ],
              [
                -0.0179917,
                -0.1922223
              ],
              [
                -0.0032462,
                -0.1549582
              ],
              [
                0.0049109,
                -0.1956877
              ],
              [
                0.0172771,
                -0.1565921
              ],
              [
                0.0281634,
                -0.1951443
              ],
              [
                0.0436771,
                -0.1930015
              ],
              [
                0.051526,
                -0.190537
              ],
              [
                0.064982,
                -0.1865611
              ],
              [
                0.0748245,
                -0.1819191
              ],
              [
                0.0855595,
                -0.1770898
              ],
              [
                0.0809006,
                -0.1351894
              ],
              [
                0.0882573,
                -0.1306807
              ],
              [
                0.1241376,
                -0.1499475
              ],
              [
                0.1054284,
                -0.1168108
              ],
              [
                0.1155111,
                -0.1064639
              ],
              [
                0.1444618,
                -0.128758
              ],
              [
                0.1229831,
                -0.0981167
              ],
              [
                0.167983,
                -0.0947883
              ],
              [
                0.1418381,
                -0.0700413
              ],
              [
                0.145819,
                -0.0630384
              ],
              [
                0.1511156,
                -0.050283
              ],
              [
                0.1876445,
                -0.0487564
              ],
              [
                0.1907925,
                -0.0389033
              ],
              [
                0.1603232,
                -0.0217013
              ],
              [
                0.1629635,
                -0.0035027
              ],
              [
                0.1969263,
                0.0022267
              ],
              [
                0.1976329,
                0.0127039
              ],
              [
                0.1634682,
                0.020186
              ],
              [
                0.1618901,
                0.0311111
              ],
              [
                0.1602227,
                0.0407055
              ],
              [
                0.1899395,
                0.0629244
              ],
              [
                0.1535597,
                0.0605787
              ],
              [
                0.1845882,
                0.0764115
              ],
              [
                0.1438256,
                0.0797402
              ],
              [
                0.137371,
                0.0894375
              ],
              [
                0.1612726,
                0.1194211
              ],
              [
                0.1208888,
                0.1111813
              ],
              [
                0.1128606,
                0.1208161
              ],
              [
                0.1335018,
                0.1568971
              ],
              [
                0.1008883,
                0.1337004
              ],
              [
                0.1098176,
                0.1839266
              ],
              [
                0.0846627,
                0.1494828
              ],
              [
                0.0963062,
                0.1989792
              ],
              [
                0.0688475,
                0.163142
              ],
              [
                0.0587226,
                0.1703105
              ],
              [
                0.0395221,
                0.1794944
              ],
              [
                0.0238021,
                0.1815907
              ],
              [
                0.0099563,
                0.1791898
              ],
              [
                -0.0031565,
                0.1739893
              ],
              [
                -0.0173966,
                0.2219737
              ],
              [
                -0.0162415,
                0.1667794
              ],
              [
                -0.0231197,
                0.1619748
              ],
              [
                -0.0378291,
                0.2064662
              ],
              [
                -0.029312,
                0.1579252
              ],
              [
                -0.0499231,
                0.196029
              ],
              [
                -0.0623275,
                0.1855874
              ],
              [
                -0.0548339,
                0.1372428
              ],
              [
                -0.0739292,
                0.1740047
              ],
              [
                -0.0847973,
                0.1635022
              ],
              [
                -0.0682674,
                0.1245267
              ],
              [
                -0.0804793,
                0.112353
              ],
              [
                -0.1103023,
                0.1341605
              ],
              [
                -0.0919631,
                0.100027
              ],
              [
                -0.1238417,
                0.1177592
              ],
              [
                -0.1342187,
                0.1027933
              ],
              [
                -0.1108797,
                0.0769135
              ],
              [
                -0.1150009,
                0.0702387
              ],
              [
                -0.120649,
                0.0615413
              ],
              [
                -0.1232478,
                0.0574544
              ],
              [
                -0.1276514,
                0.047935
              ],
              [
                -0.1321296,
                0.0376818
              ],
              [
                -0.1684466,
                0.031964
              ],
              [
                -0.1706809,
                0.0238161
              ],
              [
                -0.171011,
                0.020774
              ]
            ],
            "bounds_normalized": {
              "dimensions": [
                0.370802187,
                0.423573882
              ],
              "max": [
                0.19763292,
                0.227475742
              ],
              "min": [
                -0.173169267,
                -0.19609814
              ]
            },
            "centroid_normalized": [
              0.005711259,
              0.006552737
            ],
            "fraction": 0.25,
            "mask": {
              "encoding": "rows_top_to_bottom_1bit_text",
              "occupied_bbox_pixels": [
                11,
                10,
                21,
                22
              ],
              "occupied_fraction": 0.0625,
              "occupied_pixel_count": 64,
              "origin": "bottom_left",
              "resolution": [
                32,
                32
              ],
              "rows": [
                "00000000000000000000000000000000",
                "00000000000000000000000000000000",
                "00000000000000000000000000000000",
                "00000000000000000000000000000000",
                "00000000000000000000000000000000",
                "00000000000000000000000000000000",
                "00000000000000000000000000000000",
                "00000000000000000000000000000000",
                "00000000000000000000000000000000",
                "00000000000000010000000000000000",
                "00000000000000101111000000000000",
                "00000000000001110111000000000000",
                "00000000000011100011100000000000",
                "00000000000111000001110000000000",
                "00000000000110000000110000000000",
                "00000000000110000000110000000000",
                "00000000000110000000110000000000",
                "00000000000110000001110000000000",
                "00000000000111000001100000000000",
                "00000000000011100011100000000000",
                "00000000000001111111000000000000",
                "00000000000000111110000000000000",
                "00000000000000000000000000000000",
                "00000000000000000000000000000000",
                "00000000000000000000000000000000",
                "00000000000000000000000000000000",
                "00000000000000000000000000000000",
                "00000000000000000000000000000000",
                "00000000000000000000000000000000",
                "00000000000000000000000000000000",
                "00000000000000000000000000000000",
                "00000000000000000000000000000000"
              ]
            },
            "plane_coordinate_native": -0.017406399,
            "segment_count": 196
          },
          {
            "boundary_samples_normalized": [
              [
                -0.2086236,
                -0.0744004
              ],
              [
                -0.1751915,
                -0.074686
              ],
              [
                -0.1716629,
                -0.0893036
              ],
              [
                -0.1706631,
                -0.0934247
              ],
              [
                -0.1643349,
                -0.1072049
              ],
              [
                -0.162338,
                -0.1115076
              ],
              [
                -0.1531507,
                -0.1245687
              ],
              [
                -0.1502712,
                -0.1285908
              ],
              [
                -0.1378977,
                -0.1411895
              ],
              [
                -0.1346744,
                -0.1444103
              ],
              [
                -0.1184061,
                -0.156796
              ],
              [
                -0.1158968,
                -0.1586649
              ],
              [
                -0.1229724,
                -0.194852
              ],
              [
                -0.0945975,
                -0.1708719
              ],
              [
                -0.0925783,
                -0.1717562
              ],
              [
                -0.0959365,
                -0.2084892
              ],
              [
                -0.0704412,
                -0.1809498
              ],
              [
                -0.0699424,
                -0.2179252
              ],
              [
                -0.0659347,
                -0.2192166
              ],
              [
                -0.035979,
                -0.1898824
              ],
              [
                -0.0340438,
                -0.2258489
              ],
              [
                -0.0129949,
                -0.2283731
              ],
              [
                -0.0024148,
                -0.2286057
              ],
              [
                0.0143795,
                -0.2288987
              ],
              [
                0.0239028,
                -0.1933194
              ],
              [
                0.0414546,
                -0.2266938
              ],
              [
                0.0560234,
                -0.2240534
              ],
              [
                0.0678011,
                -0.2219224
              ],
              [
                0.0823996,
                -0.2177758
              ],
              [
                0.0753097,
                -0.1844298
              ],
              [
                0.106894,
                -0.2092496
              ],
              [
                0.096965,
                -0.1769851
              ],
              [
                0.129352,
                -0.1985885
              ],
              [
                0.115868,
                -0.1679343
              ],
              [
                0.1494226,
                -0.1858542
              ],
              [
                0.13204,
                -0.1572825
              ],
              [
                0.1666408,
                -0.1710918
              ],
              [
                0.1726067,
                -0.1653693
              ],
              [
                0.1487377,
                -0.1416161
              ],
              [
                0.1849579,
                -0.1483916
              ],
              [
                0.1579081,
                -0.1277803
              ],
              [
                0.1938041,
                -0.1297357
              ],
              [
                0.163975,
                -0.1128128
              ],
              [
                0.1991088,
                -0.1095942
              ],
              [
                0.1670242,
                -0.0969525
              ],
              [
                0.2009079,
                -0.0882257
              ],
              [
                0.167259,
                -0.0803351
              ],
              [
                0.1993159,
                -0.0659912
              ],
              [
                0.1648735,
                -0.0630889
              ],
              [
                0.1954842,
                -0.0480817
              ],
              [
                0.1944878,
                -0.0433489
              ],
              [
                0.1598804,
                -0.0453723
              ],
              [
                0.1866191,
                -0.0209817
              ],
              [
                0.1850996,
                -0.0179468
              ],
              [
                0.1758846,
                0.0001099
              ],
              [
                0.1727656,
                0.0046221
              ],
              [
                0.1624489,
                0.0194114
              ],
              [
                0.1509916,
                0.0317746
              ],
              [
                0.1151567,
                0.0177249
              ],
              [
                0.1337649,
                0.0472019
              ],
              [
                0.0972752,
                0.0304722
              ],
              [
                0.0931721,
                0.0332282
              ],
              [
                0.1087813,
                0.0643685
              ],
              [
                0.0929189,
                0.0724675
              ],
              [
                0.0877344,
                0.075154
              ],
              [
                0.0699704,
                0.082363
              ],
              [
                0.0517544,
                0.0520629
              ],
              [
                0.0429573,
                0.0913159
              ],
              [
                0.029559,
                0.0587463
              ],
              [
                0.0196195,
                0.0966221
              ],
              [
                0.0073879,
                0.0632339
              ],
              [
                -0.0003709,
                0.0639907
              ],
              [
                -0.007555,
                0.0998865
              ],
              [
                -0.0169909,
                0.0654818
              ],
              [
                -0.0281418,
                0.1003703
              ],
              [
                -0.0409635,
                0.0643856
              ],
              [
                -0.0469773,
                0.0632834
              ],
              [
                -0.0759541,
                0.0927574
              ],
              [
                -0.0750261,
                0.0566558
              ],
              [
                -0.0992811,
                0.0846696
              ],
              [
                -0.1181749,
                0.075742
              ],
              [
                -0.122524,
                0.0736099
              ],
              [
                -0.1099355,
                0.0419343
              ],
              [
                -0.1469013,
                0.057806
              ],
              [
                -0.1293864,
                0.029147
              ],
              [
                -0.1624442,
                0.0451542
              ],
              [
                -0.1439761,
                0.0159611
              ],
              [
                -0.1791415,
                0.0268113
              ],
              [
                -0.1582835,
                -0.0016271
              ],
              [
                -0.1603025,
                -0.005304
              ],
              [
                -0.1969606,
                -0.0042024
              ],
              [
                -0.1679574,
                -0.0200958
              ],
              [
                -0.2051715,
                -0.0282848
              ],
              [
                -0.1737877,
                -0.0391453
              ],
              [
                -0.208996,
                -0.0530582
              ],
              [
                -0.1759438,
                -0.0586181
              ]
            ],
            "bounds_normalized": {
              "dimensions": [
                0.410678288,
                0.329269005
              ],
              "max": [
                0.200907854,
                0.100370296
              ],
              "min": [
                -0.209770435,
                -0.228898709
              ]
            },
            "centroid_normalized": [
              0.000948179,
              -0.064715351
            ],
            "fraction": 0.5,
            "mask": {
              "encoding": "rows_top_to_bottom_1bit_text",
              "occupied_bbox_pixels": [
                10,
                9,
                21,
                18
              ],
              "occupied_fraction": 0.063476562,
              "occupied_pixel_count": 65,
              "origin": "bottom_left",
              "resolution": [
                32,
                32
              ],
              "rows": [
                "00000000000000000000000000000000",
                "00000000000000000000000000000000",
                "00000000000000000000000000000000",
                "00000000000000000000000000000000",
                "00000000000000000000000000000000",
                "00000000000000000000000000000000",
                "00000000000000000000000000000000",
                "00000000000000000000000000000000",
                "00000000000000000000000000000000",
                "00000000000000000000000000000000",
                "00000000000000000000000000000000",
                "00000000000000000000000000000000",
                "00000000000000000000000000000000",
                "00000000000011111110000000000000",
                "00000000000111111111100000000000",
                "00000000001110000011100000000000",
                "00000000001100000001110000000000",
                "00000000001100000000110000000000",
                "00000000001100000000110000000000",
                "00000000001110000000110000000000",
                "00000000001111000011110000000000",
                "00000000000111111111100000000000",
                "00000000000001111110000000000000",
                "00000000000000000000000000000000",
                "00000000000000000000000000000000",
                "00000000000000000000000000000000",
                "00000000000000000000000000000000",
                "00000000000000000000000000000000",
                "00000000000000000000000000000000",
                "00000000000000000000000000000000",
                "00000000000000000000000000000000",
                "00000000000000000000000000000000"
              ]
            },
            "plane_coordinate_native": -0.000263956,
            "segment_count": 184
          },
          {
            "boundary_samples_normalized": [
              [
                -0.2120372,
                -6.14e-05
              ],
              [
                -0.1767001,
                -0.0099644
              ],
              [
                -0.2086014,
                -0.0268121
              ],
              [
                -0.208497,
                -0.0273152
              ],
              [
                -0.1684936,
                -0.041362
              ],
              [
                -0.2009836,
                -0.0527648
              ],
              [
                -0.1585592,
                -0.0617221
              ],
              [
                -0.1846396,
                -0.086425
              ],
              [
                -0.145551,
                -0.0811822
              ],
              [
                -0.1720933,
                -0.1049072
              ],
              [
                -0.1600232,
                -0.1196266
              ],
              [
                -0.1231729,
                -0.1044777
              ],
              [
                -0.1412561,
                -0.1373059
              ],
              [
                -0.1073567,
                -0.1166771
              ],
              [
                -0.1203577,
                -0.1525419
              ],
              [
                -0.1068835,
                -0.1600688
              ],
              [
                -0.0975497,
                -0.1651033
              ],
              [
                -0.0672883,
                -0.1371663
              ],
              [
                -0.0540003,
                -0.1411656
              ],
              [
                -0.0432978,
                -0.1442609
              ],
              [
                -0.0473382,
                -0.1818776
              ],
              [
                -0.0257613,
                -0.1472228
              ],
              [
                -0.0206386,
                -0.1859765
              ],
              [
                0.0027217,
                -0.14923
              ],
              [
                0.0069034,
                -0.1493472
              ],
              [
                0.0336506,
                -0.1847934
              ],
              [
                0.032074,
                -0.1470289
              ],
              [
                0.0601165,
                -0.1793371
              ],
              [
                0.0564422,
                -0.1412615
              ],
              [
                0.0815694,
                -0.1719983
              ],
              [
                0.0792555,
                -0.1321066
              ],
              [
                0.1063882,
                -0.1600986
              ],
              [
                0.0998024,
                -0.120038
              ],
              [
                0.1280435,
                -0.1455746
              ],
              [
                0.1174998,
                -0.1058453
              ],
              [
                0.146325,
                -0.1292194
              ],
              [
                0.1612412,
                -0.1117663
              ],
              [
                0.1320397,
                -0.0902713
              ],
              [
                0.1641398,
                -0.1080505
              ],
              [
                0.1729758,
                -0.0937284
              ],
              [
                0.1434067,
                -0.0734971
              ],
              [
                0.1818591,
                -0.0754306
              ],
              [
                0.1520143,
                -0.0557548
              ],
              [
                0.1883158,
                -0.0570839
              ],
              [
                0.1579128,
                -0.0371728
              ],
              [
                0.1927847,
                -0.0388855
              ],
              [
                0.1933567,
                -0.0337863
              ],
              [
                0.1946348,
                -0.0204934
              ],
              [
                0.195221,
                -0.0152487
              ],
              [
                0.1946677,
                -0.0002299
              ],
              [
                0.1605576,
                0.007729
              ],
              [
                0.1920251,
                0.0229334
              ],
              [
                0.1893391,
                0.0380149
              ],
              [
                0.1528962,
                0.0430356
              ],
              [
                0.1826975,
                0.0593668
              ],
              [
                0.1796071,
                0.0677072
              ],
              [
                0.1695397,
                0.0904229
              ],
              [
                0.1332039,
                0.0833335
              ],
              [
                0.1608006,
                0.1052246
              ],
              [
                0.155069,
                0.1152518
              ],
              [
                0.112063,
                0.1098157
              ],
              [
                0.1379316,
                0.1385011
              ],
              [
                0.1262426,
                0.1511303
              ],
              [
                0.0960264,
                0.1247606
              ],
              [
                0.1143339,
                0.1633632
              ],
              [
                0.1076043,
                0.1692375
              ],
              [
                0.1013887,
                0.1747976
              ],
              [
                0.0721294,
                0.1414543
              ],
              [
                0.0618049,
                0.1476318
              ],
              [
                0.0706603,
                0.1968295
              ],
              [
                0.0522434,
                0.2077803
              ],
              [
                0.0382086,
                0.1572321
              ],
              [
                0.0155715,
                0.1638807
              ],
              [
                -0.0082939,
                0.1674569
              ],
              [
                -0.0318816,
                0.1667229
              ],
              [
                -0.0547699,
                0.1611535
              ],
              [
                -0.0768484,
                0.1511804
              ],
              [
                -0.1124558,
                0.1845065
              ],
              [
                -0.1219786,
                0.1752262
              ],
              [
                -0.1270119,
                0.1710185
              ],
              [
                -0.1344241,
                0.1623282
              ],
              [
                -0.1180882,
                0.1211228
              ],
              [
                -0.1203969,
                0.118501
              ],
              [
                -0.1272241,
                0.1117747
              ],
              [
                -0.1632252,
                0.1298677
              ],
              [
                -0.1365278,
                0.1029372
              ],
              [
                -0.1454762,
                0.0916998
              ],
              [
                -0.1802561,
                0.1056787
              ],
              [
                -0.1524747,
                0.0837098
              ],
              [
                -0.1943509,
                0.0812623
              ],
              [
                -0.1649831,
                0.0636188
              ],
              [
                -0.200202,
                0.0667713
              ],
              [
                -0.1733923,
                0.0432529
              ],
              [
                -0.1772858,
                0.0251644
              ],
              [
                -0.1779053,
                0.0221711
              ],
              [
                -0.1780206,
                0.0183404
              ]
            ],
            "bounds_normalized": {
              "dimensions": [
                0.407258293,
                0.40419193
              ],
              "max": [
                0.195221045,
                0.217203031
              ],
              "min": [
                -0.212037249,
                -0.1869889
              ]
            },
            "centroid_normalized": [
              -0.000953559,
              -0.000823961
            ],
            "fraction": 0.75,
            "mask": {
              "encoding": "rows_top_to_bottom_1bit_text",
              "occupied_bbox_pixels": [
                10,
                10,
                21,
                22
              ],
              "occupied_fraction": 0.065429688,
              "occupied_pixel_count": 67,
              "origin": "bottom_left",
              "resolution": [
                32,
                32
              ],
              "rows": [
                "00000000000000000000000000000000",
                "00000000000000000000000000000000",
                "00000000000000000000000000000000",
                "00000000000000000000000000000000",
                "00000000000000000000000000000000",
                "00000000000000000000000000000000",
                "00000000000000000000000000000000",
                "00000000000000000000000000000000",
                "00000000000000000000000000000000",
                "00000000000000001000000000000000",
                "00000000000010000110000000000000",
                "00000000000111111111000000000000",
                "00000000000111000011100000000000",
                "00000000001110000001100000000000",
                "00000000001100000001110000000000",
                "00000000001100000000110000000000",
                "00000000001100000000110000000000",
                "00000000001100000000110000000000",
                "00000000001110000001110000000000",
                "00000000000111100111100000000000",
                "00000000000011111111000000000000",
                "00000000000000111100000000000000",
                "00000000000000000000000000000000",
                "00000000000000000000000000000000",
                "00000000000000000000000000000000",
                "00000000000000000000000000000000",
                "00000000000000000000000000000000",
                "00000000000000000000000000000000",
                "00000000000000000000000000000000",
                "00000000000000000000000000000000",
                "00000000000000000000000000000000",
                "00000000000000000000000000000000"
              ]
            },
            "plane_coordinate_native": 0.016878487,
            "segment_count": 186
          },
          {
            "boundary_samples_normalized": [
              [
                -0.1480431,
                -0.027661
              ],
              [
                -0.092763,
                -0.027009
              ],
              [
                -0.1373117,
                -0.0403972
              ],
              [
                -0.0839098,
                -0.0332491
              ],
              [
                -0.1311536,
                -0.0477407
              ],
              [
                -0.0747866,
                -0.0397801
              ],
              [
                -0.120139,
                -0.0578691
              ],
              [
                -0.1121268,
                -0.0648103
              ],
              [
                -0.0591137,
                -0.0475376
              ],
              [
                -0.1082932,
                -0.0672788
              ],
              [
                -0.0554482,
                -0.0494113
              ],
              [
                -0.0911125,
                -0.0785645
              ],
              [
                -0.0366555,
                -0.0552722
              ],
              [
                -0.0797901,
                -0.0837936
              ],
              [
                -0.0351392,
                -0.0557246
              ],
              [
                -0.0348431,
                -0.055769
              ],
              [
                -0.0685353,
                -0.0891339
              ],
              [
                -0.0513674,
                -0.0943457
              ],
              [
                -0.0141965,
                -0.05873
              ],
              [
                -0.0447878,
                -0.0964042
              ],
              [
                -0.0107573,
                -0.058774
              ],
              [
                -0.0231823,
                -0.0998937
              ],
              [
                -0.0202948,
                -0.100366
              ],
              [
                0.0069249,
                -0.0587044
              ],
              [
                0.0127135,
                -0.0579262
              ],
              [
                0.0036939,
                -0.1010615
              ],
              [
                0.0045285,
                -0.1010828
              ],
              [
                0.0046331,
                -0.1010732
              ],
              [
                0.0292719,
                -0.0984051
              ],
              [
                0.0319093,
                -0.0977782
              ],
              [
                0.0278942,
                -0.0554222
              ],
              [
                0.0350277,
                -0.0532116
              ],
              [
                0.0533812,
                -0.0921226
              ],
              [
                0.0574605,
                -0.0904308
              ],
              [
                0.0482789,
                -0.0484807
              ],
              [
                0.0762744,
                -0.0818734
              ],
              [
                0.0803518,
                -0.0792819
              ],
              [
                0.0553942,
                -0.0446613
              ],
              [
                0.0972628,
                -0.0675358
              ],
              [
                0.0999902,
                -0.0650402
              ],
              [
                0.0674084,
                -0.0373871
              ],
              [
                0.1157765,
                -0.0492758
              ],
              [
                0.116305,
                -0.0486166
              ],
              [
                0.0730476,
                -0.0326922
              ],
              [
                0.1187509,
                -0.0453048
              ],
              [
                0.12953,
                -0.0307122
              ],
              [
                0.1316508,
                -0.0275936
              ],
              [
                0.0845788,
                -0.0220194
              ],
              [
                0.0877728,
                -0.0182638
              ],
              [
                0.1402625,
                -0.012392
              ],
              [
                0.14496,
                -0.0035128
              ],
              [
                0.1490821,
                0.0059138
              ],
              [
                0.0993439,
                -0.0033323
              ],
              [
                0.0999034,
                -0.002452
              ],
              [
                0.1019533,
                0.0010295
              ],
              [
                0.1558138,
                0.0221501
              ],
              [
                0.1564288,
                0.0240434
              ],
              [
                0.1576205,
                0.0278544
              ],
              [
                0.1096715,
                0.0140846
              ],
              [
                0.1115866,
                0.0175793
              ],
              [
                0.1620625,
                0.0421036
              ],
              [
                0.1641715,
                0.0492488
              ],
              [
                0.1175752,
                0.0305832
              ],
              [
                0.1215002,
                0.0396401
              ],
              [
                0.1240901,
                0.046947
              ],
              [
                0.1695562,
                0.0769993
              ],
              [
                0.1696564,
                0.0775467
              ],
              [
                0.1697536,
                0.0789107
              ],
              [
                0.1292061,
                0.0621509
              ],
              [
                0.1299415,
                0.0652638
              ],
              [
                0.1718267,
                0.1077934
              ],
              [
                0.1714539,
                0.117386
              ],
              [
                0.1344703,
                0.0853398
              ],
              [
                0.1367433,
                0.1059638
              ],
              [
                0.1371009,
                0.1091655
              ],
              [
                0.1370914,
                0.1117077
              ],
              [
                -0.1372788,
                0.0312761
              ],
              [
                -0.1354717,
                0.0271917
              ],
              [
                -0.1330856,
                0.0231476
              ],
              [
                -0.177772,
                0.0295885
              ],
              [
                -0.1747258,
                0.0204389
              ],
              [
                -0.1232836,
                0.0069327
              ],
              [
                -0.1675957,
                0.0053522
              ],
              [
                -0.1627048,
                -0.0049576
              ],
              [
                -0.1093838,
                -0.0110999
              ],
              [
                -0.1090972,
                -0.011455
              ],
              [
                -0.1088977,
                -0.0116451
              ],
              [
                -0.1584634,
                -0.0117728
              ]
            ],
            "bounds_normalized": {
              "dimensions": [
                0.349598665,
                0.218468792
              ],
              "max": [
                0.171826714,
                0.117385981
              ],
              "min": [
                -0.177771951,
                -0.101082811
              ]
            },
            "centroid_normalized": [
              0.024353259,
              -0.020810916
            ],
            "fraction": 0.9,
            "mask": {
              "encoding": "rows_top_to_bottom_1bit_text",
              "occupied_bbox_pixels": [
                10,
                13,
                20,
                19
              ],
              "occupied_fraction": 0.03125,
              "occupied_pixel_count": 32,
              "origin": "bottom_left",
              "resolution": [
                32,
                32
              ],
              "rows": [
                "00000000000000000000000000000000",
                "00000000000000000000000000000000",
                "00000000000000000000000000000000",
                "00000000000000000000000000000000",
                "00000000000000000000000000000000",
                "00000000000000000000000000000000",
                "00000000000000000000000000000000",
                "00000000000000000000000000000000",
                "00000000000000000000000000000000",
                "00000000000000000000000000000000",
                "00000000000000000000000000000000",
                "00000000000000000000000000000000",
                "00000000000000000001100000000000",
                "00000000000000000001100000000000",
                "00000000000000000001100000000000",
                "00000000001110000011100000000000",
                "00000000000111000011100000000000",
                "00000000000011111111000000000000",
                "00000000000001111110000000000000",
                "00000000000000000000000000000000",
                "00000000000000000000000000000000",
                "00000000000000000000000000000000",
                "00000000000000000000000000000000",
                "00000000000000000000000000000000",
                "00000000000000000000000000000000",
                "00000000000000000000000000000000",
                "00000000000000000000000000000000",
                "00000000000000000000000000000000",
                "00000000000000000000000000000000",
                "00000000000000000000000000000000",
                "00000000000000000000000000000000",
                "00000000000000000000000000000000"
              ]
            },
            "plane_coordinate_native": 0.027163952,
            "segment_count": 86
          }
        ]
      },
      "pca_axis_1": {
        "axis": 1,
        "in_plane_axes": [
          0,
          2
        ],
        "slices": [
          {
            "boundary_samples_normalized": [
              [
                -0.2547334,
                -0.0242091
              ],
              [
                -0.2477543,
                -0.0332401
              ],
              [
                -0.2432331,
                -0.0387358
              ],
              [
                -0.0497649,
                -0.0324052
              ],
              [
                -0.0369135,
                -0.0311769
              ],
              [
                -0.002183,
                -0.0276181
              ],
              [
                0.00959,
                -0.0265121
              ],
              [
                0.0332961,
                -0.0234729
              ],
              [
                -0.2241465,
                -0.0632276
              ],
              [
                -0.2236682,
                -0.0636795
              ],
              [
                -0.0728413,
                -0.0424195
              ],
              [
                -0.2081903,
                -0.0775961
              ],
              [
                -0.1918633,
                -0.0912124
              ],
              [
                -0.0749027,
                -0.0656955
              ],
              [
                -0.070916,
                -0.0684064
              ],
              [
                -0.063892,
                -0.0717806
              ],
              [
                -0.1482383,
                -0.1190453
              ],
              [
                -0.1186035,
                -0.1318253
              ],
              [
                -0.0402779,
                -0.0830265
              ],
              [
                -0.0871761,
                -0.1423151
              ],
              [
                -0.0625608,
                -0.1485196
              ],
              [
                -0.0074218,
                -0.0932775
              ],
              [
                -0.0540916,
                -0.1503594
              ],
              [
                -0.0195276,
                -0.1556673
              ],
              [
                0.0267956,
                -0.0971455
              ],
              [
                0.0160417,
                -0.1588707
              ],
              [
                0.0548485,
                -0.0974898
              ],
              [
                0.0523223,
                -0.159544
              ],
              [
                0.0736601,
                -0.1581918
              ],
              [
                0.1089722,
                -0.1542072
              ],
              [
                0.0952424,
                -0.0943964
              ],
              [
                0.1445927,
                -0.1470429
              ],
              [
                0.123017,
                -0.0889345
              ],
              [
                0.1798419,
                -0.1367559
              ],
              [
                0.2141718,
                -0.1237329
              ],
              [
                0.157229,
                -0.0794009
              ],
              [
                0.1605472,
                -0.0783687
              ],
              [
                0.2594372,
                -0.1023362
              ],
              [
                0.1915695,
                -0.0666762
              ],
              [
                0.2002463,
                -0.0627004
              ],
              [
                0.2211851,
                -0.0524858
              ],
              [
                0.2240583,
                -0.050938
              ],
              [
                0.3427419,
                -0.0474781
              ],
              [
                0.2491461,
                -0.0361255
              ],
              [
                0.346965,
                -0.0438971
              ],
              [
                0.3670646,
                -0.0252658
              ],
              [
                0.2748407,
                -0.0178243
              ],
              [
                0.2932864,
                -0.0017491
              ],
              [
                0.4026814,
                0.0143243
              ],
              [
                0.4096535,
                0.0225964
              ],
              [
                0.0822341,
                -0.0145752
              ],
              [
                0.0837422,
                -0.0141759
              ],
              [
                0.1089106,
                -0.0078636
              ],
              [
                0.1134496,
                -0.0063254
              ],
              [
                0.1425081,
                0.0037729
              ],
              [
                0.160148,
                0.0107589
              ],
              [
                0.1705252,
                0.0153962
              ],
              [
                0.3177198,
                0.0628615
              ],
              [
                0.1849131,
                0.0217427
              ],
              [
                0.3008119,
                0.0645329
              ],
              [
                0.2211616,
                0.0383548
              ],
              [
                0.2434341,
                0.0480557
              ],
              [
                0.2854787,
                0.0638608
              ],
              [
                0.2836225,
                0.0632754
              ],
              [
                0.2641212,
                0.0563661
              ],
              [
                0.2810354,
                0.1412792
              ],
              [
                0.2516592,
                0.1203464
              ],
              [
                0.2312082,
                0.1076853
              ],
              [
                0.2107086,
                0.0963128
              ],
              [
                0.1903324,
                0.0860237
              ],
              [
                0.185677,
                0.0837501
              ],
              [
                0.1658698,
                0.0747305
              ],
              [
                0.1456376,
                0.0663204
              ],
              [
                0.1249414,
                0.0586732
              ],
              [
                0.1037666,
                0.0520063
              ],
              [
                0.0821363,
                0.046496
              ],
              [
                0.0600979,
                0.0422475
              ],
              [
                0.0377227,
                0.039215
              ],
              [
                0.0150576,
                0.0372463
              ],
              [
                0.0031376,
                0.0365912
              ],
              [
                -0.0182516,
                0.0357567
              ],
              [
                -0.03946,
                0.0353706
              ],
              [
                -0.0604445,
                0.0353443
              ],
              [
                -0.0811941,
                0.0356437
              ],
              [
                -0.1014142,
                0.0359296
              ],
              [
                -0.1208566,
                0.0357779
              ],
              [
                -0.1402454,
                0.0359693
              ],
              [
                -0.1595663,
                0.0364587
              ],
              [
                -0.1720369,
                0.0370002
              ],
              [
                -0.1820468,
                0.0361011
              ],
              [
                -0.2109508,
                0.0343259
              ],
              [
                -0.2204335,
                0.0341458
              ],
              [
                -0.2434248,
                0.0267028
              ],
              [
                -0.2517062,
                0.0246599
              ],
              [
                -0.264555,
                0.0058711
              ],
              [
                -0.2596845,
                -0.0083196
              ]
            ],
            "bounds_normalized": {
              "dimensions": [
                0.674208499,
                0.30082322
              ],
              "max": [
                0.409653466,
                0.141279249
              ],
              "min": [
                -0.264555032,
                -0.15954397
              ]
            },
            "centroid_normalized": [
              0.057721672,
              -0.020257949
            ],
            "fraction": 0.1,
            "mask": {
              "encoding": "rows_top_to_bottom_1bit_text",
              "occupied_bbox_pixels": [
                8,
                11,
                27,
                19
              ],
              "occupied_fraction": 0.094726562,
              "occupied_pixel_count": 97,
              "origin": "bottom_left",
              "resolution": [
                32,
                32
              ],
              "rows": [
                "00000000000000000000000000000000",
                "00000000000000000000000000000000",
                "00000000000000000000000000000000",
                "00000000000000000000000000000000",
                "00000000000000000000000000000000",
                "00000000000000000000000000000000",
                "00000000000000000000000000000000",
                "00000000000000000000000000000000",
                "00000000000000000000000000000000",
                "00000000000000000000000000000000",
                "00000000000000000000000000000000",
                "00000000000000000000000000000000",
                "00000000000000000000001100000000",
                "00000000000000000000111000000000",
                "00000000001111011111101111000000",
                "00000000111110111111110010010000",
                "00000000111111111111000111100000",
                "00000000011111100000011111000000",
                "00000000011111111111111110000000",
                "00000000000111111111111000000000",
                "00000000000001111111100000000000",
                "00000000000000000000000000000000",
                "00000000000000000000000000000000",
                "00000000000000000000000000000000",
                "00000000000000000000000000000000",
                "00000000000000000000000000000000",
                "00000000000000000000000000000000",
                "00000000000000000000000000000000",
                "00000000000000000000000000000000",
                "00000000000000000000000000000000",
                "00000000000000000000000000000000",
                "00000000000000000000000000000000"
              ]
            },
            "plane_coordinate_native": -0.011825048,
            "segment_count": 180
          },
          {
            "boundary_samples_normalized": [
              [
                -0.3604054,
                -0.013029
              ],
              [
                -0.4711462,
                -0.0284056
              ],
              [
                -0.3333692,
                -0.0263986
              ],
              [
                -0.3145213,
                -0.0375077
              ],
              [
                -0.307739,
                -0.0413071
              ],
              [
                -0.2926811,
                -0.0513843
              ],
              [
                -0.351926,
                -0.0779591
              ],
              [
                -0.3422813,
                -0.0830952
              ],
              [
                -0.317288,
                -0.0980028
              ],
              [
                -0.2924131,
                -0.113864
              ],
              [
                -0.2321436,
                -0.0933947
              ],
              [
                -0.266911,
                -0.1300443
              ],
              [
                -0.2055508,
                -0.1094046
              ],
              [
                -0.2418389,
                -0.1446495
              ],
              [
                -0.2188568,
                -0.156124
              ],
              [
                -0.165089,
                -0.129192
              ],
              [
                -0.1809743,
                -0.1716429
              ],
              [
                -0.1687768,
                -0.1758156
              ],
              [
                -0.1417237,
                -0.1837476
              ],
              [
                -0.11128,
                -0.1474269
              ],
              [
                -0.1025676,
                -0.1924007
              ],
              [
                -0.0839185,
                -0.1955754
              ],
              [
                -0.0516836,
                -0.15877
              ],
              [
                -0.0398228,
                -0.1603506
              ],
              [
                -0.0087606,
                -0.2031971
              ],
              [
                0.0127842,
                -0.2040548
              ],
              [
                0.047364,
                -0.2042459
              ],
              [
                0.0557434,
                -0.1650768
              ],
              [
                0.0732423,
                -0.164572
              ],
              [
                0.0947057,
                -0.1625427
              ],
              [
                0.1560036,
                -0.1916114
              ],
              [
                0.1786719,
                -0.1862587
              ],
              [
                0.1734513,
                -0.1470106
              ],
              [
                0.2285169,
                -0.1690557
              ],
              [
                0.2117154,
                -0.1339273
              ],
              [
                0.2837238,
                -0.1439297
              ],
              [
                0.2559525,
                -0.1144563
              ],
              [
                0.3310278,
                -0.116688
              ],
              [
                0.3470676,
                -0.1067325
              ],
              [
                0.3190723,
                -0.0783038
              ],
              [
                0.3770985,
                -0.0860552
              ],
              [
                0.4060388,
                -0.0639054
              ],
              [
                0.4336408,
                -0.0402858
              ],
              [
                0.4409182,
                -0.0334391
              ],
              [
                0.4016953,
                -0.0124406
              ],
              [
                0.1645469,
                0.0767226
              ],
              [
                0.1434921,
                0.0679888
              ],
              [
                0.133248,
                0.0643761
              ],
              [
                0.2051373,
                0.0978819
              ],
              [
                0.1122547,
                0.0578178
              ],
              [
                0.2333545,
                0.1167103
              ],
              [
                0.2517377,
                0.1315686
              ],
              [
                0.2693156,
                0.1478953
              ],
              [
                0.0693878,
                0.048636
              ],
              [
                0.1897646,
                0.1335783
              ],
              [
                0.1714662,
                0.1221785
              ],
              [
                0.155986,
                0.1139154
              ],
              [
                0.2202464,
                0.1578652
              ],
              [
                0.0476346,
                0.0459438
              ],
              [
                0.2339407,
                0.1717317
              ],
              [
                0.1203257,
                0.0988361
              ],
              [
                0.1180791,
                0.0980104
              ],
              [
                0.0314207,
                0.0445422
              ],
              [
                0.0258084,
                0.0443286
              ],
              [
                0.0610917,
                0.0846829
              ],
              [
                0.0080386,
                0.0436199
              ],
              [
                0.0217564,
                0.0815841
              ],
              [
                0.0018569,
                0.0812507
              ],
              [
                -0.0109915,
                0.081422
              ],
              [
                -0.0350995,
                0.0440674
              ],
              [
                -0.0388691,
                0.0440979
              ],
              [
                -0.05874,
                0.0835924
              ],
              [
                -0.0594704,
                0.0448532
              ],
              [
                -0.063524,
                0.0450405
              ],
              [
                -0.1209131,
                0.092311
              ],
              [
                -0.1374229,
                0.0960269
              ],
              [
                -0.1413531,
                0.0968272
              ],
              [
                -0.1633797,
                0.102349
              ],
              [
                -0.1847303,
                0.1089863
              ],
              [
                -0.2058477,
                0.1170272
              ],
              [
                -0.2265041,
                0.1265375
              ],
              [
                -0.2461682,
                0.1370552
              ],
              [
                -0.2623274,
                0.1460993
              ],
              [
                -0.2784464,
                0.1553788
              ],
              [
                -0.3058518,
                0.170857
              ],
              [
                -0.3260987,
                0.1816879
              ],
              [
                -0.1446827,
                0.0551639
              ],
              [
                -0.1767967,
                0.0612946
              ],
              [
                -0.1953411,
                0.0658937
              ],
              [
                -0.2152805,
                0.0714222
              ],
              [
                -0.2664654,
                0.0886672
              ],
              [
                -0.2691947,
                0.0895443
              ],
              [
                -0.31857,
                0.1087379
              ],
              [
                -0.3712234,
                0.127224
              ],
              [
                -0.4507094,
                0.022606
              ],
              [
                -0.4115716,
                0.008074
              ]
            ],
            "bounds_normalized": {
              "dimensions": [
                0.949773611,
                0.392122836
              ],
              "max": [
                0.459656623,
                0.187626971
              ],
              "min": [
                -0.490116987,
                -0.204495865
              ]
            },
            "centroid_normalized": [
              -0.032236009,
              -0.008327332
            ],
            "fraction": 0.25,
            "mask": {
              "encoding": "rows_top_to_bottom_1bit_text",
              "occupied_bbox_pixels": [
                2,
                10,
                28,
                21
              ],
              "occupied_fraction": 0.1484375,
              "occupied_pixel_count": 152,
              "origin": "bottom_left",
              "resolution": [
                32,
                32
              ],
              "rows": [
                "00000000000000000000000000000000",
                "00000000000000000000000000000000",
                "00000000000000000000000000000000",
                "00000000000000000000000000000000",
                "00000000000000000000000000000000",
                "00000000000000000000000000000000",
                "00000000000000000000000000000000",
                "00000000000000000000000000000000",
                "00000000000000000000000000000000",
                "00000000000000000000000000000000",
                "00000010000000000000001000000000",
                "00000001111111111111111100000000",
                "00000111111111111111111100000000",
                "00000001111111111111111000000000",
                "00000000011111111111100000000000",
                "00011000000000000000000000001000",
                "00111111111111111111111111111000",
                "00011111100000000000000001111000",
                "00000111111000000000000011100000",
                "00000001111110000000011111000000",
                "00000000011111111111111100000000",
                "00000000000111111111110000000000",
                "00000000000000000000000000000000",
                "00000000000000000000000000000000",
                "00000000000000000000000000000000",
                "00000000000000000000000000000000",
                "00000000000000000000000000000000",
                "00000000000000000000000000000000",
                "00000000000000000000000000000000",
                "00000000000000000000000000000000",
                "00000000000000000000000000000000",
                "00000000000000000000000000000000"
              ]
            },
            "plane_coordinate_native": -0.007444912,
            "segment_count": 252
          },
          {
            "boundary_samples_normalized": [
              [
                -0.4688463,
                -0.033254
              ],
              [
                -0.4429615,
                -0.0466309
              ],
              [
                -0.4803495,
                -0.0688719
              ],
              [
                -0.467353,
                -0.0758594
              ],
              [
                -0.3902913,
                -0.0762397
              ],
              [
                -0.4306601,
                -0.0959364
              ],
              [
                -0.3638135,
                -0.0928282
              ],
              [
                -0.391817,
                -0.1196458
              ],
              [
                -0.3753779,
                -0.1302809
              ],
              [
                -0.3152875,
                -0.1229426
              ],
              [
                -0.3383556,
                -0.1532636
              ],
              [
                -0.31422,
                -0.1668826
              ],
              [
                -0.2552113,
                -0.1531871
              ],
              [
                -0.276509,
                -0.1854293
              ],
              [
                -0.2220165,
                -0.165534
              ],
              [
                -0.2419327,
                -0.1986005
              ],
              [
                -0.1870195,
                -0.1754315
              ],
              [
                -0.1662823,
                -0.1801937
              ],
              [
                -0.1756497,
                -0.2151684
              ],
              [
                -0.1408146,
                -0.2205672
              ],
              [
                -0.1060349,
                -0.2242349
              ],
              [
                -0.094034,
                -0.2252772
              ],
              [
                -0.0541197,
                -0.1922732
              ],
              [
                -0.0423595,
                -0.1927609
              ],
              [
                -0.0177102,
                -0.1935182
              ],
              [
                -0.0026826,
                -0.2286305
              ],
              [
                0.0319313,
                -0.2284449
              ],
              [
                0.0507867,
                -0.2280513
              ],
              [
                0.0671907,
                -0.1924375
              ],
              [
                0.094017,
                -0.1905567
              ],
              [
                0.1050595,
                -0.1891857
              ],
              [
                0.1619185,
                -0.2150916
              ],
              [
                0.1735484,
                -0.212141
              ],
              [
                0.2088944,
                -0.2021566
              ],
              [
                0.2349225,
                -0.1931926
              ],
              [
                0.2178858,
                -0.1623399
              ],
              [
                0.2772994,
                -0.174502
              ],
              [
                0.3034057,
                -0.1612073
              ],
              [
                0.2781708,
                -0.1354967
              ],
              [
                0.3418582,
                -0.1387756
              ],
              [
                0.3676259,
                -0.1225262
              ],
              [
                0.342773,
                -0.09744
              ],
              [
                0.405705,
                -0.0970088
              ],
              [
                0.4321994,
                -0.0785025
              ],
              [
                0.406751,
                -0.0540155
              ],
              [
                0.4193987,
                -0.0449278
              ],
              [
                0.4974443,
                -0.0298398
              ],
              [
                0.4719673,
                -0.0056329
              ],
              [
                0.1858808,
                0.1077732
              ],
              [
                0.1478495,
                0.0867703
              ],
              [
                0.2062907,
                0.1227295
              ],
              [
                0.2242472,
                0.1385517
              ],
              [
                0.1276646,
                0.0787226
              ],
              [
                0.2517801,
                0.1682637
              ],
              [
                0.1076916,
                0.0725976
              ],
              [
                0.272596,
                0.1946178
              ],
              [
                0.0855988,
                0.067694
              ],
              [
                0.1901491,
                0.1541079
              ],
              [
                0.2043328,
                0.1678052
              ],
              [
                0.2092258,
                0.1731866
              ],
              [
                0.2215685,
                0.1875604
              ],
              [
                0.230277,
                0.1986312
              ],
              [
                0.2421247,
                0.2152559
              ],
              [
                0.1181495,
                0.1114508
              ],
              [
                0.1076592,
                0.1078906
              ],
              [
                0.0896877,
                0.1032769
              ],
              [
                0.0715086,
                0.100124
              ],
              [
                0.0657694,
                0.0994638
              ],
              [
                0.0258573,
                0.0630002
              ],
              [
                0.0304235,
                0.0977296
              ],
              [
                0.0056436,
                0.0636814
              ],
              [
                -0.0017993,
                0.0993771
              ],
              [
                -0.0143839,
                0.0653116
              ],
              [
                -0.0213243,
                0.0659556
              ],
              [
                -0.0396294,
                0.1048299
              ],
              [
                -0.0568764,
                0.108492
              ],
              [
                -0.0658668,
                0.1108272
              ],
              [
                -0.0537388,
                0.0712354
              ],
              [
                -0.0638001,
                0.0731373
              ],
              [
                -0.0729971,
                0.075488
              ],
              [
                -0.1276237,
                0.1318181
              ],
              [
                -0.140196,
                0.1379516
              ],
              [
                -0.1556113,
                0.1463534
              ],
              [
                -0.170309,
                0.1556856
              ],
              [
                -0.2465224,
                0.2285167
              ],
              [
                -0.2385177,
                0.2197942
              ],
              [
                -0.191717,
                0.171834
              ],
              [
                -0.2200745,
                0.1991875
              ],
              [
                -0.2060559,
                0.1849035
              ],
              [
                -0.1262374,
                0.092062
              ],
              [
                -0.1462422,
                0.1005789
              ],
              [
                -0.2734343,
                0.1998924
              ],
              [
                -0.2577204,
                0.1831511
              ],
              [
                -0.1705274,
                0.112659
              ],
              [
                -0.2330703,
                0.1593585
              ],
              [
                -0.2180959,
                0.1456594
              ]
            ],
            "bounds_normalized": {
              "dimensions": [
                0.990688213,
                0.457257935
              ],
              "max": [
                0.497444299,
                0.228516715
              ],
              "min": [
                -0.493243914,
                -0.22874122
              ]
            },
            "centroid_normalized": [
              -0.011601593,
              -0.011071682
            ],
            "fraction": 0.5,
            "mask": {
              "encoding": "rows_top_to_bottom_1bit_text",
              "occupied_bbox_pixels": [
                2,
                9,
                30,
                22
              ],
              "occupied_fraction": 0.134765625,
              "occupied_pixel_count": 138,
              "origin": "bottom_left",
              "resolution": [
                32,
                32
              ],
              "rows": [
                "00000000000000000000000000000000",
                "00000000000000000000000000000000",
                "00000000000000000000000000000000",
                "00000000000000000000000000000000",
                "00000000000000000000000000000000",
                "00000000000000000000000000000000",
                "00000000000000000000000000000000",
                "00000000000000000000000000000000",
                "00000000000000000000000000000000",
                "00000000010000000000001000000000",
                "00000000111111111111111100000000",
                "00000000111100000000011100000000",
                "00000000011111100001111000000000",
                "00000000000111111111100000000000",
                "00000000000000111110000000000000",
                "00000000000000000000000000000000",
                "00100000000000000000000000001110",
                "00111111111111111111111111111100",
                "00111110000000000000000001111000",
                "00001111000000000000000111100000",
                "00000111111000000000011111000000",
                "00000001111111111111111100000000",
                "00000000001111111111100000000000",
                "00000000000000000000000000000000",
                "00000000000000000000000000000000",
                "00000000000000000000000000000000",
                "00000000000000000000000000000000",
                "00000000000000000000000000000000",
                "00000000000000000000000000000000",
                "00000000000000000000000000000000",
                "00000000000000000000000000000000",
                "00000000000000000000000000000000"
              ]
            },
            "plane_coordinate_native": -0.000144684,
            "segment_count": 241
          },
          {
            "boundary_samples_normalized": [
              [
                -0.4316248,
                -0.0174644
              ],
              [
                -0.4097268,
                -0.0289042
              ],
              [
                -0.4584231,
                -0.0495353
              ],
              [
                -0.4434309,
                -0.0575734
              ],
              [
                -0.3563169,
                -0.0587188
              ],
              [
                -0.403772,
                -0.080042
              ],
              [
                -0.3335619,
                -0.0716892
              ],
              [
                -0.3102924,
                -0.0847755
              ],
              [
                -0.3681719,
                -0.1013705
              ],
              [
                -0.2840178,
                -0.0988452
              ],
              [
                -0.3390196,
                -0.1187544
              ],
              [
                -0.315194,
                -0.1323044
              ],
              [
                -0.2944292,
                -0.1433443
              ],
              [
                -0.2891516,
                -0.1461005
              ],
              [
                -0.2140415,
                -0.1317386
              ],
              [
                -0.1928136,
                -0.1401001
              ],
              [
                -0.230416,
                -0.1719144
              ],
              [
                -0.1961822,
                -0.1837167
              ],
              [
                -0.1504715,
                -0.1530236
              ],
              [
                -0.16175,
                -0.1927645
              ],
              [
                -0.1324621,
                -0.1985675
              ],
              [
                -0.0876492,
                -0.1662609
              ],
              [
                -0.0631163,
                -0.1689833
              ],
              [
                -0.0526394,
                -0.2077539
              ],
              [
                -0.0199214,
                -0.1723208
              ],
              [
                0.0006902,
                -0.2094218
              ],
              [
                0.0215022,
                -0.1729539
              ],
              [
                0.0605715,
                -0.207844
              ],
              [
                0.0660865,
                -0.1707071
              ],
              [
                0.1126415,
                -0.2018942
              ],
              [
                0.1368576,
                -0.1977328
              ],
              [
                0.1436665,
                -0.1575091
              ],
              [
                0.1835137,
                -0.1857321
              ],
              [
                0.2173383,
                -0.1740187
              ],
              [
                0.2464689,
                -0.161767
              ],
              [
                0.2179669,
                -0.1310488
              ],
              [
                0.2863339,
                -0.1412363
              ],
              [
                0.2528576,
                -0.1132324
              ],
              [
                0.2709532,
                -0.1024519
              ],
              [
                0.3387597,
                -0.1075958
              ],
              [
                0.3654064,
                -0.0875799
              ],
              [
                0.3242107,
                -0.0648667
              ],
              [
                0.402745,
                -0.0561423
              ],
              [
                0.4148052,
                -0.0454664
              ],
              [
                0.3686055,
                -0.0250055
              ],
              [
                0.3728597,
                -0.0205914
              ],
              [
                0.4595385,
                -0.0020544
              ],
              [
                0.4792439,
                0.0187593
              ],
              [
                0.4060829,
                0.0153691
              ],
              [
                0.4293565,
                0.0430551
              ],
              [
                0.4429125,
                0.0609235
              ],
              [
                0.1690968,
                0.0604987
              ],
              [
                0.1268468,
                0.0416649
              ],
              [
                0.202737,
                0.0810417
              ],
              [
                0.1041274,
                0.0343831
              ],
              [
                0.2341875,
                0.1031968
              ],
              [
                0.2624776,
                0.125892
              ],
              [
                0.0811029,
                0.0289237
              ],
              [
                0.0767819,
                0.0280044
              ],
              [
                0.1982824,
                0.1252103
              ],
              [
                0.2026367,
                0.1286326
              ],
              [
                0.2155445,
                0.1388766
              ],
              [
                0.2325551,
                0.1536742
              ],
              [
                0.2390965,
                0.1597466
              ],
              [
                0.1440594,
                0.0916851
              ],
              [
                0.1416925,
                0.0906079
              ],
              [
                0.2822437,
                0.2045814
              ],
              [
                0.0530473,
                0.0246784
              ],
              [
                0.1043166,
                0.07605
              ],
              [
                0.0658433,
                0.0672977
              ],
              [
                0.065281,
                0.0672349
              ],
              [
                0.0463553,
                0.0650316
              ],
              [
                0.025679,
                0.0641939
              ],
              [
                0.0074549,
                0.0648481
              ],
              [
                -0.0118785,
                0.0668579
              ],
              [
                -0.0343045,
                0.0707998
              ],
              [
                -0.0500202,
                0.0747351
              ],
              [
                -0.0687728,
                0.080388
              ],
              [
                -0.0872959,
                0.08704
              ],
              [
                -0.1056107,
                0.0945931
              ],
              [
                -0.1298393,
                0.1059638
              ],
              [
                -0.1416417,
                0.1121704
              ],
              [
                -0.1658937,
                0.1260748
              ],
              [
                -0.262354,
                0.1983298
              ],
              [
                -0.254513,
                0.1919419
              ],
              [
                -0.2068882,
                0.1538556
              ],
              [
                -0.2234447,
                0.1663095
              ],
              [
                -0.0563682,
                0.0337718
              ],
              [
                -0.0877998,
                0.0429473
              ],
              [
                -0.2933855,
                0.1589269
              ],
              [
                -0.0982889,
                0.0468628
              ],
              [
                -0.2544268,
                0.1308127
              ],
              [
                -0.2334169,
                0.1168393
              ],
              [
                -0.2119457,
                0.1033559
              ],
              [
                -0.1327975,
                0.060859
              ],
              [
                -0.1678314,
                0.078232
              ]
            ],
            "bounds_normalized": {
              "dimensions": [
                0.938861597,
                0.414071972
              ],
              "max": [
                0.4804385,
                0.204581395
              ],
              "min": [
                -0.458423097,
                -0.209490577
              ]
            },
            "centroid_normalized": [
              0.009161865,
              -0.014538296
            ],
            "fraction": 0.75,
            "mask": {
              "encoding": "rows_top_to_bottom_1bit_text",
              "occupied_bbox_pixels": [
                3,
                10,
                29,
                21
              ],
              "occupied_fraction": 0.134765625,
              "occupied_pixel_count": 138,
              "origin": "bottom_left",
              "resolution": [
                32,
                32
              ],
              "rows": [
                "00000000000000000000000000000000",
                "00000000000000000000000000000000",
                "00000000000000000000000000000000",
                "00000000000000000000000000000000",
                "00000000000000000000000000000000",
                "00000000000000000000000000000000",
                "00000000000000000000000000000000",
                "00000000000000000000000000000000",
                "00000000000000000000000000000000",
                "00000000000000000000000000000000",
                "00000000110000000000000100000000",
                "00000001111111111111111110000000",
                "00000000111110000000111100000000",
                "00000000011111100011111000000000",
                "00000000000111111111100000011000",
                "00000000000000111110000000010100",
                "00011000000000000000000000111000",
