{
  "bounds": {
    "center": [
      -0.012258954,
      0.621560544,
      -0.08638759
    ],
    "diagonal": 0.083476427,
    "dimensions": [
      0.060201988,
      0.028149426,
      0.050513804
    ],
    "max": [
      0.017842039,
      0.635635257,
      -0.061130688
    ],
    "min": [
      -0.042359948,
      0.607485831,
      -0.111644492
    ]
  },
  "centroids": {
    "surface_area_weighted": [
      -0.011033409,
      0.62309851,
      -0.079094565
    ],
    "vertex_mean": [
      -0.010657391,
      0.623257524,
      -0.080183843
    ],
    "volume_if_watertight": [
      -0.010982851,
      0.622744678,
      -0.077843664
    ]
  },
  "cleaning": {
    "degenerate_faces_removed": 0,
    "unused_vertices_removed": 0,
    "vertices_welded": 4,
    "weld_tolerance": 0.0
  },
  "counts": {
    "analyzed_face_count": 18848,
    "analyzed_vertex_count": 9420,
    "source_face_count": 18848,
    "source_vertex_count": 9424
  },
  "mesh_name": "VH_F_cervical_vertebra_6",
  "pca": {
    "basis": "exact_uniform_surface_moments",
    "eigenvalues": [
      0.000248532,
      0.000134824,
      2.9052e-05
    ],
    "oriented_bounds": {
      "center": [
        -0.001267539,
        -0.006185392,
        -0.000934915
      ],
      "dimensions": [
        0.060337146,
        0.052719837,
        0.022882885
      ],
      "max": [
        0.028901035,
        0.020174527,
        0.010506527
      ],
      "min": [
        -0.031436112,
        -0.03254531,
        -0.012376358
      ]
    },
    "principal_axes_world": [
      [
        0.999178443,
        0.037555373,
        0.015232662
      ],
      [
        -0.003533687,
        -0.293699273,
        0.955891338
      ],
      [
        0.040372677,
        -0.955159846,
        -0.293325273
      ]
    ]
  },
  "sampling": {
    "cross_sections_pca": {
      "pca_axis_0": {
        "axis": 0,
        "in_plane_axes": [
          1,
          2
        ],
        "slices": [
          {
            "boundary_samples_normalized": [
              [
                0.0088751,
                0.0060107
              ],
              [
                0.0197067,
                -0.0123663
              ],
              [
                0.031134,
                -0.0288403
              ],
              [
                0.0445287,
                -0.0440578
              ],
              [
                0.0579204,
                -0.0585081
              ],
              [
                0.0701234,
                -0.0727296
              ],
              [
                0.0816232,
                -0.0864674
              ],
              [
                0.0928464,
                -0.0998952
              ],
              [
                0.0984572,
                -0.1063436
              ],
              [
                0.1041066,
                -0.1127942
              ],
              [
                0.1155932,
                -0.1247304
              ],
              [
                0.1274499,
                -0.1350219
              ],
              [
                0.1506062,
                -0.1485046
              ],
              [
                0.1576672,
                -0.1518694
              ],
              [
                0.1627123,
                -0.1542428
              ],
              [
                0.1744276,
                -0.1586463
              ],
              [
                0.1869452,
                -0.1604004
              ],
              [
                0.2004456,
                -0.1567256
              ],
              [
                0.2058809,
                -0.152571
              ],
              [
                0.2149535,
                -0.1400197
              ],
              [
                0.2187907,
                -0.1261514
              ],
              [
                0.2197975,
                -0.1100441
              ],
              [
                0.2105173,
                -0.0682235
              ],
              [
                0.2081374,
                -0.059809
              ],
              [
                0.2071729,
                -0.0510096
              ],
              [
                0.2082695,
                -0.0315703
              ],
              [
                0.2147763,
                -0.0148496
              ],
              [
                0.2148132,
                -0.0147845
              ],
              [
                0.2273858,
                0.0008474
              ],
              [
                0.2336327,
                0.0076495
              ],
              [
                0.2398244,
                0.0144984
              ],
              [
                0.386395,
                0.0226284
              ],
              [
                0.3898587,
                0.0230894
              ],
              [
                0.3962232,
                0.0253986
              ],
              [
                0.3707831,
                0.026013
              ],
              [
                0.3664761,
                0.0281381
              ],
              [
                0.4018193,
                0.0328752
              ],
              [
                0.4014311,
                0.0375265
              ],
              [
                0.4011238,
                0.0385321
              ],
              [
                0.3982675,
                0.0435757
              ],
              [
                0.3952191,
                0.0460569
              ],
              [
                0.252182,
                0.0264859
              ],
              [
                0.3880234,
                0.0496916
              ],
              [
                0.3807571,
                0.0511754
              ],
              [
                0.3626199,
                0.0484609
              ],
              [
                0.2781377,
                0.0339311
              ],
              [
                0.2940528,
                0.0370527
              ],
              [
                0.2582583,
                0.0306129
              ],
              [
                0.3645843,
                0.0508722
              ],
              [
                0.2666262,
                0.0328722
              ],
              [
                0.3050495,
                0.0423484
              ],
              [
                0.3108613,
                0.0493152
              ],
              [
                0.3136941,
                0.0517109
              ],
              [
                0.3128463,
                0.0635906
              ],
              [
                0.305813,
                0.072732
              ],
              [
                0.2968382,
                0.077991
              ],
              [
                0.2878458,
                0.0808783
              ],
              [
                0.2776671,
                0.0828857
              ],
              [
                0.2685674,
                0.0833574
              ],
              [
                0.2590569,
                0.0826599
              ],
              [
                0.2482142,
                0.0801709
              ],
              [
                0.2311871,
                0.0715854
              ],
              [
                0.2297939,
                0.0705978
              ],
              [
                0.2153039,
                0.058309
              ],
              [
                0.2140009,
                0.0570634
              ],
              [
                0.2049453,
                0.0474584
              ],
              [
                0.1962848,
                0.038388
              ],
              [
                0.1882663,
                0.0308658
              ],
              [
                0.1801829,
                0.0250068
              ],
              [
                0.0353658,
                0.1327201
              ],
              [
                0.0270983,
                0.1389079
              ],
              [
                0.0237133,
                0.140708
              ],
              [
                0.0604898,
                0.1118606
              ],
              [
                0.0680565,
                0.1055108
              ],
              [
                0.0740019,
                0.0991458
              ],
              [
                0.0799292,
                0.093001
              ],
              [
                0.0038879,
                0.144944
              ],
              [
                0.0876916,
                0.0848033
              ],
              [
                -0.0018756,
                0.1408988
              ],
              [
                -0.002711,
                0.1401716
              ],
              [
                0.1025718,
                0.0683119
              ],
              [
                -0.0055901,
                0.132783
              ],
              [
                0.1080051,
                0.0623722
              ],
              [
                0.1121148,
                0.0580721
              ],
              [
                0.1199735,
                0.0504762
              ],
              [
                -0.0084964,
                0.1126328
              ],
              [
                0.1293617,
                0.0430833
              ],
              [
                -0.0096044,
                0.0990178
              ],
              [
                0.1382172,
                0.0363829
              ],
              [
                -0.0098408,
                0.089391
              ],
              [
                0.1714632,
                0.0216271
              ],
              [
                0.1519423,
                0.0271332
              ],
              [
                0.155231,
                0.0253831
              ],
              [
                -0.0088053,
                0.06513
              ],
              [
                -0.0074528,
                0.0573548
              ],
              [
                -0.0035891,
                0.0391519
              ]
            ],
            "bounds_normalized": {
              "dimensions": [
                0.411827394,
                0.306485374
              ],
              "max": [
                0.401882008,
                0.146000857
              ],
              "min": [
                -0.009945386,
                -0.160484516
              ]
            },
            "centroid_normalized": [
              0.184905093,
              0.017017146
            ],
            "fraction": 0.1,
            "mask": {
              "encoding": "rows_top_to_bottom_1bit_text",
              "occupied_bbox_pixels": [
                15,
                11,
                27,
                20
              ],
              "occupied_fraction": 0.056640625,
              "occupied_pixel_count": 58,
              "origin": "bottom_left",
              "resolution": [
                32,
                32
              ],
              "rows": [
                "00000000000000000000000000000000",
                "00000000000000000000000000000000",
                "00000000000000000000000000000000",
                "00000000000000000000000000000000",
                "00000000000000000000000000000000",
                "00000000000000000000000000000000",
                "00000000000000000000000000000000",
                "00000000000000000000000000000000",
                "00000000000000000000000000000000",
                "00000000000000000000000000000000",
                "00000000000000000000000000000000",
                "00000000000000001000000000000000",
                "00000000000000011100000000000000",
                "00000000000000011110001110000000",
                "00000000000000011111011110110000",
                "00000000000000011110111110110000",
                "00000000000000001111111000000000",
                "00000000000000000111110000000000",
                "00000000000000000111101000000000",
                "00000000000000000011111000000000",
                "00000000000000000001110000000000",
                "00000000000000000000000000000000",
                "00000000000000000000000000000000",
                "00000000000000000000000000000000",
                "00000000000000000000000000000000",
                "00000000000000000000000000000000",
                "00000000000000000000000000000000",
                "00000000000000000000000000000000",
                "00000000000000000000000000000000",
                "00000000000000000000000000000000",
                "00000000000000000000000000000000",
                "00000000000000000000000000000000"
              ]
            },
            "plane_coordinate_native": -0.025402397,
            "segment_count": 200
          },
          {
            "boundary_samples_normalized": [
              [
                -0.0341176,
                -0.0174435
              ],
              [
                -0.0216857,
                -0.0324316
              ],
              [
                -0.0084745,
                -0.0469162
              ],
              [
                0.0099812,
                -0.0669992
              ],
              [
                0.0199389,
                -0.0777857
              ],
              [
                0.0306921,
                -0.0895996
              ],
              [
                0.042528,
                -0.1035223
              ],
              [
                0.0557664,
                -0.119949
              ],
              [
                0.0638676,
                -0.1296747
              ],
              [
                0.0729836,
                -0.140282
              ],
              [
                0.0816624,
                -0.1494458
              ],
              [
                0.0911193,
                -0.1582367
              ],
              [
                0.0973803,
                -0.1634092
              ],
              [
                0.1032293,
                -0.1675964
              ],
              [
                0.1117462,
                -0.1723817
              ],
              [
                0.1188443,
                -0.1742246
              ],
              [
                0.1285316,
                -0.1700121
              ],
              [
                0.1325776,
                -0.1645964
              ],
              [
                0.1360756,
                -0.1572052
              ],
              [
                0.1390228,
                -0.1491961
              ],
              [
                0.1429451,
                -0.138078
              ],
              [
                0.1489818,
                -0.1219048
              ],
              [
                0.1585844,
                -0.1045274
              ],
              [
                0.1677344,
                -0.096004
              ],
              [
                0.186953,
                -0.0790008
              ],
              [
                0.1975068,
                -0.0677636
              ],
              [
                0.1992323,
                -0.0660975
              ],
              [
                0.2103356,
                -0.0520854
              ],
              [
                0.3050508,
                -0.0611607
              ],
              [
                0.223824,
                -0.0268393
              ],
              [
                0.2997513,
                -0.04966
              ],
              [
                0.2974573,
                -0.0457332
              ],
              [
                0.3310103,
                -0.0518428
              ],
              [
                0.2953808,
                -0.0376471
              ],
              [
                0.2934604,
                -0.0304756
              ],
              [
                0.341937,
                -0.0269902
              ],
              [
                0.3431356,
                -0.0237848
              ],
              [
                0.2906739,
                -0.0161749
              ],
              [
                0.2905405,
                -0.0146605
              ],
              [
                0.3463688,
                -0.0071206
              ],
              [
                0.3471612,
                -0.0039524
              ],
              [
                0.2877544,
                -0.0022674
              ],
              [
                0.2864113,
                0.004425
              ],
              [
                0.3484484,
                0.0107155
              ],
              [
                0.2852875,
                0.0099316
              ],
              [
                0.3488381,
                0.0229844
              ],
              [
                0.2834593,
                0.0209736
              ],
              [
                0.3475687,
                0.0346514
              ],
              [
                0.2419209,
                0.0189609
              ],
              [
                0.2423503,
                0.0198237
              ],
              [
                0.2821683,
                0.0315499
              ],
              [
                0.3403066,
                0.0556031
              ],
              [
                0.2816045,
                0.04091
              ],
              [
                0.334319,
                0.0635822
              ],
              [
                0.3309893,
                0.0663594
              ],
              [
                0.32763,
                0.0693825
              ],
              [
                0.2840839,
                0.0538035
              ],
              [
                0.3179425,
                0.0762706
              ],
              [
                0.243154,
                0.0392117
              ],
              [
                0.2921316,
                0.0655643
              ],
              [
                0.2983049,
                0.0715755
              ],
              [
                0.3006143,
                0.0736511
              ],
              [
                0.308784,
                0.0791073
              ],
              [
                0.2333572,
                0.0406287
              ],
              [
                0.2227925,
                0.0404601
              ],
              [
                0.2105536,
                0.0398694
              ],
              [
                0.1981811,
                0.0391712
              ],
              [
                0.1880029,
                0.0384687
              ],
              [
                0.1700635,
                0.0373674
              ],
              [
                0.1672847,
                0.0371352
              ],
              [
                0.1447691,
                0.0343285
              ],
              [
                0.1435391,
                0.0335574
              ],
              [
                0.1309971,
                0.0241503
              ],
              [
                0.0101188,
                0.1197005
              ],
              [
                -0.0014326,
                0.1292837
              ],
              [
                -0.0104056,
                0.1364036
              ],
              [
                0.0297105,
                0.1026037
              ],
              [
                0.0416848,
                0.0921821
              ],
              [
                -0.0276076,
                0.146988
              ],
              [
                0.127041,
                0.0201689
              ],
              [
                -0.0349306,
                0.1452602
              ],
              [
                0.0795902,
                0.0549782
              ],
              [
                0.0830158,
                0.0521239
              ],
              [
                0.0927923,
                0.0426405
              ],
              [
                0.0989679,
                0.0363601
              ],
              [
                0.1024029,
                0.0320284
              ],
              [
                0.1069014,
                0.0263661
              ],
              [
                -0.051045,
                0.1182235
              ],
              [
                0.1225781,
                0.0144727
              ],
              [
                -0.0565659,
                0.1055237
              ],
              [
                -0.0611145,
                0.0920887
              ],
              [
                -0.0613678,
                0.0910011
              ],
              [
                -0.0653323,
                0.0622629
              ],
              [
                -0.0636827,
                0.0470772
              ],
              [
                -0.0557657,
                0.0216984
              ],
              [
                -0.0450535,
                -0.0010503
              ]
            ],
            "bounds_normalized": {
              "dimensions": [
                0.414170394,
                0.321212542
              ],
              "max": [
                0.348838072,
                0.146987974
              ],
              "min": [
                -0.065332323,
                -0.174224568
              ]
            },
            "centroid_normalized": [
              0.158094358,
              -0.003973061
            ],
            "fraction": 0.25,
            "mask": {
              "encoding": "rows_top_to_bottom_1bit_text",
              "occupied_bbox_pixels": [
                14,
                11,
                25,
                20
              ],
              "occupied_fraction": 0.065429688,
              "occupied_pixel_count": 67,
              "origin": "bottom_left",
              "resolution": [
                32,
                32
              ],
              "rows": [
                "00000000000000000000000000000000",
                "00000000000000000000000000000000",
                "00000000000000000000000000000000",
                "00000000000000000000000000000000",
                "00000000000000000000000000000000",
                "00000000000000000000000000000000",
                "00000000000000000000000000000000",
                "00000000000000000000000000000000",
                "00000000000000000000000000000000",
                "00000000000000000000000000000000",
                "00000000000000000000000000000000",
                "00000000000000110000000000000000",
                "00000000000000111000000000000000",
                "00000000000000111100000011000000",
                "00000000000000111110111111000000",
                "00000000000000111111111111000000",
                "00000000000000111111111011000000",
                "00000000000000011111111011000000",
                "00000000000000001111110000000000",
                "00000000000000000111100000000000",
                "00000000000000000011000000000000",
                "00000000000000000000000000000000",
                "00000000000000000000000000000000",
                "00000000000000000000000000000000",
                "00000000000000000000000000000000",
                "00000000000000000000000000000000",
                "00000000000000000000000000000000",
                "00000000000000000000000000000000",
                "00000000000000000000000000000000",
                "00000000000000000000000000000000",
                "00000000000000000000000000000000",
                "00000000000000000000000000000000"
              ]
            },
            "plane_coordinate_native": -0.016351825,
            "segment_count": 236
          },
          {
            "boundary_samples_normalized": [
              [
                -0.2997213,
                0.0351286
              ],
              [
                -0.1058151,
                0.0319912
              ],
              [
                -0.1040709,
                0.0290796
              ],
              [
                -0.2609084,
                0.0011818
              ],
              [
                -0.0955748,
                0.0146231
              ],
              [
                -0.2359055,
                -0.0228924
              ],
              [
                -0.2208086,
                -0.0368909
              ],
              [
                -0.2043336,
                -0.0508125
              ],
              [
                -0.082767,
                -0.0177177
              ],
              [
                -0.0791748,
                -0.034631
              ],
              [
                -0.0781103,
                -0.0409735
              ],
              [
                -0.1433349,
                -0.1060883
              ],
              [
                -0.1316668,
                -0.1166271
              ],
              [
                -0.1212809,
                -0.1257486
              ],
              [
                -0.0728775,
                -0.0845702
              ],
              [
                -0.0720401,
                -0.0936856
              ],
              [
                -0.1070455,
                -0.1372086
              ],
              [
                -0.0714615,
                -0.1047883
              ],
              [
                -0.0914561,
                -0.1383368
              ],
              [
                -0.0727388,
                -0.1155697
              ],
              [
                -0.0841172,
                -0.1325988
              ],
              [
                -0.0808057,
                -0.1294024
              ],
              [
                0.1600267,
                -0.0695328
              ],
              [
                0.1572251,
                -0.0650771
              ],
              [
                0.1708734,
                -0.0732251
              ],
              [
                0.1555859,
                -0.0592919
              ],
              [
                0.1547696,
                -0.053468
              ],
              [
                0.1543507,
                -0.0464442
              ],
              [
                0.1543494,
                -0.0464224
              ],
              [
                0.1969146,
                -0.0684276
              ],
              [
                0.1542071,
                -0.0371373
              ],
              [
                0.1541233,
                -0.026693
              ],
              [
                0.1540661,
                -0.0246118
              ],
              [
                0.2316885,
                -0.0599786
              ],
              [
                0.249188,
                -0.0571686
              ],
              [
                0.2683043,
                -0.0542812
              ],
              [
                0.2994729,
                -0.0496627
              ],
              [
                0.3171924,
                -0.0470676
              ],
              [
                0.3395609,
                -0.0437891
              ],
              [
                0.3608006,
                -0.0405598
              ],
              [
                0.3764962,
                -0.037566
              ],
              [
                0.3857231,
                -0.034954
              ],
              [
                0.3975356,
                -0.027579
              ],
              [
                0.4012136,
                -0.01818
              ],
              [
                0.4076071,
                0.0030373
              ],
              [
                0.4095534,
                0.0222197
              ],
              [
                0.1497581,
                0.0369164
              ],
              [
                0.4099979,
                0.0537048
              ],
              [
                0.4100154,
                0.0696349
              ],
              [
                0.4121365,
                0.0969321
              ],
              [
                0.1473283,
                0.0571336
              ],
              [
                0.425729,
                0.1360516
              ],
              [
                0.4304197,
                0.1470288
              ],
              [
                0.4345078,
                0.1593437
              ],
              [
                0.432703,
                0.1740863
              ],
              [
                0.4268683,
                0.1805847
              ],
              [
                0.1439572,
                0.0757368
              ],
              [
                0.4030473,
                0.1895892
              ],
              [
                0.3919181,
                0.1876195
              ],
              [
                0.3653889,
                0.1795041
              ],
              [
                0.3457667,
                0.1736406
              ],
              [
                0.311719,
                0.1644057
              ],
              [
                0.2748641,
                0.154881
              ],
              [
                0.2563635,
                0.1507896
              ],
              [
                0.1398908,
                0.093244
              ],
              [
                0.2096248,
                0.1578702
              ],
              [
                0.1358639,
                0.1090834
              ],
              [
                0.1326003,
                0.1221224
              ],
              [
                0.1712319,
                0.1702482
              ],
              [
                0.1615137,
                0.171221
              ],
              [
                0.1291048,
                0.1419204
              ],
              [
                0.1415086,
                0.1626573
              ],
              [
                0.1295761,
                0.1505198
              ],
              [
                -0.2381653,
                0.1285972
              ],
              [
                -0.2534213,
                0.1332897
              ],
              [
                -0.2179302,
                0.1171863
              ],
              [
                -0.2022241,
                0.1072454
              ],
              [
                -0.1941798,
                0.102205
              ],
              [
                -0.3009784,
                0.1253067
              ],
              [
                -0.1678381,
                0.0867164
              ],
              [
                -0.1624728,
                0.08325
              ],
              [
                -0.3349858,
                0.1165575
              ],
              [
                -0.1440351,
                0.073061
              ],
              [
                -0.3554717,
                0.1086145
              ],
              [
                -0.1331171,
                0.0651801
              ],
              [
                -0.3788398,
                0.0979572
              ],
              [
                -0.3849791,
                0.0947225
              ],
              [
                -0.3897105,
                0.0914236
              ],
              [
                -0.3912329,
                0.0855693
              ],
              [
                -0.387704,
                0.0811242
              ],
              [
                -0.3803536,
                0.0763278
              ],
              [
                -0.3696245,
                0.0709809
              ],
              [
                -0.3586436,
                0.0664176
              ],
              [
                -0.3442231,
                0.0597628
              ],
              [
                -0.3355647,
                0.0556265
              ],
              [
                -0.1125796,
                0.0420391
              ]
            ],
            "bounds_normalized": {
              "dimensions": [
                0.826604632,
                0.329769812
              ],
              "max": [
                0.435030053,
                0.18958919
              ],
              "min": [
                -0.391574579,
                -0.140180622
              ]
            },
            "centroid_normalized": [
              0.044490502,
              0.036047176
            ],
            "fraction": 0.5,
            "mask": {
              "encoding": "rows_top_to_bottom_1bit_text",
              "occupied_bbox_pixels": [
                4,
                12,
                28,
                21
              ],
              "occupied_fraction": 0.108398438,
              "occupied_pixel_count": 111,
              "origin": "bottom_left",
              "resolution": [
                32,
                32
              ],
              "rows": [
                "00000000000000000000000000000000",
                "00000000000000000000000000000000",
                "00000000000000000000000000000000",
                "00000000000000000000000000000000",
                "00000000000000000000000000000000",
                "00000000000000000000000000000000",
                "00000000000000000000000000000000",
                "00000000000000000000000000000000",
                "00000000000000000000000000000000",
                "00000000000000000000000000000000",
                "00000000000000000000000000111000",
                "00000000000000000001111111111000",
                "00000111111000000001111111111000",
                "00001111111100000001111111110000",
                "00000111111110000000111111110000",
                "00000001111101000000111111110000",
                "00000000111111000000111111110000",
                "00000000011111000000111111100000",
                "00000000001111000000110000000000",
                "00000000000111000000000000000000",
                "00000000000000000000000000000000",
                "00000000000000000000000000000000",
                "00000000000000000000000000000000",
                "00000000000000000000000000000000",
                "00000000000000000000000000000000",
                "00000000000000000000000000000000",
                "00000000000000000000000000000000",
                "00000000000000000000000000000000",
                "00000000000000000000000000000000",
                "00000000000000000000000000000000",
                "00000000000000000000000000000000",
                "00000000000000000000000000000000"
              ]
            },
            "plane_coordinate_native": -0.001267539,
            "segment_count": 299
          },
          {
            "boundary_samples_normalized": [
              [
                -0.0767259,
                -0.0124909
              ],
              [
                -0.073422,
                -0.0199718
              ],
              [
                -0.0493566,
                -0.0540204
              ],
              [
                -0.0323714,
                -0.0692578
              ],
              [
                -0.0022183,
                -0.0905138
              ],
              [
                0.0134181,
                -0.1017854
              ],
              [
                0.0304093,
                -0.1145094
              ],
              [
                0.0525321,
                -0.1325333
              ],
              [
                0.071306,
                -0.148601
              ],
              [
                0.0797749,
                -0.1558665
              ],
              [
                0.0863929,
                -0.1613374
              ],
              [
                0.0911648,
                -0.1648125
              ],
              [
                0.0986371,
                -0.1685795
              ],
              [
                0.1047308,
                -0.1656811
              ],
              [
                0.1105304,
                -0.1112533
              ],
              [
                0.1053217,
                -0.1650227
              ],
              [
                0.110179,
                -0.1179307
              ],
              [
                0.1065593,
                -0.1613733
              ],
              [
                0.1069076,
                -0.1603124
              ],
              [
                0.1076252,
                -0.1562742
              ],
              [
                0.1078521,
                -0.1548611
              ],
              [
                0.1083126,
                -0.1506758
              ],
              [
                0.1138552,
                -0.0935886
              ],
              [
                0.1186606,
                -0.0872507
              ],
              [
                0.1277524,
                -0.0811023
              ],
              [
                0.1385042,
                -0.0748553
              ],
              [
                0.1495526,
                -0.0681452
              ],
              [
                0.1566563,
                -0.0635678
              ],
              [
                0.169435,
                -0.0590211
              ],
              [
                0.175218,
                -0.0597991
              ],
              [
                0.1893424,
                -0.0648805
              ],
              [
                0.1968827,
                -0.0711182
              ],
              [
                0.2136151,
                -0.0850729
              ],
              [
                0.2258093,
                -0.0940749
              ],
              [
                0.2476853,
                -0.1106151
              ],
              [
                0.255787,
                -0.1116242
              ],
              [
                0.2833973,
                -0.1070882
              ],
              [
                0.3063762,
                -0.0983679
              ],
              [
                0.3099176,
                -0.0954155
              ],
              [
                0.3181001,
                -0.0828124
              ],
              [
                0.3212593,
                -0.0738491
              ],
              [
                0.3246679,
                -0.060074
              ],
              [
                0.3267198,
                -0.0360498
              ],
              [
                0.3236959,
                -0.0199215
              ],
              [
                0.319718,
                -0.0048447
              ],
              [
                0.3157807,
                0.0188854
              ],
              [
                0.3149444,
                0.0395838
              ],
              [
                0.3169337,
                0.0604914
              ],
              [
                0.3194053,
                0.0743842
              ],
              [
                0.3223589,
                0.0888662
              ],
              [
                0.3239294,
                0.1007346
              ],
              [
                0.3249492,
                0.1085233
              ],
              [
                0.3187753,
                0.1189536
              ],
              [
                0.3109233,
                0.1197253
              ],
              [
                0.2975823,
                0.1161787
              ],
              [
                0.2802764,
                0.1064937
              ],
              [
                0.275503,
                0.1038389
              ],
              [
                0.2668217,
                0.0986983
              ],
              [
                0.2557689,
                0.0925379
              ],
              [
                0.2298357,
                0.0840622
              ],
              [
                0.20443,
                0.0752605
              ],
              [
                0.1846019,
                0.0660777
              ],
              [
                0.1626886,
                0.0562334
              ],
              [
                0.1397589,
                0.047081
              ],
              [
                0.1274469,
                0.0420754
              ],
              [
                0.1130031,
                0.0352635
              ],
              [
                0.1055208,
                0.0282073
              ],
              [
                0.1032314,
                0.0162974
              ],
              [
                -0.0449772,
                0.1434613
              ],
              [
                -0.0304675,
                0.1297678
              ],
              [
                -0.0525116,
                0.1477081
              ],
              [
                -0.0219226,
                0.1203803
              ],
              [
                -0.0620713,
                0.1480192
              ],
              [
                -0.005492,
                0.097738
              ],
              [
                -0.0703636,
                0.1463543
              ],
              [
                -0.0768821,
                0.1439584
              ],
              [
                0.008636,
                0.0782439
              ],
              [
                0.0403972,
                0.054909
              ],
              [
                0.0601255,
                0.040361
              ],
              [
                0.0289956,
                0.0627124
              ],
              [
                0.0170778,
                0.0709691
              ],
              [
                -0.0833492,
                0.1401686
              ],
              [
                -0.0884661,
                0.1334628
              ],
              [
                0.0709078,
                0.0265817
              ],
              [
                -0.092023,
                0.118516
              ],
              [
                0.0743393,
                0.0220098
              ],
              [
                -0.0929152,
                0.1060129
              ],
              [
                -0.0930962,
                0.0965137
              ],
              [
                -0.093065,
                0.0873071
              ],
              [
                0.0796161,
                0.0125487
              ],
              [
                0.0811602,
                0.0101025
              ],
              [
                -0.0925673,
                0.0613695
              ],
              [
                -0.091507,
                0.0505981
              ],
              [
                0.0860817,
                0.0032753
              ],
              [
                0.0886242,
                0.000954
              ],
              [
                0.0923315,
                -0.0010541
              ]
            ],
            "bounds_normalized": {
              "dimensions": [
                0.419816029,
                0.316636954
              ],
              "max": [
                0.326719793,
                0.148057414
              ],
              "min": [
                -0.093096236,
                -0.16857954
              ]
            },
            "centroid_normalized": [
              0.121539579,
              -0.00399611
            ],
            "fraction": 0.75,
            "mask": {
              "encoding": "rows_top_to_bottom_1bit_text",
              "occupied_bbox_pixels": [
                13,
                11,
                25,
                20
              ],
              "occupied_fraction": 0.081054688,
              "occupied_pixel_count": 83,
              "origin": "bottom_left",
              "resolution": [
                32,
                32
              ],
              "rows": [
                "00000000000000000000000000000000",
                "00000000000000000000000000000000",
                "00000000000000000000000000000000",
                "00000000000000000000000000000000",
                "00000000000000000000000000000000",
                "00000000000000000000000000000000",
                "00000000000000000000000000000000",
                "00000000000000000000000000000000",
                "00000000000000000000000000000000",
                "00000000000000000000000000000000",
                "00000000000000000000000000000000",
                "00000000000001100000000000000000",
                "00000000000001110000000111000000",
                "00000000000001111000011111000000",
                "00000000000001111101111110000000",
                "00000000000001111111111110000000",
                "00000000000001111111111101000000",
                "00000000000000111111111111000000",
                "00000000000000011111011111000000",
                "00000000000000001111001100000000",
                "00000000000000000111000000000000",
                "00000000000000000000000000000000",
                "00000000000000000000000000000000",
                "00000000000000000000000000000000",
                "00000000000000000000000000000000",
                "00000000000000000000000000000000",
                "00000000000000000000000000000000",
                "00000000000000000000000000000000",
                "00000000000000000000000000000000",
                "00000000000000000000000000000000",
                "00000000000000000000000000000000",
                "00000000000000000000000000000000"
              ]
            },
            "plane_coordinate_native": 0.013816748,
            "segment_count": 244
          },
          {
            "boundary_samples_normalized": [
              [
                -0.0645231,
                0.0078829
              ],
              [
                -0.0636999,
                -0.0057388
              ],
              [
                -0.0595775,
                -0.0276502
              ],
              [
                -0.052593,
                -0.0421842
              ],
              [
                -0.0380608,
                -0.0601677
              ],
              [
                -0.0279512,
                -0.0691213
              ],
              [
                -0.0096439,
                -0.0836417
              ],
              [
                0.0062225,
                -0.0957945
              ],
              [
                0.0214908,
                -0.1073443
              ],
              [
                0.0423862,
                -0.1228738
              ],
              [
                0.0548872,
                -0.1320972
              ],
              [
                0.0736027,
                -0.1459192
              ],
              [
                0.0920019,
                -0.1592601
              ],
              [
                0.1050163,
                -0.168279
              ],
              [
                0.1224985,
                -0.1761378
              ],
              [
                0.1326691,
                -0.1763769
              ],
              [
                0.1427054,
                -0.1728936
              ],
              [
                0.158858,
                -0.161384
              ],
              [
                0.1692642,
                -0.1501024
              ],
              [
                0.1758376,
                -0.1370159
              ],
              [
                0.1756981,
                -0.1267526
              ],
              [
                0.173603,
                -0.1142798
              ],
              [
                0.1684552,
                -0.0903365
              ],
              [
                0.1654686,
                -0.0761346
              ],
              [
                0.1616402,
                -0.0496807
              ],
              [
                0.161598,
                -0.0477385
              ],
              [
                0.1677098,
                -0.0222781
              ],
              [
                0.1915218,
                0.0011728
              ],
              [
                0.3291585,
                -0.0315881
              ],
              [
                0.3375057,
                -0.0334076
              ],
              [
                0.1931372,
                0.0025778
              ],
              [
                0.3496758,
                -0.0327383
              ],
              [
                0.3155409,
                -0.0232587
              ],
              [
                0.3579618,
                -0.0276104
              ],
              [
                0.3015968,
                -0.0120096
              ],
              [
                0.2991983,
                -0.0100615
              ],
              [
                0.3668605,
                -0.0136269
              ],
              [
                0.3708617,
                -0.0027215
              ],
              [
                0.3722247,
                0.0075653
              ],
              [
                0.3725402,
                0.0095874
              ],
              [
                0.2708036,
                0.0139806
              ],
              [
                0.3715176,
                0.0274084
              ],
              [
                0.2100364,
                0.0203542
              ],
              [
                0.2118367,
                0.0227073
              ],
              [
                0.3669189,
                0.046378
              ],
              [
                0.3631523,
                0.056101
              ],
              [
                0.3602778,
                0.061877
              ],
              [
                0.2428421,
                0.0394088
              ],
              [
                0.2398844,
                0.0403743
              ],
              [
                0.351864,
                0.0749628
              ],
              [
                0.2344987,
                0.0416768
              ],
              [
                0.3354551,
                0.0918441
              ],
              [
                0.3140845,
                0.1055961
              ],
              [
                0.2188054,
                0.0558523
              ],
              [
                0.2231964,
                0.0608089
              ],
              [
                0.2238183,
                0.0655397
              ],
              [
                0.2933351,
                0.1158899
              ],
              [
                0.2881029,
                0.1181906
              ],
              [
                0.2842061,
                0.1196509
              ],
              [
                0.2721396,
                0.1218117
              ],
              [
                0.2245629,
                0.084594
              ],
              [
                0.1937833,
                0.0588717
              ],
              [
                0.2270757,
                0.093423
              ],
              [
                0.2477135,
                0.1162064
              ],
              [
                0.2310769,
                0.100226
              ],
              [
                0.2410155,
                0.1118061
              ],
              [
                0.1803623,
                0.062246
              ],
              [
                0.1632475,
                0.0601727
              ],
              [
                0.1620927,
                0.059136
              ],
              [
                0.1476131,
                0.0437484
              ],
              [
                0.1396181,
                0.0342747
              ],
              [
                -0.049069,
                0.1376088
              ],
              [
                -0.0515583,
                0.1387413
              ],
              [
                -0.0442813,
                0.1328959
              ],
              [
                -0.0560969,
                0.1387026
              ],
              [
                -0.0385343,
                0.126099
              ],
              [
                -0.0592795,
                0.1356638
              ],
              [
                -0.0602122,
                0.1343423
              ],
              [
                -0.062092,
                0.1315441
              ],
              [
                -0.0203551,
                0.1054257
              ],
              [
                -0.0119062,
                0.0972317
              ],
              [
                -0.0068357,
                0.0925976
              ],
              [
                -0.001102,
                0.0874709
              ],
              [
                -0.0690872,
                0.1167225
              ],
              [
                0.0164143,
                0.0719549
              ],
              [
                -0.0715664,
                0.1044038
              ],
              [
                0.0290621,
                0.060743
              ],
              [
                -0.0718603,
                0.0931445
              ],
              [
                -0.0710476,
                0.0816913
              ],
              [
                0.0543163,
                0.0378535
              ],
              [
                0.0600721,
                0.0327526
              ],
              [
                -0.0675508,
                0.0515927
              ],
              [
                0.1152817,
                0.0178515
              ],
              [
                0.1108158,
                0.0171649
              ],
              [
                0.1031637,
                0.0169867
              ],
              [
                0.0940517,
                0.016698
              ]
            ],
            "bounds_normalized": {
              "dimensions": [
                0.444603954,
                0.315804118
              ],
              "max": [
                0.372743656,
                0.139427195
              ],
              "min": [
                -0.071860298,
                -0.176376924
              ]
            },
            "centroid_normalized": [
              0.145727611,
              0.013918388
            ],
            "fraction": 0.9,
            "mask": {
              "encoding": "rows_top_to_bottom_1bit_text",
              "occupied_bbox_pixels": [
                13,
                11,
                26,
                19
              ],
              "occupied_fraction": 0.068359375,
              "occupied_pixel_count": 70,
              "origin": "bottom_left",
              "resolution": [
                32,
                32
              ],
              "rows": [
                "00000000000000000000000000000000",
                "00000000000000000000000000000000",
                "00000000000000000000000000000000",
                "00000000000000000000000000000000",
                "00000000000000000000000000000000",
                "00000000000000000000000000000000",
                "00000000000000000000000000000000",
                "00000000000000000000000000000000",
                "00000000000000000000000000000000",
                "00000000000000000000000000000000",
                "00000000000000000000000000000000",
                "00000000000000000000000000000000",
                "00000000000000110000001110000000",
                "00000000000001111000001111000000",
                "00000000000000111101111110100000",
                "00000000000000111111111111100000",
                "00000000000000111111110011100000",
                "00000000000000111111100000000000",
                "00000000000000011111100000000000",
                "00000000000000001111100000000000",
                "00000000000000000111100000000000",
                "00000000000000000000000000000000",
                "00000000000000000000000000000000",
                "00000000000000000000000000000000",
                "00000000000000000000000000000000",
                "00000000000000000000000000000000",
                "00000000000000000000000000000000",
                "00000000000000000000000000000000",
                "00000000000000000000000000000000",
                "00000000000000000000000000000000",
                "00000000000000000000000000000000",
                "00000000000000000000000000000000"
              ]
            },
            "plane_coordinate_native": 0.02286732,
            "segment_count": 268
          }
        ]
      },
      "pca_axis_1": {
        "axis": 1,
        "in_plane_axes": [
          0,
          2
        ],
        "slices": [
          {
            "boundary_samples_normalized": [
              [
                -0.1045407,
                0.0855398
              ],
              [
                -0.1044767,
                0.0853556
              ],
              [
                -0.104451,
                0.0853031
              ],
              [
                -0.1044195,
                0.0852311
              ],
              [
                -0.0956734,
                0.0713347
              ],
              [
                -0.0937509,
                0.0682886
              ],
              [
                -0.0888613,
                0.0618434
              ],
              [
                -0.085375,
                0.0578128
              ],
              [
                -0.0794762,
                0.0508429
              ],
              [
                -0.0739193,
                0.0459462
              ],
              [
                -0.0696593,
                0.0420016
              ],
              [
                -0.0680545,
                0.0410232
              ],
              [
                -0.0612637,
                0.0370355
              ],
              [
                -0.0595962,
                0.0361321
              ],
              [
                -0.0539646,
                0.0343934
              ],
              [
                -0.0498131,
                0.0333375
              ],
              [
                -0.0406084,
                0.032598
              ],
              [
                -0.0390361,
                0.0329664
              ],
              [
                -0.0323731,
                0.0351721
              ],
              [
                -0.0314776,
                0.0358823
              ],
              [
                -0.0245332,
                0.0434173
              ],
              [
                -0.0173794,
                0.0521005
              ],
              [
                -0.0104369,
                0.057287
              ],
              [
                -0.0031065,
                0.0615639
              ],
              [
                0.0112305,
                0.0647825
              ],
              [
                0.0222112,
                0.0631221
              ],
              [
                0.0283716,
                0.0619907
              ],
              [
                0.0324987,
                0.0606529
              ],
              [
                0.0401811,
                0.0586975
              ],
              [
                0.0435666,
                0.0583564
              ],
              [
                0.0477205,
                0.0583095
              ],
              [
                0.0494478,
                0.0586361
              ],
              [
                0.0546122,
                0.0608127
              ],
              [
                0.0567273,
                0.0628371
              ],
              [
                0.058791,
                0.0646903
              ],
              [
                0.0591666,
                0.0651247
              ],
              [
                0.063217,
                0.0708908
              ],
              [
                0.0654691,
                0.0746377
              ],
              [
                0.0668321,
                0.0772835
              ],
              [
                0.0683967,
                0.0802326
              ],
              [
                0.0711132,
                0.0861591
              ],
              [
                0.0733653,
                0.0918311
              ],
              [
                0.0735589,
                0.0923378
              ],
              [
                0.0742177,
                0.094354
              ],
              [
                0.0764601,
                0.1023294
              ],
              [
                0.0777989,
                0.1083083
              ],
              [
                0.0782979,
                0.1145031
              ],
              [
                0.0785239,
                0.1171715
              ],
              [
                0.077221,
                0.1264275
              ],
              [
                0.0771516,
                0.1265289
              ],
              [
                0.0721584,
                0.134758
              ],
              [
                0.0714123,
                0.1350522
              ],
              [
                0.0567512,
                0.1383384
              ],
              [
                0.051016,
                0.1377097
              ],
              [
                0.0464668,
                0.136047
              ],
              [
                0.0394157,
                0.1335076
              ],
              [
                0.0380268,
                0.1330007
              ],
              [
                0.0326686,
                0.1303373
              ],
              [
                0.029913,
                0.1292782
              ],
              [
                0.0274001,
                0.1282387
              ],
              [
                0.0217783,
                0.126562
              ],
              [
                0.0208186,
                0.1264984
              ],
              [
                0.0163426,
                0.1248511
              ],
              [
                0.0150608,
                0.1242865
              ],
              [
                0.0091223,
                0.1200969
              ],
              [
                0.0070286,
                0.1181317
              ],
              [
                0.0034762,
                0.1147487
              ],
              [
                0.0001528,
                0.1112919
              ],
              [
                -0.0054291,
                0.1065428
              ],
              [
                -0.0064912,
                0.1061686
              ],
              [
                -0.0118863,
                0.1056179
              ],
              [
                -0.0131421,
                0.1058456
              ],
              [
                -0.0215551,
                0.1077491
              ],
              [
                -0.0274184,
                0.1092978
              ],
              [
                -0.0318771,
                0.1105485
              ],
              [
                -0.0364884,
                0.1120419
              ],
              [
                -0.0460266,
                0.1157706
              ],
              [
                -0.0475638,
                0.1165029
              ],
              [
                -0.0585528,
                0.1215224
              ],
              [
                -0.0588444,
                0.1216683
              ],
              [
                -0.065509,
                0.1247601
              ],
              [
                -0.0684622,
                0.1261103
              ],
              [
                -0.0712892,
                0.1273735
              ],
              [
                -0.0729783,
                0.1280636
              ],
              [
                -0.0775087,
                0.1296468
              ],
              [
                -0.0795358,
                0.1298133
              ],
              [
                -0.0819579,
                0.1301252
              ],
              [
                -0.0825211,
                0.1300826
              ],
              [
                -0.0872138,
                0.1280033
              ],
              [
                -0.0896315,
                0.1260414
              ],
              [
                -0.0912986,
                0.1245862
              ],
              [
                -0.0932071,
                0.1224675
              ],
              [
                -0.1010835,
                0.1140199
              ],
              [
                -0.1013223,
                0.1136915
              ],
              [
                -0.107202,
                0.1049189
              ],
              [
                -0.1075905,
                0.1032244
              ]
            ],
            "bounds_normalized": {
              "dimensions": [
                0.186292494,
                0.106159992
              ],
              "max": [
                0.078523938,
                0.138757948
              ],
              "min": [
                -0.107768556,
                0.032597956
              ]
            },
            "centroid_normalized": [
              -0.012064846,
              0.093635558
            ],
            "fraction": 0.1,
            "mask": {
              "encoding": "rows_top_to_bottom_1bit_text",
              "occupied_bbox_pixels": [
                12,
                16,
                18,
                19
              ],
              "occupied_fraction": 0.01953125,
              "occupied_pixel_count": 20,
              "origin": "bottom_left",
              "resolution": [
                32,
                32
              ],
              "rows": [
                "00000000000000000000000000000000",
                "00000000000000000000000000000000",
                "00000000000000000000000000000000",
                "00000000000000000000000000000000",
                "00000000000000000000000000000000",
                "00000000000000000000000000000000",
                "00000000000000000000000000000000",
                "00000000000000000000000000000000",
                "00000000000000000000000000000000",
                "00000000000000000000000000000000",
                "00000000000000000000000000000000",
                "00000000000000000000000000000000",
                "00000000000001111110000000000000",
                "00000000000011111110000000000000",
                "00000000000001111100000000000000",
                "00000000000000110000000000000000",
                "00000000000000000000000000000000",
                "00000000000000000000000000000000",
                "00000000000000000000000000000000",
                "00000000000000000000000000000000",
                "00000000000000000000000000000000",
                "00000000000000000000000000000000",
                "00000000000000000000000000000000",
                "00000000000000000000000000000000",
                "00000000000000000000000000000000",
                "00000000000000000000000000000000",
                "00000000000000000000000000000000",
                "00000000000000000000000000000000",
                "00000000000000000000000000000000",
                "00000000000000000000000000000000",
                "00000000000000000000000000000000",
                "00000000000000000000000000000000"
              ]
            },
            "plane_coordinate_native": -0.027273327,
            "segment_count": 120
          },
          {
            "boundary_samples_normalized": [
              [
                -0.0733632,
                0.0638338
              ],
              [
                -0.070945,
                0.0594477
              ],
              [
                -0.0659278,
                0.0500035
              ],
              [
                -0.0639592,
                0.0463885
              ],
              [
                -0.0583634,
                0.0355043
              ],
              [
                -0.0514088,
                0.0217766
              ],
              [
                -0.0504304,
                0.0198158
              ],
              [
                -0.0455014,
                0.0098208
              ],
              [
                -0.0444867,
                0.0077412
              ],
              [
                -0.0393233,
                -0.0030139
              ],
              [
                -0.0365724,
                -0.0088945
              ],
              [
                -0.0349155,
                -0.0123155
              ],
              [
                -0.0329257,
                -0.0164417
              ],
              [
                -0.0294369,
                -0.0231025
              ],
              [
                -0.0272981,
                -0.0272352
              ],
              [
                -0.0259668,
                -0.0288636
              ],
              [
                -0.0235535,
                -0.032957
              ],
              [
                -0.0195743,
                -0.0373033
              ],
              [
                -0.01581,
                -0.0399396
              ],
              [
                -0.0152095,
                -0.0401242
              ],
              [
                -0.0110286,
                -0.0413501
              ],
              [
                -0.0062137,
                -0.0411692
              ],
              [
                -0.0054937,
                -0.0410282
              ],
              [
                -0.001556,
                -0.0396738
              ],
              [
                -0.0005095,
                -0.0392713
              ],
              [
                0.0027305,
                -0.0369833
              ],
              [
                0.0065297,
                -0.0332815
              ],
              [
                0.0082322,
                -0.0312382
              ],
              [
                0.0098047,
                -0.0286834
              ],
              [
                0.0116639,
                -0.0250419
              ],
              [
                0.0148512,
                -0.0176106
              ],
              [
                0.0149579,
                -0.0173937
              ],
              [
                0.01522,
                -0.0167709
              ],
              [
                0.0181414,
                -0.0106008
              ],
              [
                0.0256336,
                0.0039932
              ],
              [
                0.0261678,
                0.0050126
              ],
              [
                0.0362134,
                0.0215079
              ],
              [
                0.0382778,
                0.0249902
              ],
              [
                0.0563757,
                0.0537967
              ],
              [
                0.0566669,
                0.0542591
              ],
              [
                0.0567832,
                0.0544733
              ],
              [
                0.0646342,
                0.0677169
              ],
              [
                0.0703601,
                0.079382
              ],
              [
                0.0710802,
                0.0829479
              ],
              [
                0.0727945,
                0.0913899
              ],
              [
                0.0726136,
                0.0937225
              ],
              [
                0.0719008,
                0.1031734
              ],
              [
                0.0717946,
                0.1045577
              ],
              [
                0.0710659,
                0.1110009
              ],
              [
                0.0709024,
                0.112562
              ],
              [
                0.0694666,
                0.1184358
              ],
              [
                0.0674074,
                0.1254287
              ],
              [
                0.0667751,
                0.1295788
              ],
              [
                0.0647584,
                0.1315193
              ],
              [
                0.0624315,
                0.1353574
              ],
              [
                0.0554529,
                0.1338902
              ],
              [
                0.0498884,
                0.1321277
              ],
              [
                0.0481375,
                0.1315584
              ],
              [
                0.0460903,
                0.1308552
              ],
              [
                0.0376147,
                0.1279127
              ],
              [
                0.0303449,
                0.1253839
              ],
              [
                0.0266227,
                0.1241846
              ],
              [
                0.0186475,
                0.1215004
              ],
              [
                0.0053482,
                0.1177393
              ],
              [
                0.0003719,
                0.1175203
              ],
              [
                -0.0097207,
                0.1173705
              ],
              [
                -0.0123528,
                0.1185339
              ],
              [
                -0.0235374,
                0.1235626
              ],
              [
                -0.0250906,
                0.1242268
              ],
              [
                -0.033139,
                0.1283042
              ],
              [
                -0.0413766,
                0.1331666
              ],
              [
                -0.041975,
                0.1334686
              ],
              [
                -0.0512706,
                0.1368567
              ],
              [
                -0.0550509,
                0.1385243
              ],
              [
                -0.0588106,
                0.1391351
              ],
              [
                -0.0633685,
                0.1402443
              ],
              [
                -0.0702151,
                0.1416122
              ],
              [
                -0.0708085,
                0.1416515
              ],
              [
                -0.0712862,
                0.1416394
              ],
              [
                -0.0762213,
                0.1418668
              ],
              [
                -0.080068,
                0.1380654
              ],
              [
                -0.0801811,
                0.1379006
              ],
              [
                -0.0825559,
                0.1331929
              ],
              [
                -0.0827007,
                0.1328282
              ],
              [
                -0.0850028,
                0.1273032
              ],
              [
                -0.0869419,
                0.1224064
              ],
              [
                -0.0872925,
                0.1215355
              ],
              [
                -0.0891122,
                0.1164728
              ],
              [
                -0.0901268,
                0.1132044
              ],
              [
                -0.0913535,
                0.107739
              ],
              [
                -0.090978,
                0.1048535
              ],
              [
                -0.0904036,
                0.0996053
              ],
              [
                -0.0871754,
                0.0912766
              ],
              [
                -0.0849269,
                0.0863411
              ],
              [
                -0.0832361,
                0.0825422
              ],
              [
                -0.0798993,
                0.0760941
              ]
            ],
            "bounds_normalized": {
              "dimensions": [
                0.164148044,
                0.183216846
              ],
              "max": [
                0.072794505,
                0.141866757
              ],
              "min": [
                -0.091353539,
                -0.041350089
              ]
            },
            "centroid_normalized": [
              -0.012965915,
              0.066503591
            ],
            "fraction": 0.25,
            "mask": {
              "encoding": "rows_top_to_bottom_1bit_text",
              "occupied_bbox_pixels": [
                13,
                14,
                18,
                19
              ],
              "occupied_fraction": 0.025390625,
              "occupied_pixel_count": 26,
              "origin": "bottom_left",
              "resolution": [
                32,
                32
              ],
              "rows": [
                "00000000000000000000000000000000",
                "00000000000000000000000000000000",
                "00000000000000000000000000000000",
                "00000000000000000000000000000000",
                "00000000000000000000000000000000",
                "00000000000000000000000000000000",
                "00000000000000000000000000000000",
                "00000000000000000000000000000000",
                "00000000000000000000000000000000",
                "00000000000000000000000000000000",
                "00000000000000000000000000000000",
                "00000000000000000000000000000000",
                "00000000000001111110000000000000",
                "00000000000001111110000000000000",
                "00000000000001111100000000000000",
                "00000000000000111100000000000000",
                "00000000000000111000000000000000",
                "00000000000000011000000000000000",
                "00000000000000000000000000000000",
                "00000000000000000000000000000000",
                "00000000000000000000000000000000",
                "00000000000000000000000000000000",
                "00000000000000000000000000000000",
                "00000000000000000000000000000000",
                "00000000000000000000000000000000",
                "00000000000000000000000000000000",
                "00000000000000000000000000000000",
                "00000000000000000000000000000000",
                "00000000000000000000000000000000",
                "00000000000000000000000000000000",
                "00000000000000000000000000000000",
                "00000000000000000000000000000000"
              ]
            },
            "plane_coordinate_native": -0.019365351,
            "segment_count": 119
          },
          {
            "boundary_samples_normalized": [
              [
                -0.3638385,
                -0.0052684
              ],
              [
                -0.344719,
                -0.0167724
              ],
              [
                -0.3275869,
                -0.0244417
              ],
              [
                -0.3152339,
                -0.0297404
              ],
              [
                -0.3016161,
                -0.0354517
              ],
              [
                -0.2830073,
                -0.0428579
              ],
              [
                -0.263645,
                -0.050542
              ],
              [
                -0.1353179,
                -0.0376296
              ],
              [
                -0.2186767,
                -0.0720019
              ],
              [
                -0.1315007,
                -0.0530931
              ],
              [
                -0.2011115,
                -0.0871237
              ],
              [
                -0.1279562,
                -0.0670441
              ],
              [
                -0.1252583,
                -0.0774631
              ],
              [
                -0.1830005,
                -0.1125454
              ],
              [
                -0.1774656,
                -0.1201405
              ],
              [
                -0.1715564,
                -0.1276047
              ],
              [
                -0.168059,
                -0.1313751
              ],
              [
                -0.118845,
                -0.1057272
              ],
              [
                -0.1579191,
                -0.1389074
              ],
              [
                -0.152079,
                -0.141121
              ],
              [
                -0.1187686,
                -0.1204005
              ],
              [
                -0.1394089,
                -0.1415481
              ],
              [
                -0.1365097,
                -0.1406135
              ],
              [
                -0.1242103,
                -0.1322527
              ],
              [
                -0.1283559,
                -0.1363547
              ],
              [
                0.1475127,
                -0.1063642
              ],
              [
                0.1400354,
                -0.098273
              ],
              [
                0.138552,
                -0.0932721
              ],
              [
                0.1622396,
                -0.1103791
              ],
              [
                0.1382565,
                -0.0862251
              ],
              [
                0.1387469,
                -0.0819854
              ],
              [
                0.183975,
                -0.1074479
              ],
              [
                0.1408195,
                -0.0729197
              ],
              [
                0.1427148,
                -0.0669053
              ],
              [
                0.2190704,
                -0.0930312
              ],
              [
                0.2385552,
                -0.0914483
              ],
              [
                0.2714802,
                -0.0955445
              ],
              [
                0.2931397,
                -0.1009334
              ],
              [
                0.3221216,
                -0.1071272
              ],
              [
                0.3419416,
                -0.1068661
              ],
              [
                0.3605458,
                -0.1029367
              ],
              [
                0.3845719,
                -0.0959153
              ],
              [
                0.4249138,
                -0.0825044
              ],
              [
                0.158161,
                -0.0283886
              ],
              [
                0.443338,
                -0.0754955
              ],
              [
                0.4578138,
                -0.0693242
              ],
              [
                0.4737535,
                -0.0594658
              ],
              [
                0.4796467,
                -0.0517971
              ],
              [
                0.4840973,
                -0.0405543
              ],
              [
                0.4860424,
                -0.0321331
              ],
              [
                0.4837022,
                -0.0078167
              ],
              [
                0.4830381,
                0.0107932
              ],
              [
                0.1684921,
                0.0038301
              ],
              [
                0.4825157,
                0.0334274
              ],
              [
                0.4812199,
                0.0494652
              ],
              [
                0.1729753,
                0.0190242
              ],
              [
                0.1731388,
                0.0195565
              ],
              [
                0.4719924,
                0.0727551
              ],
              [
                0.4616774,
                0.0777165
              ],
              [
                0.4513397,
                0.0799182
              ],
              [
                0.4338651,
                0.08233
              ],
              [
                0.4224762,
                0.0837446
              ],
              [
                0.3988227,
                0.0866361
              ],
              [
                0.1774928,
                0.0343028
              ],
              [
                0.1784679,
                0.0374021
              ],
              [
                0.3518897,
                0.0953798
              ],
              [
                0.182045,
                0.0486988
              ],
              [
                0.3199564,
                0.1014074
              ],
              [
                0.2952367,
                0.1007738
              ],
              [
                0.2385275,
                0.0832611
              ],
              [
                0.1904898,
                0.0647049
              ],
              [
                0.2166851,
                0.0783551
              ],
              [
                0.1988349,
                0.0739253
              ],
              [
                -0.2509351,
                0.1285363
              ],
              [
                -0.2291878,
                0.1174224
              ],
              [
                -0.2196709,
                0.111366
              ],
              [
                -0.2960122,
                0.1433938
              ],
              [
                -0.306684,
                0.1462051
              ],
              [
                -0.3174844,
                0.1483895
              ],
              [
                -0.1911065,
                0.090742
              ],
              [
                -0.3409579,
                0.1506183
              ],
              [
                -0.3589152,
                0.1495624
              ],
              [
                -0.1752168,
                0.0745233
              ],
              [
                -0.3786999,
                0.1472377
              ],
              [
                -0.3949717,
                0.1441567
              ],
              [
                -0.4071428,
                0.1398646
              ],
              [
                -0.4143028,
                0.1326443
              ],
              [
                -0.4183375,
                0.1242522
              ],
              [
                -0.4219692,
                0.1139322
              ],
              [
                -0.4253274,
                0.1002714
              ],
              [
                -0.4253466,
                0.0773342
              ],
              [
                -0.1546442,
                0.0245053
              ],
              [
                -0.413344,
                0.0467184
              ],
              [
                -0.4052435,
                0.0346369
              ],
              [
                -0.3965775,
                0.0225208
              ],
              [
                -0.37636,
                0.0030907
              ]
            ],
            "bounds_normalized": {
              "dimensions": [
                0.912698225,
                0.292706497
              ],
              "max": [
                0.486042404,
                0.150618338
              ],
              "min": [
                -0.426655821,
                -0.142088159
              ]
            },
            "centroid_normalized": [
              0.029555051,
              -0.003458326
            ],
            "fraction": 0.5,
            "mask": {
              "encoding": "rows_top_to_bottom_1bit_text",
              "occupied_bbox_pixels": [
                3,
                11,
                29,
                20
              ],
              "occupied_fraction": 0.116210938,
              "occupied_pixel_count": 119,
              "origin": "bottom_left",
              "resolution": [
                32,
                32
              ],
              "rows": [
                "00000000000000000000000000000000",
                "00000000000000000000000000000000",
                "00000000000000000000000000000000",
                "00000000000000000000000000000000",
                "00000000000000000000000000000000",
                "00000000000000000000000000000000",
                "00000000000000000000000000000000",
                "00000000000000000000000000000000",
                "00000000000000000000000000000000",
                "00000000000000000000000000000000",
                "00000000000000000000000000000000",
                "00001111000000000000000000000000",
                "00001111110000000000000000000000",
                "00011111111100000000011111111100",
                "00001111111100000000011111111100",
                "00001111111100000000111111111100",
                "00000111111110000000111111111100",
                "00000001111110000000111111111100",
                "00000000011110000001111111111000",
                "00000000001110000000110011000000",
                "00000000000100000000000000000000",
                "00000000000000000000000000000000",
                "00000000000000000000000000000000",
                "00000000000000000000000000000000",
                "00000000000000000000000000000000",
                "00000000000000000000000000000000",
                "00000000000000000000000000000000",
                "00000000000000000000000000000000",
                "00000000000000000000000000000000",
                "00000000000000000000000000000000",
                "00000000000000000000000000000000",
                "00000000000000000000000000000000"
              ]
            },
            "plane_coordinate_native": -0.006185392,
            "segment_count": 302
          },
          {
            "boundary_samples_normalized": [
              [
                -0.2687018,
                0.0191863
              ],
              [
                -0.3606702,
                0.0141135
              ],
              [
                -0.268287,
                0.0126652
              ],
              [
                -0.375623,
                0.003228
              ],
              [
                -0.2665133,
                0.005723
              ],
              [
                -0.3881567,
                -0.0034477
              ],
              [
                -0.401733,
                -0.0107406
              ],
              [
                -0.4099112,
                -0.0144472
              ],
              [
                -0.2632271,
                -0.0037551
              ],
              [
                -0.2590705,
                -0.0153159
              ],
              [
                -0.4347795,
                -0.0778354
              ],
              [
                -0.2506302,
                -0.0389948
              ],
              [
                -0.4126115,
                -0.0832987
              ],
              [
                -0.4347636,
                -0.1058157
              ],
              [
                -0.3950087,
                -0.1017325
              ],
              [
                -0.4279697,
                -0.1260225
              ],
              [
                -0.3894791,
                -0.1230052
              ],
              [
                -0.2367285,
                -0.0705696
              ],
              [
                -0.2136006,
                -0.1021138
              ],
              [
                -0.1955678,
                -0.1204377
              ],
              [
                -0.1732581,
                -0.122924
              ],
              [
                -0.1478339,
                -0.1139227
              ],
              [
                -0.1161213,
                -0.090049
              ],
              [
                -0.1099477,
                -0.0851708
              ],
              [
                -0.1002786,
                -0.0801848
              ],
              [
                -0.0735412,
                -0.0713438
              ],
              [
                -0.0573771,
                -0.0676226
              ],
              [
                -0.0153058,
                -0.062886
              ],
              [
                0.0131455,
                -0.0634688
              ],
              [
                0.0390205,
                -0.0652435
              ],
              [
                0.0504473,
                -0.0662686
              ],
              [
                0.0873489,
                -0.0737788
              ],
              [
                0.1100527,
                -0.0814523
              ],
              [
                0.1458259,
                -0.0960248
              ],
              [
                0.1608091,
                -0.1033982
              ],
              [
                0.1753061,
                -0.1132099
              ],
              [
                0.2049698,
                -0.1242289
              ],
              [
                0.2268701,
                -0.1097583
              ],
              [
                0.2523727,
                -0.0864917
              ],
              [
                0.2705179,
                -0.0628249
              ],
              [
                0.2735235,
                -0.0495723
              ],
              [
                0.2758602,
                -0.0179765
              ],
              [
                0.2773044,
                -0.0011947
              ],
              [
                0.3987657,
                0.0285294
              ],
              [
                0.4033054,
                0.0308665
              ],
              [
                0.4071953,
                0.0335614
              ],
              [
                0.3900499,
                0.0351479
              ],
              [
                0.3904765,
                0.039906
              ],
              [
                0.3931458,
                0.0442923
              ],
              [
                0.3965966,
                0.0494638
              ],
              [
                0.3974861,
                0.0506747
              ],
              [
                0.4512966,
                0.0580915
              ],
              [
                0.459395,
                0.0628
              ],
              [
                0.4029673,
                0.0626361
              ],
              [
                0.2867925,
                0.0546676
              ],
              [
                0.4725373,
                0.0836325
              ],
              [
                0.471476,
                0.0921305
              ],
              [
                0.4051281,
                0.0876431
              ],
              [
                0.465412,
                0.1019911
              ],
              [
                0.4070842,
                0.0967753
              ],
              [
                0.4551498,
                0.1101454
              ],
              [
                0.4483065,
                0.1143172
              ],
              [
                0.414062,
                0.1115572
              ],
              [
                0.2596242,
                0.0790144
              ],
              [
                0.4232554,
                0.1187143
              ],
              [
                0.425758,
                0.1199612
              ],
              [
                0.235271,
                0.0815097
              ],
              [
                0.2250494,
                0.0975817
              ],
              [
                0.2179011,
                0.1198821
              ],
              [
                0.2002986,
                0.1421398
              ],
              [
                0.1690033,
                0.1494526
              ],
              [
                0.1391575,
                0.1467312
              ],
              [
                0.1169069,
                0.1498815
              ],
              [
                0.0821777,
                0.1577613
              ],
              [
                0.0516946,
                0.1594167
              ],
              [
                0.0089188,
                0.1556664
              ],
              [
                -0.0085714,
                0.1540309
              ],
              [
                -0.0414114,
                0.151333
              ],
              [
                -0.0723061,
                0.149203
              ],
              [
                -0.106489,
                0.1471442
              ],
              [
                -0.1275197,
                0.1447019
              ],
              [
                -0.1446002,
                0.1336604
              ],
              [
                -0.158403,
                0.1056248
              ],
              [
                -0.179132,
                0.082181
              ],
              [
                -0.2079643,
                0.064942
              ],
              [
                -0.2305507,
                0.0518177
              ],
              [
                -0.4195095,
                0.0652888
              ],
              [
                -0.4314177,
                0.0638436
              ],
              [
                -0.2444378,
                0.0436807
              ],
              [
                -0.4446238,
                0.0591095
              ],
              [
                -0.3833348,
                0.0498973
              ],
              [
                -0.3770099,
                0.0447067
              ],
              [
                -0.3705449,
                0.0394315
              ],
              [
                -0.3657128,
                0.0354094
              ],
              [
                -0.4548233,
                0.0344564
              ],
              [
                -0.4531001,
                0.0265796
              ]
            ],
            "bounds_normalized": {
              "dimensions": [
                0.927898533,
                0.292293855
              ],
              "max": [
                0.472537326,
                0.159580144
              ],
              "min": [
                -0.455361207,
                -0.132713711
              ]
            },
            "centroid_normalized": [
              0.001914601,
              0.019547522
            ],
            "fraction": 0.75,
            "mask": {
              "encoding": "rows_top_to_bottom_1bit_text",
              "occupied_bbox_pixels": [
                3,
                12,
