{
  "bounds": {
    "center": [
      -0.048609431,
      0.028357692,
      -0.063699912
    ],
    "diagonal": 0.059046606,
    "dimensions": [
      0.045458132,
      0.016593866,
      0.033833466
    ],
    "max": [
      -0.025880365,
      0.036654625,
      -0.046783179
    ],
    "min": [
      -0.071338497,
      0.020060759,
      -0.080616646
    ]
  },
  "centroids": {
    "surface_area_weighted": [
      -0.051449167,
      0.026549909,
      -0.060334066
    ],
    "vertex_mean": [
      -0.046113042,
      0.026252107,
      -0.056717889
    ],
    "volume_if_watertight": null
  },
  "cleaning": {
    "degenerate_faces_removed": 0,
    "unused_vertices_removed": 0,
    "vertices_welded": 0,
    "weld_tolerance": 0.0
  },
  "counts": {
    "analyzed_face_count": 1392,
    "analyzed_vertex_count": 706,
    "source_face_count": 1392,
    "source_vertex_count": 706
  },
  "mesh_name": "VH_F_right_uterine_artery",
  "pca": {
    "basis": "exact_uniform_surface_moments",
    "eigenvalues": [
      0.000270367,
      2.351e-05,
      1.012e-06
    ],
    "oriented_bounds": {
      "center": [
        -1.0665e-05,
        0.001352874,
        -0.000254586
      ],
      "dimensions": [
        0.055304967,
        0.017496551,
        0.004524001
      ],
      "max": [
        0.027641818,
        0.01010115,
        0.002007415
      ],
      "min": [
        -0.027663149,
        -0.007395402,
        -0.002516586
      ]
    },
    "principal_axes_world": [
      [
        0.811743552,
        -0.096058985,
        0.57605996
      ],
      [
        0.379374604,
        0.836654598,
        -0.395074668
      ],
      [
        -0.444012743,
        0.539241833,
        0.715591315
      ]
    ]
  },
  "sampling": {
    "cross_sections_pca": {
      "pca_axis_0": {
        "axis": 0,
        "in_plane_axes": [
          1,
          2
        ],
        "slices": [
          {
            "boundary_samples_normalized": [
              [
                0.0418582,
                -0.0040427
              ],
              [
                0.0432525,
                -0.0058064
              ],
              [
                0.0483048,
                -0.0122699
              ],
              [
                0.0568501,
                -0.0185528
              ],
              [
                0.0575201,
                -0.0190332
              ],
              [
                0.0623868,
                -0.021013
              ],
              [
                0.0685839,
                -0.0237624
              ],
              [
                0.0702021,
                -0.0240731
              ],
              [
                0.0805472,
                -0.0259002
              ],
              [
                0.0852691,
                -0.0254541
              ],
              [
                0.0921285,
                -0.024728
              ],
              [
                0.0983717,
                -0.0216909
              ],
              [
                0.1017115,
                -0.020036
              ],
              [
                0.1065969,
                -0.0136428
              ],
              [
                0.1076803,
                -0.0122168
              ],
              [
                0.1087526,
                -0.0033634
              ],
              [
                0.10888,
                -0.0023194
              ],
              [
                0.1054766,
                0.0070069
              ],
              [
                0.1050625,
                0.0081498
              ],
              [
                0.0983871,
                0.0159546
              ],
              [
                0.0969519,
                0.0176207
              ],
              [
                0.0943736,
                0.0192682
              ],
              [
                0.0859372,
                0.0247363
              ],
              [
                0.0806072,
                0.0263964
              ],
              [
                0.0737142,
                0.0285993
              ],
              [
                0.0655316,
                0.0288416
              ],
              [
                0.061881,
                0.0289665
              ],
              [
                0.0522888,
                0.0262659
              ],
              [
                0.0517261,
                0.0261075
              ],
              [
                0.0497457,
                0.0246558
              ],
              [
                0.0440432,
                0.0207527
              ],
              [
                0.0435665,
                0.0199702
              ],
              [
                0.0395799,
                0.0133882
              ],
              [
                0.0394258,
                0.0116886
              ],
              [
                0.03884,
                0.0048112
              ],
              [
                0.0395382,
                0.0027506
              ]
            ],
            "bounds_normalized": {
              "dimensions": [
                0.070040075,
                0.054866738
              ],
              "max": [
                0.108880048,
                0.028966517
              ],
              "min": [
                0.038839972,
                -0.025900221
              ]
            },
            "centroid_normalized": [
              0.072377047,
              0.002167383
            ],
            "fraction": 0.1,
            "mask": {
              "encoding": "rows_top_to_bottom_1bit_text",
              "occupied_bbox_pixels": [
                17,
                15,
                19,
                16
              ],
              "occupied_fraction": 0.004882812,
              "occupied_pixel_count": 5,
              "origin": "bottom_left",
              "resolution": [
                32,
                32
              ],
              "rows": [
                "00000000000000000000000000000000",
                "00000000000000000000000000000000",
                "00000000000000000000000000000000",
                "00000000000000000000000000000000",
                "00000000000000000000000000000000",
                "00000000000000000000000000000000",
                "00000000000000000000000000000000",
                "00000000000000000000000000000000",
                "00000000000000000000000000000000",
                "00000000000000000000000000000000",
                "00000000000000000000000000000000",
                "00000000000000000000000000000000",
                "00000000000000000000000000000000",
                "00000000000000000000000000000000",
                "00000000000000000000000000000000",
                "00000000000000000110000000000000",
                "00000000000000000111000000000000",
                "00000000000000000000000000000000",
                "00000000000000000000000000000000",
                "00000000000000000000000000000000",
                "00000000000000000000000000000000",
                "00000000000000000000000000000000",
                "00000000000000000000000000000000",
                "00000000000000000000000000000000",
                "00000000000000000000000000000000",
                "00000000000000000000000000000000",
                "00000000000000000000000000000000",
                "00000000000000000000000000000000",
                "00000000000000000000000000000000",
                "00000000000000000000000000000000",
                "00000000000000000000000000000000",
                "00000000000000000000000000000000"
              ]
            },
            "plane_coordinate_native": -0.022132652,
            "segment_count": 36
          },
          {
            "boundary_samples_normalized": [
              [
                -0.0672917,
                0.0071771
              ],
              [
                -0.0658657,
                0.0029327
              ],
              [
                -0.0634224,
                -9.5e-06
              ],
              [
                -0.0600888,
                -0.0040368
              ],
              [
                -0.0571184,
                -0.005921
              ],
              [
                -0.051878,
                -0.009319
              ],
              [
                -0.0491896,
                -0.010125
              ],
              [
                -0.0422395,
                -0.0123062
              ],
              [
                -0.0404338,
                -0.0123488
              ],
              [
                -0.0323597,
                -0.0126736
              ],
              [
                -0.0249457,
                -0.0107729
              ],
              [
                -0.023411,
                -0.0103924
              ],
              [
                -0.0232744,
                -0.0103034
              ],
              [
                -0.0164305,
                -0.0057481
              ],
              [
                -0.015991,
                -0.0050583
              ],
              [
                -0.012291,
                0.0007471
              ],
              [
                -0.0121741,
                0.0019254
              ],
              [
                -0.0114916,
                0.0083205
              ],
              [
                -0.0119262,
                0.0095853
              ],
              [
                -0.0141199,
                0.0160749
              ],
              [
                -0.0148689,
                0.0169975
              ],
              [
                -0.0198291,
                0.0230907
              ],
              [
                -0.0261541,
                0.0273467
              ],
              [
                -0.0277553,
                0.0284324
              ],
              [
                -0.027909,
                0.0285362
              ],
              [
                -0.03625,
                0.0313831
              ],
              [
                -0.0373854,
                0.0317646
              ],
              [
                -0.0450426,
                0.0322293
              ],
              [
                -0.0472178,
                0.0323419
              ],
              [
                -0.0533974,
                0.0308261
              ],
              [
                -0.0562365,
                0.0301003
              ],
              [
                -0.0605515,
                0.0272027
              ],
              [
                -0.0633326,
                0.0252995
              ],
              [
                -0.0651854,
                0.0223757
              ],
              [
                -0.0676019,
                0.0185664
              ],
              [
                -0.0680224,
                0.0149533
              ],
              [
                -0.0684824,
                0.0107835
              ]
            ],
            "bounds_normalized": {
              "dimensions": [
                0.056990818,
                0.04501544
              ],
              "max": [
                -0.01149157,
                0.032341876
              ],
              "min": [
                -0.068482388,
                -0.012673564
              ]
            },
            "centroid_normalized": [
              -0.040031487,
              0.009999409
            ],
            "fraction": 0.25,
            "mask": {
              "encoding": "rows_top_to_bottom_1bit_text",
              "occupied_bbox_pixels": [
                14,
                15,
                15,
                16
              ],
              "occupied_fraction": 0.00390625,
              "occupied_pixel_count": 4,
              "origin": "bottom_left",
              "resolution": [
                32,
                32
              ],
              "rows": [
                "00000000000000000000000000000000",
                "00000000000000000000000000000000",
                "00000000000000000000000000000000",
                "00000000000000000000000000000000",
                "00000000000000000000000000000000",
                "00000000000000000000000000000000",
                "00000000000000000000000000000000",
                "00000000000000000000000000000000",
                "00000000000000000000000000000000",
                "00000000000000000000000000000000",
                "00000000000000000000000000000000",
                "00000000000000000000000000000000",
                "00000000000000000000000000000000",
                "00000000000000000000000000000000",
                "00000000000000000000000000000000",
                "00000000000000110000000000000000",
                "00000000000000110000000000000000",
                "00000000000000000000000000000000",
                "00000000000000000000000000000000",
                "00000000000000000000000000000000",
                "00000000000000000000000000000000",
                "00000000000000000000000000000000",
                "00000000000000000000000000000000",
                "00000000000000000000000000000000",
                "00000000000000000000000000000000",
                "00000000000000000000000000000000",
                "00000000000000000000000000000000",
                "00000000000000000000000000000000",
                "00000000000000000000000000000000",
                "00000000000000000000000000000000",
                "00000000000000000000000000000000",
                "00000000000000000000000000000000"
              ]
            },
            "plane_coordinate_native": -0.013836907,
            "segment_count": 37
          },
          {
            "boundary_samples_normalized": [
              [
                -0.1562771,
                0.004745
              ],
              [
                -0.155635,
                -0.0019956
              ],
              [
                -0.155163,
                -0.0029441
              ],
              [
                -0.151616,
                -0.0089831
              ],
              [
                -0.1461129,
                -0.0137667
              ],
              [
                -0.145586,
                -0.01417
              ],
              [
                -0.1384055,
                -0.016397
              ],
              [
                -0.1379328,
                -0.0165921
              ],
              [
                -0.130174,
                -0.0171757
              ],
              [
                -0.1297694,
                -0.0172027
              ],
              [
                -0.1221489,
                -0.015753
              ],
              [
                -0.1217913,
                -0.0156877
              ],
              [
                -0.116419,
                -0.0110024
              ],
              [
                -0.1161568,
                -0.0107463
              ],
              [
                -0.112743,
                -0.0038819
              ],
              [
                -0.1125291,
                -0.0034579
              ],
              [
                -0.111244,
                0.0039585
              ],
              [
                -0.1111613,
                0.0045971
              ],
              [
                -0.1122222,
                0.0119232
              ],
              [
                -0.1123233,
                0.0127742
              ],
              [
                -0.115566,
                0.0189728
              ],
              [
                -0.1160128,
                0.0199709
              ],
              [
                -0.1213724,
                0.0239186
              ],
              [
                -0.1223843,
                0.0247878
              ],
              [
                -0.1236752,
                0.0252496
              ],
              [
                -0.1296077,
                0.0280325
              ],
              [
                -0.1311712,
                0.0280842
              ],
              [
                -0.1374356,
                0.0273733
              ],
              [
                -0.1390407,
                0.0268655
              ],
              [
                -0.1448962,
                0.0253172
              ],
              [
                -0.1461529,
                0.024161
              ],
              [
                -0.1508875,
                0.0202054
              ],
              [
                -0.1516658,
                0.0187708
              ],
              [
                -0.1551499,
                0.0137333
              ],
              [
                -0.1555528,
                0.0122506
              ],
              [
                -0.1566237,
                0.0060238
              ]
            ],
            "bounds_normalized": {
              "dimensions": [
                0.04546234,
                0.045286861
              ],
              "max": [
                -0.111161321,
                0.028084164
              ],
              "min": [
                -0.156623661,
                -0.017202698
              ]
            },
            "centroid_normalized": [
              -0.133127921,
              0.005887749
            ],
            "fraction": 0.5,
            "mask": {
              "encoding": "rows_top_to_bottom_1bit_text",
              "occupied_bbox_pixels": [
                11,
                15,
                12,
                16
              ],
              "occupied_fraction": 0.00390625,
              "occupied_pixel_count": 4,
              "origin": "bottom_left",
              "resolution": [
                32,
                32
              ],
              "rows": [
                "00000000000000000000000000000000",
                "00000000000000000000000000000000",
                "00000000000000000000000000000000",
                "00000000000000000000000000000000",
                "00000000000000000000000000000000",
                "00000000000000000000000000000000",
                "00000000000000000000000000000000",
                "00000000000000000000000000000000",
                "00000000000000000000000000000000",
                "00000000000000000000000000000000",
                "00000000000000000000000000000000",
                "00000000000000000000000000000000",
                "00000000000000000000000000000000",
                "00000000000000000000000000000000",
                "00000000000000000000000000000000",
                "00000000000110000000000000000000",
                "00000000000110000000000000000000",
                "00000000000000000000000000000000",
                "00000000000000000000000000000000",
                "00000000000000000000000000000000",
                "00000000000000000000000000000000",
                "00000000000000000000000000000000",
                "00000000000000000000000000000000",
                "00000000000000000000000000000000",
                "00000000000000000000000000000000",
                "00000000000000000000000000000000",
                "00000000000000000000000000000000",
                "00000000000000000000000000000000",
                "00000000000000000000000000000000",
                "00000000000000000000000000000000",
                "00000000000000000000000000000000",
                "00000000000000000000000000000000"
              ]
            },
            "plane_coordinate_native": -1.0665e-05,
            "segment_count": 36
          },
          {
            "boundary_samples_normalized": [
              [
                -0.0779319,
                -0.0088222
              ],
              [
                -0.0776991,
                -0.0114744
              ],
              [
                -0.0766354,
                -0.013862
              ],
              [
                -0.074122,
                -0.0183667
              ],
              [
                -0.0723215,
                -0.0194878
              ],
              [
                -0.0680446,
                -0.0239795
              ],
              [
                -0.0669186,
                -0.0244752
              ],
              [
                -0.0594178,
                -0.0262563
              ],
              [
                -0.0594174,
                -0.0262563
              ],
              [
                -0.0518113,
                -0.0268276
              ],
              [
                -0.050405,
                -0.0269416
              ],
              [
                -0.0485892,
                -0.0264609
              ],
              [
                -0.0416602,
                -0.0248215
              ],
              [
                -0.0375885,
                -0.021937
              ],
              [
                -0.0343176,
                -0.0200283
              ],
              [
                -0.0323468,
                -0.0167657
              ],
              [
                -0.0298895,
                -0.0130775
              ],
              [
                -0.0291301,
                -0.009984
              ],
              [
                -0.0282215,
                -0.0054312
              ],
              [
                -0.0286072,
                -0.0006754
              ],
              [
                -0.0290794,
                0.0024459
              ],
              [
                -0.0315147,
                0.0063485
              ],
              [
                -0.0336321,
                0.0092863
              ],
              [
                -0.036791,
                0.0115755
              ],
              [
                -0.040016,
                0.0149426
              ],
              [
                -0.0426793,
                0.0162129
              ],
              [
                -0.0485703,
                0.0174893
              ],
              [
                -0.0502896,
                0.0173849
              ],
              [
                -0.0575444,
                0.0181293
              ],
              [
                -0.0578148,
                0.0180399
              ],
              [
                -0.0594799,
                0.0174232
              ],
              [
                -0.0649167,
                0.0154597
              ],
              [
                -0.0657915,
                0.0152023
              ],
              [
                -0.0715275,
                0.0118933
              ],
              [
                -0.0730112,
                0.0106613
              ],
              [
                -0.0755638,
                0.0057161
              ],
              [
                -0.0770228,
                0.0036835
              ],
              [
                -0.0780019,
                -0.0011407
              ],
              [
                -0.0785084,
                -0.0038412
              ]
            ],
            "bounds_normalized": {
              "dimensions": [
                0.050286905,
                0.045070889
              ],
              "max": [
                -0.028221497,
                0.018129263
              ],
              "min": [
                -0.078508402,
                -0.026941626
              ]
            },
            "centroid_normalized": [
              -0.054406209,
              -0.004631875
            ],
            "fraction": 0.75,
            "mask": {
              "encoding": "rows_top_to_bottom_1bit_text",
              "occupied_bbox_pixels": [
                13,
                15,
                15,
                16
              ],
              "occupied_fraction": 0.005859375,
              "occupied_pixel_count": 6,
              "origin": "bottom_left",
              "resolution": [
                32,
                32
              ],
              "rows": [
                "00000000000000000000000000000000",
                "00000000000000000000000000000000",
                "00000000000000000000000000000000",
                "00000000000000000000000000000000",
                "00000000000000000000000000000000",
                "00000000000000000000000000000000",
                "00000000000000000000000000000000",
                "00000000000000000000000000000000",
                "00000000000000000000000000000000",
                "00000000000000000000000000000000",
                "00000000000000000000000000000000",
                "00000000000000000000000000000000",
                "00000000000000000000000000000000",
                "00000000000000000000000000000000",
                "00000000000000000000000000000000",
                "00000000000001110000000000000000",
                "00000000000001110000000000000000",
                "00000000000000000000000000000000",
                "00000000000000000000000000000000",
                "00000000000000000000000000000000",
                "00000000000000000000000000000000",
                "00000000000000000000000000000000",
                "00000000000000000000000000000000",
                "00000000000000000000000000000000",
                "00000000000000000000000000000000",
                "00000000000000000000000000000000",
                "00000000000000000000000000000000",
                "00000000000000000000000000000000",
                "00000000000000000000000000000000",
                "00000000000000000000000000000000",
                "00000000000000000000000000000000",
                "00000000000000000000000000000000"
              ]
            },
            "plane_coordinate_native": 0.013815576,
            "segment_count": 40
          },
          {
            "boundary_samples_normalized": [
              [
                0.0206959,
                0.0032524
              ],
              [
                0.0224105,
                -0.0028854
              ],
              [
                0.0224888,
                -0.0046897
              ],
              [
                0.0255748,
                -0.0100911
              ],
              [
                0.027137,
                -0.0118654
              ],
              [
                0.0323283,
                -0.0145252
              ],
              [
                0.0360735,
                -0.0163942
              ],
              [
                0.040319,
                -0.0172341
              ],
              [
                0.0467881,
                -0.0187767
              ],
              [
                0.0488241,
                -0.0186166
              ],
              [
                0.0552535,
                -0.0185273
              ],
              [
                0.0576543,
                -0.0183761
              ],
              [
                0.0584345,
                -0.018352
              ],
              [
                0.0658913,
                -0.0150827
              ],
              [
                0.069482,
                -0.014023
              ],
              [
                0.0739235,
                -0.0115419
              ],
              [
                0.0792771,
                -0.0081741
              ],
              [
                0.0806287,
                -0.0064415
              ],
              [
                0.0860609,
                -0.0006388
              ],
              [
                0.0861663,
                -0.0003646
              ],
              [
                0.0869407,
                0.0016758
              ],
              [
                0.0886299,
                0.0070147
              ],
              [
                0.0889126,
                0.007687
              ],
              [
                0.0863359,
                0.0149957
              ],
              [
                0.0861789,
                0.0154573
              ],
              [
                0.0834044,
                0.0203209
              ],
              [
                0.0820175,
                0.0226803
              ],
              [
                0.0751365,
                0.0264753
              ],
              [
                0.0734137,
                0.0273825
              ],
              [
                0.0670901,
                0.0282846
              ],
              [
                0.06258,
                0.029271
              ],
              [
                0.0585739,
                0.0291725
              ],
              [
                0.0509379,
                0.028088
              ],
              [
                0.0499456,
                0.0276995
              ],
              [
                0.046811,
                0.0267174
              ],
              [
                0.0416116,
                0.0252159
              ],
              [
                0.0398365,
                0.0247605
              ],
              [
                0.0338292,
                0.021292
              ],
              [
                0.0303859,
                0.0189405
              ],
              [
                0.0277495,
                0.015721
              ],
              [
                0.0240756,
                0.0115156
              ],
              [
                0.0231539,
                0.0091634
              ]
            ],
            "bounds_normalized": {
              "dimensions": [
                0.068216773,
                0.048047771
              ],
              "max": [
                0.088912625,
                0.029271043
              ],
              "min": [
                0.020695852,
                -0.018776728
              ]
            },
            "centroid_normalized": [
              0.055784836,
              0.005147231
            ],
            "fraction": 0.9,
            "mask": {
              "encoding": "rows_top_to_bottom_1bit_text",
              "occupied_bbox_pixels": [
                16,
                15,
                18,
                16
              ],
              "occupied_fraction": 0.005859375,
              "occupied_pixel_count": 6,
              "origin": "bottom_left",
              "resolution": [
                32,
                32
              ],
              "rows": [
                "00000000000000000000000000000000",
                "00000000000000000000000000000000",
                "00000000000000000000000000000000",
                "00000000000000000000000000000000",
                "00000000000000000000000000000000",
                "00000000000000000000000000000000",
                "00000000000000000000000000000000",
                "00000000000000000000000000000000",
                "00000000000000000000000000000000",
                "00000000000000000000000000000000",
                "00000000000000000000000000000000",
                "00000000000000000000000000000000",
                "00000000000000000000000000000000",
                "00000000000000000000000000000000",
                "00000000000000000000000000000000",
                "00000000000000001110000000000000",
                "00000000000000001110000000000000",
                "00000000000000000000000000000000",
                "00000000000000000000000000000000",
                "00000000000000000000000000000000",
                "00000000000000000000000000000000",
                "00000000000000000000000000000000",
                "00000000000000000000000000000000",
                "00000000000000000000000000000000",
                "00000000000000000000000000000000",
                "00000000000000000000000000000000",
                "00000000000000000000000000000000",
                "00000000000000000000000000000000",
                "00000000000000000000000000000000",
                "00000000000000000000000000000000",
                "00000000000000000000000000000000",
                "00000000000000000000000000000000"
              ]
            },
            "plane_coordinate_native": 0.022111322,
            "segment_count": 42
          }
        ]
      },
      "pca_axis_1": {
        "axis": 1,
        "in_plane_axes": [
          0,
          2
        ],
        "slices": [
          {
            "boundary_samples_normalized": [
              [
                -0.1626703,
                0.0060877
              ],
              [
                -0.1575208,
                0.0021802
              ],
              [
                -0.153958,
                -0.000486
              ],
              [
                -0.142678,
                -0.0046524
              ],
              [
                -0.141603,
                -0.0050493
              ],
              [
                -0.138798,
                -0.005483
              ],
              [
                -0.1230825,
                -0.0075306
              ],
              [
                -0.1047154,
                -0.007704
              ],
              [
                -0.1024042,
                -0.0078599
              ],
              [
                -0.0774443,
                -0.0078866
              ],
              [
                -0.0602442,
                -0.0096031
              ],
              [
                -0.0516593,
                -0.0102948
              ],
              [
                -0.0419109,
                -0.0113591
              ],
              [
                -0.0253806,
                -0.0134174
              ],
              [
                -0.0134206,
                -0.014896
              ],
              [
                0.0013274,
                -0.016757
              ],
              [
                0.0125049,
                -0.0170417
              ],
              [
                0.0280982,
                -0.0183054
              ],
              [
                0.0508089,
                -0.0201131
              ],
              [
                0.05368,
                -0.0202124
              ],
              [
                0.055034,
                -0.0202707
              ],
              [
                0.0764502,
                -0.0203469
              ],
              [
                0.0821323,
                -0.0203771
              ],
              [
                0.0826121,
                -0.0203966
              ],
              [
                0.0853869,
                -0.0202408
              ],
              [
                0.1058551,
                -0.0190652
              ],
              [
                0.1095308,
                -0.0183797
              ],
              [
                0.1238182,
                -0.0149622
              ],
              [
                0.1326449,
                -0.0097971
              ],
              [
                0.1342734,
                -0.0087683
              ],
              [
                0.1346615,
                -0.008119
              ],
              [
                0.1357646,
                -0.0015986
              ],
              [
                0.1354254,
                -0.0010158
              ],
              [
                0.1329504,
                0.0057121
              ],
              [
                0.1293031,
                0.0079274
              ],
              [
                0.1214682,
                0.0126512
              ],
              [
                0.1111434,
                0.0159431
              ],
              [
                0.103462,
                0.0179649
              ],
              [
                0.0839772,
                0.0208322
              ],
              [
                0.0794452,
                0.0214573
              ],
              [
                0.0569853,
                0.0230888
              ],
              [
                0.0523077,
                0.0233848
              ],
              [
                0.0425602,
                0.0240421
              ],
              [
                0.0348287,
                0.0240536
              ],
              [
                0.0309397,
                0.0239046
              ],
              [
                0.014357,
                0.0253448
              ],
              [
                0.0049571,
                0.0262553
              ],
              [
                -0.0089509,
                0.0272118
              ],
              [
                -0.021631,
                0.0285368
              ],
              [
                -0.0404483,
                0.0293947
              ],
              [
                -0.0486264,
                0.0298177
              ],
              [
                -0.069997,
                0.0311468
              ],
              [
                -0.0757244,
                0.0315172
              ],
              [
                -0.0912665,
                0.0335778
              ],
              [
                -0.1045473,
                0.0353333
              ],
              [
                -0.1076946,
                0.0359227
              ],
              [
                -0.1122583,
                0.0361232
              ],
              [
                -0.1282917,
                0.0368433
              ],
              [
                -0.1405283,
                0.0356169
              ],
              [
                -0.1462488,
                0.0344828
              ],
              [
                -0.148222,
                0.0335527
              ],
              [
                -0.1577948,
                0.0290716
              ],
              [
                -0.1609968,
                0.0257825
              ],
              [
                -0.1648833,
                0.0218677
              ],
              [
                -0.1657797,
                0.017324
              ],
              [
                -0.1665359,
                0.0138691
              ],
              [
                -0.1648481,
                0.0104004
              ]
            ],
            "bounds_normalized": {
              "dimensions": [
                0.302300516,
                0.05723992
              ],
              "max": [
                0.135764642,
                0.036843294
              ],
              "min": [
                -0.166535874,
                -0.020396626
              ]
            },
            "centroid_normalized": [
              -0.017672692,
              0.007107967
            ],
            "fraction": 0.1,
            "mask": {
              "encoding": "rows_top_to_bottom_1bit_text",
              "occupied_bbox_pixels": [
                11,
                15,
                19,
                17
              ],
              "occupied_fraction": 0.018554688,
              "occupied_pixel_count": 19,
              "origin": "bottom_left",
              "resolution": [
                32,
                32
              ],
              "rows": [
                "00000000000000000000000000000000",
                "00000000000000000000000000000000",
                "00000000000000000000000000000000",
                "00000000000000000000000000000000",
                "00000000000000000000000000000000",
                "00000000000000000000000000000000",
                "00000000000000000000000000000000",
                "00000000000000000000000000000000",
                "00000000000000000000000000000000",
                "00000000000000000000000000000000",
                "00000000000000000000000000000000",
                "00000000000000000000000000000000",
                "00000000000000000000000000000000",
                "00000000000000000000000000000000",
                "00000000000010000000000000000000",
                "00000000000111111111000000000000",
                "00000000000111111111000000000000",
                "00000000000000000000000000000000",
                "00000000000000000000000000000000",
                "00000000000000000000000000000000",
                "00000000000000000000000000000000",
                "00000000000000000000000000000000",
                "00000000000000000000000000000000",
                "00000000000000000000000000000000",
                "00000000000000000000000000000000",
                "00000000000000000000000000000000",
                "00000000000000000000000000000000",
                "00000000000000000000000000000000",
                "00000000000000000000000000000000",
                "00000000000000000000000000000000",
                "00000000000000000000000000000000",
                "00000000000000000000000000000000"
              ]
            },
            "plane_coordinate_native": -0.005645747,
            "segment_count": 67
          },
          {
            "boundary_samples_normalized": [
              [
                -0.1621159,
                -0.0009295
              ],
              [
                -0.2244087,
                -0.0027671
              ],
              [
                -0.1625958,
                -0.001437
              ],
              [
                -0.2240124,
                -0.003103
              ],
              [
                -0.2210073,
                -0.0043888
              ],
              [
                -0.1651666,
                -0.0027368
              ],
              [
                -0.2125668,
                -0.0078993
              ],
              [
                -0.2101148,
                -0.0083172
              ],
              [
                -0.1726145,
                -0.0067996
              ],
              [
                -0.1750207,
                -0.0073746
              ],
              [
                -0.1990595,
                -0.0102494
              ],
              [
                -0.1922372,
                -0.0100419
              ],
              [
                -0.1851953,
                -0.0098641
              ],
              [
                0.2007696,
                -0.0274965
              ],
              [
                0.1992965,
                -0.027222
              ],
              [
                0.2018123,
                -0.0274762
              ],
              [
                0.1841752,
                -0.0243635
              ],
              [
                0.1745146,
                -0.0209215
              ],
              [
                0.2165696,
                -0.0268637
              ],
              [
                0.1706789,
                -0.0197893
              ],
              [
                0.1674361,
                -0.0189373
              ],
              [
                0.2300857,
                -0.0235483
              ],
              [
                0.2306204,
                -0.0234362
              ],
              [
                0.1622759,
                -0.0150178
              ],
              [
                0.2307474,
                -0.0233447
              ],
              [
                0.2311827,
                -0.0232083
              ],
              [
                0.155306,
                -0.0116289
              ],
              [
                0.1535731,
                -0.0102021
              ],
              [
                0.2421346,
                -0.0185895
              ],
              [
                0.2448272,
                -0.0154644
              ],
              [
                0.149127,
                -0.0055852
              ],
              [
                0.2477184,
                -0.0114877
              ],
              [
                0.1480997,
                -0.0042208
              ],
              [
                0.1478625,
                -0.0039033
              ],
              [
                0.2481879,
                -0.0082211
              ],
              [
                0.1492858,
                -0.0024051
              ],
              [
                0.2490284,
                -0.0038536
              ],
              [
                0.247977,
                -0.0005037
              ],
              [
                0.1551746,
                0.0031007
              ],
              [
                0.2465717,
                0.003667
              ],
              [
                0.1618131,
                0.0061376
              ],
              [
                0.2414185,
                0.0079733
              ],
              [
                0.2391576,
                0.0103685
              ],
              [
                0.1658879,
                0.0094214
              ],
              [
                0.1697534,
                0.010373
              ],
              [
                0.2310131,
                0.0139408
              ],
              [
                0.1752058,
                0.0112764
              ],
              [
                0.2276667,
                0.0153499
              ],
              [
                0.2243786,
                0.0159382
              ],
              [
                0.1817811,
                0.0137543
              ],
              [
                0.1913675,
                0.0153928
              ],
              [
                0.2019475,
                0.0168814
              ],
              [
                0.212982,
                0.0177445
              ],
              [
                0.1972033,
                0.0167731
              ],
              [
                -0.1913598,
                0.0347761
              ],
              [
                -0.1817376,
                0.0329377
              ],
              [
                -0.1779366,
                0.0322244
              ],
              [
                -0.1999859,
                0.034666
              ],
              [
                -0.2054146,
                0.0346038
              ],
              [
                -0.1667182,
                0.0273736
              ],
              [
                -0.1666719,
                0.0273538
              ],
              [
                -0.1664989,
                0.0272095
              ],
              [
                -0.2173706,
                0.0318674
              ],
              [
                -0.2183547,
                0.03164
              ],
              [
                -0.2216497,
                0.0298933
              ],
              [
                -0.1582708,
                0.0206914
              ],
              [
                -0.2283285,
                0.0262705
              ],
              [
                -0.157555,
                0.0191892
              ],
              [
                -0.2331926,
                0.0204713
              ],
              [
                -0.2342538,
                0.0192074
              ],
              [
                -0.1545762,
                0.0131262
              ],
              [
                -0.2352401,
                0.0129851
              ],
              [
                -0.2354887,
                0.0113275
              ],
              [
                -0.1557451,
                0.0072346
              ],
              [
                -0.1561442,
                0.005477
              ],
              [
                -0.2325355,
                0.0048985
              ],
              [
                -0.2319197,
                0.0035799
              ]
            ],
            "bounds_normalized": {
              "dimensions": [
                0.484517195,
                0.062272604
              ],
              "max": [
                0.249028449,
                0.034776097
              ],
              "min": [
                -0.235488746,
                -0.027496507
              ]
            },
            "centroid_normalized": [
              0.015240919,
              0.002902572
            ],
            "fraction": 0.25,
            "mask": {
              "encoding": "rows_top_to_bottom_1bit_text",
              "occupied_bbox_pixels": [
                9,
                15,
                23,
                16
              ],
              "occupied_fraction": 0.012695312,
              "occupied_pixel_count": 13,
              "origin": "bottom_left",
              "resolution": [
                32,
                32
              ],
              "rows": [
                "00000000000000000000000000000000",
                "00000000000000000000000000000000",
                "00000000000000000000000000000000",
                "00000000000000000000000000000000",
                "00000000000000000000000000000000",
                "00000000000000000000000000000000",
                "00000000000000000000000000000000",
                "00000000000000000000000000000000",
                "00000000000000000000000000000000",
                "00000000000000000000000000000000",
                "00000000000000000000000000000000",
                "00000000000000000000000000000000",
                "00000000000000000000000000000000",
                "00000000000000000000000000000000",
                "00000000000000000000000000000000",
                "00000000011100000000111000000000",
                "00000000011100000000111100000000",
                "00000000000000000000000000000000",
                "00000000000000000000000000000000",
                "00000000000000000000000000000000",
                "00000000000000000000000000000000",
                "00000000000000000000000000000000",
                "00000000000000000000000000000000",
                "00000000000000000000000000000000",
                "00000000000000000000000000000000",
                "00000000000000000000000000000000",
                "00000000000000000000000000000000",
                "00000000000000000000000000000000",
                "00000000000000000000000000000000",
                "00000000000000000000000000000000",
                "00000000000000000000000000000000",
                "00000000000000000000000000000000"
              ]
            },
            "plane_coordinate_native": -0.003021264,
            "segment_count": 77
          },
          {
            "boundary_samples_normalized": [
              [
                -0.3404447,
                -0.0007666
              ],
              [
                -0.266637,
                -0.0002519
              ],
              [
                -0.2690628,
                -0.0032095
              ],
              [
                -0.3356624,
                -0.0047609
              ],
              [
                -0.332246,
                -0.0076452
              ],
              [
                -0.2722288,
                -0.0070702
              ],
              [
                -0.3285463,
                -0.0092969
              ],
              [
                -0.2755414,
                -0.008897
              ],
              [
                -0.3207659,
                -0.0126483
              ],
              [
                -0.3182683,
                -0.013152
              ],
              [
                -0.2816974,
                -0.0122107
              ],
              [
                -0.2845835,
                -0.0129047
              ],
              [
                -0.3074631,
                -0.0151431
              ],
              [
                -0.3069279,
                -0.0151415
              ],
              [
                -0.3038798,
                -0.0150808
              ],
              [
                -0.2953358,
                -0.0150393
              ],
              [
                -0.2939307,
                -0.0150104
              ],
              [
                0.3352008,
                -0.0259165
              ],
              [
                0.340231,
                -0.0262559
              ],
              [
                0.3366334,
                -0.025907
              ],
              [
                0.3465551,
                -0.026169
              ],
              [
                0.3490716,
                -0.0261843
              ],
              [
                0.327054,
                -0.0239294
              ],
              [
                0.3215328,
                -0.0231577
              ],
              [
                0.3176335,
                -0.0217432
              ],
              [
                0.355594,
                -0.0238853
              ],
              [
                0.3611098,
                -0.021964
              ],
              [
                0.3111147,
                -0.018197
              ],
              [
                0.3105381,
                -0.017549
              ],
              [
                0.3639105,
                -0.0199042
              ],
              [
                0.3077143,
                -0.0155995
              ],
              [
                0.3033773,
                -0.0130489
              ],
              [
                0.371687,
                -0.0161951
              ],
              [
                0.3021988,
                -0.0122008
              ],
              [
                0.3746644,
                -0.0120734
              ],
              [
                0.2997186,
                -0.006623
              ],
              [
                0.3768295,
                -0.008203
              ],
              [
                0.2988836,
                -0.0047604
              ],
              [
                0.2997413,
                -0.0028812
              ],
              [
                0.3784643,
                -0.0009973
              ],
              [
                0.3787666,
                0.0001058
              ],
              [
                0.2996332,
                0.002968
              ],
              [
                0.3009184,
                0.0042846
              ],
              [
                0.3771785,
                0.0072952
              ],
              [
                0.3767782,
                0.0082703
              ],
              [
                0.3067644,
                0.0094093
              ],
              [
                0.307229,
                0.0098162
              ],
              [
                0.3073223,
                0.0099324
              ],
              [
                0.3719233,
                0.0139301
              ],
              [
                0.3706584,
                0.0151024
              ],
              [
                0.3150693,
                0.0137281
              ],
              [
                0.3180336,
                0.0154791
              ],
              [
                0.3616993,
                0.0178221
              ],
              [
                0.3587999,
                0.0188741
              ],
              [
                0.323636,
                0.0173362
              ],
              [
                0.3525823,
                0.0193922
              ],
              [
                0.3336349,
                0.0187814
              ],
              [
                0.3318496,
                0.0187415
              ],
              [
                0.3375247,
                0.0191046
              ],
              [
                0.3431302,
                0.0199692
              ],
              [
                0.3456693,
                0.0201828
              ],
              [
                -0.3012767,
                0.0293012
              ],
              [
                -0.3008057,
                0.0291951
              ],
              [
                -0.2983278,
                0.0286629
              ],
              [
                -0.3121965,
                0.0294294
              ],
              [
                -0.314865,
                0.0294865
              ],
              [
                -0.2896999,
                0.0268964
              ],
              [
                -0.2881629,
                0.0265948
              ],
              [
                -0.3231443,
                0.0277943
              ],
              [
                -0.3274131,
                0.0269537
              ],
              [
                -0.2798677,
                0.0228854
              ],
              [
                -0.2770251,
                0.0216351
              ],
              [
                -0.3327713,
                0.0242046
              ],
              [
                -0.2743946,
                0.0194058
              ],
              [
                -0.3372878,
                0.0219307
              ],
              [
                -0.3400354,
                0.0187085
              ],
              [
                -0.2691903,
                0.0149845
              ],
              [
                -0.3431722,
                0.0150304
              ],
              [
                -0.2676262,
                0.0116691
              ],
              [
                -0.3436685,
                0.0115481
              ],
              [
                -0.2655811,
                0.0074001
              ],
              [
                -0.3442662,
                0.0071267
              ],
              [
                -0.2660933,
                0.0038304
              ],
              [
                -0.342447,
                0.0033566
              ]
            ],
            "bounds_normalized": {
              "dimensions": [
                0.723032807,
                0.055742378
              ],
              "max": [
                0.378766601,
                0.02948646
              ],
              "min": [
                -0.344266206,
                -0.026255918
              ]
            },
            "centroid_normalized": [
              0.031377609,
              0.002106923
            ],
            "fraction": 0.5,
            "mask": {
              "encoding": "rows_top_to_bottom_1bit_text",
              "occupied_bbox_pixels": [
                6,
                15,
                26,
                16
              ],
              "occupied_fraction": 0.01171875,
              "occupied_pixel_count": 12,
              "origin": "bottom_left",
              "resolution": [
                32,
                32
              ],
              "rows": [
                "00000000000000000000000000000000",
                "00000000000000000000000000000000",
                "00000000000000000000000000000000",
                "00000000000000000000000000000000",
                "00000000000000000000000000000000",
                "00000000000000000000000000000000",
                "00000000000000000000000000000000",
                "00000000000000000000000000000000",
                "00000000000000000000000000000000",
                "00000000000000000000000000000000",
                "00000000000000000000000000000000",
                "00000000000000000000000000000000",
                "00000000000000000000000000000000",
                "00000000000000000000000000000000",
                "00000000000000000000000000000000",
                "00000011100000000000000011100000",
                "00000011100000000000000011100000",
                "00000000000000000000000000000000",
                "00000000000000000000000000000000",
                "00000000000000000000000000000000",
                "00000000000000000000000000000000",
                "00000000000000000000000000000000",
                "00000000000000000000000000000000",
                "00000000000000000000000000000000",
                "00000000000000000000000000000000",
                "00000000000000000000000000000000",
                "00000000000000000000000000000000",
                "00000000000000000000000000000000",
                "00000000000000000000000000000000",
                "00000000000000000000000000000000",
                "00000000000000000000000000000000",
                "00000000000000000000000000000000"
              ]
            },
            "plane_coordinate_native": 0.001352874,
            "segment_count": 84
          },
          {
            "boundary_samples_normalized": [
              [
                -0.46282,
                0.0042824
              ],
              [
                -0.3683269,
                0.0038176
              ],
              [
                -0.4629545,
                0.0021093
              ],
              [
                -0.3668664,
                0.000577
              ],
              [
                -0.3668985,
                0.0003273
              ],
              [
                -0.4566059,
                -0.0079909
              ],
              [
                -0.4565081,
                -0.0081411
              ],
              [
                -0.4559195,
                -0.0085568
              ],
              [
                -0.3679632,
                -0.0081838
              ],
              [
                -0.3682318,
                -0.0085284
              ],
              [
                -0.4452659,
                -0.0168621
              ],
              [
                -0.3740768,
                -0.0159356
              ],
              [
                -0.3741269,
                -0.0159642
              ],
              [
                -0.3746773,
                -0.0162707
              ],
              [
                -0.4346373,
                -0.021378
              ],
              [
                -0.4304788,
                -0.0230663
              ],
              [
                -0.3833253,
                -0.0213846
              ],
              [
                -0.384378,
                -0.021996
              ],
              [
                -0.4212907,
                -0.0248151
              ],
              [
                -0.4140998,
                -0.0260341
              ],
              [
                -0.3947971,
                -0.0247385
              ],
              [
                -0.4077197,
                -0.0259189
              ],
              [
                -0.3981555,
                -0.0255772
              ],
              [
                0.4192824,
                -0.0130541
              ],
              [
                0.4174003,
                -0.0128898
              ],
              [
                0.4111382,
                -0.0124934
              ],
              [
                0.4086912,
                -0.0122064
              ],
              [
                0.4079374,
                -0.0118983
              ],
              [
                0.4254257,
                -0.01154
              ],
              [
                0.4300316,
                -0.0103702
              ],
              [
                0.3998278,
                -0.0082127
              ],
              [
                0.4330874,
                -0.0086684
              ],
              [
                0.3980409,
                -0.0061415
              ],
              [
                0.4401963,
                -0.0065216
              ],
              [
                0.4425658,
                -0.0046669
              ],
              [
                0.3937871,
                -0.0019242
              ],
              [
                0.4480678,
                -0.0002151
              ],
              [
                0.3925989,
                0.0012956
              ],
              [
                0.449571,
                0.0021777
              ],
              [
                0.3909775,
                0.0057436
              ],
              [
                0.453292,
                0.0071701
              ],
              [
                0.3911967,
                0.0092006
              ],
              [
                0.4540486,
                0.0115135
              ],
              [
                0.4546864,
                0.0150512
              ],
              [
                0.3928236,
                0.0140481
              ],
              [
                0.3942613,
                0.0164779
              ],
              [
                0.4540517,
                0.0199122
              ],
              [
                0.4530298,
                0.0226748
              ],
              [
                0.3971547,
                0.0221151
              ],
              [
                0.450247,
                0.0255987
              ],
              [
                0.4031252,
                0.0266877
              ],
              [
                0.4471219,
                0.0289666
              ],
              [
                0.44399,
                0.0301669
              ],
              [
                0.4055879,
                0.0284671
              ],
              [
                0.4376354,
                0.0321824
              ],
              [
                0.4128937,
                0.0308311
              ],
              [
                0.436683,
                0.0322945
              ],
              [
                0.4341633,
                0.0328698
              ],
              [
                0.4162564,
                0.0319612
              ],
              [
                0.4209903,
                0.0326242
              ],
              [
                0.4289803,
                0.0340433
              ],
              [
                0.4273854,
                0.0343221
              ],
              [
                -0.4239858,
                0.030126
              ],
              [
                -0.4119859,
                0.0292513
              ],
              [
                -0.4070607,
                0.0289179
              ],
              [
                -0.4260885,
                0.0298029
              ],
              [
                -0.3987227,
                0.0265124
              ],
              [
                -0.4389269,
                0.0278305
              ],
              [
                -0.4399985,
                0.0277073
              ],
              [
                -0.44028,
                0.0276733
              ],
              [
                -0.391534,
                0.0245076
              ],
              [
                -0.3870099,
                0.0220142
              ],
              [
                -0.4516655,
                0.0228364
              ],
              [
                -0.4540205,
                0.0218145
              ],
              [
                -0.3790509,
                0.0177135
              ],
              [
                -0.4601928,
                0.0149817
              ],
              [
                -0.4621731,
                0.0127444
              ],
              [
                -0.3712983,
                0.0100748
              ],
              [
                -0.3706786,
                0.0094607
              ]
            ],
            "bounds_normalized": {
              "dimensions": [
                0.917640859,
                0.060356155
              ],
              "max": [
                0.454686381,
                0.0343221
              ],
              "min": [
                -0.462954478,
                -0.026034055
              ]
            },
            "centroid_normalized": [
              0.000423238,
              0.006346003
            ],
            "fraction": 0.75,
            "mask": {
              "encoding": "rows_top_to_bottom_1bit_text",
              "occupied_bbox_pixels": [
                2,
                15,
                28,
                16
              ],
              "occupied_fraction": 0.01171875,
              "occupied_pixel_count": 12,
              "origin": "bottom_left",
              "resolution": [
                32,
                32
              ],
              "rows": [
                "00000000000000000000000000000000",
                "00000000000000000000000000000000",
                "00000000000000000000000000000000",
                "00000000000000000000000000000000",
                "00000000000000000000000000000000",
                "00000000000000000000000000000000",
                "00000000000000000000000000000000",
                "00000000000000000000000000000000",
                "00000000000000000000000000000000",
                "00000000000000000000000000000000",
                "00000000000000000000000000000000",
                "00000000000000000000000000000000",
                "00000000000000000000000000000000",
                "00000000000000000000000000000000",
                "00000000000000000000000000000000",
                "00111100000000000000000000011000",
                "00111100000000000000000000011000",
                "00000000000000000000000000000000",
                "00000000000000000000000000000000",
                "00000000000000000000000000000000",
                "00000000000000000000000000000000",
                "00000000000000000000000000000000",
                "00000000000000000000000000000000",
                "00000000000000000000000000000000",
                "00000000000000000000000000000000",
                "00000000000000000000000000000000",
                "00000000000000000000000000000000",
                "00000000000000000000000000000000",
                "00000000000000000000000000000000",
                "00000000000000000000000000000000",
                "00000000000000000000000000000000",
                "00000000000000000000000000000000"
              ]
            },
            "plane_coordinate_native": 0.005727012,
            "segment_count": 79
          },
          {
            "boundary_samples_normalized": [
              [
                -0.4218544,
                0.0074559
              ],
              [
                -0.4198522,
                0.0020666
              ],
              [
                -0.4175062,
                -0.0041173
              ],
              [
                -0.4184055,
                -0.0102467
              ],
              [
                -0.4191203,
                -0.0153548
              ],
              [
                -0.4230647,
                -0.0206895
              ],
              [
                -0.4265837,
                -0.025455
              ],
              [
                -0.4323096,
                -0.0290384
              ],
              [
                -0.4395232,
                -0.033511
              ],
              [
                -0.4450634,
                -0.0351183
              ],
              [
                -0.4783398,
                -0.0392719
              ],
              [
                -0.4779065,
                -0.0393481
              ],
              [
                -0.4778187,
                -0.0393611
              ],
              [
                -0.4605257,
                -0.0386967
              ],
              [
                -0.4571235,
                -0.0385003
              ],
              [
                0.4656095,
                -0.0019605
              ],
              [
                0.4663122,
                -0.001935
              ],
              [
                0.4650203,
                -0.00188
              ],
              [
                0.4556174,
                -0.0009747
              ],
              [
                0.4756162,
                -0.0008513
              ],
              [
                0.4494075,
                0.0015596
              ],
              [
                0.44736,
                0.002366
              ],
              [
                0.4465059,
                0.0029474
              ],
              [
                0.4848139,
                0.0026573
              ],
              [
                0.4853553,
                0.0029071
              ],
              [
                0.4856792,
                0.0032292
              ],
              [
                0.4433272,
                0.0056553
              ],
              [
                0.4413257,
                0.0071747
              ],
              [
                0.4409638,
                0.0076068
              ],
              [
                0.4916903,
                0.0087921
              ],
              [
                0.496115,
                0.0150447
              ],
              [
                0.4394753,
                0.0141085
              ],
              [
                0.4392365,
                0.0147337
              ],
              [
                0.4966074,
                0.0159752
              ],
              [
                0.4975932,
                0.0171625
              ],
              [
                0.4995894,
                0.0210873
              ],
              [
                0.4396437,
                0.0224156
              ],
              [
                0.4396443,
                0.0224225
              ],
              [
                0.4396598,
                0.0224402
              ],
              [
                0.4970256,
                0.025958
              ],
              [
                0.496866,
                0.0264486
              ],
              [
                0.4961574,
                0.0281601
              ],
              [
                0.4938801,
                0.0321493
              ],
              [
                0.4459255,
                0.0294254
              ],
              [
                0.4931083,
                0.0331735
              ],
              [
                0.4891689,
                0.0365639
              ],
              [
                0.4506731,
                0.0335939
              ],
              [
                0.4861122,
                0.0388843
              ],
              [
                0.4533829,
                0.0359901
              ],
              [
                0.4548549,
                0.0366148
              ],
              [
                0.4832,
                0.0398417
              ],
              [
                0.4579233,
                0.0372609
              ],
              [
                0.4620141,
                0.0383892
              ],
              [
                0.464341,
                0.0393377
              ],
              [
                0.4770179,
                0.0407234
              ],
              [
                0.4761097,
                0.040781
              ],
              [
                0.4756397,
                0.0408324
              ],
              [
                0.4687811,
                0.0402986
              ],
              [
                -0.4474763,
                0.0281519
              ],
              [
                -0.4347198,
                0.0202587
              ],
              [
                -0.432071,
                0.0186512
              ],
              [
                -0.4293303,
                0.0156613
              ]
            ],
            "bounds_normalized": {
              "dimensions": [
                0.977929271,
                0.080193598
              ],
              "max": [
                0.49958944,
                0.04083245
              ],
              "min": [
                -0.478339832,
                -0.039361148
              ]
            },
            "centroid_normalized": [
              0.200961705,
              0.009937828
            ],
            "fraction": 0.9,
            "mask": {
              "encoding": "rows_top_to_bottom_1bit_text",
              "occupied_bbox_pixels": [
                2,
                14,
                30,
                17
              ],
              "occupied_fraction": 0.03515625,
              "occupied_pixel_count": 36,
              "origin": "bottom_left",
              "resolution": [
                32,
                32
              ],
              "rows": [
                "00000000000000000000000000000000",
                "00000000000000000000000000000000",
                "00000000000000000000000000000000",
                "00000000000000000000000000000000",
                "00000000000000000000000000000000",
                "00000000000000000000000000000000",
                "00000000000000000000000000000000",
                "00000000000000000000000000000000",
                "00000000000000000000000000000000",
                "00000000000000000000000000000000",
                "00000000000000000000000000000000",
                "00000000000000000000000000000000",
                "00000000000000000000000000000000",
                "00000000000000000000000000000000",
                "00000000000000000000000000001100",
                "00011000000000000000000000001110",
                "00011111111111111111111111111100",
                "00110000000000000000000000000000",
                "00000000000000000000000000000000",
                "00000000000000000000000000000000",
                "00000000000000000000000000000000",
                "00000000000000000000000000000000",
                "00000000000000000000000000000000",
                "00000000000000000000000000000000",
                "00000000000000000000000000000000",
                "00000000000000000000000000000000",
                "00000000000000000000000000000000",
                "00000000000000000000000000000000",
                "00000000000000000000000000000000",
                "00000000000000000000000000000000",
                "00000000000000000000000000000000",
                "00000000000000000000000000000000"
              ]
            },
            "plane_coordinate_native": 0.008351494,
            "segment_count": 61
          }
        ]
      },
      "pca_axis_2": {
        "axis": 2,
        "in_plane_axes": [
          0,
          1
        ],
        "slices": [
          {
            "boundary_samples_normalized": [
              [
                -0.463209,
                0.1095845
              ],
              [
                -0.4499354,
                0.1057876
              ],
              [
                -0.4452842,
                0.1064536
              ],
              [
                -0.4353961,
                0.1087041
              ],
              [
                -0.4356778,
                0.1132047
              ],
              [
                -0.4365739,
                0.1238741
              ],
              [
                -0.4487732,
                0.1433425
              ],
              [
                -0.489678,
                0.1187607
              ],
              [
                -0.4873349,
                0.1176713
              ],
              [
                -0.4851586,
                0.116694
              ]
            ],
            "bounds_normalized": {
              "dimensions": [
                0.05428187,
                0.037554961
              ],
              "max": [
                -0.435396088,
                0.14334252
              ],
              "min": [
                -0.489677958,
                0.10578756
              ]
            },
            "centroid_normalized": [
              -0.456421712,
              0.114780602
            ],
            "fraction": 0.1,
            "mask": {
              "encoding": "rows_top_to_bottom_1bit_text",
              "occupied_bbox_pixels": [
                2,
                18,
                3,
                20
              ],
              "occupied_fraction": 0.00390625,
              "occupied_pixel_count": 4,
              "origin": "bottom_left",
              "resolution": [
                32,
                32
              ],
              "rows": [
                "00000000000000000000000000000000",
                "00000000000000000000000000000000",
                "00000000000000000000000000000000",
                "00000000000000000000000000000000",
                "00000000000000000000000000000000",
                "00000000000000000000000000000000",
                "00000000000000000000000000000000",
                "00000000000000000000000000000000",
                "00000000000000000000000000000000",
                "00000000000000000000000000000000",
                "00000000000000000000000000000000",
                "00010000000000000000000000000000",
                "00110000000000000000000000000000",
                "00010000000000000000000000000000",
                "00000000000000000000000000000000",
                "00000000000000000000000000000000",
                "00000000000000000000000000000000",
                "00000000000000000000000000000000",
                "00000000000000000000000000000000",
                "00000000000000000000000000000000",
                "00000000000000000000000000000000",
                "00000000000000000000000000000000",
                "00000000000000000000000000000000",
                "00000000000000000000000000000000",
                "00000000000000000000000000000000",
                "00000000000000000000000000000000",
                "00000000000000000000000000000000",
                "00000000000000000000000000000000",
                "00000000000000000000000000000000",
                "00000000000000000000000000000000",
                "00000000000000000000000000000000",
                "00000000000000000000000000000000"
              ]
            },
            "plane_coordinate_native": -0.002064186,
            "segment_count": 9
          },
          {
            "boundary_samples_normalized": [
              [
                0.0457681,
                -0.1351112
              ],
              [
                0.0554934,
                -0.1289142
              ],
              [
                0.0537887,
                -0.1347949
              ],
              [
                0.0566311,
                -0.1346906
              ],
              [
                0.059998,
                -0.1336611
              ],
              [
                0.0778796,
                -0.1278539
              ],
              [
                0.0815665,
                -0.1189708
              ],
              [
                0.0833644,
                -0.1193099
              ],
              [
                0.0838971,
                -0.126121
              ],
              [
                0.0913635,
                -0.1117803
              ],
              [
                0.103096,
                -0.1059466
              ],
              [
                0.1078593,
                -0.1215745
              ],
              [
                0.1080048,
                -0.1041457
              ],
              [
                0.1317067,
                -0.1174972
              ],
              [
                0.1333796,
                -0.1172812
              ],
              [
                0.1337332,
                -0.1172401
              ],
              [
                0.1344483,
                -0.1171306
              ],
              [
                0.1274366,
                -0.0979747
              ],
              [
                0.1305143,
                -0.0962706
              ],
              [
                0.1528312,
                -0.1130218
              ],
              [
                0.1586315,
                -0.1119156
              ],
              [
                0.1704346,
                -0.1097274
              ],
              [
                0.1507549,
                -0.0871003
              ],
              [
                0.1851291,
                -0.1068139
              ],
              [
                0.1906736,
                -0.1043649
              ],
              [
                0.1661283,
                -0.0816133
              ],
              [
                0.1743464,
                -0.0785607
              ],
              [
                0.2093268,
                -0.0945068
              ],
              [
                0.1795309,
                -0.076178
              ],
              [
                0.218379,
                -0.089021
              ],
              [
                0.1971154,
                -0.0691544
              ],
              [
                0.2329496,
                -0.0823238
              ],
              [
                0.2043454,
                -0.0654515
              ],
              [
                0.2453565,
                -0.0739208
              ],
              [
                0.2553161,
                -0.068525
              ],
              [
                0.2187014,
                -0.056881
              ],
              [
                0.2242685,
                -0.052786
              ],
              [
                0.2707468,
                -0.0600624
              ],
              [
                0.2783012,
                -0.0551844
              ],
              [
                0.2393633,
                -0.0420206
              ],
              [
                0.2897002,
                -0.0469121
              ],
              [
                0.2425177,
                -0.0400838
              ],
              [
                0.3006853,
                -0.0402539
              ],
              [
                0.3158228,
                -0.0303814
              ],
              [
                0.2615695,
                -0.0272428
              ],
              [
                0.323755,
                -0.0256765
              ],
              [
                0.331549,
                -0.0213133
              ],
              [
                0.2813577,
                -0.0173839
              ],
              [
                0.3485598,
                -0.0125103
              ],
              [
                0.2856236,
                -0.0149485
              ],
              [
                0.3013815,
                -0.0077836
              ],
              [
                0.3100839,
                -0.003575
              ],
              [
                0.3666691,
                0.0029983
              ],
              [
                0.3706169,
                0.0060306
              ],
              [
                0.3721823,
                0.0079588
              ],
              [
                0.3755861,
                0.0118405
              ],
              [
                0.3226959,
                0.0051413
              ],
              [
                0.3323243,
                0.0108794
              ],
              [
                0.3829359,
                0.0217503
              ],
              [
                0.3413567,
                0.0163241
              ],
              [
                0.3879281,
                0.0291109
              ],
              [
                0.354114,
                0.0257844
              ],
              [
                0.3901774,
                0.0342282
              ],
              [
                0.3923462,
                0.0385509
              ],
              [
                0.3671989,
                0.0355271
              ],
              [
                0.3897931,
                0.0428996
              ],
              [
                0.376927,
                0.0404953
              ],
              [
                0.3894473,
                0.047174
              ],
              [
                -0.4397872,
                0.146732
              ],
              [
                -0.425277,
                0.1293996
              ],
              [
                -0.4109317,
                0.1122658
              ],
              [
                -0.4026115,
                0.1039919
              ],
              [
                -0.4978441,
                0.1098302
              ],
              [
                -0.3795615,
                0.0764853
              ],
              [
                -0.4723753,
                0.0965138
              ],
              [
                -0.459324,
                0.0904457
              ],
              [
                -0.4507402,
                0.0865911
              ],
              [
                -0.3729676,
                0.0699285
              ],
              [
                -0.4317688,
                0.0763692
              ],
              [
                -0.3679904,
                0.062573
              ],
              [
                -0.4113482,
                0.0655833
              ],
              [
                -0.4068683,
                0.0637425
              ],
              [
                -0.4010635,
                0.0615247
              ],
              [
                -0.3589257,
                0.0488271
              ],
              [
                -0.3833663,
                0.0528511
              ],
              [
                -0.3656736,
                0.0474776
              ],
              [
                -0.3712177,
                0.0471976
              ]
            ],
            "bounds_normalized": {
              "dimensions": [
                0.890190314,
                0.28184322
              ],
              "max": [
                0.3923462,
                0.146732018
              ],
              "min": [
                -0.497844115,
                -0.135111202
              ]
            },
            "centroid_normalized": [
              0.096356261,
              -0.028334012
            ],
            "fraction": 0.25,
            "mask": {
              "encoding": "rows_top_to_bottom_1bit_text",
              "occupied_bbox_pixels": [
                1,
                12,
                27,
                20
              ],
              "occupied_fraction": 0.029296875,
              "occupied_pixel_count": 30,
              "origin": "bottom_left",
              "resolution": [
                32,
                32
              ],
              "rows": [
                "00000000000000000000000000000000",
                "00000000000000000000000000000000",
                "00000000000000000000000000000000",
                "00000000000000000000000000000000",
                "00000000000000000000000000000000",
                "00000000000000000000000000000000",
                "00000000000000000000000000000000",
                "00000000000000000000000000000000",
                "00000000000000000000000000000000",
                "00000000000000000000000000000000",
                "00000000000000000000000000000000",
                "00010000000000000000000000000000",
                "01001000000000000000000000000000",
                "00111100000000000000000000000000",
                "00001100000000000000000000110000",
                "00000000000000000000000001100000",
                "00000000000000000000000111000000",
                "00000000000000000000011110000000",
                "00000000000000000011111000000000",
                "00000000000000000111110000000000",
                "00000000000000000000000000000000",
                "00000000000000000000000000000000",
                "00000000000000000000000000000000",
                "00000000000000000000000000000000",
                "00000000000000000000000000000000",
                "00000000000000000000000000000000",
                "00000000000000000000000000000000",
                "00000000000000000000000000000000",
                "00000000000000000000000000000000",
                "00000000000000000000000000000000",
                "00000000000000000000000000000000",
                "00000000000000000000000000000000"
              ]
            },
            "plane_coordinate_native": -0.001385586,
            "segment_count": 86
          },
          {
            "boundary_samples_normalized": [
              [
                -0.2331103,
                -0.0256778
              ],
              [
                -0.2696521,
                -0.0496449
              ],
              [
                -0.2500878,
                -0.0633686
              ],
              [
                -0.18761,
                -0.059824
              ],
              [
                -0.1643663,
                -0.0770029
              ],
              [
                -0.191883,
                -0.1034486
              ],
              [
                -0.1798887,
                -0.1115669
              ],
              [
                -0.1303048,
                -0.0996822
              ],
              [
                -0.1010787,
                -0.1130023
              ],
              [
                -0.1413889,
                -0.1343779
              ],
              [
                -0.141244,
                -0.1344546
              ],
              [
                -0.0641897,
                -0.1168243
              ],
              [
                -0.1075998,
                -0.1479081
              ],
              [
                -0.1055913,
                -0.1483495
              ],
              [
                -0.0309587,
                -0.1143477
              ],
              [
                -0.0246815,
                -0.1139865
              ],
              [
                -0.0211067,
                -0.1136635
              ],
              [
                -0.078282,
                -0.1532145
              ],
              [
                0.0018718,
                -0.1117762
              ],
              [
                0.0174565,
                -0.1113469
              ],
              [
                -0.0292884,
                -0.154641
              ],
              [
                -0.0158223,
                -0.1553734
              ],
              [
                0.0040382,
                -0.1559403
              ],
              [
                0.0483263,
                -0.1090056
              ],
              [
                0.0191082,
                -0.1553631
              ],
              [
                0.0322778,
                -0.1549202
              ],
              [
                0.0418923,
                -0.15363
              ],
              [
                0.0607128,
                -0.1511714
              ],
              [
                0.0659575,
                -0.149752
              ],
              [
                0.087765,
                -0.1438002
              ],
              [
                0.1004202,
                -0.0935655
              ],
              [
                0.1121703,
                -0.1361676
              ],
              [
                0.1134406,
                -0.1357565
              ],
              [
                0.1326361,
                -0.1274923
              ],
              [
                0.1252256,
                -0.0867736
              ],
              [
                0.1447236,
                -0.123407
              ],
              [
                0.1621206,
                -0.1187661
              ],
              [
                0.1495951,
                -0.0796831
              ],
              [
                0.1873236,
                -0.1105526
              ],
              [
                0.1967309,
                -0.1054286
              ],
              [
                0.1729233,
                -0.0737043
              ],
              [
                0.2214153,
                -0.0936924
              ],
              [
                0.2352078,
                -0.0866264
              ],
              [
                0.194067,
                -0.0632537
              ],
              [
                0.2007847,
                -0.0588478
              ],
              [
                0.2691194,
                -0.0668596
              ],
              [
                0.2149346,
                -0.0503166
              ],
              [
                0.293119,
                -0.0525922
              ],
              [
                0.3035648,
                -0.0459066
              ],
              [
                0.2368936,
                -0.0373615
              ],
              [
                0.3272723,
                -0.0325386
              ],
              [
                0.2519678,
                -0.0274104
              ],
              [
                0.2589244,
                -0.0229856
              ],
              [
                0.2754306,
                -0.0142736
              ],
              [
                0.3745456,
                -0.0036397
              ],
              [
                0.2824058,
                -0.0101865
              ],
              [
                0.2903848,
                -0.0058285
              ],
              [
                0.3050559,
                0.003363
              ],
              [
                0.3166724,
                0.0102727
              ],
              [
                0.3267014,
                0.0169974
              ],
              [
                0.4148134,
                0.0374674
              ],
              [
                0.4220038,
                0.0457726
              ],
              [
                0.4306948,
                0.0579564
              ],
              [
                0.4415365,
                0.0710313
              ],
              [
                0.3638139,
                0.0506613
              ],
              [
                0.4451248,
                0.0753073
              ],
              [
                0.3655077,
                0.0523027
              ],
              [
                0.4544442,
                0.0873672
              ],
              [
                0.4566548,
                0.0908713
              ],
              [
                0.4609721,
                0.0972294
              ],
              [
                0.4687732,
                0.1068794
              ],
              [
                0.3983746,
                0.0846125
              ],
              [
                0.400488,
                0.0868127
              ],
              [
                0.4756057,
                0.1169437
              ],
              [
                0.4027004,
                0.0886364
              ],
              [
                0.4193778,
                0.1006343
              ],
              [
                0.4776506,
                0.1289227
              ],
              [
                0.475247,
                0.1300059
              ],
              [
                0.4343464,
                0.1133234
              ],
              [
                0.4436061,
                0.1196586
              ],
              [
                0.4484174,
                0.1227519
              ],
              [
                0.4666906,
                0.1341961
              ],
              [
                0.459266,
                0.1313062
              ],
              [
                0.461096,
                0.1325483
              ],
              [
