{
  "bounds": {
    "center": [
      0.00339182,
      0.834110707,
      -0.090184469
    ],
    "diagonal": 0.050478643,
    "dimensions": [
      0.016792401,
      0.039296091,
      0.026868679
    ],
    "max": [
      0.011788021,
      0.853758752,
      -0.076750129
    ],
    "min": [
      -0.00500438,
      0.814462662,
      -0.103618808
    ]
  },
  "centroids": {
    "surface_area_weighted": [
      0.000885273,
      0.83408755,
      -0.088258456
    ],
    "vertex_mean": [
      0.001357234,
      0.833568815,
      -0.087815185
    ],
    "volume_if_watertight": [
      0.000530138,
      0.834262279,
      -0.088141952
    ]
  },
  "cleaning": {
    "degenerate_faces_removed": 0,
    "unused_vertices_removed": 0,
    "vertices_welded": 0,
    "weld_tolerance": 0.0
  },
  "counts": {
    "analyzed_face_count": 3082,
    "analyzed_vertex_count": 1543,
    "source_face_count": 3082,
    "source_vertex_count": 1543
  },
  "mesh_name": "Allen_paracentral_lobule_rostral_part_R",
  "pca": {
    "basis": "exact_uniform_surface_moments",
    "eigenvalues": [
      0.000116685,
      3.8584e-05,
      1.0971e-05
    ],
    "oriented_bounds": {
      "center": [
        -0.001155257,
        0.000468016,
        -0.000662041
      ],
      "dimensions": [
        0.040302411,
        0.025048811,
        0.013994603
      ],
      "max": [
        0.018995948,
        0.012992422,
        0.006335261
      ],
      "min": [
        -0.021306463,
        -0.012056389,
        -0.007659342
      ]
    },
    "principal_axes_world": [
      [
        -0.255164459,
        0.932949036,
        -0.25396298
      ],
      [
        0.037947505,
        0.272117934,
        0.961515375
      ],
      [
        0.966152724,
        0.235707289,
        -0.104837913
      ]
    ]
  },
  "sampling": {
    "cross_sections_pca": {
      "pca_axis_0": {
        "axis": 0,
        "in_plane_axes": [
          1,
          2
        ],
        "slices": [
          {
            "boundary_samples_normalized": [
              [
                -0.1923124,
                0.0902745
              ],
              [
                -0.192078,
                0.0851412
              ],
              [
                -0.1886082,
                0.0740197
              ],
              [
                -0.1883833,
                0.0734665
              ],
              [
                -0.173701,
                0.0614943
              ],
              [
                -0.1732406,
                0.0611345
              ],
              [
                -0.1724329,
                0.0610574
              ],
              [
                -0.1476853,
                0.0617895
              ],
              [
                -0.1236997,
                0.0627885
              ],
              [
                -0.1054182,
                0.0685145
              ],
              [
                -0.0955901,
                0.0715058
              ],
              [
                -0.0792002,
                0.0724678
              ],
              [
                -0.0790886,
                0.0724747
              ],
              [
                -0.0789273,
                0.0723737
              ],
              [
                -0.0786447,
                0.0720889
              ],
              [
                -0.0474463,
                0.047265
              ],
              [
                -0.0438879,
                0.0424707
              ],
              [
                -0.0354288,
                0.0296194
              ],
              [
                -0.0250761,
                0.0206195
              ],
              [
                -0.0245303,
                0.0199395
              ],
              [
                -0.0231602,
                0.0190289
              ],
              [
                -0.0078903,
                0.0067547
              ],
              [
                0.0069324,
                0.0017989
              ],
              [
                0.0166217,
                0.0003468
              ],
              [
                0.0399503,
                0.0015909
              ],
              [
                0.0594345,
                0.0019791
              ],
              [
                0.0625405,
                0.0026861
              ],
              [
                0.0751158,
                0.005692
              ],
              [
                0.0795224,
                0.0093014
              ],
              [
                0.0948616,
                0.0220074
              ],
              [
                0.0987882,
                0.0258349
              ],
              [
                0.108251,
                0.0331158
              ],
              [
                0.1161493,
                0.0432066
              ],
              [
                0.1211108,
                0.0624145
              ],
              [
                0.1212854,
                0.0633627
              ],
              [
                0.1324489,
                0.0919686
              ],
              [
                0.1329603,
                0.092825
              ],
              [
                0.1383076,
                0.0975672
              ],
              [
                0.1559115,
                0.1119472
              ],
              [
                0.1604451,
                0.1148999
              ],
              [
                0.1641712,
                0.1204781
              ],
              [
                0.1700113,
                0.1286438
              ],
              [
                0.1546326,
                0.1314426
              ],
              [
                0.1533402,
                0.1320844
              ],
              [
                0.1532126,
                0.1321628
              ],
              [
                0.152297,
                0.1322241
              ],
              [
                0.0677772,
                0.1182726
              ],
              [
                0.0485707,
                0.1139055
              ],
              [
                0.0864535,
                0.1237617
              ],
              [
                0.0511569,
                0.1150049
              ],
              [
                0.0581832,
                0.1168886
              ],
              [
                0.1183951,
                0.1325412
              ],
              [
                0.0953655,
                0.1276317
              ],
              [
                0.1038893,
                0.1308528
              ],
              [
                0.0355463,
                0.1166752
              ],
              [
                0.0299302,
                0.1172818
              ],
              [
                0.0156022,
                0.1236775
              ],
              [
                0.001402,
                0.1303857
              ],
              [
                -0.006098,
                0.1353746
              ],
              [
                -0.0161456,
                0.1413181
              ],
              [
                -0.0375476,
                0.1463476
              ],
              [
                -0.0497584,
                0.1513002
              ],
              [
                -0.051781,
                0.1521012
              ],
              [
                -0.0530794,
                0.1524153
              ],
              [
                -0.0541425,
                0.1526837
              ],
              [
                -0.0752543,
                0.1551861
              ],
              [
                -0.0857046,
                0.1561005
              ],
              [
                -0.1103603,
                0.1561714
              ],
              [
                -0.1348193,
                0.1560338
              ],
              [
                -0.1388585,
                0.1578606
              ],
              [
                -0.1463871,
                0.1584357
              ],
              [
                -0.1545687,
                0.1604748
              ],
              [
                -0.1596556,
                0.1614802
              ],
              [
                -0.1690786,
                0.1654699
              ],
              [
                -0.1760824,
                0.1684033
              ],
              [
                -0.1799189,
                0.1681936
              ],
              [
                -0.1883342,
                0.1674233
              ],
              [
                -0.1917969,
                0.1613817
              ],
              [
                -0.1933278,
                0.1558679
              ],
              [
                -0.1933527,
                0.1521973
              ],
              [
                -0.1927096,
                0.1125636
              ]
            ],
            "bounds_normalized": {
              "dimensions": [
                0.363364073,
                0.168056496
              ],
              "max": [
                0.17001135,
                0.168403309
              ],
              "min": [
                -0.193352723,
                0.000346813
              ]
            },
            "centroid_normalized": [
              -0.020427386,
              0.09651276
            ],
            "fraction": 0.1,
            "mask": {
              "encoding": "rows_top_to_bottom_1bit_text",
              "occupied_bbox_pixels": [
                10,
                16,
                20,
                20
              ],
              "occupied_fraction": 0.041015625,
              "occupied_pixel_count": 42,
              "origin": "bottom_left",
              "resolution": [
                32,
                32
              ],
              "rows": [
                "00000000000000000000000000000000",
                "00000000000000000000000000000000",
                "00000000000000000000000000000000",
                "00000000000000000000000000000000",
                "00000000000000000000000000000000",
                "00000000000000000000000000000000",
                "00000000000000000000000000000000",
                "00000000000000000000000000000000",
                "00000000000000000000000000000000",
                "00000000000000000000000000000000",
                "00000000000000000000000000000000",
                "00000000001111100000000000000000",
                "00000000001111111111100000000000",
                "00000000001111111111000000000000",
                "00000000001111111111000000000000",
                "00000000000000111111000000000000",
                "00000000000000000000000000000000",
                "00000000000000000000000000000000",
                "00000000000000000000000000000000",
                "00000000000000000000000000000000",
                "00000000000000000000000000000000",
                "00000000000000000000000000000000",
                "00000000000000000000000000000000",
                "00000000000000000000000000000000",
                "00000000000000000000000000000000",
                "00000000000000000000000000000000",
                "00000000000000000000000000000000",
                "00000000000000000000000000000000",
                "00000000000000000000000000000000",
                "00000000000000000000000000000000",
                "00000000000000000000000000000000",
                "00000000000000000000000000000000"
              ]
            },
            "plane_coordinate_native": -0.017276222,
            "segment_count": 81
          },
          {
            "boundary_samples_normalized": [
              [
                -0.1955976,
                -0.0083798
              ],
              [
                -0.1955928,
                -0.0086534
              ],
              [
                -0.1955908,
                -0.0087875
              ],
              [
                -0.1955876,
                -0.0089853
              ],
              [
                -0.1955492,
                -0.0091209
              ],
              [
                -0.1085788,
                0.0019358
              ],
              [
                -0.1124782,
                -0.0013874
              ],
              [
                -0.1263058,
                -0.0103197
              ],
              [
                -0.1821257,
                -0.0308528
              ],
              [
                -0.1760625,
                -0.0329964
              ],
              [
                -0.137193,
                -0.019175
              ],
              [
                -0.1424762,
                -0.0214044
              ],
              [
                -0.0965453,
                -0.0053096
              ],
              [
                -0.0960513,
                -0.0055075
              ],
              [
                -0.0957645,
                -0.0061122
              ],
              [
                -0.0812856,
                -0.0504409
              ],
              [
                -0.0737524,
                -0.0682345
              ],
              [
                -0.0493443,
                -0.089894
              ],
              [
                -0.0376267,
                -0.1018739
              ],
              [
                -0.0202099,
                -0.112122
              ],
              [
                -0.0145588,
                -0.1153577
              ],
              [
                0.0148252,
                -0.1236568
              ],
              [
                0.051684,
                -0.1223307
              ],
              [
                0.0642034,
                -0.1215884
              ],
              [
                0.0655302,
                -0.1218693
              ],
              [
                0.0678184,
                -0.1199825
              ],
              [
                0.0862814,
                -0.1088479
              ],
              [
                0.1029016,
                -0.0954639
              ],
              [
                0.1042045,
                -0.0937159
              ],
              [
                0.1102682,
                -0.0815265
              ],
              [
                0.1114439,
                -0.0778796
              ],
              [
                0.1156485,
                -0.0735759
              ],
              [
                0.1275917,
                -0.050629
              ],
              [
                0.1311886,
                -0.0423261
              ],
              [
                0.133011,
                -0.0389907
              ],
              [
                0.1368406,
                -0.0335764
              ],
              [
                0.1472489,
                -0.0185648
              ],
              [
                0.1509144,
                -0.0116993
              ],
              [
                0.171194,
                0.0230686
              ],
              [
                0.1746383,
                0.0284139
              ],
              [
                0.1772264,
                0.0413578
              ],
              [
                0.1775916,
                0.0420948
              ],
              [
                0.1779918,
                0.0460795
              ],
              [
                0.1792713,
                0.0554266
              ],
              [
                0.186132,
                0.0697387
              ],
              [
                0.1887101,
                0.0911345
              ],
              [
                0.189065,
                0.0999933
              ],
              [
                0.1901646,
                0.1040745
              ],
              [
                0.0315512,
                0.0423228
              ],
              [
                0.031866,
                0.0425428
              ],
              [
                0.0319825,
                0.042672
              ],
              [
                0.0341106,
                0.0443016
              ],
              [
                0.1954876,
                0.122451
              ],
              [
                0.1928313,
                0.1265296
              ],
              [
                0.0458386,
                0.0526209
              ],
              [
                0.1875057,
                0.1286605
              ],
              [
                0.1853529,
                0.1296964
              ],
              [
                0.1812319,
                0.1320818
              ],
              [
                0.1589275,
                0.1300056
              ],
              [
                0.0548433,
                0.0649262
              ],
              [
                0.0196857,
                0.0418697
              ],
              [
                0.0196178,
                0.0418668
              ],
              [
                0.1362262,
                0.1241068
              ],
              [
                0.0194315,
                0.041994
              ],
              [
                0.1266258,
                0.1205556
              ],
              [
                0.0617759,
                0.0751865
              ],
              [
                0.0744849,
                0.0867073
              ],
              [
                0.095128,
                0.1044178
              ],
              [
                0.0139621,
                0.0452778
              ],
              [
                0.006486,
                0.04944
              ],
              [
                0.0054006,
                0.0507678
              ],
              [
                -0.0075328,
                0.0627187
              ],
              [
                -0.0147596,
                0.0741029
              ],
              [
                -0.01513,
                0.0748569
              ],
              [
                -0.0158505,
                0.0756215
              ],
              [
                -0.0181595,
                0.0793468
              ],
              [
                -0.0289684,
                0.0926579
              ],
              [
                -0.0443729,
                0.1078362
              ],
              [
                -0.0457725,
                0.1085546
              ],
              [
                -0.0513277,
                0.1107559
              ],
              [
                -0.0701675,
                0.1175617
              ],
              [
                -0.0749779,
                0.1200022
              ],
              [
                -0.0772477,
                0.1204026
              ],
              [
                -0.0894068,
                0.1215386
              ],
              [
                -0.1128061,
                0.1172252
              ],
              [
                -0.1315532,
                0.1117909
              ],
              [
                -0.1367543,
                0.1109923
              ],
              [
                -0.1484316,
                0.1077645
              ],
              [
                -0.1591969,
                0.1041492
              ],
              [
                -0.1650553,
                0.1031622
              ],
              [
                -0.1724828,
                0.104951
              ],
              [
                -0.1869942,
                0.1101094
              ],
              [
                -0.1916217,
                0.1106173
              ],
              [
                -0.194689,
                0.1072246
              ],
              [
                -0.1970922,
                0.0997923
              ],
              [
                -0.197187,
                0.0858547
              ]
            ],
            "bounds_normalized": {
              "dimensions": [
                0.393482646,
                0.255771705
              ],
              "max": [
                0.196295645,
                0.132114929
              ],
              "min": [
                -0.197187002,
                -0.123656775
              ]
            },
            "centroid_normalized": [
              0.004745215,
              0.031651478
            ],
            "fraction": 0.25,
            "mask": {
              "encoding": "rows_top_to_bottom_1bit_text",
              "occupied_bbox_pixels": [
                10,
                12,
                21,
                19
              ],
              "occupied_fraction": 0.068359375,
              "occupied_pixel_count": 70,
              "origin": "bottom_left",
              "resolution": [
                32,
                32
              ],
              "rows": [
                "00000000000000000000000000000000",
                "00000000000000000000000000000000",
                "00000000000000000000000000000000",
                "00000000000000000000000000000000",
                "00000000000000000000000000000000",
                "00000000000000000000000000000000",
                "00000000000000000000000000000000",
                "00000000000000000000000000000000",
                "00000000000000000000000000000000",
                "00000000000000000000000000000000",
                "00000000000000000000000000000000",
                "00000000000000000000000000000000",
                "00000000001111100001110000000000",
                "00000000001111110111110000000000",
                "00000000001111111111110000000000",
                "00000000001111111111100000000000",
                "00000000001111111111100000000000",
                "00000000000001111111000000000000",
                "00000000000000111111000000000000",
                "00000000000000011110000000000000",
                "00000000000000000000000000000000",
                "00000000000000000000000000000000",
                "00000000000000000000000000000000",
                "00000000000000000000000000000000",
                "00000000000000000000000000000000",
                "00000000000000000000000000000000",
                "00000000000000000000000000000000",
                "00000000000000000000000000000000",
                "00000000000000000000000000000000",
                "00000000000000000000000000000000",
                "00000000000000000000000000000000",
                "00000000000000000000000000000000"
              ]
            },
            "plane_coordinate_native": -0.01123086,
            "segment_count": 111
          },
          {
            "boundary_samples_normalized": [
              [
                -0.0990085,
                -0.0141444
              ],
              [
                -0.2078219,
                -0.0189922
              ],
              [
                -0.2068807,
                -0.0201282
              ],
              [
                -0.2036726,
                -0.0329436
              ],
              [
                -0.1141009,
                -0.0313521
              ],
              [
                -0.2030356,
                -0.0545311
              ],
              [
                -0.123463,
                -0.0404323
              ],
              [
                -0.1316553,
                -0.0514848
              ],
              [
                -0.1350435,
                -0.0579684
              ],
              [
                -0.2023104,
                -0.0981859
              ],
              [
                -0.2018149,
                -0.1016753
              ],
              [
                -0.1388078,
                -0.080029
              ],
              [
                -0.1972699,
                -0.1142256
              ],
              [
                -0.1474608,
                -0.092714
              ],
              [
                -0.1506143,
                -0.0945363
              ],
              [
                -0.1623024,
                -0.1019323
              ],
              [
                -0.1843138,
                -0.1153567
              ],
              [
                -0.0625158,
                -0.0456981
              ],
              [
                -0.0592706,
                -0.0532274
              ],
              [
                -0.0511372,
                -0.0749164
              ],
              [
                -0.0433624,
                -0.0880044
              ],
              [
                -0.0387908,
                -0.0953205
              ],
              [
                -0.0207496,
                -0.1113911
              ],
              [
                -0.0106256,
                -0.1184414
              ],
              [
                0.0067104,
                -0.1278819
              ],
              [
                0.0095736,
                -0.1296138
              ],
              [
                0.0261648,
                -0.132541
              ],
              [
                0.0756442,
                -0.1321502
              ],
              [
                0.1084617,
                -0.1319222
              ],
              [
                0.115883,
                -0.1301206
              ],
              [
                0.1212529,
                -0.1283934
              ],
              [
                0.1315565,
                -0.121768
              ],
              [
                0.1475088,
                -0.1135309
              ],
              [
                0.158227,
                -0.1036035
              ],
              [
                0.1591701,
                -0.1024529
              ],
              [
                0.1696358,
                -0.0889596
              ],
              [
                0.1700636,
                -0.0864577
              ],
              [
                0.1746028,
                -0.0752027
              ],
              [
                0.1823845,
                -0.0669757
              ],
              [
                0.1886213,
                -0.0547767
              ],
              [
                0.0597906,
                -0.0246638
              ],
              [
                0.1902193,
                -0.0523141
              ],
              [
                0.0615964,
                -0.0237267
              ],
              [
                0.1895566,
                -0.0440036
              ],
              [
                0.1894951,
                -0.0341423
              ],
              [
                0.050365,
                -0.0134545
              ],
              [
                0.1923569,
                -0.0130359
              ],
              [
                0.0465419,
                -0.008783
              ],
              [
                0.0463312,
                -0.0083036
              ],
              [
                0.086299,
                -0.0042322
              ],
              [
                0.1877344,
                0.0243935
              ],
              [
                0.0886084,
                0.0071237
              ],
              [
                0.0889979,
                0.0157742
              ],
              [
                0.1939716,
                0.0600842
              ],
              [
                0.1953795,
                0.0632561
              ],
              [
                0.1956636,
                0.0636144
              ],
              [
                0.2160308,
                0.0843134
              ],
              [
                0.2173911,
                0.0883837
              ],
              [
                0.0955398,
                0.0370667
              ],
              [
                0.2114107,
                0.0972701
              ],
              [
                0.0998919,
                0.0448575
              ],
              [
                0.1905826,
                0.0997415
              ],
              [
                0.0391605,
                0.015369
              ],
              [
                0.1622761,
                0.0980079
              ],
              [
                0.1160446,
                0.0716815
              ],
              [
                0.1379626,
                0.090084
              ],
              [
                0.1279683,
                0.0829993
              ],
              [
                0.1326884,
                0.0871157
              ],
              [
                0.0386105,
                0.0194605
              ],
              [
                0.0316282,
                0.0415278
              ],
              [
                0.0298462,
                0.0536747
              ],
              [
                0.0253756,
                0.0682189
              ],
              [
                0.0162187,
                0.0808493
              ],
              [
                -0.0076409,
                0.1022395
              ],
              [
                -0.0140127,
                0.1061539
              ],
              [
                -0.0230015,
                0.1095346
              ],
              [
                -0.0298551,
                0.109473
              ],
              [
                -0.0705958,
                0.1075245
              ],
              [
                -0.0862502,
                0.1023697
              ],
              [
                -0.0983198,
                0.0984019
              ],
              [
                -0.1150319,
                0.0935381
              ],
              [
                -0.1283575,
                0.0872715
              ],
              [
                -0.150237,
                0.0767639
              ],
              [
                -0.1912203,
                0.056944
              ],
              [
                -0.1947778,
                0.0549664
              ],
              [
                -0.2156975,
                0.0428025
              ],
              [
                -0.0706866,
                0.0025382
              ],
              [
                -0.2319238,
                0.0323146
              ],
              [
                -0.0808642,
                0.0032199
              ],
              [
                -0.0815148,
                0.0029068
              ],
              [
                -0.0829776,
                0.0015342
              ],
              [
                -0.2453516,
                0.0179173
              ],
              [
                -0.2454379,
                0.0168775
              ],
              [
                -0.0887395,
                -0.0041217
              ],
              [
                -0.2420938,
                0.0049431
              ],
              [
                -0.0651038,
                -0.0092644
              ]
            ],
            "bounds_normalized": {
              "dimensions": [
                0.463228856,
                0.242075593
              ],
              "max": [
                0.217570161,
                0.10953457
              ],
              "min": [
                -0.245658694,
                -0.132541022
              ]
            },
            "centroid_normalized": [
              -0.001348706,
              -0.010407574
            ],
            "fraction": 0.5,
            "mask": {
              "encoding": "rows_top_to_bottom_1bit_text",
              "occupied_bbox_pixels": [
                9,
                12,
                22,
                19
              ],
              "occupied_fraction": 0.077148438,
              "occupied_pixel_count": 79,
              "origin": "bottom_left",
              "resolution": [
                32,
                32
              ],
              "rows": [
                "00000000000000000000000000000000",
                "00000000000000000000000000000000",
                "00000000000000000000000000000000",
                "00000000000000000000000000000000",
                "00000000000000000000000000000000",
                "00000000000000000000000000000000",
                "00000000000000000000000000000000",
                "00000000000000000000000000000000",
                "00000000000000000000000000000000",
                "00000000000000000000000000000000",
                "00000000000000000000000000000000",
                "00000000000000000000000000000000",
                "00000000000000110000000000000000",
                "00000000000111111001111000000000",
                "00000000011111111011110000000000",
                "00000000011111111111110000000000",
                "00000000011111111111110000000000",
                "00000000001110111111110000000000",
                "00000000001110111111100000000000",
                "00000000001100011111100000000000",
                "00000000000000000000000000000000",
                "00000000000000000000000000000000",
                "00000000000000000000000000000000",
                "00000000000000000000000000000000",
                "00000000000000000000000000000000",
                "00000000000000000000000000000000",
                "00000000000000000000000000000000",
                "00000000000000000000000000000000",
                "00000000000000000000000000000000",
                "00000000000000000000000000000000",
                "00000000000000000000000000000000",
                "00000000000000000000000000000000"
              ]
            },
            "plane_coordinate_native": -0.001155257,
            "segment_count": 141
          },
          {
            "boundary_samples_normalized": [
              [
                -0.2641777,
                0.0105262
              ],
              [
                -0.2868301,
                0.0085909
              ],
              [
                -0.2880305,
                0.0085312
              ],
              [
                -0.2902746,
                0.0077384
              ],
              [
                -0.3002118,
                0.0057026
              ],
              [
                -0.3055273,
                -0.0057
              ],
              [
                -0.3053147,
                -0.0213187
              ],
              [
                -0.3049113,
                -0.0465291
              ],
              [
                -0.3020536,
                -0.0558462
              ],
              [
                -0.2921189,
                -0.0633985
              ],
              [
                -0.2874368,
                -0.0648849
              ],
              [
                -0.2765777,
                -0.0648226
              ],
              [
                -0.2582057,
                -0.0647778
              ],
              [
                -0.2004864,
                -0.0643755
              ],
              [
                -0.1271194,
                -0.0637986
              ],
              [
                -0.0917364,
                -0.0634361
              ],
              [
                -0.0803298,
                -0.0580028
              ],
              [
                -0.0763624,
                -0.056577
              ],
              [
                -0.053263,
                -0.0417443
              ],
              [
                -0.0470846,
                -0.0376073
              ],
              [
                -0.0291938,
                -0.0220976
              ],
              [
                -0.0228247,
                -0.0152474
              ],
              [
                -0.0111705,
                -0.0153151
              ],
              [
                -0.007667,
                -0.0148114
              ],
              [
                -0.0046877,
                -0.016585
              ],
              [
                0.013596,
                -0.0361017
              ],
              [
                0.0164754,
                -0.0385099
              ],
              [
                0.047896,
                -0.0589167
              ],
              [
                0.0525703,
                -0.0616001
              ],
              [
                0.0567033,
                -0.0624876
              ],
              [
                0.0591725,
                -0.0624704
              ],
              [
                0.1063133,
                -0.0621504
              ],
              [
                0.1393696,
                -0.0619008
              ],
              [
                0.1865324,
                -0.0615639
              ],
              [
                0.2167524,
                -0.0613471
              ],
              [
                0.2468927,
                -0.0600313
              ],
              [
                0.2630533,
                -0.0512624
              ],
              [
                0.2676841,
                -0.0486584
              ],
              [
                0.2720964,
                -0.0471742
              ],
              [
                0.2807095,
                -0.0422315
              ],
              [
                0.2934071,
                -0.0357894
              ],
              [
                0.3014028,
                -0.0316454
              ],
              [
                0.3053537,
                -0.0248087
              ],
              [
                0.3091586,
                -0.0180858
              ],
              [
                0.3014176,
                -0.0051948
              ],
              [
                0.2995716,
                -0.0032847
              ],
              [
                0.2823909,
                0.0041812
              ],
              [
                0.2763404,
                0.0071206
              ],
              [
                0.247822,
                0.0257743
              ],
              [
                0.2441051,
                0.0295267
              ],
              [
                0.181773,
                0.0356079
              ],
              [
                0.1880472,
                0.0370877
              ],
              [
                0.1664387,
                0.0354994
              ],
              [
                0.1340424,
                0.0353243
              ],
              [
                0.2276959,
                0.0499303
              ],
              [
                0.1322393,
                0.0358299
              ],
              [
                0.2110845,
                0.0499197
              ],
              [
                0.2258565,
                0.0526225
              ],
              [
                0.1235626,
                0.0375871
              ],
              [
                0.1136985,
                0.0439512
              ],
              [
                0.1091798,
                0.04803
              ],
              [
                0.0994424,
                0.0574421
              ],
              [
                0.0883397,
                0.0770742
              ],
              [
                0.08708,
                0.079497
              ],
              [
                0.0784538,
                0.0897334
              ],
              [
                0.0761251,
                0.0920302
              ],
              [
                0.0722175,
                0.0949521
              ],
              [
                0.0276833,
                0.1218082
              ],
              [
                0.0193636,
                0.1237544
              ],
              [
                0.0145196,
                0.1260378
              ],
              [
                -0.0083178,
                0.125998
              ],
              [
                -0.0167312,
                0.1229474
              ],
              [
                -0.0216703,
                0.120663
              ],
              [
                -0.0359777,
                0.1161294
              ],
              [
                -0.059297,
                0.1003629
              ],
              [
                -0.0906032,
                0.0702233
              ],
              [
                -0.1100279,
                0.0498872
              ],
              [
                -0.2757856,
                0.0767789
              ],
              [
                -0.27318,
                0.0754277
              ],
              [
                -0.2760171,
                0.0727948
              ],
              [
                -0.1234262,
                0.0373414
              ],
              [
                -0.3007519,
                0.0765242
              ],
              [
                -0.3021924,
                0.0760631
              ],
              [
                -0.1245293,
                0.0365611
              ],
              [
                -0.3025848,
                0.0751464
              ],
              [
                -0.1249757,
                0.0363821
              ],
              [
                -0.3020254,
                0.0720428
              ],
              [
                -0.2920232,
                0.0652928
              ],
              [
                -0.1327171,
                0.0321839
              ],
              [
                -0.1511362,
                0.0231551
              ],
              [
                -0.1531089,
                0.0222733
              ],
              [
                -0.1650026,
                0.0213211
              ],
              [
                -0.2136789,
                0.0204269
              ],
              [
                -0.2238368,
                0.020357
              ],
              [
                -0.2320192,
                0.0198905
              ],
              [
                -0.2385988,
                0.016721
              ]
            ],
            "bounds_normalized": {
              "dimensions": [
                0.614685906,
                0.191440794
              ],
              "max": [
                0.309158562,
                0.126555938
              ],
              "min": [
                -0.305527344,
                -0.064884857
              ]
            },
            "centroid_normalized": [
              -0.017321462,
              0.013280761
            ],
            "fraction": 0.75,
            "mask": {
              "encoding": "rows_top_to_bottom_1bit_text",
              "occupied_bbox_pixels": [
                7,
                14,
                24,
                19
              ],
              "occupied_fraction": 0.072265625,
              "occupied_pixel_count": 74,
              "origin": "bottom_left",
              "resolution": [
                32,
                32
              ],
              "rows": [
                "00000000000000000000000000000000",
                "00000000000000000000000000000000",
                "00000000000000000000000000000000",
                "00000000000000000000000000000000",
                "00000000000000000000000000000000",
                "00000000000000000000000000000000",
                "00000000000000000000000000000000",
                "00000000000000000000000000000000",
                "00000000000000000000000000000000",
                "00000000000000000000000000000000",
                "00000000000000000000000000000000",
                "00000000000000000000000000000000",
                "00000000000000111100000000000000",
                "00000001100000111010000000000000",
                "00000001000011111111111000000000",
                "00000001111111111111111100000000",
                "00000001111111111111111110000000",
                "00000001111111101111111110000000",
                "00000000000000000000000000000000",
                "00000000000000000000000000000000",
                "00000000000000000000000000000000",
                "00000000000000000000000000000000",
                "00000000000000000000000000000000",
                "00000000000000000000000000000000",
                "00000000000000000000000000000000",
                "00000000000000000000000000000000",
                "00000000000000000000000000000000",
                "00000000000000000000000000000000",
                "00000000000000000000000000000000",
                "00000000000000000000000000000000",
                "00000000000000000000000000000000",
                "00000000000000000000000000000000"
              ]
            },
            "plane_coordinate_native": 0.008920346,
            "segment_count": 118
          },
          {
            "boundary_samples_normalized": [
              [
                -0.2938666,
                0.048142
              ],
              [
                -0.293241,
                0.0338609
              ],
              [
                -0.2929545,
                0.0324831
              ],
              [
                -0.2919923,
                0.0305487
              ],
              [
                -0.2820473,
                0.0160444
              ],
              [
                -0.2733727,
                0.0091588
              ],
              [
                -0.2639277,
                0.0031948
              ],
              [
                -0.2572565,
                0.0020267
              ],
              [
                -0.2453554,
                -0.0036921
              ],
              [
                -0.2403794,
                -0.0054043
              ],
              [
                -0.2163474,
                -0.007128
              ],
              [
                -0.2132526,
                -0.0078493
              ],
              [
                -0.2116614,
                -0.0085124
              ],
              [
                -0.2003862,
                -0.0117886
              ],
              [
                -0.1935353,
                -0.0137738
              ],
              [
                -0.1476507,
                -0.0134152
              ],
              [
                -0.1453481,
                -0.0134511
              ],
              [
                -0.1446464,
                -0.0131907
              ],
              [
                -0.144163,
                -0.0130495
              ],
              [
                -0.1046685,
                -0.0087784
              ],
              [
                -0.0793656,
                -0.0086327
              ],
              [
                -0.0771721,
                -0.0083128
              ],
              [
                -0.074318,
                -0.0074848
              ],
              [
                -0.0603507,
                -0.0018491
              ],
              [
                -0.0559209,
                0.0008422
              ],
              [
                -0.0420928,
                0.0028871
              ],
              [
                -0.0371317,
                0.0049696
              ],
              [
                -0.0355061,
                0.0060061
              ],
              [
                -0.0241176,
                0.0129063
              ],
              [
                -0.0126141,
                0.0155598
              ],
              [
                -0.0108884,
                0.0159484
              ],
              [
                -0.0091996,
                0.0156202
              ],
              [
                -0.0065041,
                0.0150006
              ],
              [
                0.0081944,
                0.015906
              ],
              [
                0.0214054,
                0.0128135
              ],
              [
                0.028652,
                0.0079686
              ],
              [
                0.0325219,
                0.0063148
              ],
              [
                0.0485052,
                0.0037745
              ],
              [
                0.0736431,
                0.0014454
              ],
              [
                0.0872663,
                -0.0031005
              ],
              [
                0.1059361,
                -0.0038093
              ],
              [
                0.1854317,
                -0.003821
              ],
              [
                0.2035493,
                0.0019981
              ],
              [
                0.2300457,
                0.0094152
              ],
              [
                0.2427003,
                0.0142479
              ],
              [
                0.2480027,
                0.0173039
              ],
              [
                0.2688594,
                0.031264
              ],
              [
                0.2728651,
                0.035239
              ],
              [
                0.2708293,
                0.0378356
              ],
              [
                0.2716526,
                0.0470554
              ],
              [
                0.2657094,
                0.0534448
              ],
              [
                0.2639469,
                0.0602759
              ],
              [
                0.2608878,
                0.0668759
              ],
              [
                0.2524919,
                0.0808622
              ],
              [
                0.245889,
                0.0880075
              ],
              [
                0.2409779,
                0.094061
              ],
              [
                0.2388691,
                0.099176
              ],
              [
                0.2345369,
                0.1095862
              ],
              [
                0.2263913,
                0.118219
              ],
              [
                0.2212676,
                0.1231181
              ],
              [
                0.2107148,
                0.1252918
              ],
              [
                0.2066707,
                0.1261689
              ],
              [
                0.1684216,
                0.1258764
              ],
              [
                0.1364985,
                0.1256904
              ],
              [
                0.0671349,
                0.1251695
              ],
              [
                0.0413005,
                0.1249978
              ],
              [
                0.0077597,
                0.1247717
              ],
              [
                -0.0700802,
                0.1241461
              ],
              [
                -0.1103144,
                0.1238215
              ],
              [
                -0.1323799,
                0.1236553
              ],
              [
                -0.1419656,
                0.1235906
              ],
              [
                -0.1595788,
                0.1234567
              ],
              [
                -0.1819474,
                0.1233355
              ],
              [
                -0.2254722,
                0.1229812
              ],
              [
                -0.225874,
                0.1229695
              ],
              [
                -0.2259779,
                0.1229179
              ],
              [
                -0.2267525,
                0.1227955
              ],
              [
                -0.2470242,
                0.1196246
              ],
              [
                -0.2561001,
                0.1170896
              ],
              [
                -0.2589487,
                0.1150694
              ],
              [
                -0.2699009,
                0.0993124
              ],
              [
                -0.2709383,
                0.0947153
              ],
              [
                -0.272629,
                0.0897184
              ],
              [
                -0.2878183,
                0.0629271
              ]
            ],
            "bounds_normalized": {
              "dimensions": [
                0.566731711,
                0.139942761
              ],
              "max": [
                0.272865126,
                0.126168931
              ],
              "min": [
                -0.293866585,
                -0.01377383
              ]
            },
            "centroid_normalized": [
              -0.031612007,
              0.048267354
            ],
            "fraction": 0.9,
            "mask": {
              "encoding": "rows_top_to_bottom_1bit_text",
              "occupied_bbox_pixels": [
                7,
                15,
                23,
                19
              ],
              "occupied_fraction": 0.07421875,
              "occupied_pixel_count": 76,
              "origin": "bottom_left",
              "resolution": [
                32,
                32
              ],
              "rows": [
                "00000000000000000000000000000000",
                "00000000000000000000000000000000",
                "00000000000000000000000000000000",
                "00000000000000000000000000000000",
                "00000000000000000000000000000000",
                "00000000000000000000000000000000",
                "00000000000000000000000000000000",
                "00000000000000000000000000000000",
                "00000000000000000000000000000000",
                "00000000000000000000000000000000",
                "00000000000000000000000000000000",
                "00000000000000000000000000000000",
                "00000000111111111111111000000000",
                "00000000111111111111111100000000",
                "00000001111111111111111100000000",
                "00000001111111111111111100000000",
                "00000000111111100011110000000000",
                "00000000000000000000000000000000",
                "00000000000000000000000000000000",
                "00000000000000000000000000000000",
                "00000000000000000000000000000000",
                "00000000000000000000000000000000",
                "00000000000000000000000000000000",
                "00000000000000000000000000000000",
                "00000000000000000000000000000000",
                "00000000000000000000000000000000",
                "00000000000000000000000000000000",
                "00000000000000000000000000000000",
                "00000000000000000000000000000000",
                "00000000000000000000000000000000",
                "00000000000000000000000000000000",
                "00000000000000000000000000000000"
              ]
            },
            "plane_coordinate_native": 0.014965707,
            "segment_count": 84
          }
        ]
      },
      "pca_axis_1": {
        "axis": 1,
        "in_plane_axes": [
          0,
          2
        ],
        "slices": [
          {
            "boundary_samples_normalized": [
              [
                0.0055961,
                0.0193514
              ],
              [
                0.0043001,
                0.0157363
              ],
              [
                0.007373,
                0.0068344
              ],
              [
                0.0150065,
                0.0047515
              ],
              [
                0.030743,
                -0.0018998
              ],
              [
                0.0357178,
                -0.0042183
              ],
              [
                0.0500451,
                -0.0147066
              ],
              [
                0.0530094,
                -0.0169431
              ],
              [
                0.0623663,
                -0.0278487
              ],
              [
                0.1957874,
                0.0131634
              ],
              [
                0.0724703,
                -0.0428806
              ],
              [
                0.07829,
                -0.0546616
              ],
              [
                0.0833102,
                -0.0686782
              ],
              [
                0.0867402,
                -0.0735657
              ],
              [
                0.0938929,
                -0.0785241
              ],
              [
                0.206401,
                0.0123447
              ],
              [
                0.110508,
                -0.0798865
              ],
              [
                0.1283113,
                -0.0839274
              ],
              [
                0.141956,
                -0.0835919
              ],
              [
                0.1501935,
                -0.0834982
              ],
              [
                0.1607849,
                -0.0848193
              ],
              [
                0.1723014,
                -0.0863031
              ],
              [
                0.222631,
                -0.0723448
              ],
              [
                0.2214485,
                0.0122038
              ],
              [
                0.2991797,
                -0.0509934
              ],
              [
                0.3607492,
                -0.0337806
              ],
              [
                0.3676461,
                -0.030875
              ],
              [
                0.3786274,
                -0.0211164
              ],
              [
                0.2352585,
                0.0151636
              ],
              [
                0.392384,
                -0.0106689
              ],
              [
                0.2552125,
                0.0143527
              ],
              [
                0.2490671,
                0.0156614
              ],
              [
                0.4022001,
                0.0003381
              ],
              [
                0.2613558,
                0.0165286
              ],
              [
                0.4089477,
                0.0092658
              ],
              [
                0.4121274,
                0.0155688
              ],
              [
                0.2672604,
                0.0188605
              ],
              [
                0.4172006,
                0.0245353
              ],
              [
                0.4186811,
                0.0309819
              ],
              [
                0.4220363,
                0.0391158
              ],
              [
                0.2774665,
                0.0270572
              ],
              [
                0.2777161,
                0.0271517
              ],
              [
                0.4223883,
                0.0644729
              ],
              [
                0.2910289,
                0.0372631
              ],
              [
                0.4238584,
                0.0723072
              ],
              [
                0.2931589,
                0.0431102
              ],
              [
                0.2954964,
                0.0510527
              ],
              [
                0.418478,
                0.1015057
              ],
              [
                0.4171305,
                0.1056686
              ],
              [
                0.4139888,
                0.1086703
              ],
              [
                0.2903247,
                0.0583805
              ],
              [
                0.4034805,
                0.1189859
              ],
              [
                0.3982165,
                0.1192826
              ],
              [
                0.3846728,
                0.1185675
              ],
              [
                0.2825736,
                0.0631102
              ],
              [
                0.3488697,
                0.1085632
              ],
              [
                0.3118166,
                0.0982513
              ],
              [
                0.2716508,
                0.0693455
              ],
              [
                0.2942868,
                0.0933367
              ],
              [
                0.269838,
                0.0713083
              ],
              [
                0.2899922,
                0.0917217
              ],
              [
                0.2693533,
                0.0848048
              ],
              [
                0.2692739,
                0.0847601
              ],
              [
                0.2642043,
                0.0789538
              ],
              [
                0.0682334,
                0.0401481
              ],
              [
                0.0817331,
                0.03779
              ],
              [
                0.0922961,
                0.0359761
              ],
              [
                0.0591367,
                0.0398717
              ],
              [
                0.1044202,
                0.0335146
              ],
              [
                0.1099161,
                0.0324023
              ],
              [
                0.12624,
                0.0290483
              ],
              [
                0.0463841,
                0.0367655
              ],
              [
                0.1512192,
                0.0239077
              ],
              [
                0.0240425,
                0.0302881
              ],
              [
                0.0237775,
                0.030111
              ],
              [
                0.1607325,
                0.0224143
              ],
              [
                0.0220172,
                0.0290509
              ],
              [
                0.0131924,
                0.0259091
              ],
              [
                0.0094872,
                0.0236301
              ]
            ],
            "bounds_normalized": {
              "dimensions": [
                0.419558239,
                0.205585696
              ],
              "max": [
                0.423858368,
                0.119282564
              ],
              "min": [
                0.004300129,
                -0.086303132
              ]
            },
            "centroid_normalized": [
              0.214040641,
              0.019588415
            ],
            "fraction": 0.1,
            "mask": {
              "encoding": "rows_top_to_bottom_1bit_text",
              "occupied_bbox_pixels": [
                16,
                13,
                27,
                19
              ],
              "occupied_fraction": 0.051757812,
              "occupied_pixel_count": 53,
              "origin": "bottom_left",
              "resolution": [
                32,
                32
              ],
              "rows": [
                "00000000000000000000000000000000",
                "00000000000000000000000000000000",
                "00000000000000000000000000000000",
                "00000000000000000000000000000000",
                "00000000000000000000000000000000",
                "00000000000000000000000000000000",
                "00000000000000000000000000000000",
                "00000000000000000000000000000000",
                "00000000000000000000000000000000",
                "00000000000000000000000000000000",
                "00000000000000000000000000000000",
                "00000000000000000000000000000000",
                "00000000000000000000000001110000",
                "00000000000000000000000111110000",
                "00000000000000000110000111110000",
                "00000000000000001111111111110000",
                "00000000000000001111111111110000",
                "00000000000000000111111111000000",
                "00000000000000000011111000000000",
                "00000000000000000000000000000000",
                "00000000000000000000000000000000",
                "00000000000000000000000000000000",
                "00000000000000000000000000000000",
                "00000000000000000000000000000000",
                "00000000000000000000000000000000",
                "00000000000000000000000000000000",
                "00000000000000000000000000000000",
                "00000000000000000000000000000000",
                "00000000000000000000000000000000",
                "00000000000000000000000000000000",
                "00000000000000000000000000000000",
                "00000000000000000000000000000000"
              ]
            },
            "plane_coordinate_native": -0.009551508,
            "segment_count": 79
          },
          {
            "boundary_samples_normalized": [
              [
                -0.0958978,
                0.0212863
              ],
              [
                -0.0971595,
                0.0134008
              ],
              [
                -0.2633637,
                -0.0140614
              ],
              [
                -0.2450046,
                -0.0310766
              ],
              [
                -0.1478592,
                -0.0214588
              ],
              [
                -0.1463056,
                -0.0253172
              ],
              [
                -0.1398998,
                -0.0362492
              ],
              [
                -0.1350933,
                -0.0417855
              ],
              [
                -0.2129138,
                -0.0898339
              ],
              [
                -0.2121002,
                -0.0906914
              ],
              [
                -0.1069089,
                -0.035156
              ],
              [
                -0.2039386,
                -0.0993568
              ],
              [
                -0.1114574,
                -0.0462881
              ],
              [
                -0.1123184,
                -0.0475748
              ],
              [
                -0.1810618,
                -0.1319911
              ],
              [
                -0.1648445,
                -0.1459094
              ],
              [
                -0.1483233,
                -0.1513636
              ],
              [
                -0.1330679,
                -0.1542865
              ],
              [
                -0.1163543,
                -0.154067
              ],
              [
                -0.0488107,
                -0.1348891
              ],
              [
                -0.0343007,
                -0.1283635
              ],
              [
                -0.0220812,
                -0.1177849
              ],
              [
                -0.013727,
                -0.1106914
              ],
              [
                0.0070315,
                -0.0908439
              ],
              [
                0.0150095,
                -0.0760517
              ],
              [
                0.0158064,
                -0.0740239
              ],
              [
                0.0277932,
                -0.0678083
              ],
              [
                0.0419048,
                -0.0721624
              ],
              [
                0.0691756,
                -0.0863102
              ],
              [
                0.0942066,
                -0.0904504
              ],
              [
                0.1191217,
                -0.0903629
              ],
              [
                0.1381725,
                -0.0934152
              ],
              [
                0.1419731,
                -0.0934807
              ],
              [
                0.2039027,
                -0.0769189
              ],
              [
                0.2867045,
                -0.0537579
              ],
              [
                0.3803552,
                -0.0276293
              ],
              [
                0.3928871,
                -0.0210085
              ],
              [
                0.4017833,
                -0.0117575
              ],
              [
                0.4153282,
                0.0001262
              ],
              [
                0.4199567,
                0.0051821
              ],
              [
                0.1790492,
                0.0162264
              ],
              [
                0.4313864,
                0.0138524
              ],
              [
                0.2178862,
                0.0207302
              ],
              [
                0.4390637,
                0.022394
              ],
              [
                0.1326209,
                0.0237913
              ],
              [
                0.2834878,
                0.0305286
              ],
              [
                0.1209985,
                0.0280967
              ],
              [
                0.3049151,
                0.0452284
              ],
              [
                0.460335,
                0.0579543
              ],
              [
                0.4664399,
                0.0704405
              ],
              [
                0.3248197,
                0.059568
              ],
              [
                0.3315285,
                0.0662078
              ],
              [
                0.4730215,
                0.0925556
              ],
              [
                0.4732741,
                0.107566
              ],
              [
                0.3486055,
                0.0884685
              ],
              [
                0.0930609,
                0.041427
              ],
              [
                0.0920641,
                0.0415903
              ],
              [
                0.4677146,
                0.128849
              ],
              [
                0.3527916,
                0.1032245
              ],
              [
                0.3654835,
                0.1127291
              ],
              [
                0.4549322,
                0.1358878
              ],
              [
                0.4452909,
                0.134913
              ],
              [
                0.4418911,
                0.1346873
              ],
              [
                0.4399081,
                0.134615
              ],
              [
                0.0819579,
                0.0447312
              ],
              [
                0.038748,
                0.0669481
              ],
              [
                0.02431,
                0.069848
              ],
              [
                -0.0185856,
                0.0776707
              ],
              [
                -0.0221062,
                0.0782604
              ],
              [
                -0.0621685,
                0.0667319
              ],
              [
                -0.078818,
                0.0529324
              ],
              [
                -0.3220012,
                0.1391746
              ],
              [
                -0.3624391,
                0.1523815
              ],
              [
                -0.3630802,
                0.1524757
              ],
              [
                -0.3655404,
                0.1529774
              ],
              [
                -0.2788452,
                0.1174286
              ],
              [
                -0.2740954,
                0.115521
              ],
              [
                -0.2324639,
                0.1003044
              ],
              [
                -0.4330783,
                0.1675574
              ],
              [
                -0.4509444,
                0.166173
              ],
              [
                -0.4557102,
                0.1662803
              ],
              [
                -0.2038365,
                0.0835566
              ],
              [
                -0.480641,
                0.156657
              ],
              [
                -0.4839675,
                0.1532752
              ],
              [
                -0.4829496,
                0.1501654
              ],
              [
                -0.471644,
                0.1295132
              ],
              [
                -0.4707509,
                0.1273012
              ],
              [
                -0.4604352,
                0.097048
              ],
              [
                -0.1719244,
                0.0483881
              ],
              [
                -0.1679207,
                0.0441519
              ],
              [
                -0.4349752,
                0.0804272
              ],
              [
                -0.1672611,
                0.0432898
              ],
              [
                -0.4221449,
                0.0737665
              ],
              [
                -0.0934959,
                0.0278229
              ],
              [
                -0.3477861,
                0.0325746
              ],
              [
                -0.3461299,
                0.0319091
              ]
            ],
            "bounds_normalized": {
              "dimensions": [
                0.958481146,
                0.322799734
              ],
              "max": [
                0.474513651,
                0.167557374
              ],
              "min": [
                -0.483967495,
                -0.15524236
              ]
            },
            "centroid_normalized": [
              -0.006344138,
              0.021676916
            ],
            "fraction": 0.25,
            "mask": {
              "encoding": "rows_top_to_bottom_1bit_text",
              "occupied_bbox_pixels": [
                2,
                11,
                29,
                20
              ],
              "occupied_fraction": 0.130859375,
              "occupied_pixel_count": 134,
              "origin": "bottom_left",
              "resolution": [
                32,
                32
              ],
              "rows": [
                "00000000000000000000000000000000",
                "00000000000000000000000000000000",
                "00000000000000000000000000000000",
                "00000000000000000000000000000000",
                "00000000000000000000000000000000",
                "00000000000000000000000000000000",
                "00000000000000000000000000000000",
                "00000000000000000000000000000000",
                "00000000000000000000000000000000",
                "00000000000000000000000000000000",
                "00000000000000000000000000000000",
                "00111110000000000000000000000000",
                "00111111100000000000000000111100",
                "00111111011000111000000001111100",
                "00001111111101111110000011111100",
                "00000011111101111101111111111000",
                "00000001111111111111111111110000",
                "00000000011111111111111111000000",
                "00000000011111111111111000000000",
                "00000000001111110000000000000000",
                "00000000000111000000000000000000",
                "00000000000000000000000000000000",
                "00000000000000000000000000000000",
                "00000000000000000000000000000000",
                "00000000000000000000000000000000",
                "00000000000000000000000000000000",
                "00000000000000000000000000000000",
                "00000000000000000000000000000000",
                "00000000000000000000000000000000",
                "00000000000000000000000000000000",
                "00000000000000000000000000000000",
                "00000000000000000000000000000000"
              ]
            },
            "plane_coordinate_native": -0.005794186,
            "segment_count": 187
          },
          {
            "boundary_samples_normalized": [
              [
                -0.4236367,
                0.0218529
              ],
              [
                -0.4103595,
                0.0138303
              ],
              [
                -0.2168329,
                0.0152955
              ],
              [
                -0.2147371,
                0.0129309
              ],
              [
                -0.2140347,
                0.0113076
              ],
              [
                -0.3706601,
                -0.0179555
              ],
              [
                -0.3610649,
                -0.0244657
              ],
              [
                -0.3476572,
                -0.0356027
              ],
              [
                -0.3124922,
                -0.0582849
              ],
              [
                -0.1940679,
                -0.0224331
              ],
              [
                -0.2876651,
                -0.0816739
              ],
              [
                -0.2824296,
                -0.0873562
              ],
              [
                -0.0918257,
                -0.0016791
              ],
              [
                -0.1723883,
                -0.0554197
              ],
              [
                -0.1651028,
                -0.0649504
              ],
              [
                -0.1589362,
                -0.0678531
              ],
              [
                -0.234233,
                -0.1345943
              ],
              [
                -0.2281242,
                -0.1424128
              ],
              [
                -0.1480682,
                -0.0729466
              ],
              [
                -0.1435695,
                -0.0721795
              ],
              [
                -0.118844,
                -0.0510334
              ],
              [
                -0.1344015,
                -0.0682984
              ],
              [
                -0.2106548,
                -0.153552
              ],
              [
                -0.1946436,
                -0.1624529
              ],
              [
                -0.1698037,
                -0.1680069
              ],
              [
                -0.1501143,
                -0.1696166
              ],
              [
                -0.0759515,
                -0.1535652
              ],
              [
                -0.0554462,
                -0.1464383
              ],
              [
                -0.0357036,
                -0.1384963
              ],
              [
                0.013691,
                -0.1163768
              ],
              [
                0.0268325,
                -0.1096643
              ],
              [
                0.0737836,
                -0.097045
              ],
              [
                0.0910197,
                -0.0872502
              ],
              [
                0.1310049,
                -0.0746918
              ],
              [
                0.1497587,
                -0.0684402
              ],
              [
                0.1822796,
                -0.0549446
              ],
              [
                0.2172118,
                -0.0410291
              ],
              [
                0.2273236,
                -0.0344249
              ],
              [
                0.2317125,
                -0.0327464
              ],
              [
                0.2708588,
                -0.0164335
              ],
              [
                0.3108464,
                -0.0094734
              ],
              [
                0.3397085,
                -0.0031934
              ],
              [
                0.4114734,
                0.0198101
              ],
              [
                0.4190351,
                0.0285267
              ],
              [
                0.4414429,
                0.0414881
              ],
              [
                0.4610154,
                0.0589271
              ],
              [
                0.4771407,
                0.0766356
              ],
              [
                0.4890437,
                0.0992829
              ],
              [
                0.4973248,
                0.1251713
              ],
              [
                0.4954468,
                0.1333998
              ],
              [
                0.3661555,
                0.115276
              ],
              [
                0.357235,
                0.1156681
              ],
              [
                0.4352747,
                0.1345413
              ],
              [
                0.4692517,
                0.1440019
              ],
              [
                0.326203,
                0.1220775
              ],
              [
                0.3190791,
                0.1234034
              ],
              [
                0.2972789,
                0.1223665
              ],
              [
                0.2827053,
                0.1256692
              ],
              [
                0.2586154,
                0.1236839
              ],
              [
                0.2492654,
                0.126732
              ],
              [
                0.2341722,
                0.1266456
              ],
              [
                0.2060936,
                0.1292407
              ],
              [
                0.2028993,
                0.1296079
              ],
              [
                0.1770094,
                0.1247822
              ],
              [
                0.1769112,
                0.1247951
              ],
              [
                0.1555297,
                0.1277736
              ],
              [
                0.1219769,
                0.1216322
              ],
              [
                0.101517,
                0.1249729
              ],
              [
                0.0412023,
                0.109632
              ],
              [
                0.005989,
                0.0986485
              ],
              [
                0.0033242,
                0.0979164
              ],
              [
                -0.0259794,
                0.0843055
              ],
              [
                -0.0438661,
                0.0734144
              ],
              [
                -0.0594446,
                0.0629731
              ],
              [
                -0.0792726,
                0.0449394
              ],
              [
                -0.3711236,
                0.1246845
              ],
              [
                -0.3704875,
                0.1243859
              ],
              [
                -0.378434,
                0.1262905
              ],
              [
                -0.4051126,
                0.1319913
              ],
              [
                -0.4296526,
                0.1361709
              ],
              [
                -0.3444412,
                0.1118723
              ],
              [
                -0.4458982,
                0.1390514
              ],
              [
                -0.4506349,
                0.1388886
              ],
              [
                -0.4708014,
                0.1364533
              ],
              [
                -0.298256,
                0.0902619
              ],
              [
                -0.4898341,
                0.1245989
              ],
              [
                -0.4868548,
                0.1170036
              ],
              [
                -0.2787557,
                0.0739317
              ],
              [
                -0.2651787,
                0.0650501
              ],
              [
                -0.4750661,
                0.0886364
              ],
              [
                -0.4726624,
                0.0834364
              ],
              [
                -0.4713778,
                0.0820558
              ],
              [
                -0.4707952,
                0.0787611
              ],
              [
                -0.4668936,
                0.0562186
              ],
              [
                -0.4654453,
                0.0521291
              ],
              [
                -0.4584079,
                0.042034
              ]
            ],
            "bounds_normalized": {
              "dimensions": [
                0.987158902,
                0.314700866
              ],
              "max": [
                0.497324799,
                0.144003752
              ],
              "min": [
                -0.489834103,
                -0.170697114
              ]
            },
            "centroid_normalized": [
              -0.040776643,
              0.028769451
            ],
            "fraction": 0.5,
            "mask": {
              "encoding": "rows_top_to_bottom_1bit_text",
              "occupied_bbox_pixels": [
                2,
                11,
                30,
                20
              ],
              "occupied_fraction": 0.150390625,
              "occupied_pixel_count": 154,
              "origin": "bottom_left",
              "resolution": [
                32,
                32
              ],
              "rows": [
                "00000000000000000000000000000000",
                "00000000000000000000000000000000",
                "00000000000000000000000000000000",
                "00000000000000000000000000000000",
                "00000000000000000000000000000000",
                "00000000000000000000000000000000",
                "00000000000000000000000000000000",
                "00000000000000000000000000000000",
                "00000000000000000000000000000000",
                "00000000000000000000000000000000",
                "00000000000000000000000000000000",
                "00000000000000000000000000000100",
                "00111110000000000111111111111110",
                "00111101100000111111111111111100",
                "00111111110001111111111111111100",
                "00011111110001111111111111110000",
                "00001111111001111111111111000000",
                "00000011111111111111111000000000",
                "00000001111111111111000000000000",
                "00000000111111111000000000000000",
                "00000000011111100000000000000000",
                "00000000000000000000000000000000",
                "00000000000000000000000000000000",
                "00000000000000000000000000000000",
                "00000000000000000000000000000000",
                "00000000000000000000000000000000",
                "00000000000000000000000000000000",
                "00000000000000000000000000000000",
                "00000000000000000000000000000000",
                "00000000000000000000000000000000",
                "00000000000000000000000000000000",
                "00000000000000000000000000000000"
              ]
            },
            "plane_coordinate_native": 0.000468016,
            "segment_count": 174
          },
          {
            "boundary_samples_normalized": [
              [
                -0.2856755,
                0.0296261
              ],
              [
                -0.280563,
                0.0262647
              ],
              [
                -0.2642981,
                0.0087041
              ],
              [
                -0.255268,
                0.0015353
              ],
              [
                -0.2263394,
                -0.0304397
              ],
              [
                -0.2210419,
                -0.0464297
              ],
              [
                -0.207773,
                -0.0684674
              ],
              [
                -0.2026317,
                -0.0727969
              ],
              [
                -0.1925179,
                -0.0978877
              ],
              [
                -0.185661,
                -0.1081673
              ],
              [
                -0.1748129,
                -0.1202355
              ],
              [
                -0.1742881,
                -0.1204862
              ],
              [
                -0.1351791,
                -0.1337569
              ],
              [
                -0.1093861,
                -0.1379409
              ],
              [
                -0.0729989,
                -0.1294094
              ],
              [
                0.0058062,
                -0.1043973
              ],
              [
                0.0235946,
                -0.0985084
              ],
              [
                0.0454806,
                -0.0977864
              ],
              [
                0.0610886,
                -0.0978194
              ],
              [
                0.0645856,
                -0.0983458
              ],
              [
                0.0907455,
                -0.0975595
              ],
              [
                0.0975709,
                -0.0984619
              ],
              [
                0.1057406,
                -0.100138
              ],
              [
                0.1127879,
                -0.1001008
              ],
              [
                0.1925728,
                -0.0778299
              ],
              [
                0.2790065,
                -0.0536863
              ],
              [
                0.3462926,
                -0.0348943
              ],
              [
                0.357026,
                -0.0294394
              ],
              [
                0.3664215,
                -0.0198793
              ],
              [
                0.1456423,
                0.0179688
              ],
              [
                0.1328477,
                0.0202477
              ],
              [
                0.1731292,
                0.0149994
              ],
              [
                0.375125,
                -0.0151239
              ],
              [
                0.1231593,
                0.0255543
              ],
              [
                0.1938311,
                0.0196182
              ],
              [
                0.1135775,
                0.0324041
              ],
              [
                0.4200972,
                0.0147559
              ],
              [
                0.4245752,
                0.0187693
              ],
              [
                0.226906,
                0.0289237
              ],
              [
                0.4398677,
                0.0313778
              ],
              [
                0.4428219,
                0.0359054
              ],
              [
                0.2713179,
                0.0414544
              ],
              [
                0.2875674,
                0.046518
              ],
              [
                0.456003,
                0.0583364
              ],
              [
                0.4591507,
                0.0641285
              ],
              [
                0.461792,
                0.0720602
              ],
              [
                0.4631735,
                0.0767212
              ],
              [
                0.4637905,
                0.0797714
              ],
              [
                0.4683267,
                0.0989201
              ],
              [
                0.469181,
                0.1051663
              ],
              [
                0.0892257,
                0.0496964
              ],
              [
                0.4689248,
                0.1166069
              ],
              [
                0.469529,
                0.1245238
              ],
              [
                0.4681466,
                0.1260986
              ],
              [
                0.3369434,
                0.1046357
              ],
              [
                0.341219,
                0.1072007
              ],
              [
                0.4587527,
                0.138042
              ],
              [
                0.3860909,
                0.1218879
              ],
              [
                0.4106938,
                0.1288085
              ],
              [
                0.4468409,
                0.1388689
              ],
              [
                0.0759809,
                0.0643409
              ],
              [
                0.072244,
                0.0662665
              ],
              [
                0.0216659,
                0.0897985
              ],
              [
                0.0193768,
                0.0907413
              ],
              [
                0.0158691,
                0.091794
              ],
              [
                -0.0025133,
                0.0969596
              ],
              [
                -0.042929,
                0.107391
              ],
              [
                -0.0515765,
                0.1069779
              ],
              [
                -0.0844134,
                0.1090148
              ],
              [
                -0.0847553,
                0.1091082
              ],
              [
                -0.1085458,
                0.1075496
              ],
              [
                -0.1163517,
                0.1100464
              ],
              [
                -0.1233822,
                0.1110429
              ],
              [
                -0.158447,
                0.1129103
              ],
              [
                -0.1621307,
                0.1132078
              ],
              [
                -0.203335,
                0.1205495
              ],
              [
                -0.2229853,
                0.1240982
              ],
              [
                -0.2906616,
                0.1365882
              ],
              [
                -0.3040057,
                0.1391236
              ],
              [
                -0.3352344,
                0.1403296
              ],
              [
                -0.3408334,
                0.1401067
              ],
              [
                -0.3563802,
                0.1432433
              ],
              [
                -0.3660141,
                0.1420559
              ],
              [
                -0.3985334,
                0.1324958
              ],
              [
                -0.4049086,
                0.1273262
              ],
              [
                -0.4079978,
                0.1248228
              ],
              [
                -0.4079775,
                0.1247748
              ],
              [
                -0.4027831,
                0.1141483
              ],
              [
                -0.4027709,
                0.1141183
              ],
              [
                -0.382542,
                0.0950518
              ],
              [
                -0.3770079,
                0.0883191
              ],
              [
                -0.3659732,
                0.0758292
              ],
              [
                -0.3519517,
                0.0634183
              ],
              [
                -0.3324661,
                0.0562165
              ],
              [
                -0.3322413,
                0.0561568
              ],
              [
                -0.3061727,
                0.0421239
              ]
            ],
            "bounds_normalized": {
              "dimensions": [
                0.877843327,
                0.281803482
              ],
              "max": [
                0.469814997,
                0.143243297
              ],
              "min": [
                -0.40802833,
                -0.138560185
              ]
            },
            "centroid_normalized": [
              0.021085683,
              0.038162343
            ],
            "fraction": 0.75,
            "mask": {
              "encoding": "rows_top_to_bottom_1bit_text",
              "occupied_bbox_pixels": [
                4,
                12,
                29,
                20
              ],
              "occupied_fraction": 0.12890625,
              "occupied_pixel_count": 132,
              "origin": "bottom_left",
              "resolution": [
                32,
                32
              ],
              "rows": [
                "00000000000000000000000000000000",
                "00000000000000000000000000000000",
                "00000000000000000000000000000000",
                "00000000000000000000000000000000",
                "00000000000000000000000000000000",
                "00000000000000000000000000000000",
                "00000000000000000000000000000000",
                "00000000000000000000000000000000",
                "00000000000000000000000000000000",
                "00000000000000000000000000000000",
                "00000000000000000000000000000000",
                "00000110000000000000000000000000",
                "00001111111111100000000001111100",
                "00001111111110111100000001111100",
                "00000111111111111010000111111000",
                "00000001111111111111111111111000",
                "00000000111111111111111111110000",
                "00000000011111111111111111000000",
                "00000000001111111111110000000000",
                "00000000001111110000000000000000",
                "00000000000000000000000000000000",
                "00000000000000000000000000000000",
                "00000000000000000000000000000000",
                "00000000000000000000000000000000",
                "00000000000000000000000000000000",
                "00000000000000000000000000000000",
                "00000000000000000000000000000000",
                "00000000000000000000000000000000",
                "00000000000000000000000000000000",
                "00000000000000000000000000000000",
                "00000000000000000000000000000000",
                "00000000000000000000000000000000"
              ]
            },
            "plane_coordinate_native": 0.006730219,
            "segment_count": 146
          },
          {
            "boundary_samples_normalized": [
              [
                0.1768639,
                -0.0030713
              ],
              [
                0.1609755,
                -0.0072401
              ],
              [
                0.1030296,
                -0.0217798
              ],
              [
                0.0758916,
                -0.0306127
              ],
              [
                0.068146,
                -0.0358911
              ],
              [
                0.0549919,
                -0.0455389
              ],
              [
                0.0528075,
                -0.0493145
              ],
              [
                0.0492453,
                -0.0604815
              ],
              [
                0.0507718,
                -0.061958
              ],
              [
                0.0578845,
                -0.0688294
              ],
              [
                0.0730009,
                -0.0766785
              ],
              [
                0.0837529,
                -0.0786957
              ],
              [
                0.1015153,
                -0.0817365
              ],
              [
                0.111873,
                -0.0814008
              ],
              [
                0.1227696,
                -0.0810966
              ],
              [
                0.1425968,
                -0.0787849
              ],
              [
                0.1561724,
                -0.0765577
              ],
              [
                0.1636957,
                -0.0765858
              ],
              [
