{
  "bounds": {
    "center": [
      -0.011316723,
      0.77286157,
      -0.063415719
    ],
    "diagonal": 0.015445263,
    "dimensions": [
      0.007635517,
      0.009838521,
      0.009135563
    ],
    "max": [
      -0.007498965,
      0.777780831,
      -0.058847938
    ],
    "min": [
      -0.015134482,
      0.767942309,
      -0.067983501
    ]
  },
  "centroids": {
    "surface_area_weighted": [
      -0.010992755,
      0.773161335,
      -0.063713485
    ],
    "vertex_mean": [
      -0.011211787,
      0.77298496,
      -0.063813666
    ],
    "volume_if_watertight": [
      -0.010996471,
      0.773182579,
      -0.063723391
    ]
  },
  "cleaning": {
    "degenerate_faces_removed": 0,
    "unused_vertices_removed": 0,
    "vertices_welded": 0,
    "weld_tolerance": 0.0
  },
  "counts": {
    "analyzed_face_count": 100,
    "analyzed_vertex_count": 52,
    "source_face_count": 100,
    "source_vertex_count": 52
  },
  "mesh_name": "Allen_red_nucleus_L",
  "pca": {
    "basis": "exact_uniform_surface_moments",
    "eigenvalues": [
      8.33e-06,
      6.656e-06,
      4.907e-06
    ],
    "oriented_bounds": {
      "center": [
        -9.7625e-05,
        0.000147944,
        0.000336419
      ],
      "dimensions": [
        0.01060895,
        0.009081257,
        0.007591662
      ],
      "max": [
        0.005206849,
        0.004688572,
        0.00413225
      ],
      "min": [
        -0.0054021,
        -0.004392684,
        -0.003459411
      ]
    },
    "principal_axes_world": [
      [
        -0.20384381,
        0.85045951,
        0.484939505
      ],
      [
        0.400154101,
        -0.379694713,
        0.834091494
      ],
      [
        0.893490009,
        0.36407492,
        -0.262916444
      ]
    ]
  },
  "sampling": {
    "cross_sections_pca": {
      "pca_axis_0": {
        "axis": 0,
        "in_plane_axes": [
          1,
          2
        ],
        "slices": [
          {
            "boundary_samples_normalized": [
              [
                -0.1851732,
                -0.0586836
              ],
              [
                -0.1979378,
                -0.192898
              ],
              [
                -0.0347998,
                -0.249692
              ],
              [
                -0.0047265,
                -0.2479307
              ],
              [
                0.1127389,
                -0.2005855
              ],
              [
                0.1991836,
                -0.2036914
              ],
              [
                0.265,
                -0.0657031
              ],
              [
                0.2642985,
                -0.0492425
              ],
              [
                0.2235786,
                0.0231794
              ],
              [
                0.1768977,
                0.092171
              ],
              [
                0.1705691,
                0.0990991
              ],
              [
                0.1477839,
                0.1087473
              ],
              [
                -0.0418027,
                0.1768372
              ],
              [
                -0.1406098,
                0.1137189
              ],
              [
                -0.1582177,
                0.0993671
              ]
            ],
            "bounds_normalized": {
              "dimensions": [
                0.462937873,
                0.426529204
              ],
              "max": [
                0.265000026,
                0.176837171
              ],
              "min": [
                -0.197937846,
                -0.249692032
              ]
            },
            "centroid_normalized": [
              0.053118864,
              -0.037020463
            ],
            "fraction": 0.1,
            "mask": {
              "encoding": "rows_top_to_bottom_1bit_text",
              "occupied_bbox_pixels": [
                10,
                8,
                23,
                20
              ],
              "occupied_fraction": 0.131835938,
              "occupied_pixel_count": 135,
              "origin": "bottom_left",
              "resolution": [
                32,
                32
              ],
              "rows": [
                "00000000000000000000000000000000",
                "00000000000000000000000000000000",
                "00000000000000000000000000000000",
                "00000000000000000000000000000000",
                "00000000000000000000000000000000",
                "00000000000000000000000000000000",
                "00000000000000000000000000000000",
                "00000000000000000000000000000000",
                "00000000000000000000000000000000",
                "00000000000000000000000000000000",
                "00000000000000000000000000000000",
                "00000000000001111100000000000000",
                "00000000000011111111100000000000",
                "00000000000111111111100000000000",
                "00000000000111111111110000000000",
                "00000000000111111111111000000000",
                "00000000001111111111111100000000",
                "00000000001111111111111100000000",
                "00000000001111111111111100000000",
                "00000000001111111111111000000000",
                "00000000001111111111111000000000",
                "00000000001111111111110000000000",
                "00000000000011111100000000000000",
                "00000000000000110000000000000000",
                "00000000000000000000000000000000",
                "00000000000000000000000000000000",
                "00000000000000000000000000000000",
                "00000000000000000000000000000000",
                "00000000000000000000000000000000",
                "00000000000000000000000000000000",
                "00000000000000000000000000000000",
                "00000000000000000000000000000000"
              ]
            },
            "plane_coordinate_native": -0.004341205,
            "segment_count": 15
          },
          {
            "boundary_samples_normalized": [
              [
                -0.3493693,
                -0.1021699
              ],
              [
                -0.2981048,
                -0.2220775
              ],
              [
                -0.2088567,
                -0.2800783
              ],
              [
                -0.1732724,
                -0.3010805
              ],
              [
                -0.0918509,
                -0.3110669
              ],
              [
                0.0053484,
                -0.3128822
              ],
              [
                0.0962369,
                -0.2987535
              ],
              [
                0.21046,
                -0.2755194
              ],
              [
                0.2727324,
                -0.2360317
              ],
              [
                0.3230117,
                -0.1895244
              ],
              [
                0.334963,
                -0.1614236
              ],
              [
                0.3452538,
                -0.054723
              ],
              [
                0.3310249,
                0.0287957
              ],
              [
                0.3053568,
                0.0667316
              ],
              [
                0.2753266,
                0.099607
              ],
              [
                0.1968329,
                0.1678939
              ],
              [
                -0.0132019,
                0.2560007
              ],
              [
                -0.0558277,
                0.273895
              ],
              [
                -0.0977876,
                0.2912142
              ],
              [
                -0.1428084,
                0.2798294
              ],
              [
                -0.2498367,
                0.2026442
              ],
              [
                -0.2743645,
                0.1692597
              ],
              [
                -0.2910417,
                0.1410517
              ],
              [
                -0.3315731,
                0.0124683
              ]
            ],
            "bounds_normalized": {
              "dimensions": [
                0.694623146,
                0.6040964
              ],
              "max": [
                0.345253804,
                0.291214231
              ],
              "min": [
                -0.349369342,
                -0.312882169
              ]
            },
            "centroid_normalized": [
              0.004943819,
              -0.03149747
            ],
            "fraction": 0.25,
            "mask": {
              "encoding": "rows_top_to_bottom_1bit_text",
              "occupied_bbox_pixels": [
                6,
                7,
                25,
                24
              ],
              "occupied_fraction": 0.275390625,
              "occupied_pixel_count": 282,
              "origin": "bottom_left",
              "resolution": [
                32,
                32
              ],
              "rows": [
                "00000000000000000000000000000000",
                "00000000000000000000000000000000",
                "00000000000000000000000000000000",
                "00000000000000000000000000000000",
                "00000000000000000000000000000000",
                "00000000000000000000000000000000",
                "00000000000000000000000000000000",
                "00000000000011000000000000000000",
                "00000000001111110000000000000000",
                "00000000011111111110000000000000",
                "00000000111111111111100000000000",
                "00000000111111111111011000000000",
                "00000001111111111111111100000000",
                "00000001111111111111111110000000",
                "00000001111111111111111110000000",
                "00000011111111111111111111000000",
                "00000011111111111111111111000000",
                "00000011111111111111111111000000",
                "00000011111111111111111111000000",
                "00000011111111111111111111000000",
                "00000011111111111111111111000000",
                "00000001111111111111111111000000",
                "00000001111111111111111110000000",
                "00000000111111111111111100000000",
                "00000000001111111111100000000000",
                "00000000000000000000000000000000",
                "00000000000000000000000000000000",
                "00000000000000000000000000000000",
                "00000000000000000000000000000000",
                "00000000000000000000000000000000",
                "00000000000000000000000000000000",
                "00000000000000000000000000000000"
              ]
            },
            "plane_coordinate_native": -0.002749863,
            "segment_count": 24
          },
          {
            "boundary_samples_normalized": [
              [
                -0.4155395,
                -0.1230605
              ],
              [
                -0.4033569,
                -0.2067933
              ],
              [
                -0.319114,
                -0.3326797
              ],
              [
                -0.3173002,
                -0.3337503
              ],
              [
                -0.3133644,
                -0.334233
              ],
              [
                -0.0259775,
                -0.3535105
              ],
              [
                0.0907307,
                -0.3371831
              ],
              [
                0.2020144,
                -0.3003803
              ],
              [
                0.2881149,
                -0.2511177
              ],
              [
                0.3155021,
                -0.2346363
              ],
              [
                0.3514469,
                -0.1920292
              ],
              [
                0.4004299,
                -0.0754162
              ],
              [
                0.4189284,
                -0.0091498
              ],
              [
                0.3949985,
                0.0557209
              ],
              [
                0.3191295,
                0.1704029
              ],
              [
                0.2899447,
                0.1957927
              ],
              [
                0.2507673,
                0.2122271
              ],
              [
                0.0622142,
                0.2913817
              ],
              [
                -0.0728975,
                0.3471498
              ],
              [
                -0.1063049,
                0.3508639
              ],
              [
                -0.1430763,
                0.3437243
              ],
              [
                -0.2360909,
                0.2971893
              ],
              [
                -0.3410187,
                0.2068978
              ],
              [
                -0.3698228,
                0.1798507
              ],
              [
                -0.4200036,
                0.0728942
              ],
              [
                -0.4252615,
                0.0385452
              ]
            ],
            "bounds_normalized": {
              "dimensions": [
                0.844189894,
                0.70437441
              ],
              "max": [
                0.418928425,
                0.350863877
              ],
              "min": [
                -0.425261469,
                -0.353510533
              ]
            },
            "centroid_normalized": [
              -0.020188737,
              -0.012357672
            ],
            "fraction": 0.5,
            "mask": {
              "encoding": "rows_top_to_bottom_1bit_text",
              "occupied_bbox_pixels": [
                4,
                6,
                27,
                25
              ],
              "occupied_fraction": 0.380859375,
              "occupied_pixel_count": 390,
              "origin": "bottom_left",
              "resolution": [
                32,
                32
              ],
              "rows": [
                "00000000000000000000000000000000",
                "00000000000000000000000000000000",
                "00000000000000000000000000000000",
                "00000000000000000000000000000000",
                "00000000000000000000000000000000",
                "00000000000000000000000000000000",
                "00000000001111110000000000000000",
                "00000000011111111100000000000000",
                "00000000111111111111100000000000",
                "00000011111111111111011000000000",
                "00000111111111111111111110000000",
                "00000111111111111111111111000000",
                "00001111111111111111111111000000",
                "00001111111111111111111111100000",
                "00001111111111111111111111010000",
                "00001111111111111111111111110000",
                "00001111111111111111111111110000",
                "00001111111111111111111111110000",
                "00001111111111111111111111110000",
                "00001111111111111111111111100000",
                "00001111111111111111111111100000",
                "00001111111111111111111111000000",
                "00001111111111111111111111000000",
                "00000111111111111111111110000000",
                "00000011111111111111111000000000",
                "00000011111111111111000000000000",
                "00000000000000000000000000000000",
                "00000000000000000000000000000000",
                "00000000000000000000000000000000",
                "00000000000000000000000000000000",
                "00000000000000000000000000000000",
                "00000000000000000000000000000000"
              ]
            },
            "plane_coordinate_native": -9.7625e-05,
            "segment_count": 26
          },
          {
            "boundary_samples_normalized": [
              [
                -0.4138384,
                -0.0429462
              ],
              [
                -0.413231,
                -0.0530429
              ],
              [
                -0.3741267,
                -0.1767591
              ],
              [
                -0.3600499,
                -0.2052505
              ],
              [
                -0.2178211,
                -0.3099695
              ],
              [
                -0.2017778,
                -0.3159492
              ],
              [
                -0.1711546,
                -0.3273358
              ],
              [
                -0.0852021,
                -0.3449722
              ],
              [
                0.1141873,
                -0.3147213
              ],
              [
                0.1548656,
                -0.2971906
              ],
              [
                0.2170682,
                -0.2582881
              ],
              [
                0.2767051,
                -0.2001682
              ],
              [
                0.3535879,
                -0.1166348
              ],
              [
                0.3706312,
                -0.0093615
              ],
              [
                0.3328176,
                0.1061545
              ],
              [
                0.2523167,
                0.1870735
              ],
              [
                0.1620386,
                0.2485476
              ],
              [
                0.0206929,
                0.2838486
              ],
              [
                -0.003777,
                0.2838822
              ],
              [
                -0.0631853,
                0.2767989
              ],
              [
                -0.1922449,
                0.2394688
              ],
              [
                -0.2981376,
                0.1615024
              ],
              [
                -0.3426067,
                0.1036242
              ],
              [
                -0.3732805,
                0.059098
              ],
              [
                -0.4099851,
                -0.0177731
              ]
            ],
            "bounds_normalized": {
              "dimensions": [
                0.784469541,
                0.628854403
              ],
              "max": [
                0.37063117,
                0.283882213
              ],
              "min": [
                -0.413838371,
                -0.344972191
              ]
            },
            "centroid_normalized": [
              -0.066620299,
              -0.041614577
            ],
            "fraction": 0.75,
            "mask": {
              "encoding": "rows_top_to_bottom_1bit_text",
              "occupied_bbox_pixels": [
                4,
                6,
                26,
                24
              ],
              "occupied_fraction": 0.3203125,
              "occupied_pixel_count": 328,
              "origin": "bottom_left",
              "resolution": [
                32,
                32
              ],
              "rows": [
                "00000000000000000000000000000000",
                "00000000000000000000000000000000",
                "00000000000000000000000000000000",
                "00000000000000000000000000000000",
                "00000000000000000000000000000000",
                "00000000000000000000000000000000",
                "00000000000000000000000000000000",
                "00000000000000010000000000000000",
                "00000000000111111111100000000000",
                "00000000011111111111010000000000",
                "00000000111111111111111100000000",
                "00000001111111111111111110000000",
                "00000011111111111111111110000000",
                "00000111111111111111111111000000",
                "00000111111111111111111111100000",
                "00001111111111111111111111100000",
                "00001111111111111111111111100000",
                "00001111111111111111111111100000",
                "00001111111111111111111111100000",
                "00001111111111111111111111000000",
                "00000111111111111111111110000000",
                "00000111111111111111111110000000",
                "00000011111111111111111100000000",
                "00000001111111111111111000000000",
                "00000000111111111111100000000000",
                "00000000001111111100000000000000",
                "00000000000000000000000000000000",
                "00000000000000000000000000000000",
                "00000000000000000000000000000000",
                "00000000000000000000000000000000",
                "00000000000000000000000000000000",
                "00000000000000000000000000000000"
              ]
            },
            "plane_coordinate_native": 0.002554612,
            "segment_count": 25
          },
          {
            "boundary_samples_normalized": [
              [
                -0.1849211,
                -0.1454855
              ],
              [
                -0.1481638,
                -0.206426
              ],
              [
                -0.093182,
                -0.2452225
              ],
              [
                -0.0173847,
                -0.2757858
              ],
              [
                0.036244,
                -0.2844035
              ],
              [
                0.1097495,
                -0.2527256
              ],
              [
                0.1265029,
                -0.2422477
              ],
              [
                0.2491595,
                -0.1227112
              ],
              [
                0.2618294,
                -0.0890893
              ],
              [
                0.204342,
                0.170762
              ],
              [
                0.1961819,
                0.1742792
              ],
              [
                0.055249,
                0.1744729
              ],
              [
                0.0176633,
                0.1699916
              ],
              [
                -0.1747701,
                0.0718927
              ],
              [
                -0.192442,
                0.0488921
              ],
              [
                -0.2132694,
                0.018659
              ]
            ],
            "bounds_normalized": {
              "dimensions": [
                0.475098789,
                0.458876471
              ],
              "max": [
                0.261829373,
                0.174472949
              ],
              "min": [
                -0.213269416,
                -0.284403522
              ]
            },
            "centroid_normalized": [
              0.014549263,
              -0.064696719
            ],
            "fraction": 0.9,
            "mask": {
              "encoding": "rows_top_to_bottom_1bit_text",
              "occupied_bbox_pixels": [
                9,
                7,
                23,
                20
              ],
              "occupied_fraction": 0.1484375,
              "occupied_pixel_count": 152,
              "origin": "bottom_left",
              "resolution": [
                32,
                32
              ],
              "rows": [
                "00000000000000000000000000000000",
                "00000000000000000000000000000000",
                "00000000000000000000000000000000",
                "00000000000000000000000000000000",
                "00000000000000000000000000000000",
                "00000000000000000000000000000000",
                "00000000000000000000000000000000",
                "00000000000000000000000000000000",
                "00000000000000000000000000000000",
                "00000000000000000000000000000000",
                "00000000000000000000000000000000",
                "00000000000000011111110000000000",
                "00000000000001111111101000000000",
                "00000000000111111111111000000000",
                "00000000001111111111111000000000",
                "00000000011111111111111000000000",
                "00000000001111111111111000000000",
                "00000000001111111111111100000000",
                "00000000001111111111111100000000",
                "00000000001111111111111100000000",
                "00000000001111111111111000000000",
                "00000000000111111111110000000000",
                "00000000000011111111100000000000",
                "00000000000001111111000000000000",
                "00000000000000001100000000000000",
                "00000000000000000000000000000000",
                "00000000000000000000000000000000",
                "00000000000000000000000000000000",
                "00000000000000000000000000000000",
                "00000000000000000000000000000000",
                "00000000000000000000000000000000",
                "00000000000000000000000000000000"
              ]
            },
            "plane_coordinate_native": 0.004145954,
            "segment_count": 16
          }
        ]
      },
      "pca_axis_1": {
        "axis": 1,
        "in_plane_axes": [
          0,
          2
        ],
        "slices": [
          {
            "boundary_samples_normalized": [
              [
                -0.2575209,
                -0.107239
              ],
              [
                -0.1710195,
                -0.2364279
              ],
              [
                -0.1444077,
                -0.2509625
              ],
              [
                -0.0572603,
                -0.2919834
              ],
              [
                0.0079289,
                -0.2987001
              ],
              [
                0.1529155,
                -0.28219
              ],
              [
                0.1774701,
                -0.2717657
              ],
              [
                0.2823532,
                -0.1943722
              ],
              [
                0.2984739,
                -0.1772434
              ],
              [
                0.3322603,
                -0.079789
              ],
              [
                0.3368989,
                -0.0563773
              ],
              [
                0.3278302,
                -0.0375768
              ],
              [
                0.2502066,
                0.1035488
              ],
              [
                0.2264214,
                0.143219
              ],
              [
                0.1750953,
                0.1743602
              ],
              [
                -0.0014548,
                0.2058604
              ],
              [
                -0.0431568,
                0.2101935
              ],
              [
                -0.0855411,
                0.1828306
              ],
              [
                -0.1787253,
                0.1099382
              ],
              [
                -0.2426167,
                -0.0082239
              ]
            ],
            "bounds_normalized": {
              "dimensions": [
                0.594419889,
                0.508893595
              ],
              "max": [
                0.336898949,
                0.210193516
              ],
              "min": [
                -0.257520939,
                -0.298700079
              ]
            },
            "centroid_normalized": [
              0.069307556,
              -0.058145026
            ],
            "fraction": 0.1,
            "mask": {
              "encoding": "rows_top_to_bottom_1bit_text",
              "occupied_bbox_pixels": [
                8,
                7,
                25,
                21
              ],
              "occupied_fraction": 0.202148438,
              "occupied_pixel_count": 207,
              "origin": "bottom_left",
              "resolution": [
                32,
                32
              ],
              "rows": [
                "00000000000000000000000000000000",
                "00000000000000000000000000000000",
                "00000000000000000000000000000000",
                "00000000000000000000000000000000",
                "00000000000000000000000000000000",
                "00000000000000000000000000000000",
                "00000000000000000000000000000000",
                "00000000000000000000000000000000",
                "00000000000000000000000000000000",
                "00000000000000000000000000000000",
                "00000000000001111111100000000000",
                "00000000000011111111111000000000",
                "00000000001111111111111000000000",
                "00000000001111111111111100000000",
                "00000000011111111111111100000000",
                "00000000011111111111111110000000",
                "00000000011111111111111110000000",
                "00000000111111111111111111000000",
                "00000000111111111111111111000000",
                "00000000111111111111111110000000",
                "00000000011111111111111110000000",
                "00000000001111111111111100000000",
                "00000000001111111111111000000000",
                "00000000000111111111110000000000",
                "00000000000001111111000000000000",
                "00000000000000000000000000000000",
                "00000000000000000000000000000000",
                "00000000000000000000000000000000",
                "00000000000000000000000000000000",
                "00000000000000000000000000000000",
                "00000000000000000000000000000000",
                "00000000000000000000000000000000"
              ]
            },
            "plane_coordinate_native": -0.003484559,
            "segment_count": 20
          },
          {
            "boundary_samples_normalized": [
              [
                -0.3917132,
                -0.1744616
              ],
              [
                -0.3926512,
                -0.1956663
              ],
              [
                -0.3899771,
                -0.1987085
              ],
              [
                -0.3837086,
                -0.2037078
              ],
              [
                -0.2459333,
                -0.2789569
              ],
              [
                -0.1793062,
                -0.3103187
              ],
              [
                -0.036685,
                -0.3390339
              ],
              [
                0.1084962,
                -0.346412
              ],
              [
                0.2239851,
                -0.3178407
              ],
              [
                0.2528345,
                -0.3106913
              ],
              [
                0.2702312,
                -0.2978543
              ],
              [
                0.3655879,
                -0.1965346
              ],
              [
                0.3891684,
                -0.1285183
              ],
              [
                0.3996651,
                0.0182074
              ],
              [
                0.3784658,
                0.0567495
              ],
              [
                0.2948205,
                0.1962571
              ],
              [
                0.1682693,
                0.2730397
              ],
              [
                0.1264541,
                0.2934347
              ],
              [
                0.1020155,
                0.3004924
              ],
              [
                -0.0900756,
                0.3150834
              ],
              [
                -0.1509755,
                0.294803
              ],
              [
                -0.3087252,
                0.1891616
              ],
              [
                -0.3430326,
                0.138321
              ]
            ],
            "bounds_normalized": {
              "dimensions": [
                0.792316343,
                0.661495423
              ],
              "max": [
                0.399665105,
                0.315083418
              ],
              "min": [
                -0.392651238,
                -0.346412005
              ]
            },
            "centroid_normalized": [
              0.007269995,
              -0.053180658
            ],
            "fraction": 0.25,
            "mask": {
              "encoding": "rows_top_to_bottom_1bit_text",
              "occupied_bbox_pixels": [
                4,
                6,
                27,
                24
              ],
              "occupied_fraction": 0.354492188,
              "occupied_pixel_count": 363,
              "origin": "bottom_left",
              "resolution": [
                32,
                32
              ],
              "rows": [
                "00000000000000000000000000000000",
                "00000000000000000000000000000000",
                "00000000000000000000000000000000",
                "00000000000000000000000000000000",
                "00000000000000000000000000000000",
                "00000000000000000000000000000000",
                "00000000000000000000000000000000",
                "00000000000111111111000000000000",
                "00000000011111111111110000000000",
                "00000000111111111111111100000000",
                "00000001111111111111111110000000",
                "00000011111111111111111111000000",
                "00000011111111111111111111000000",
                "00000011111111111111111111100000",
                "00000111111111111111111111100000",
                "00000111111111111111111111010000",
                "00000111111111111111111111110000",
                "00000111111111111111111111110000",
                "00000111111111111111111111110000",
                "00000111111111111111111111110000",
                "00001111111111111111111111100000",
                "00001111111111111111111111100000",
                "00000111111111111111111111000000",
                "00000001111111111111111110000000",
                "00000000011111111111111100000000",
                "00000000000011111111110000000000",
                "00000000000000000000000000000000",
                "00000000000000000000000000000000",
                "00000000000000000000000000000000",
                "00000000000000000000000000000000",
                "00000000000000000000000000000000",
                "00000000000000000000000000000000"
              ]
            },
            "plane_coordinate_native": -0.00212237,
            "segment_count": 23
          },
          {
            "boundary_samples_normalized": [
              [
                -0.4650957,
                -0.1526464
              ],
              [
                -0.4039961,
                -0.2418215
              ],
              [
                -0.3768408,
                -0.2703904
              ],
              [
                -0.2756579,
                -0.30495
              ],
              [
                -0.1581017,
                -0.3408351
              ],
              [
                -0.1156931,
                -0.3493736
              ],
              [
                -0.0579981,
                -0.3523056
              ],
              [
                0.1959706,
                -0.3416677
              ],
              [
                0.3624717,
                -0.3120152
              ],
              [
                0.3677764,
                -0.3096362
              ],
              [
                0.379095,
                -0.3002085
              ],
              [
                0.4505502,
                -0.2262783
              ],
              [
                0.4768946,
                -0.1647443
              ],
              [
                0.4831275,
                -0.0875088
              ],
              [
                0.4192948,
                0.1288025
              ],
              [
                0.392264,
                0.1738911
              ],
              [
                0.2595984,
                0.2768812
              ],
              [
                0.2335077,
                0.2958975
              ],
              [
                0.2134349,
                0.3042722
              ],
              [
                0.0513947,
                0.3306722
              ],
              [
                -0.131763,
                0.2821653
              ],
              [
                -0.2374968,
                0.2538115
              ],
              [
                -0.3223136,
                0.2310948
              ],
              [
                -0.3522221,
                0.2080842
              ],
              [
                -0.4663375,
                0.0975933
              ],
              [
                -0.4887933,
                0.0617293
              ],
              [
                -0.4903516,
                0.0083666
              ]
            ],
            "bounds_normalized": {
              "dimensions": [
                0.973479113,
                0.682977777
              ],
              "max": [
                0.483127465,
                0.330672157
              ],
              "min": [
                -0.490351648,
                -0.35230562
              ]
            },
            "centroid_normalized": [
              -0.002121505,
              -0.040782224
            ],
            "fraction": 0.5,
            "mask": {
              "encoding": "rows_top_to_bottom_1bit_text",
              "occupied_bbox_pixels": [
                2,
                6,
                29,
                25
              ],
              "occupied_fraction": 0.443359375,
              "occupied_pixel_count": 454,
              "origin": "bottom_left",
              "resolution": [
                32,
                32
              ],
              "rows": [
                "00000000000000000000000000000000",
                "00000000000000000000000000000000",
                "00000000000000000000000000000000",
                "00000000000000000000000000000000",
                "00000000000000000000000000000000",
                "00000000000000000000000000000000",
                "00000000000000001111000000000000",
                "00000000000011111110111000000000",
                "00000000011111111111111100000000",
                "00000011111111111111111111000000",
                "00000111111111111111111111100000",
                "00001111111111111111111111010000",
                "00011111111111111111111111110000",
                "00111111111111111111111111111000",
                "00111111111111111111111111111000",
                "00111111111111111111111111111000",
                "00111111111111111111111111111100",
                "00111111111111111111111111111100",
                "00111111111111111111111111111100",
                "00111111111111111111111111111100",
                "00111111111111111111111111111100",
                "00011111111111111111111111111100",
                "00001111111111111111111111111000",
                "00001111111111111111111111110000",
                "00000011111111111111111111100000",
                "00000000011111111111111111000000",
                "00000000000000000000000000000000",
                "00000000000000000000000000000000",
                "00000000000000000000000000000000",
                "00000000000000000000000000000000",
                "00000000000000000000000000000000",
                "00000000000000000000000000000000"
              ]
            },
            "plane_coordinate_native": 0.000147944,
            "segment_count": 27
          },
          {
            "boundary_samples_normalized": [
              [
                -0.4217125,
                -0.0843153
              ],
              [
                -0.3932301,
                -0.2001636
              ],
              [
                -0.3883707,
                -0.2088251
              ],
              [
                -0.3091554,
                -0.2311463
              ],
              [
                -0.2461507,
                -0.276016
              ],
              [
                -0.2139857,
                -0.2861826
              ],
              [
                -0.0823198,
                -0.2924796
              ],
              [
                0.1191539,
                -0.2950328
              ],
              [
                0.1788365,
                -0.2946888
              ],
              [
                0.255082,
                -0.2577447
              ],
              [
                0.4124588,
                -0.1483132
              ],
              [
                0.4220622,
                -0.0961288
              ],
              [
                0.3970966,
                0.1564842
              ],
              [
                0.3900224,
                0.17152
              ],
              [
                0.3751765,
                0.1772528
              ],
              [
                0.1030998,
                0.2553096
              ],
              [
                -0.0348217,
                0.2183242
              ],
              [
                -0.2039076,
                0.1730376
              ],
              [
                -0.29148,
                0.13489
              ],
              [
                -0.3566762,
                0.0848234
              ],
              [
                -0.4013324,
                0.0358757
              ],
              [
                -0.4206917,
                -0.0271802
              ]
            ],
            "bounds_normalized": {
              "dimensions": [
                0.843774683,
                0.550342352
              ],
              "max": [
                0.422062179,
                0.255309589
              ],
              "min": [
                -0.421712504,
                -0.295032763
              ]
            },
            "centroid_normalized": [
              -0.050492987,
              -0.058668147
            ],
            "fraction": 0.75,
            "mask": {
              "encoding": "rows_top_to_bottom_1bit_text",
              "occupied_bbox_pixels": [
                4,
                7,
                27,
                23
              ],
              "occupied_fraction": 0.322265625,
              "occupied_pixel_count": 330,
              "origin": "bottom_left",
              "resolution": [
                32,
                32
              ],
              "rows": [
                "00000000000000000000000000000000",
                "00000000000000000000000000000000",
                "00000000000000000000000000000000",
                "00000000000000000000000000000000",
                "00000000000000000000000000000000",
                "00000000000000000000000000000000",
                "00000000000000000000000000000000",
                "00000000000000000000000000000000",
                "00000000000000000011000000000000",
                "00000000000000011110111000000000",
                "00000000001111111111111111000000",
                "00000000111111111111111111110000",
                "00000001111111111111111111110000",
                "00000111111111111111111111110000",
                "00001111111111111111111111110000",
                "00001111111111111111111111110000",
                "00001111111111111111111111110000",
                "00001111111111111111111111110000",
                "00001111111111111111111111110000",
                "00001111111111111111111111110000",
                "00001111111111111111111111110000",
                "00001111111111111111111111100000",
                "00000111111111111111111110000000",
                "00000001111111111111111100000000",
                "00000000011111111111110000000000",
                "00000000000000000000000000000000",
                "00000000000000000000000000000000",
                "00000000000000000000000000000000",
                "00000000000000000000000000000000",
                "00000000000000000000000000000000",
                "00000000000000000000000000000000",
                "00000000000000000000000000000000"
              ]
            },
            "plane_coordinate_native": 0.002418258,
            "segment_count": 22
          },
          {
            "boundary_samples_normalized": [
              [
                -0.2567108,
                -0.0548959
              ],
              [
                -0.2348206,
                -0.1508577
              ],
              [
                -0.0867572,
                -0.2183581
              ],
              [
                -0.0836591,
                -0.218187
              ],
              [
                0.192905,
                -0.1671648
              ],
              [
                0.2793664,
                -0.1090532
              ],
              [
                0.3051987,
                -0.0404393
              ],
              [
                0.2387077,
                0.100883
              ],
              [
                0.0787817,
                0.162638
              ],
              [
                -0.1702703,
                0.0759867
              ],
              [
                -0.2046332,
                0.0610178
              ],
              [
                -0.2067453,
                0.0593958
              ],
              [
                -0.2149659,
                0.0503852
              ]
            ],
            "bounds_normalized": {
              "dimensions": [
                0.561909456,
                0.380996171
              ],
              "max": [
                0.305198675,
                0.162638041
              ],
              "min": [
                -0.256710781,
                -0.21835813
              ]
            },
            "centroid_normalized": [
              -0.027969449,
              -0.034511506
            ],
            "fraction": 0.9,
            "mask": {
              "encoding": "rows_top_to_bottom_1bit_text",
              "occupied_bbox_pixels": [
                8,
                9,
                24,
                20
              ],
              "occupied_fraction": 0.142578125,
              "occupied_pixel_count": 146,
              "origin": "bottom_left",
              "resolution": [
                32,
                32
              ],
              "rows": [
                "00000000000000000000000000000000",
                "00000000000000000000000000000000",
                "00000000000000000000000000000000",
                "00000000000000000000000000000000",
                "00000000000000000000000000000000",
                "00000000000000000000000000000000",
                "00000000000000000000000000000000",
                "00000000000000000000000000000000",
                "00000000000000000000000000000000",
                "00000000000000000000000000000000",
                "00000000000000000000000000000000",
                "00000000000000001111000000000000",
                "00000000000001111110111000000000",
                "00000000000111111111111100000000",
                "00000000011111111111111100000000",
                "00000000011111111111111100000000",
                "00000000011111111111111110000000",
                "00000000111111111111111110000000",
                "00000000111111111111111110000000",
                "00000000011111111111111100000000",
                "00000000011111111111111000000000",
                "00000000000111111111000000000000",
                "00000000000001100000000000000000",
                "00000000000000000000000000000000",
                "00000000000000000000000000000000",
                "00000000000000000000000000000000",
                "00000000000000000000000000000000",
                "00000000000000000000000000000000",
                "00000000000000000000000000000000",
                "00000000000000000000000000000000",
                "00000000000000000000000000000000",
                "00000000000000000000000000000000"
              ]
            },
            "plane_coordinate_native": 0.003780447,
            "segment_count": 13
          }
        ]
      },
      "pca_axis_2": {
        "axis": 2,
        "in_plane_axes": [
          0,
          1
        ],
        "slices": [
          {
            "boundary_samples_normalized": [
              [
                -0.3307701,
                -0.1012187
              ],
              [
                -0.3090013,
                -0.1497957
              ],
              [
                -0.2723323,
                -0.1806129
              ],
              [
                -0.0653468,
                -0.3456883
              ],
              [
                0.0100774,
                -0.3508888
              ],
              [
                0.1591298,
                -0.3390973
              ],
              [
                0.1616912,
                -0.3385601
              ],
              [
                0.2715921,
                -0.2284156
              ],
              [
                0.3221476,
                -0.1522888
              ],
              [
                0.3910548,
                -0.0099459
              ],
              [
                0.397892,
                0.0340757
              ],
              [
                0.2869541,
                0.1437507
              ],
              [
                0.1781432,
                0.2280523
              ],
              [
                0.0952862,
                0.2288459
              ],
              [
                -0.1473723,
                0.2234713
              ],
              [
                -0.2139139,
                0.2138485
              ],
              [
                -0.2795128,
                0.1119149
              ],
              [
                -0.3361907,
                -0.012618
              ]
            ],
            "bounds_normalized": {
              "dimensions": [
                0.734082699,
                0.57973472
              ],
              "max": [
                0.39789197,
                0.228845895
              ],
              "min": [
                -0.33619073,
                -0.350888825
              ]
            },
            "centroid_normalized": [
              0.017751571,
              -0.056953932
            ],
            "fraction": 0.1,
            "mask": {
              "encoding": "rows_top_to_bottom_1bit_text",
              "occupied_bbox_pixels": [
                6,
                6,
                27,
                22
              ],
              "occupied_fraction": 0.28125,
              "occupied_pixel_count": 288,
              "origin": "bottom_left",
              "resolution": [
                32,
                32
              ],
              "rows": [
                "00000000000000000000000000000000",
                "00000000000000000000000000000000",
                "00000000000000000000000000000000",
                "00000000000000000000000000000000",
                "00000000000000000000000000000000",
                "00000000000000000000000000000000",
                "00000000000000000000000000000000",
                "00000000000000000000000000000000",
                "00000000000000000000000000000000",
                "00000000011111111111110000000000",
                "00000000011111111111111000000000",
                "00000000111111111111110110000000",
                "00000000111111111111111110000000",
                "00000001111111111111111111000000",
                "00000001111111111111111111100000",
                "00000011111111111111111111110000",
                "00000011111111111111111111110000",
                "00000011111111111111111111100000",
                "00000011111111111111111111000000",
                "00000011111111111111111111000000",
                "00000001111111111111111111000000",
                "00000000111111111111111110000000",
                "00000000011111111111111100000000",
                "00000000001111111111111100000000",
                "00000000000111111111110000000000",
                "00000000000001111111100000000000",
                "00000000000000000000000000000000",
                "00000000000000000000000000000000",
                "00000000000000000000000000000000",
                "00000000000000000000000000000000",
                "00000000000000000000000000000000",
                "00000000000000000000000000000000"
              ]
            },
            "plane_coordinate_native": -0.002700245,
            "segment_count": 18
          },
          {
            "boundary_samples_normalized": [
              [
                -0.4500969,
                -0.0744485
              ],
              [
                -0.4371649,
                -0.1167071
              ],
              [
                -0.3913957,
                -0.2151044
              ],
              [
                -0.3859214,
                -0.2211032
              ],
              [
                -0.3638377,
                -0.2438784
              ],
              [
                -0.1608175,
                -0.3735102
              ],
              [
                -0.1093846,
                -0.382055
              ],
              [
                0.0184735,
                -0.4116986
              ],
              [
                0.0560644,
                -0.4107182
              ],
              [
                0.2283587,
                -0.3776094
              ],
              [
                0.2787359,
                -0.3670427
              ],
              [
                0.2841659,
                -0.3616007
              ],
              [
                0.3042289,
                -0.3313896
              ],
              [
                0.4213299,
                -0.1276586
              ],
              [
                0.442937,
                -0.0754971
              ],
              [
                0.4694194,
                -0.0145701
              ],
              [
                0.4775566,
                0.0691737
              ],
              [
                0.427342,
                0.1719981
              ],
              [
                0.2736963,
                0.2816237
              ],
              [
                0.19096,
                0.3328044
              ],
              [
                0.041998,
                0.3559887
              ],
              [
                -0.0877122,
                0.3589973
              ],
              [
                -0.2751041,
                0.3226639
              ],
              [
                -0.2862269,
                0.3179612
              ],
              [
                -0.392962,
                0.2246634
              ],
              [
                -0.4261116,
                0.1603525
              ],
              [
                -0.4238627,
                0.1042615
              ],
              [
                -0.4451558,
                0.0486823
              ]
            ],
            "bounds_normalized": {
              "dimensions": [
                0.927653508,
                0.770695954
              ],
              "max": [
                0.477556625,
                0.358997315
              ],
              "min": [
                -0.450096884,
                -0.411698639
              ]
            },
            "centroid_normalized": [
              -0.025731691,
              -0.048407897
            ],
            "fraction": 0.25,
            "mask": {
              "encoding": "rows_top_to_bottom_1bit_text",
              "occupied_bbox_pixels": [
                3,
                4,
                29,
                26
              ],
              "occupied_fraction": 0.473632812,
              "occupied_pixel_count": 485,
              "origin": "bottom_left",
              "resolution": [
                32,
                32
              ],
              "rows": [
                "00000000000000000000000000000000",
                "00000000000000000000000000000000",
                "00000000000000000000000000000000",
                "00000000000000000000000000000000",
                "00000000000000000000000000000000",
                "00000000000001111100000000000000",
                "00000000111111111111110000000000",
                "00000001111111111111101100000000",
                "00000011111111111111111110000000",
                "00001111111111111111111111100000",
                "00001111111111111111111111110000",
                "00011111111111111111111111101000",
                "00001111111111111111111111111000",
                "00011111111111111111111111110100",
                "00011111111111111111111111111100",
                "00011111111111111111111111111100",
                "00011111111111111111111111111100",
                "00011111111111111111111111111000",
                "00011111111111111111111111111000",
                "00011111111111111111111111111000",
                "00001111111111111111111111110000",
                "00001111111111111111111111100000",
                "00001111111111111111111111100000",
                "00000111111111111111111111000000",
                "00000001111111111111111111000000",
                "00000000011111111111111110000000",
                "00000000001111111111111110000000",
                "00000000000001111111100000000000",
                "00000000000000000000000000000000",
                "00000000000000000000000000000000",
                "00000000000000000000000000000000",
                "00000000000000000000000000000000"
              ]
            },
            "plane_coordinate_native": -0.001561496,
            "segment_count": 28
          },
          {
            "boundary_samples_normalized": [
              [
                -0.4261068,
                -0.1234663
              ],
              [
                -0.4042003,
                -0.170562
              ],
              [
                -0.3434573,
                -0.2371251
              ],
              [
                -0.2455511,
                -0.3380969
              ],
              [
                -0.126035,
                -0.4077706
              ],
              [
                -0.0720506,
                -0.4167393
              ],
              [
                -0.0407142,
                -0.4240046
              ],
              [
                0.1182494,
                -0.4198584
              ],
              [
                0.2435526,
                -0.4078808
              ],
              [
                0.2975781,
                -0.354403
              ],
              [
                0.3861603,
                -0.2434571
              ],
              [
                0.4224983,
                -0.1557342
              ],
              [
                0.4390373,
                -0.1176835
              ],
              [
                0.4655002,
                0.0528044
              ],
              [
                0.4585285,
                0.1111023
              ],
              [
                0.3863336,
                0.2727126
              ],
              [
                0.2333727,
                0.3791352
              ],
              [
                0.1557862,
                0.4118766
              ],
              [
                0.0200366,
                0.4202471
              ],
              [
                -0.1422463,
                0.3822292
              ],
              [
                -0.2967277,
                0.3158533
              ],
              [
                -0.3975675,
                0.2410663
              ],
              [
                -0.4461833,
                0.1520334
              ],
              [
                -0.49281,
                0.0408091
              ],
              [
                -0.4887047,
                -0.0036208
              ]
            ],
            "bounds_normalized": {
              "dimensions": [
                0.958310203,
                0.844251734
              ],
              "max": [
                0.465500165,
                0.420247138
              ],
              "min": [
                -0.492810038,
                -0.424004596
              ]
            },
            "centroid_normalized": [
              -0.011828843,
              -0.041621318
            ],
            "fraction": 0.5,
            "mask": {
              "encoding": "rows_top_to_bottom_1bit_text",
              "occupied_bbox_pixels": [
                2,
                4,
                29,
                27
              ],
              "occupied_fraction": 0.516601562,
              "occupied_pixel_count": 529,
              "origin": "bottom_left",
              "resolution": [
                32,
                32
              ],
              "rows": [
                "00000000000000000000000000000000",
                "00000000000000000000000000000000",
                "00000000000000000000000000000000",
                "00000000000000000000000000000000",
                "00000000000001111111110000000000",
                "00000000001111111111101100000000",
                "00000000111111111111111110000000",
                "00000011111111111111111101100000",
                "00000111111111111111111111110000",
                "00001111111111111111111111110000",
                "00001111111111111111111111111000",
                "00011111111111111111111111111000",
                "00111111111111111111111111111000",
                "00111111111111111111111111111100",
                "00111111111111111111111111111100",
                "00111111111111111111111111111100",
                "00111111111111111111111111111000",
                "00111111111111111111111111111000",
                "00011111111111111111111111111000",
                "00011111111111111111111111111000",
                "00001111111111111111111111110000",
                "00001111111111111111111111110000",
                "00000111111111111111111111110000",
                "00000011111111111111111111100000",
                "00000001111111111111111111000000",
                "00000000111111111111111110000000",
                "00000000011111111111111100000000",
                "00000000000111111111111000000000",
                "00000000000000000000000000000000",
                "00000000000000000000000000000000",
                "00000000000000000000000000000000",
                "00000000000000000000000000000000"
              ]
            },
            "plane_coordinate_native": 0.000336419,
            "segment_count": 25
          },
          {
            "boundary_samples_normalized": [
              [
                -0.3982752,
                -0.0428896
              ],
              [
                -0.367646,
                -0.1194668
              ],
              [
                -0.3068817,
                -0.2299443
              ],
              [
                -0.2840785,
                -0.2511194
              ],
              [
                -0.1332032,
                -0.3226824
              ],
              [
                -0.0292043,
                -0.3707797
              ],
              [
                0.0032908,
                -0.3702126
              ],
              [
                0.1729969,
                -0.3379664
              ],
              [
                0.2724333,
                -0.2560256
              ],
              [
                0.335855,
                -0.1747541
              ],
              [
                0.3823321,
                -0.0226774
              ],
              [
                0.3939338,
                0.0528619
              ],
              [
                0.3936545,
                0.2009373
              ],
              [
                0.3913635,
                0.2047645
              ],
              [
                0.3542115,
                0.2204173
              ],
              [
                0.0699608,
                0.3296129
              ],
              [
                0.0153193,
                0.3170359
              ],
              [
                -0.1513967,
                0.2335574
              ],
              [
                -0.3213272,
                0.125061
              ],
              [
                -0.3662599,
                0.043421
              ]
            ],
            "bounds_normalized": {
              "dimensions": [
                0.792209,
                0.700392599
              ],
              "max": [
                0.393933834,
                0.329612879
              ],
              "min": [
                -0.398275166,
                -0.37077972
              ]
            },
            "centroid_normalized": [
              0.021353939,
              -0.038542454
            ],
            "fraction": 0.75,
            "mask": {
              "encoding": "rows_top_to_bottom_1bit_text",
              "occupied_bbox_pixels": [
                4,
                5,
                27,
                25
              ],
              "occupied_fraction": 0.349609375,
              "occupied_pixel_count": 358,
              "origin": "bottom_left",
              "resolution": [
                32,
                32
              ],
              "rows": [
                "00000000000000000000000000000000",
                "00000000000000000000000000000000",
                "00000000000000000000000000000000",
                "00000000000000000000000000000000",
                "00000000000000000000000000000000",
                "00000000000000000000000000000000",
                "00000000000000001110000000000000",
                "00000000000000111101110000000000",
                "00000000000011111111111100000000",
                "00000000000111111111111011000000",
                "00000000011111111111111111110000",
                "00000000111111111111111111110000",
                "00000011111111111111111111110000",
                "00000011111111111111111111110000",
                "00000111111111111111111111110000",
                "00000111111111111111111111110000",
                "00000111111111111111111111100000",
                "00001111111111111111111111100000",
                "00000111111111111111111111100000",
                "00000111111111111111111111100000",
                "00000111111111111111111111000000",
                "00000011111111111111111111000000",
                "00000001111111111111111110000000",
                "00000001111111111111111100000000",
                "00000000011111111111111000000000",
                "00000000000011111111110000000000",
                "00000000000000111100000000000000",
                "00000000000000000000000000000000",
                "00000000000000000000000000000000",
                "00000000000000000000000000000000",
                "00000000000000000000000000000000",
                "00000000000000000000000000000000"
              ]
            },
            "plane_coordinate_native": 0.002234335,
            "segment_count": 20
          },
          {
            "boundary_samples_normalized": [
              [
                -0.2662094,
                -0.0961274
              ],
              [
                -0.2076304,
                -0.1732691
              ],
              [
                -0.1300385,
                -0.2453212
              ],
              [
                -0.0977725,
                -0.2606256
              ],
              [
                0.1112672,
                -0.2353841
              ],
              [
                0.1233569,
                -0.2330869
              ],
              [
                0.1361416,
                -0.2225516
              ],
              [
                0.2403573,
                -0.0468185
              ],
              [
                0.2467728,
                -0.005047
              ],
              [
                0.246732,
                0.0165925
              ],
              [
                0.1735062,
                0.1389189
              ],
              [
                0.1297503,
                0.1573541
              ],
              [
                -0.0735641,
                0.0274796
              ]
            ],
            "bounds_normalized": {
              "dimensions": [
                0.512982169,
                0.41797975
              ],
              "max": [
                0.246772782,
                0.157354148
              ],
              "min": [
                -0.266209387,
                -0.260625602
              ]
            },
            "centroid_normalized": [
              0.048666872,
              -0.090606637
            ],
            "fraction": 0.9,
            "mask": {
              "encoding": "rows_top_to_bottom_1bit_text",
              "occupied_bbox_pixels": [
                8,
                8,
                22,
                20
              ],
              "occupied_fraction": 0.12109375,
              "occupied_pixel_count": 124,
              "origin": "bottom_left",
              "resolution": [
                32,
                32
              ],
              "rows": [
                "00000000000000000000000000000000",
                "00000000000000000000000000000000",
                "00000000000000000000000000000000",
                "00000000000000000000000000000000",
                "00000000000000000000000000000000",
                "00000000000000000000000000000000",
                "00000000000000000000000000000000",
                "00000000000000000000000000000000",
                "00000000000000000000000000000000",
                "00000000000000000000000000000000",
                "00000000000000000000000000000000",
                "00000000000000000001100000000000",
                "00000000000000000111110000000000",
                "00000000000000001111110000000000",
                "00000000000000111111111000000000",
                "00000000000011111111111000000000",
                "00000000000111111111111000000000",
                "00000000011111111111111000000000",
                "00000000111111111111111000000000",
                "00000000111111111111110000000000",
                "00000000011111111111100000000000",
                "00000000001111111111100000000000",
                "00000000000111111111000000000000",
                "00000000000011110000000000000000",
                "00000000000000000000000000000000",
                "00000000000000000000000000000000",
                "00000000000000000000000000000000",
                "00000000000000000000000000000000",
                "00000000000000000000000000000000",
                "00000000000000000000000000000000",
                "00000000000000000000000000000000",
                "00000000000000000000000000000000"
              ]
            },
            "plane_coordinate_native": 0.003373084,
            "segment_count": 13
          }
        ]
      }
    },
    "normalization": {
      "method": "uniform_scale_about_oriented_bounds_center",
      "normalized_extent": "largest dimension equals 1.0; aspect ratio is preserved",
      "oriented_bounds_center": [
        -9.7625e-05,
        0.000147944,
        0.000336419
      ],
      "pca_basis_world": [
        [
          -0.20384381,
          0.85045951,
          0.484939505
        ],
        [
          0.400154101,
          -0.379694713,
          0.834091494
        ],
        [
          0.893490009,
          0.36407492,
          -0.262916444
        ]
      ],
      "pca_origin_world": [
        -0.010992755,
        0.773161335,
        -0.063713485
      ],
      "uniform_scale_native": 0.01060895
    },
    "silhouettes": {
      "pca_axis_aligned": {
        "xy": {
          "encoding": "rows_top_to_bottom_1bit_text",
          "occupied_bbox_pixels": [
            2,
            5,
            45,
            42
          ],
          "occupied_fraction": 0.539496528,
          "occupied_pixel_count": 1243,
          "origin": "bottom_left",
          "resolution": [
            48,
            48
          ],
          "rows": [
            "000000000000000000000000000000000000000000000000",
            "000000000000000000000000000000000000000000000000",
            "000000000000000000000000000000000000000000000000",
            "000000000000000000000000000000000000000000000000",
            "000000000000000000000000000000000000000000000000",
            "000000000000000000000000011111000000000000000000",
            "000000000000000000111111111111110000000000000000",
            "000000000000000011111111111111111100000000000000",
            "000000000000001111111111111111111111000000000000",
            "000000000001111111111111111111111111110000000000",
            "000000000111111111111111111111111111111100000000",
            "000000011111111111111111111111111111111110000000",
            "000000111111111111111111111111111111111111000000",
            "000000111111111111111111111111111111111111000000",
            "000000111111111111111111111111111111111111100000",
            "000001111111111111111111111111111111111111100000",
            "000001111111111111111111111111111111111111100000",
            "000011111111111111111111111111111111111111110000",
            "000011111111111111111111111111111111111111110000",
            "000111111111111111111111111111111111111111111000",
            "000111111111111111111111111111111111111111111000",
            "000111111111111111111111111111111111111111111100",
            "001111111111111111111111111111111111111111111100",
            "001111111111111111111111111111111111111111111000",
            "000111111111111111111111111111111111111111111000",
            "000111111111111111111111111111111111111111111000",
            "000111111111111111111111111111111111111111110000",
            "000011111111111111111111111111111111111111110000",
            "000011111111111111111111111111111111111111110000",
            "000001111111111111111111111111111111111111100000",
            "000001111111111111111111111111111111111111100000",
            "000000111111111111111111111111111111111111000000",
            "000000111111111111111111111111111111111111000000",
            "000000011111111111111111111111111111111110000000",
            "000000001111111111111111111111111111111110000000",
            "000000000111111111111111111111111111111110000000",
            "000000000011111111111111111111111111111100000000",
            "000000000001111111111111111111111111111100000000",
            "000000000000111111111111111111111111111000000000",
            "000000000000011111111111111111111111110000000000",
            "000000000000001111111111111111111111100000000000",
            "000000000000000001111111111111111111000000000000",
            "000000000000000000001111111100000000000000000000",
            "000000000000000000000000000000000000000000000000",
            "000000000000000000000000000000000000000000000000",
            "000000000000000000000000000000000000000000000000",
            "000000000000000000000000000000000000000000000000",
            "000000000000000000000000000000000000000000000000"
          ]
        },
        "xz": {
          "encoding": "rows_top_to_bottom_1bit_text",
          "occupied_bbox_pixels": [
            2,
            8,
            45,
            39
          ],
          "occupied_fraction": 0.471354167,
          "occupied_pixel_count": 1086,
          "origin": "bottom_left",
          "resolution": [
            48,
            48
          ],
          "rows": [
            "000000000000000000000000000000000000000000000000",
            "000000000000000000000000000000000000000000000000",
            "000000000000000000000000000000000000000000000000",
            "000000000000000000000000000000000000000000000000",
            "000000000000000000000000000000000000000000000000",
            "000000000000000000000000000000000000000000000000",
            "000000000000000000000000000000000000000000000000",
            "000000000000000000000000000000000000000000000000",
            "000000000000000000000111000000000000000000000000",
            "000000000000000000111111111110000000000000000000",
            "000000000000000111111111111111111100000000000000",
            "000000000000111111111111111111111010000000000000",
            "000000000011111111111111111111111111100000000000",
            "000000000111111111111111111111111111110000000000",
            "000000001111111111111111111111111111111000000000",
            "000000011111111111111111111111111111111100000000",
            "000000111111111111111111111111111111111111000000",
            "000001111111111111111111111111111111111111100000",
            "000011111111111111111111111111111111111111100000",
            "000011111111111111111111111111111111111111100000",
            "000111111111111111111111111111111111111111110000",
            "001111111111111111111111111111111111111111110000",
            "001111111111111111111111111111111111111111110000",
            "001111111111111111111111111111111111111111110000",
            "001111111111111111111111111111111111111111111000",
            "000111111111111111111111111111111111111111111000",
            "000111111111111111111111111111111111111111111000",
            "000111111111111111111111111111111111111111111100",
            "000111111111111111111111111111111111111111111100",
            "000111111111111111111111111111111111111111111100",
            "000111111111111111111111111111111111111111111000",
            "000011111111111111111111111111111111111111111000",
            "000001111111111111111111111111111111111111111000",
            "000001111111111111111111111111111111111111110000",
            "000000111111111111111111111111111111111111110000",
            "000000011111111111111111111111111111111111100000",
            "000000001111111111111111111111111111111111000000",
            "000000000000111111111111111111111111111100000000",
            "000000000000000111111111111111111111100000000000",
            "000000000000000000111111111111111100000000000000",
            "000000000000000000000000000000000000000000000000",
            "000000000000000000000000000000000000000000000000",
            "000000000000000000000000000000000000000000000000",
            "000000000000000000000000000000000000000000000000",
            "000000000000000000000000000000000000000000000000",
            "000000000000000000000000000000000000000000000000",
            "000000000000000000000000000000000000000000000000",
            "000000000000000000000000000000000000000000000000"
          ]
        },
        "yz": {
          "encoding": "rows_top_to_bottom_1bit_text",
          "occupied_bbox_pixels": [
            5,
            8,
            42,
            39
          ],
          "occupied_fraction": 0.399739583,
          "occupied_pixel_count": 921,
          "origin": "bottom_left",
          "resolution": [
            48,
            48
          ],
          "rows": [
            "000000000000000000000000000000000000000000000000",
            "000000000000000000000000000000000000000000000000",
            "000000000000000000000000000000000000000000000000",
            "000000000000000000000000000000000000000000000000",
            "000000000000000000000000000000000000000000000000",
            "000000000000000000000000000000000000000000000000",
            "000000000000000000000000000000000000000000000000",
            "000000000000000000000000000000000000000000000000",
            "000000000000000000110000000000000000000000000000",
            "000000000000000011111111100000000000000000000000",
            "000000000000001111111111111110000000000000000000",
            "000000000000111111111111111111100000000000000000",
            "000000000001111111111111111111111000000000000000",
            "000000000011111111111111111111110110000000000000",
            "000000000111111111111111111111111111100000000000",
            "000000001111111111111111111111111111110000000000",
            "000000001111111111111111111111111111111000000000",
            "000000011111111111111111111111111111111100000000",
            "000000011111111111111111111111111111111100000000",
            "000000111111111111111111111111111111111110000000",
            "000000111111111111111111111111111111111111000000",
            "000001111111111111111111111111111111111111100000",
            "000001111111111111111111111111111111111111100000",
            "000001111111111111111111111111111111111111100000",
            "000001111111111111111111111111111111111111000000",
            "000001111111111111111111111111111111111111000000",
            "000000111111111111111111111111111111111111000000",
            "000000111111111111111111111111111111111111000000",
            "000000111111111111111111111111111111111110000000",
            "000000111111111111111111111111111111111110000000",
            "000000111111111111111111111111111111111100000000",
            "000000111111111111111111111111111111111100000000",
            "000000111111111111111111111111111111111100000000",
            "000000111111111111111111111111111111111000000000",
            "000000011111111111111111111111111111110000000000",
            "000000001111111111111111111111111111000000000000",
            "000000001111111111111111111111111110000000000000",
            "000000000111111111111111111111111000000000000000",
            "000000000011111111111111111111000000000000000000",
            "000000000000000011111111100000000000000000000000",
            "000000000000000000000000000000000000000000000000",
            "000000000000000000000000000000000000000000000000",
            "000000000000000000000000000000000000000000000000",
            "000000000000000000000000000000000000000000000000",
            "000000000000000000000000000000000000000000000000",
            "000000000000000000000000000000000000000000000000",
            "000000000000000000000000000000000000000000000000",
            "000000000000000000000000000000000000000000000000"
          ]
        }
      },
      "world_axis_aligned": {
        "xy": {
          "encoding": "rows_top_to_bottom_1bit_text",
          "occupied_bbox_pixels": [
            7,
            2,
            40,
            45
          ],
          "occupied_fraction": 0.5078125,
          "occupied_pixel_count": 1170,
          "origin": "bottom_left",
          "resolution": [
            48,
            48
          ],
          "rows": [
            "000000000000000000000000000000000000000000000000",
            "000000000000000000000000000000000000000000000000",
            "000000000000000000001111000000000000000000000000",
            "000000000000000001111111111111000000000000000000",
            "000000000000001111111111111111100000000000000000",
            "000000000000011111111111111111111000000000000000",
            "000000000000111111111111111111111110000000000000",
            "000000000001111111111111111111111111000000000000",
            "000000000011111111111111111111111111110000000000",
            "000000000111111111111111111111111111110000000000",
            "000000000111111111111111111111111111111000000000",
            "000000001111111111111111111111111111111100000000",
            "000000001111111111111111111111111111111100000000",
            "000000001111111111111111111111111111111110000000",
            "000000011111111111111111111111111111111110000000",
            "000000011111111111111111111111111111111110000000",
            "000000011111111111111111111111111111111110000000",
            "000000011111111111111111111111111111111110000000",
            "000000011111111111111111111111111111111110000000",
            "000000011111111111111111111111111111111110000000",
            "000000011111111111111111111111111111111110000000",
            "000000011111111111111111111111111111111110000000",
            "000000011111111111111111111111111111111110000000",
            "000000011111111111111111111111111111111110000000",
            "000000001111111111111111111111111111111110000000",
            "000000001111111111111111111111111111111110000000",
            "000000000111111111111111111111111111111110000000",
            "000000000111111111111111111111111111111110000000",
            "000000000011111111111111111111111111111110000000",
            "000000000011111111111111111111111111111110000000",
            "000000000001111111111111111111111111111110000000",
            "000000000001111111111111111111111111111110000000",
            "000000000000111111111111111111111111111100000000",
            "000000000000111111111111111111111111111100000000",
            "000000000000011111111111111111111111111100000000",
            "000000000000001111111111111111111111111100000000",
            "000000000000001111111111111111111111111100000000",
            "000000000000000111111111111111111111111000000000",
            "000000000000000111111111111111111111111000000000",
            "000000000000000011111111111111111111111000000000",
            "000000000000000001111111111111111111110000000000",
            "000000000000000000111111111111111111100000000000",
            "000000000000000000011111111111111111000000000000",
            "000000000000000000000111111111111110000000000000",
            "000000000000000000000001111111111100000000000000",
            "000000000000000000000000011110000000000000000000",
            "000000000000000000000000000000000000000000000000",
            "000000000000000000000000000000000000000000000000"
          ]
        },
        "xz": {
          "encoding": "rows_top_to_bottom_1bit_text",
          "occupied_bbox_pixels": [
            7,
            4,
            40,
            43
          ],
          "occupied_fraction": 0.500868056,
          "occupied_pixel_count": 1154,
          "origin": "bottom_left",
          "resolution": [
            48,
            48
          ],
          "rows": [
            "000000000000000000000000000000000000000000000000",
            "000000000000000000000000000000000000000000000000",
            "000000000000000000000000000000000000000000000000",
            "000000000000000000000000000000000000000000000000",
            "000000000000000000000001111110000000000000000000",
            "000000000000000000000111111111111100000000000000",
            "000000000000000000011111111111111111000000000000",
            "000000000000000011111111111111111111100000000000",
            "000000000000001111111111111111111111110000000000",
            "000000000000011111111111111111111111110000000000",
            "000000000000011111111111111111111111101000000000",
            "000000000000111111111111111111111111111000000000",
            "000000000001111111111111111111111111111100000000",
            "000000000011111111111111111111111111111110000000",
            "000000000011111111111111111111111111111110000000",
            "000000000011111111111111111111111111111110000000",
            "000000000111111111111111111111111111111110000000",
            "000000000111111111111111111111111111111110000000",
            "000000001111111111111111111111111111111110000000",
            "000000001111111111111111111111111111111110000000",
            "000000001111111111111111111111111111111110000000",
            "000000001111111111111111111111111111111110000000",
            "000000001111111111111111111111111111111110000000",
            "000000011111111111111111111111111111111110000000",
            "000000011111111111111111111111111111111110000000",
            "000000011111111111111111111111111111111110000000",
            "000000011111111111111111111111111111111110000000",
            "000000011111111111111111111111111111111110000000",
            "000000011111111111111111111111111111111110000000",
            "000000011111111111111111111111111111111110000000",
            "000000011111111111111111111111111111111110000000",
            "000000011111111111111111111111111111111110000000",
            "000000011111111111111111111111111111111100000000",
            "000000011111111111111111111111111111111100000000",
            "000000011111111111111111111111111111111100000000",
            "000000001111111111111111111111111111111100000000",
            "000000000111111111111111111111111111111100000000",
            "000000000111111111111111111111111111111100000000",
            "000000000011111111111111111111111111111100000000",
            "000000000001111111111111111111111111111100000000",
            "000000000000111111111111111111111111111000000000",
            "000000000000001111111111111111111111100000000000",
            "000000000000000111111111111111111110000000000000",
            "000000000000000001111111111111111100000000000000",
            "000000000000000000000000000000000000000000000000",
            "000000000000000000000000000000000000000000000000",
            "000000000000000000000000000000000000000000000000",
            "000000000000000000000000000000000000000000000000"
          ]
        },
        "yz": {
          "encoding": "rows_top_to_bottom_1bit_text",
          "occupied_bbox_pixels": [
            2,
            4,
            45,
            43
          ],
          "occupied_fraction": 0.593315972,
          "occupied_pixel_count": 1367,
          "origin": "bottom_left",
          "resolution": [
            48,
            48
          ],
          "rows": [
            "000000000000000000000000000000000000000000000000",
            "000000000000000000000000000000000000000000000000",
            "000000000000000000000000000000000000000000000000",
            "000000000000000000000000000000000000000000000000",
            "000000000000000000000000111111111110000000000000",
            "000000000000000000000001111111111111000000000000",
            "000000000000000000000111111111111111100000000000",
            "000000000000000000011111111111111111111000000000",
            "000000000000000001111111111111111111111100000000",
            "000000000000000111111111111111111111111110000000",
            "000000000000011111111111111111111111111111100000",
            "000000000000111111111111111111111111111111100000",
            "000000000011111111111111111111111111111111100000",
            "000000000111111111111111111111111111111111100000",
            "000000001111111111111111111111111111111111110000",
            "000000011111111111111111111111111111111111110000",
            "000000111111111111111111111111111111111111110000",
            "000001111111111111111111111111111111111111110000",
            "000011111111111111111111111111111111111111111000",
            "000011111111111111111111111111111111111111111000",
            "000111111111111111111111111111111111111111111000",
            "000111111111111111111111111111111111111111111100",
            "001111111111111111111111111111111111111111111100",
            "001111111111111111111111111111111111111111111100",
            "001111111111111111111111111111111111111111111100",
            "001111111111111111111111111111111111111111111000",
            "001111111111111111111111111111111111111111111000",
            "001111111111111111111111111111111111111111111000",
            "001111111111111111111111111111111111111111111000",
            "001111111111111111111111111111111111111111110000",
            "001111111111111111111111111111111111111111110000",
            "001111111111111111111111111111111111111111110000",
            "000111111111111111111111111111111111111111110000",
            "000111111111111111111111111111111111111111100000",
            "000011111111111111111111111111111111111111100000",
            "000001111111111111111111111111111111111111100000",
            "000001111111111111111111111111111111111111100000",
            "000000111111111111111111111111111111111111000000",
            "000000011111111111111111111111111111111110000000",
            "000000000111111111111111111111111111111100000000",
            "000000000011111111111111111111111111110000000000",
            "000000000000111111111111111111111111000000000000",
            "000000000000000111111111111111111100000000000000",
            "000000000000000000111111111111111000000000000000",
            "000000000000000000000000000000000000000000000000",
            "000000000000000000000000000000000000000000000000",
            "000000000000000000000000000000000000000000000000",
            "000000000000000000000000000000000000000000000000"
          ]
        }
      }
    }
  },
  "schema_version": "1.0.0",
  "source": {
    "aggregate": false,
    "filename": "united-female-v1.5.glb",
    "format": "glb",
    "logical_mesh_index": 346,
    "logical_mesh_name": "Allen_red_nucleus_L",
    "path": "/Users/eimis/Documents/HACKTHONS-2025/ServerPodHackathon/3D world/reference-atlas/models/hra/united-female-v1.5.glb",
    "sha256": "472567a56896b9b7890508da6501fbf858e56aaa30745365f7a71ade782b529c"
  },
  "surface_area": 0.000254264,
  "topology": {
    "boundary_edge_count": 0,
    "connected_component_count": 1,
    "inconsistently_wound_edge_count": 0,
    "is_edge_manifold": true,
    "is_watertight": true,
    "is_winding_consistent": true,
    "nonmanifold_edge_count": 0,
    "unique_edge_count": 150
  },
  "units": {
    "native": "source_units_unspecified",
    "note": "All physical measurements preserve source units; area and volume use squared/cubed source units."
  },
  "volume_if_watertight": 3.56e-07,
  "volume_orientation_repaired_in_memory": true
}
