{
  "bounds": {
    "center": [
      0.033861374,
      0.421654522,
      -0.037866317
    ],
    "diagonal": 0.012487742,
    "dimensions": [
      0.007574162,
      0.00638622,
      0.007602103
    ],
    "max": [
      0.037648454,
      0.424847633,
      -0.034065265
    ],
    "min": [
      0.030074293,
      0.418461412,
      -0.041667368
    ]
  },
  "centroids": {
    "surface_area_weighted": [
      0.033029122,
      0.421252672,
      -0.037471303
    ],
    "vertex_mean": [
      0.033499377,
      0.421193827,
      -0.037271599
    ],
    "volume_if_watertight": null
  },
  "cleaning": {
    "degenerate_faces_removed": 0,
    "unused_vertices_removed": 0,
    "vertices_welded": 0,
    "weld_tolerance": 0.0
  },
  "counts": {
    "analyzed_face_count": 82,
    "analyzed_vertex_count": 50,
    "source_face_count": 82,
    "source_vertex_count": 50
  },
  "mesh_name": "VH_F_papillary_muscle_of_heart_med",
  "pca": {
    "basis": "exact_uniform_surface_moments",
    "eigenvalues": [
      7.05e-06,
      2.953e-06,
      5.16e-07
    ],
    "oriented_bounds": {
      "center": [
        0.000625086,
        0.000152019,
        -0.000110316
      ],
      "dimensions": [
        0.010086773,
        0.006479021,
        0.003058578
      ],
      "max": [
        0.005668472,
        0.00339153,
        0.001418973
      ],
      "min": [
        -0.004418301,
        -0.003087491,
        -0.001639605
      ]
    },
    "principal_axes_world": [
      [
        0.743183729,
        0.136752586,
        0.65496311
      ],
      [
        -0.269844325,
        0.957010379,
        0.106372812
      ],
      [
        -0.612259736,
        -0.255792621,
        0.748136451
      ]
    ]
  },
  "sampling": {
    "cross_sections_pca": {
      "pca_axis_0": {
        "axis": 0,
        "in_plane_axes": [
          1,
          2
        ],
        "slices": [
          {
            "boundary_samples_normalized": [
              [
                -0.1601415,
                -0.0154537
              ],
              [
                -0.2481413,
                -0.1216801
              ],
              [
                -0.2512679,
                -0.1276342
              ],
              [
                0.23314,
                -0.1235418
              ],
              [
                0.1739956,
                -0.0761766
              ],
              [
                0.1218332,
                -0.0365598
              ],
              [
                0.088817,
                -0.0050606
              ],
              [
                0.050277,
                0.0462694
              ],
              [
                0.0428825,
                0.0501822
              ],
              [
                -0.0520823,
                0.0816925
              ],
              [
                -0.0548303,
                0.0817231
              ],
              [
                -0.0584341,
                0.0810057
              ],
              [
                -0.0690353,
                0.0710626
              ]
            ],
            "bounds_normalized": {
              "dimensions": [
                0.484407908,
                0.209357222
              ],
              "max": [
                0.233140003,
                0.081723051
              ],
              "min": [
                -0.251267906,
                -0.127634171
              ]
            },
            "centroid_normalized": [
              -0.014493634,
              0.002618041
            ],
            "fraction": 0.1,
            "mask": {
              "encoding": "rows_top_to_bottom_1bit_text",
              "occupied_bbox_pixels": [
                8,
                12,
                22,
                18
              ],
              "occupied_fraction": 0.05859375,
              "occupied_pixel_count": 60,
              "origin": "bottom_left",
              "resolution": [
                32,
                32
              ],
              "rows": [
                "00000000000000000000000000000000",
                "00000000000000000000000000000000",
                "00000000000000000000000000000000",
                "00000000000000000000000000000000",
                "00000000000000000000000000000000",
                "00000000000000000000000000000000",
                "00000000000000000000000000000000",
                "00000000000000000000000000000000",
                "00000000000000000000000000000000",
                "00000000000000000000000000000000",
                "00000000000000000000000000000000",
                "00000000000000000000000000000000",
                "00000000000000000000000000000000",
                "00000000000000110000000000000000",
                "00000000000001111100000000000000",
                "00000000000011111110000000000000",
                "00000000000111111110000000000000",
                "00000000001111111111100000000000",
                "00000000011111111111110000000000",
                "00000000111111111111101000000000",
                "00000000000000000000000000000000",
                "00000000000000000000000000000000",
                "00000000000000000000000000000000",
                "00000000000000000000000000000000",
                "00000000000000000000000000000000",
                "00000000000000000000000000000000",
                "00000000000000000000000000000000",
                "00000000000000000000000000000000",
                "00000000000000000000000000000000",
                "00000000000000000000000000000000",
                "00000000000000000000000000000000",
                "00000000000000000000000000000000"
              ]
            },
            "plane_coordinate_native": -0.003409624,
            "segment_count": 12
          },
          {
            "boundary_samples_normalized": [
              [
                -0.2218832,
                0.0330888
              ],
              [
                -0.2375679,
                0.0062117
              ],
              [
                -0.3055777,
                -0.1031066
              ],
              [
                -0.3077514,
                -0.1072459
              ],
              [
                0.3022781,
                -0.0924979
              ],
              [
                0.2588683,
                -0.0517139
              ],
              [
                0.2121253,
                -0.0112912
              ],
              [
                0.164457,
                0.0290639
              ],
              [
                0.1190537,
                0.0775813
              ],
              [
                0.0704117,
                0.1011163
              ],
              [
                0.0122974,
                0.1363611
              ],
              [
                -0.0588949,
                0.1489722
              ],
              [
                -0.0841932,
                0.1511736
              ],
              [
                -0.1136363,
                0.136369
              ],
              [
                -0.168608,
                0.1034651
              ]
            ],
            "bounds_normalized": {
              "dimensions": [
                0.610029504,
                0.258419529
              ],
              "max": [
                0.302278114,
                0.151173605
              ],
              "min": [
                -0.30775139,
                -0.107245924
              ]
            },
            "centroid_normalized": [
              -0.025420312,
              0.046958546
            ],
            "fraction": 0.25,
            "mask": {
              "encoding": "rows_top_to_bottom_1bit_text",
              "occupied_bbox_pixels": [
                7,
                12,
                24,
                20
              ],
              "occupied_fraction": 0.090820312,
              "occupied_pixel_count": 93,
              "origin": "bottom_left",
              "resolution": [
                32,
                32
              ],
              "rows": [
                "00000000000000000000000000000000",
                "00000000000000000000000000000000",
                "00000000000000000000000000000000",
                "00000000000000000000000000000000",
                "00000000000000000000000000000000",
                "00000000000000000000000000000000",
                "00000000000000000000000000000000",
                "00000000000000000000000000000000",
                "00000000000000000000000000000000",
                "00000000000000000000000000000000",
                "00000000000000000000000000000000",
                "00000000000001110000000000000000",
                "00000000000111111100000000000000",
                "00000000001111111111000000000000",
                "00000000001111111111100000000000",
                "00000000011111111111110000000000",
                "00000000111111111111111000000000",
                "00000000111111111111110100000000",
                "00000001111111111111111110000000",
                "00000001000000000000000000000000",
                "00000000000000000000000000000000",
                "00000000000000000000000000000000",
                "00000000000000000000000000000000",
                "00000000000000000000000000000000",
                "00000000000000000000000000000000",
                "00000000000000000000000000000000",
                "00000000000000000000000000000000",
                "00000000000000000000000000000000",
                "00000000000000000000000000000000",
                "00000000000000000000000000000000",
                "00000000000000000000000000000000",
                "00000000000000000000000000000000"
              ]
            },
            "plane_coordinate_native": -0.001896608,
            "segment_count": 14
          },
          {
            "boundary_samples_normalized": [
              [
                -0.2404696,
                -0.0131194
              ],
              [
                -0.2907542,
                -0.0840938
              ],
              [
                -0.3180449,
                -0.1149895
              ],
              [
                0.3197285,
                -0.0740094
              ],
              [
                0.2435996,
                -0.0083605
              ],
              [
                0.2273445,
                0.0065386
              ],
              [
                0.1355284,
                0.064625
              ],
              [
                0.1225328,
                0.075458
              ],
              [
                0.0257848,
                0.1071411
              ],
              [
                0.0150251,
                0.1124315
              ],
              [
                -0.0824284,
                0.1127853
              ],
              [
                -0.0879864,
                0.1132502
              ],
              [
                -0.1187167,
                0.0965006
              ],
              [
                -0.1732317,
                0.0656935
              ],
              [
                -0.1802549,
                0.0583614
              ]
            ],
            "bounds_normalized": {
              "dimensions": [
                0.637773455,
                0.228239761
              ],
              "max": [
                0.319728507,
                0.113250216
              ],
              "min": [
                -0.318044948,
                -0.114989545
              ]
            },
            "centroid_normalized": [
              -0.028798924,
              0.043765154
            ],
            "fraction": 0.5,
            "mask": {
              "encoding": "rows_top_to_bottom_1bit_text",
              "occupied_bbox_pixels": [
                7,
                12,
                25,
                19
              ],
              "occupied_fraction": 0.087890625,
              "occupied_pixel_count": 90,
              "origin": "bottom_left",
              "resolution": [
                32,
                32
              ],
              "rows": [
                "00000000000000000000000000000000",
                "00000000000000000000000000000000",
                "00000000000000000000000000000000",
                "00000000000000000000000000000000",
                "00000000000000000000000000000000",
                "00000000000000000000000000000000",
                "00000000000000000000000000000000",
                "00000000000000000000000000000000",
                "00000000000000000000000000000000",
                "00000000000000000000000000000000",
                "00000000000000000000000000000000",
                "00000000000000000000000000000000",
                "00000000000001111000000000000000",
                "00000000000111110111000000000000",
                "00000000001111111111110000000000",
                "00000000011111111111111000000000",
                "00000000111111111111111100000000",
                "00000000111111111111111110000000",
                "00000001111111111111111101000000",
                "00000001000000000000000000000000",
                "00000000000000000000000000000000",
                "00000000000000000000000000000000",
                "00000000000000000000000000000000",
                "00000000000000000000000000000000",
                "00000000000000000000000000000000",
                "00000000000000000000000000000000",
                "00000000000000000000000000000000",
                "00000000000000000000000000000000",
                "00000000000000000000000000000000",
                "00000000000000000000000000000000",
                "00000000000000000000000000000000",
                "00000000000000000000000000000000"
              ]
            },
            "plane_coordinate_native": 0.000625086,
            "segment_count": 14
          },
          {
            "boundary_samples_normalized": [
              [
                -0.2191567,
                -0.0508962
              ],
              [
                -0.2363632,
                -0.0671773
              ],
              [
                -0.2656861,
                -0.097824
              ],
              [
                0.2691478,
                -0.0816239
              ],
              [
                0.2329625,
                -0.0539517
              ],
              [
                0.1719952,
                -0.0118595
              ],
              [
                0.0926297,
                0.0233857
              ],
              [
                0.073721,
                0.0288481
              ],
              [
                0.0053385,
                0.0410532
              ],
              [
                -0.0166942,
                0.0426733
              ],
              [
                -0.0421728,
                0.0384733
              ],
              [
                -0.0980513,
                0.0334114
              ],
              [
                -0.1367374,
                0.012897
              ],
              [
                -0.170736,
                -0.0053455
              ]
            ],
            "bounds_normalized": {
              "dimensions": [
                0.534833879,
                0.14049726
              ],
              "max": [
                0.269147754,
                0.04267329
              ],
              "min": [
                -0.265686124,
                -0.09782397
              ]
            },
            "centroid_normalized": [
              -0.026271831,
              -0.004477859
            ],
            "fraction": 0.75,
            "mask": {
              "encoding": "rows_top_to_bottom_1bit_text",
              "occupied_bbox_pixels": [
                8,
                13,
                23,
                17
              ],
              "occupied_fraction": 0.053710938,
              "occupied_pixel_count": 55,
              "origin": "bottom_left",
              "resolution": [
                32,
                32
              ],
              "rows": [
                "00000000000000000000000000000000",
                "00000000000000000000000000000000",
                "00000000000000000000000000000000",
                "00000000000000000000000000000000",
                "00000000000000000000000000000000",
                "00000000000000000000000000000000",
                "00000000000000000000000000000000",
                "00000000000000000000000000000000",
                "00000000000000000000000000000000",
                "00000000000000000000000000000000",
                "00000000000000000000000000000000",
                "00000000000000000000000000000000",
                "00000000000000000000000000000000",
                "00000000000000000000000000000000",
                "00000000000000111000000000000000",
                "00000000000111111111000000000000",
                "00000000001111111111110000000000",
                "00000000011111111111111100000000",
                "00000000111111111111111100000000",
                "00000000000000000000000000000000",
                "00000000000000000000000000000000",
                "00000000000000000000000000000000",
                "00000000000000000000000000000000",
                "00000000000000000000000000000000",
                "00000000000000000000000000000000",
                "00000000000000000000000000000000",
                "00000000000000000000000000000000",
                "00000000000000000000000000000000",
                "00000000000000000000000000000000",
                "00000000000000000000000000000000",
                "00000000000000000000000000000000",
                "00000000000000000000000000000000"
              ]
            },
            "plane_coordinate_native": 0.003146779,
            "segment_count": 13
          },
          {
            "boundary_samples_normalized": [
              [
                -0.2120857,
                -0.0706269
              ],
              [
                -0.2193356,
                -0.0745049
              ],
              [
                -0.2233861,
                -0.0781298
              ],
              [
                0.1662276,
                -0.0643084
              ],
              [
                0.1255412,
                -0.0387442
              ],
              [
                0.0732043,
                -0.022914
              ],
              [
                0.0313019,
                -0.008161
              ],
              [
                -0.0268074,
                -0.0034205
              ],
              [
                -0.0489312,
                -0.0022566
              ],
              [
                -0.0757625,
                -0.0086062
              ],
              [
                -0.1248123,
                -0.0166432
              ]
            ],
            "bounds_normalized": {
              "dimensions": [
                0.389613739,
                0.075873112
              ],
              "max": [
                0.166227622,
                -0.002256639
              ],
              "min": [
                -0.223386118,
                -0.078129751
              ]
            },
            "centroid_normalized": [
              -0.050626642,
              -0.031709663
            ],
            "fraction": 0.9,
            "mask": {
              "encoding": "rows_top_to_bottom_1bit_text",
              "occupied_bbox_pixels": [
                9,
                13,
                20,
                15
              ],
              "occupied_fraction": 0.020507812,
              "occupied_pixel_count": 21,
              "origin": "bottom_left",
              "resolution": [
                32,
                32
              ],
              "rows": [
                "00000000000000000000000000000000",
                "00000000000000000000000000000000",
                "00000000000000000000000000000000",
                "00000000000000000000000000000000",
                "00000000000000000000000000000000",
                "00000000000000000000000000000000",
                "00000000000000000000000000000000",
                "00000000000000000000000000000000",
                "00000000000000000000000000000000",
                "00000000000000000000000000000000",
                "00000000000000000000000000000000",
                "00000000000000000000000000000000",
                "00000000000000000000000000000000",
                "00000000000000000000000000000000",
                "00000000000000000000000000000000",
                "00000000000000000000000000000000",
                "00000000000111111111000000000000",
                "00000000001111111111100000000000",
                "00000000010000000000000000000000",
                "00000000000000000000000000000000",
                "00000000000000000000000000000000",
                "00000000000000000000000000000000",
                "00000000000000000000000000000000",
                "00000000000000000000000000000000",
                "00000000000000000000000000000000",
                "00000000000000000000000000000000",
                "00000000000000000000000000000000",
                "00000000000000000000000000000000",
                "00000000000000000000000000000000",
                "00000000000000000000000000000000",
                "00000000000000000000000000000000",
                "00000000000000000000000000000000"
              ]
            },
            "plane_coordinate_native": 0.004659795,
            "segment_count": 10
          }
        ]
      },
      "pca_axis_1": {
        "axis": 1,
        "in_plane_axes": [
          0,
          2
        ],
        "slices": [
          {
            "boundary_samples_normalized": [
              [
                -0.3849598,
                -0.1255899
              ],
              [
                0.2720767,
                -0.0922871
              ],
              [
                0.2708806,
                -0.0921388
              ],
              [
                0.2704083,
                -0.0920144
              ],
              [
                0.2042055,
                -0.0811784
              ],
              [
                0.1290997,
                -0.0642902
              ],
              [
                0.0733083,
                -0.0563008
              ],
              [
                -0.0496228,
                -0.0228527
              ],
              [
                -0.1998655,
                -0.008425
              ],
              [
                -0.2269956,
                -0.0112171
              ],
              [
                -0.306063,
                -0.0582904
              ]
            ],
            "bounds_normalized": {
              "dimensions": [
                0.657036485,
                0.117164905
              ],
              "max": [
                0.272076688,
                -0.008424977
              ],
              "min": [
                -0.384959797,
                -0.125589882
              ]
            },
            "centroid_normalized": [
              0.010891394,
              -0.059564627
            ],
            "fraction": 0.1,
            "mask": {
              "encoding": "rows_top_to_bottom_1bit_text",
              "occupied_bbox_pixels": [
                5,
                12,
                23,
                15
              ],
              "occupied_fraction": 0.0390625,
              "occupied_pixel_count": 40,
              "origin": "bottom_left",
              "resolution": [
                32,
                32
              ],
              "rows": [
                "00000000000000000000000000000000",
                "00000000000000000000000000000000",
                "00000000000000000000000000000000",
                "00000000000000000000000000000000",
                "00000000000000000000000000000000",
                "00000000000000000000000000000000",
                "00000000000000000000000000000000",
                "00000000000000000000000000000000",
                "00000000000000000000000000000000",
                "00000000000000000000000000000000",
                "00000000000000000000000000000000",
                "00000000000000000000000000000000",
                "00000000000000000000000000000000",
                "00000000000000000000000000000000",
                "00000000000000000000000000000000",
                "00000000000000000000000000000000",
                "00000000111111110000000000000000",
                "00000001111111101111100000000000",
                "00000011111111111111111100000000",
                "00000100000000000000000000000000",
                "00000000000000000000000000000000",
                "00000000000000000000000000000000",
                "00000000000000000000000000000000",
                "00000000000000000000000000000000",
                "00000000000000000000000000000000",
                "00000000000000000000000000000000",
                "00000000000000000000000000000000",
                "00000000000000000000000000000000",
                "00000000000000000000000000000000",
                "00000000000000000000000000000000",
                "00000000000000000000000000000000",
                "00000000000000000000000000000000"
              ]
            },
            "plane_coordinate_native": -0.002439589,
            "segment_count": 10
          },
          {
            "boundary_samples_normalized": [
              [
                -0.3798525,
                0.0171814
              ],
              [
                -0.3996843,
                -0.0153542
              ],
              [
                -0.4297979,
                -0.0755805
              ],
              [
                -0.4638884,
                -0.1417502
              ],
              [
                0.4539224,
                -0.0465221
              ],
              [
                0.3709108,
                -0.0345863
              ],
              [
                0.3093585,
                -0.0166188
              ],
              [
                0.2835251,
                -0.0092762
              ],
              [
                0.1615205,
                0.0248557
              ],
              [
                0.1491428,
                0.0286463
              ],
              [
                -0.0115054,
                0.0762514
              ],
              [
                -0.0380174,
                0.0821725
              ],
              [
                -0.1850539,
                0.1130126
              ],
              [
                -0.2097836,
                0.1129178
              ],
              [
                -0.2854435,
                0.1041721
              ],
              [
                -0.3190243,
                0.094797
              ],
              [
                -0.338767,
                0.0824017
              ]
            ],
            "bounds_normalized": {
              "dimensions": [
                0.917810797,
                0.254762769
              ],
              "max": [
                0.453922375,
                0.113012563
              ],
              "min": [
                -0.463888422,
                -0.141750206
              ]
            },
            "centroid_normalized": [
              -0.082965949,
              0.030678505
            ],
            "fraction": 0.25,
            "mask": {
              "encoding": "rows_top_to_bottom_1bit_text",
              "occupied_bbox_pixels": [
                2,
                12,
                28,
                19
              ],
              "occupied_fraction": 0.092773438,
              "occupied_pixel_count": 95,
              "origin": "bottom_left",
              "resolution": [
                32,
                32
              ],
              "rows": [
                "00000000000000000000000000000000",
                "00000000000000000000000000000000",
                "00000000000000000000000000000000",
                "00000000000000000000000000000000",
                "00000000000000000000000000000000",
                "00000000000000000000000000000000",
                "00000000000000000000000000000000",
                "00000000000000000000000000000000",
                "00000000000000000000000000000000",
                "00000000000000000000000000000000",
                "00000000000000000000000000000000",
                "00000000000000000000000000000000",
                "00000000011100000000000000000000",
                "00000011111111110000000000000000",
                "00000111111111111110000000000000",
                "00000111111111111111111000000000",
                "00001111111111111111111111100000",
                "00001111111111111111111111011000",
                "00010000000000000000000000000000",
                "00110000000000000000000000000000",
                "00000000000000000000000000000000",
                "00000000000000000000000000000000",
                "00000000000000000000000000000000",
                "00000000000000000000000000000000",
                "00000000000000000000000000000000",
                "00000000000000000000000000000000",
                "00000000000000000000000000000000",
                "00000000000000000000000000000000",
                "00000000000000000000000000000000",
                "00000000000000000000000000000000",
                "00000000000000000000000000000000",
                "00000000000000000000000000000000"
              ]
            },
            "plane_coordinate_native": -0.001467736,
            "segment_count": 16
          },
          {
            "boundary_samples_normalized": [
              [
                -0.422833,
                0.0177193
              ],
              [
                -0.4470636,
                -0.0383754
              ],
              [
                -0.46519,
                -0.088112
              ],
              [
                -0.4990782,
                -0.1503761
              ],
              [
                0.4993842,
                -0.0324447
              ],
              [
                0.4754823,
                -0.0258035
              ],
              [
                0.3699437,
                0.0024345
              ],
              [
                0.2288601,
                0.0483214
              ],
              [
                0.2020727,
                0.0563239
              ],
              [
                0.1914838,
                0.0587186
              ],
              [
                0.1402569,
                0.0749568
              ],
              [
                0.0401284,
                0.1021736
              ],
              [
                0.0163523,
                0.1096839
              ],
              [
                -0.1249597,
                0.1338995
              ],
              [
                -0.1612676,
                0.1420377
              ],
              [
                -0.1864429,
                0.1425511
              ],
              [
                -0.3038169,
                0.1351426
              ],
              [
                -0.3141152,
                0.1293577
              ],
              [
                -0.4051428,
                0.060522
              ]
            ],
            "bounds_normalized": {
              "dimensions": [
                0.998462417,
                0.292927226
              ],
              "max": [
                0.499384246,
                0.142551119
              ],
              "min": [
                -0.499078171,
                -0.150376107
              ]
            },
            "centroid_normalized": [
              -0.064783249,
              0.053896733
            ],
            "fraction": 0.5,
            "mask": {
              "encoding": "rows_top_to_bottom_1bit_text",
              "occupied_bbox_pixels": [
                1,
                11,
                30,
                20
              ],
              "occupied_fraction": 0.100585938,
              "occupied_pixel_count": 103,
              "origin": "bottom_left",
              "resolution": [
                32,
                32
              ],
              "rows": [
                "00000000000000000000000000000000",
                "00000000000000000000000000000000",
                "00000000000000000000000000000000",
                "00000000000000000000000000000000",
                "00000000000000000000000000000000",
                "00000000000000000000000000000000",
                "00000000000000000000000000000000",
                "00000000000000000000000000000000",
                "00000000000000000000000000000000",
                "00000000000000000000000000000000",
                "00000000000000000000000000000000",
                "00000000001100000000000000000000",
                "00000011111111111000000000000000",
                "00000111111111111111000000000000",
                "00001111111111111111111100000000",
                "00001111111111111111111111100000",
                "00011111111111111111111111011110",
                "00010000000000000000000000000000",
                "00110000000000000000000000000000",
                "00100000000000000000000000000000",
                "01000000000000000000000000000000",
                "00000000000000000000000000000000",
                "00000000000000000000000000000000",
                "00000000000000000000000000000000",
                "00000000000000000000000000000000",
                "00000000000000000000000000000000",
                "00000000000000000000000000000000",
                "00000000000000000000000000000000",
                "00000000000000000000000000000000",
                "00000000000000000000000000000000",
                "00000000000000000000000000000000",
                "00000000000000000000000000000000"
              ]
            },
            "plane_coordinate_native": 0.000152019,
            "segment_count": 18
          },
          {
            "boundary_samples_normalized": [
              [
                -0.3621345,
                -0.0296865
              ],
              [
                -0.4498498,
                -0.1137816
              ],
              [
                -0.4843184,
                -0.1472113
              ],
              [
                0.4077625,
                -0.0632972
              ],
              [
                0.3310174,
                -0.038225
              ],
              [
                0.272482,
                -0.0134828
              ],
              [
                0.2263672,
                0.000243
              ],
              [
                0.1174422,
                0.0215182
              ],
              [
                0.0282964,
                0.0487236
              ],
              [
                -0.040944,
                0.0488495
              ],
              [
                -0.1624514,
                0.0640113
              ],
              [
                -0.2388709,
                0.0363699
              ],
              [
                -0.326643,
                0.0114066
              ]
            ],
            "bounds_normalized": {
              "dimensions": [
                0.892080913,
                0.211222531
              ],
              "max": [
                0.407762463,
                0.064011268
              ],
              "min": [
                -0.48431845,
                -0.147211263
              ]
            },
            "centroid_normalized": [
              -0.053630526,
              -0.005775662
            ],
            "fraction": 0.75,
            "mask": {
              "encoding": "rows_top_to_bottom_1bit_text",
              "occupied_bbox_pixels": [
                2,
                11,
                27,
                17
              ],
              "occupied_fraction": 0.071289062,
              "occupied_pixel_count": 73,
              "origin": "bottom_left",
              "resolution": [
                32,
                32
              ],
              "rows": [
                "00000000000000000000000000000000",
                "00000000000000000000000000000000",
                "00000000000000000000000000000000",
                "00000000000000000000000000000000",
                "00000000000000000000000000000000",
                "00000000000000000000000000000000",
                "00000000000000000000000000000000",
                "00000000000000000000000000000000",
                "00000000000000000000000000000000",
                "00000000000000000000000000000000",
                "00000000000000000000000000000000",
                "00000000000000000000000000000000",
                "00000000000000000000000000000000",
                "00000000000000000000000000000000",
                "00000000011111111100000000000000",
                "00000011111111111111111000000000",
                "00000111111111111111110110000000",
                "00000111111111111111111111110000",
                "00011000000000000000000000000000",
                "00110000000000000000000000000000",
                "00100000000000000000000000000000",
                "00000000000000000000000000000000",
                "00000000000000000000000000000000",
                "00000000000000000000000000000000",
                "00000000000000000000000000000000",
                "00000000000000000000000000000000",
                "00000000000000000000000000000000",
                "00000000000000000000000000000000",
                "00000000000000000000000000000000",
                "00000000000000000000000000000000",
                "00000000000000000000000000000000",
                "00000000000000000000000000000000"
              ]
            },
            "plane_coordinate_native": 0.001771775,
            "segment_count": 12
          },
          {
            "boundary_samples_normalized": [
              [
                -0.3376557,
                -0.0821299
              ],
              [
                -0.3723524,
                -0.1157807
              ],
              [
                0.2752839,
                -0.0805557
              ],
              [
                0.2687058,
                -0.0784066
              ],
              [
                0.259343,
                -0.0744491
              ],
              [
                0.1304466,
                -0.0445464
              ],
              [
                0.0392926,
                -0.0193057
              ],
              [
                -0.0266243,
                -0.0202306
              ],
              [
                -0.1590131,
                -0.0184926
              ],
              [
                -0.243102,
                -0.0475135
              ]
            ],
            "bounds_normalized": {
              "dimensions": [
                0.647636312,
                0.097288061
              ],
              "max": [
                0.275283937,
                -0.018492591
              ],
              "min": [
                -0.372352375,
                -0.115780652
              ]
            },
            "centroid_normalized": [
              -0.013015698,
              -0.05369362
            ],
            "fraction": 0.9,
            "mask": {
              "encoding": "rows_top_to_bottom_1bit_text",
              "occupied_bbox_pixels": [
                5,
                12,
                23,
                15
              ],
              "occupied_fraction": 0.041992188,
              "occupied_pixel_count": 43,
              "origin": "bottom_left",
              "resolution": [
                32,
                32
              ],
              "rows": [
                "00000000000000000000000000000000",
                "00000000000000000000000000000000",
                "00000000000000000000000000000000",
                "00000000000000000000000000000000",
                "00000000000000000000000000000000",
                "00000000000000000000000000000000",
                "00000000000000000000000000000000",
                "00000000000000000000000000000000",
                "00000000000000000000000000000000",
                "00000000000000000000000000000000",
                "00000000000000000000000000000000",
                "00000000000000000000000000000000",
                "00000000000000000000000000000000",
                "00000000000000000000000000000000",
                "00000000000000000000000000000000",
                "00000000000000000000000000000000",
                "00000000001111111110000000000000",
                "00000001111111111101111000000000",
                "00000111111111111111110100000000",
                "00000100000000000000000000000000",
                "00000000000000000000000000000000",
                "00000000000000000000000000000000",
                "00000000000000000000000000000000",
                "00000000000000000000000000000000",
                "00000000000000000000000000000000",
                "00000000000000000000000000000000",
                "00000000000000000000000000000000",
                "00000000000000000000000000000000",
                "00000000000000000000000000000000",
                "00000000000000000000000000000000",
                "00000000000000000000000000000000",
                "00000000000000000000000000000000"
              ]
            },
            "plane_coordinate_native": 0.002743628,
            "segment_count": 9
          }
        ]
      },
      "pca_axis_2": {
        "axis": 2,
        "in_plane_axes": [
          0,
          1
        ],
        "slices": [
          {
            "boundary_samples_normalized": [
              [
                -0.4050892,
                -0.2393868
              ],
              [
                -0.3999023,
                -0.2479806
              ],
              [
                -0.3533296,
                -0.268842
              ],
              [
                0.0703071,
                -0.3147176
              ],
              [
                0.136011,
                -0.3064067
              ],
              [
                0.1454527,
                -0.3045123
              ],
              [
                0.159653,
                -0.3022884
              ],
              [
                -0.3919808,
                0.2400407
              ],
              [
                -0.4598038,
                0.1579037
              ],
              [
                -0.4834643,
                0.1280363
              ],
              [
                -0.4831468,
                -0.0598979
              ],
              [
                -0.4875384,
                -0.1047496
              ]
            ],
            "bounds_normalized": {
              "dimensions": [
                0.647191403,
                0.554758336
              ],
              "max": [
                0.159652977,
                0.240040704
              ],
              "min": [
                -0.487538426,
                -0.314717631
              ]
            },
            "centroid_normalized": [
              -0.269515629,
              -0.129989753
            ],
            "fraction": 0.1,
            "mask": {
              "encoding": "rows_top_to_bottom_1bit_text",
              "occupied_bbox_pixels": [
                2,
                7,
                20,
                22
              ],
              "occupied_fraction": 0.020507812,
              "occupied_pixel_count": 21,
              "origin": "bottom_left",
              "resolution": [
                32,
                32
              ],
              "rows": [
                "00000000000000000000000000000000",
                "00000000000000000000000000000000",
                "00000000000000000000000000000000",
                "00000000000000000000000000000000",
                "00000000000000000000000000000000",
                "00000000000000000000000000000000",
                "00000000000000000000000000000000",
                "00000000000000000000000000000000",
                "00000000000000000000000000000000",
                "00001000000000000000000000000000",
                "00010000000000000000000000000000",
                "00110000000000000000000000000000",
                "00100000000000000000000000000000",
                "00100000000000000000000000000000",
                "00100000000000000000000000000000",
                "00100000000000000000000000000000",
                "00100000000000000000000000000000",
                "00100000000000000000000000000000",
                "00100000000000000000000000000000",
                "00100000000000000000000000000000",
                "00010000000000000000000000000000",
                "00010000000000000000000000000000",
                "00001000000000000000000000000000",
                "00000110000000000000000000000000",
                "00000000000000000111100000000000",
                "00000000000000000000000000000000",
                "00000000000000000000000000000000",
                "00000000000000000000000000000000",
                "00000000000000000000000000000000",
                "00000000000000000000000000000000",
                "00000000000000000000000000000000",
                "00000000000000000000000000000000"
              ]
            },
            "plane_coordinate_native": -0.001333747,
            "segment_count": 10
          },
          {
            "boundary_samples_normalized": [
              [
                -0.4700166,
                -0.0950963
              ],
              [
                -0.4296757,
                -0.1609719
              ],
              [
                -0.3884908,
                -0.2292075
              ],
              [
                -0.2841509,
                -0.2759447
              ],
              [
                -0.2395706,
                -0.2924566
              ],
              [
                -0.1101945,
                -0.2999299
              ],
              [
                -0.0596258,
                -0.296377
              ],
              [
                0.0218585,
                -0.2806691
              ],
              [
                0.1304961,
                -0.2669275
              ],
              [
                0.2120735,
                -0.2505595
              ],
              [
                0.2570906,
                -0.2435094
              ],
              [
                0.2779606,
                -0.2377002
              ],
              [
                0.4024045,
                -0.220457
              ],
              [
                0.4041807,
                -0.2194877
              ],
              [
                0.4082242,
                -0.2185478
              ],
              [
                0.311738,
                0.230419
              ],
              [
                0.2727377,
                0.2506971
              ],
              [
                0.2599618,
                0.2585188
              ],
              [
                0.1138721,
                0.3028365
              ],
              [
                -0.0816085,
                0.3204849
              ],
              [
                -0.1512806,
                0.3193513
              ],
              [
                -0.1550138,
                0.3194048
              ],
              [
                -0.2895662,
                0.2699779
              ],
              [
                -0.3369145,
                0.2499333
              ],
              [
                -0.3995096,
                0.1741276
              ],
              [
                -0.4586607,
                0.0994591
              ],
              [
                -0.4585302,
                0.022215
              ]
            ],
            "bounds_normalized": {
              "dimensions": [
                0.878240843,
                0.620414805
              ],
              "max": [
                0.408224223,
                0.320484913
              ],
              "min": [
                -0.470016621,
                -0.299929892
              ]
            },
            "centroid_normalized": [
              -0.064652936,
              -0.043520536
            ],
            "fraction": 0.25,
            "mask": {
              "encoding": "rows_top_to_bottom_1bit_text",
              "occupied_bbox_pixels": [
                2,
                7,
                27,
                25
              ],
              "occupied_fraction": 0.087890625,
              "occupied_pixel_count": 90,
              "origin": "bottom_left",
              "resolution": [
                32,
                32
              ],
              "rows": [
                "00000000000000000000000000000000",
                "00000000000000000000000000000000",
                "00000000000000000000000000000000",
                "00000000000000000000000000000000",
                "00000000000000000000000000000000",
                "00000000000000000000000000000000",
                "00000000000111000000000000000000",
                "00000000011100000001100000000000",
                "00000011111111111111111100000000",
                "00000011111111111111111010000000",
                "00000100000000000000000000000000",
                "00001000000000000000000000000000",
                "00010000000000000000000000000000",
                "00010000000000000000000000000000",
                "00010000000000000000000000000000",
                "00010000000000000000000000000000",
                "00110000000000000000000000000000",
                "00100000000000000000000000000000",
                "00100000000000000000000000000000",
                "00010000000000000000000000000000",
                "00010000000000000000000000000000",
                "00001000000000000000000000000000",
                "00000110000000000000001111110000",
                "00000011111111111111110000000000",
                "00000000111111111000000000000000",
                "00000000000000000000000000000000",
                "00000000000000000000000000000000",
                "00000000000000000000000000000000",
                "00000000000000000000000000000000",
                "00000000000000000000000000000000",
                "00000000000000000000000000000000",
                "00000000000000000000000000000000"
              ]
            },
            "plane_coordinate_native": -0.00087496,
            "segment_count": 25
          },
          {
            "boundary_samples_normalized": [
              [
                -0.4336159,
                -0.0304533
              ],
              [
                -0.4388712,
                -0.0767133
              ],
              [
                -0.373428,
                -0.1897741
              ],
              [
                -0.3687558,
                -0.1976817
              ],
              [
                -0.3099495,
                -0.2192279
              ],
              [
                -0.2248117,
                -0.2507618
              ],
              [
                -0.2110773,
                -0.2515551
              ],
              [
                -0.1056332,
                -0.2441468
              ],
              [
                -0.0523714,
                -0.2406821
              ],
              [
                -0.0442667,
                -0.2390503
              ],
              [
                0.0774048,
                -0.2125748
              ],
              [
                0.1466802,
                -0.1914687
              ],
              [
                0.1828755,
                -0.1835
              ],
              [
                0.2326422,
                -0.1698238
              ],
              [
                0.2694998,
                -0.1506066
              ],
              [
                0.3372021,
                -0.1143182
              ],
              [
                0.3429953,
                -0.1111567
              ],
              [
                0.3483534,
                -0.1099113
              ],
              [
                0.3805455,
                -0.0558867
              ],
              [
                0.3914457,
                -0.0466467
              ],
              [
                0.3884652,
                -0.0309039
              ],
              [
                0.3727998,
                0.0204753
              ],
              [
                0.3694047,
                0.0354921
              ],
              [
                0.3671502,
                0.0392657
              ],
              [
                0.3094002,
                0.1054776
              ],
              [
                0.2264536,
                0.1610715
              ],
              [
                0.1159316,
                0.2077812
              ],
              [
                0.0363791,
                0.2344964
              ],
              [
                0.0187525,
                0.2342096
              ],
              [
                -0.1603035,
                0.2367741
              ],
              [
                -0.1650732,
                0.235022
              ],
              [
                -0.1782112,
                0.2294601
              ],
              [
                -0.2942733,
                0.179872
              ],
              [
                -0.3279956,
                0.1708966
              ],
              [
                -0.3946349,
                0.0900236
              ],
              [
                -0.4240585,
                0.0625676
              ]
            ],
            "bounds_normalized": {
              "dimensions": [
                0.830316996,
                0.488329262
              ],
              "max": [
                0.39144575,
                0.236774128
              ],
              "min": [
                -0.438871246,
                -0.251555133
              ]
            },
            "centroid_normalized": [
              0.011306955,
              -0.029832181
            ],
            "fraction": 0.5,
            "mask": {
              "encoding": "rows_top_to_bottom_1bit_text",
              "occupied_bbox_pixels": [
                3,
                8,
                27,
                22
              ],
              "occupied_fraction": 0.270507812,
              "occupied_pixel_count": 277,
              "origin": "bottom_left",
              "resolution": [
                32,
                32
              ],
              "rows": [
                "00000000000000000000000000000000",
                "00000000000000000000000000000000",
                "00000000000000000000000000000000",
                "00000000000000000000000000000000",
                "00000000000000000000000000000000",
                "00000000000000000000000000000000",
                "00000000000000000000000000000000",
                "00000000000000000000000000000000",
                "00000000000000000000000000000000",
                "00000000001111111110000000000000",
                "00000001111111111101110000000000",
                "00000011111111111111111000000000",
                "00000111111111111111111110000000",
                "00001111111111111111111111000000",
                "00011111111111111111111111100000",
                "00011111111111111111111111100000",
                "00011111111111111111111111100000",
                "00011111111111111111111111110000",
                "00011111111111111111111111100000",
                "00001111111111111111111111000000",
                "00001111111111111111111100000000",
                "00000111111111111111110000000000",
                "00000011111111111100000000000000",
                "00000000011100000000000000000000",
                "00000000000000000000000000000000",
                "00000000000000000000000000000000",
                "00000000000000000000000000000000",
                "00000000000000000000000000000000",
                "00000000000000000000000000000000",
                "00000000000000000000000000000000",
                "00000000000000000000000000000000",
                "00000000000000000000000000000000"
              ]
            },
            "plane_coordinate_native": -0.000110316,
            "segment_count": 36
          },
          {
            "boundary_samples_normalized": [
              [
                -0.4036801,
                -0.0427309
              ],
              [
                -0.4050999,
                -0.0552289
              ],
              [
                -0.4017739,
                -0.0609749
              ],
              [
                -0.3411671,
                -0.1635514
              ],
              [
                -0.2977825,
                -0.1794471
              ],
              [
                -0.2005151,
                -0.2000038
              ],
              [
                -0.1555246,
                -0.1970771
              ],
              [
                -0.0477743,
                -0.1753837
              ],
              [
                -0.0262626,
                -0.1674449
              ],
              [
                -0.0117581,
                -0.1615016
              ],
              [
                0.0689193,
                -0.1191963
              ],
              [
                0.1209334,
                -0.0900161
              ],
              [
                0.1220822,
                -0.0512456
              ],
              [
                0.1372322,
                0.0003472
              ],
              [
                0.0237072,
                0.1150595
              ],
              [
                -0.0053577,
                0.1229166
              ],
              [
                -0.1628278,
                0.1464884
              ],
              [
                -0.1787965,
                0.1396656
              ],
              [
                -0.2681462,
                0.1158848
              ],
              [
                -0.3080592,
                0.100847
              ],
              [
                -0.3184865,
                0.0988181
              ],
              [
                -0.371163,
                0.0313766
              ]
            ],
            "bounds_normalized": {
              "dimensions": [
                0.542332132,
                0.346492189
              ],
              "max": [
                0.137232208,
                0.146488359
              ],
              "min": [
                -0.405099924,
                -0.20000383
              ]
            },
            "centroid_normalized": [
              -0.155968222,
              -0.036018115
            ],
            "fraction": 0.75,
            "mask": {
              "encoding": "rows_top_to_bottom_1bit_text",
              "occupied_bbox_pixels": [
                4,
                10,
                19,
                20
              ],
              "occupied_fraction": 0.127929688,
              "occupied_pixel_count": 131,
              "origin": "bottom_left",
              "resolution": [
                32,
                32
              ],
              "rows": [
                "00000000000000000000000000000000",
                "00000000000000000000000000000000",
                "00000000000000000000000000000000",
                "00000000000000000000000000000000",
                "00000000000000000000000000000000",
                "00000000000000000000000000000000",
                "00000000000000000000000000000000",
                "00000000000000000000000000000000",
                "00000000000000000000000000000000",
                "00000000000000000000000000000000",
                "00000000000000000000000000000000",
                "00000000000110000000000000000000",
                "00000001111111111000000000000000",
                "00000011111111110100000000000000",
                "00000011111111111110000000000000",
                "00000111111111111101000000000000",
                "00001111111111111111000000000000",
                "00001111111111111111000000000000",
                "00001111111111111111000000000000",
                "00000111111111111110000000000000",
                "00000011111111111000000000000000",
                "00000001111111100000000000000000",
                "00000000000000000000000000000000",
                "00000000000000000000000000000000",
                "00000000000000000000000000000000",
                "00000000000000000000000000000000",
                "00000000000000000000000000000000",
                "00000000000000000000000000000000",
                "00000000000000000000000000000000",
                "00000000000000000000000000000000",
                "00000000000000000000000000000000",
                "00000000000000000000000000000000"
              ]
            },
            "plane_coordinate_native": 0.000654329,
            "segment_count": 22
          },
          {
            "boundary_samples_normalized": [
              [
                -0.3298794,
                -0.0708459
              ],
              [
                -0.3115678,
                -0.1269376
              ],
              [
                -0.2241422,
                -0.1438209
              ],
              [
                -0.1800152,
                -0.1441572
              ],
              [
                -0.1102503,
                -0.1184107
              ],
              [
                -0.0358887,
                -0.0879405
              ],
              [
                -0.0503372,
                -0.049224
              ],
              [
                -0.0517574,
                0.0178133
              ],
              [
                -0.1616658,
                0.0619965
              ],
              [
                -0.203721,
                0.0461516
              ],
              [
                -0.3083925,
                0.0257847
              ],
              [
                -0.3199767,
                0.0109534
              ],
              [
                -0.3286506,
                -0.0088146
              ]
            ],
            "bounds_normalized": {
              "dimensions": [
                0.293990637,
                0.206153666
              ],
              "max": [
                -0.035888714,
                0.061996459
              ],
              "min": [
                -0.32987935,
                -0.144157207
              ]
            },
            "centroid_normalized": [
              -0.201249594,
              -0.045188609
            ],
            "fraction": 0.9,
            "mask": {
              "encoding": "rows_top_to_bottom_1bit_text",
              "occupied_bbox_pixels": [
                6,
                11,
                14,
                17
              ],
              "occupied_fraction": 0.048828125,
              "occupied_pixel_count": 50,
              "origin": "bottom_left",
              "resolution": [
                32,
                32
              ],
              "rows": [
                "00000000000000000000000000000000",
                "00000000000000000000000000000000",
                "00000000000000000000000000000000",
                "00000000000000000000000000000000",
                "00000000000000000000000000000000",
                "00000000000000000000000000000000",
                "00000000000000000000000000000000",
                "00000000000000000000000000000000",
                "00000000000000000000000000000000",
                "00000000000000000000000000000000",
                "00000000000000000000000000000000",
                "00000000000000000000000000000000",
                "00000000000000000000000000000000",
                "00000000000000000000000000000000",
                "00000000011111000000000000000000",
                "00000011111111100000000000000000",
                "00000011111111100000000000000000",
                "00000011111111100000000000000000",
                "00000011111111100000000000000000",
                "00000001111111000000000000000000",
                "00000000011000000000000000000000",
                "00000000000000000000000000000000",
                "00000000000000000000000000000000",
                "00000000000000000000000000000000",
                "00000000000000000000000000000000",
                "00000000000000000000000000000000",
                "00000000000000000000000000000000",
                "00000000000000000000000000000000",
                "00000000000000000000000000000000",
                "00000000000000000000000000000000",
                "00000000000000000000000000000000",
                "00000000000000000000000000000000"
              ]
            },
            "plane_coordinate_native": 0.001113115,
            "segment_count": 13
          }
        ]
      }
    },
    "normalization": {
      "method": "uniform_scale_about_oriented_bounds_center",
      "normalized_extent": "largest dimension equals 1.0; aspect ratio is preserved",
      "oriented_bounds_center": [
        0.000625086,
        0.000152019,
        -0.000110316
      ],
      "pca_basis_world": [
        [
          0.743183729,
          0.136752586,
          0.65496311
        ],
        [
          -0.269844325,
          0.957010379,
          0.106372812
        ],
        [
          -0.612259736,
          -0.255792621,
          0.748136451
        ]
      ],
      "pca_origin_world": [
        0.033029122,
        0.421252672,
        -0.037471303
      ],
      "uniform_scale_native": 0.010086773
    },
    "silhouettes": {
      "pca_axis_aligned": {
        "xy": {
          "encoding": "rows_top_to_bottom_1bit_text",
          "occupied_bbox_pixels": [
            2,
            10,
            45,
            37
          ],
          "occupied_fraction": 0.442708333,
          "occupied_pixel_count": 1020,
          "origin": "bottom_left",
          "resolution": [
            48,
            48
          ],
          "rows": [
            "000000000000000000000000000000000000000000000000",
            "000000000000000000000000000000000000000000000000",
            "000000000000000000000000000000000000000000000000",
            "000000000000000000000000000000000000000000000000",
            "000000000000000000000000000000000000000000000000",
            "000000000000000000000000000000000000000000000000",
            "000000000000000000000000000000000000000000000000",
            "000000000000000000000000000000000000000000000000",
            "000000000000000000000000000000000000000000000000",
            "000000000000000000000000000000000000000000000000",
            "000000000000001111111111111100000000000000000000",
            "000000000111111111111111111111111000000000000000",
            "000000001111111111111111111111110111000000000000",
            "000000111111111111111111111111111111100000000000",
            "000000111111111111111111111111111111111000000000",
            "000001111111111111111111111111111111110100000000",
            "000111111111111111111111111111111111111010000000",
            "001111111111111111111111111111111111111111100000",
            "001111111111111111111111111111111111111111110000",
            "001111111111111111111111111111111111111111110000",
            "001111111111111111111111111111111111111111111000",
            "001111111111111111111111111111111111111111111000",
            "001111111111111111111111111111111111111111111000",
            "001111111111111111111111111111111111111111111100",
            "001111111111111111111111111111111111111111111100",
            "001111111111111111111111111111111111111111111100",
            "001111111111111111111111111111111111111111111100",
            "001111111111111111111111111111111111111111111100",
            "001111111111111111111111111111111111111111111000",
            "001111111111111111111111111111111111111111111000",
            "000111111111111111111111111111111111111111110000",
            "000011111111111111111111111111111111111111100000",
            "000011111111111111111111111111111111111111100000",
            "000001111111111111111111111111111111111111000000",
            "000000111111111111111111111111111111111000000000",
            "000000011111111111111111111111111110000000000000",
            "000000000011111111111111111111111100000000000000",
            "000000000000111111111111111111100000000000000000",
            "000000000000000000000000000000000000000000000000",
            "000000000000000000000000000000000000000000000000",
            "000000000000000000000000000000000000000000000000",
            "000000000000000000000000000000000000000000000000",
            "000000000000000000000000000000000000000000000000",
            "000000000000000000000000000000000000000000000000",
            "000000000000000000000000000000000000000000000000",
            "000000000000000000000000000000000000000000000000",
            "000000000000000000000000000000000000000000000000",
            "000000000000000000000000000000000000000000000000"
          ]
        },
        "xz": {
          "encoding": "rows_top_to_bottom_1bit_text",
          "occupied_bbox_pixels": [
            2,
            17,
            45,
            30
          ],
          "occupied_fraction": 0.1640625,
          "occupied_pixel_count": 378,
          "origin": "bottom_left",
          "resolution": [
            48,
            48
          ],
          "rows": [
            "000000000000000000000000000000000000000000000000",
            "000000000000000000000000000000000000000000000000",
            "000000000000000000000000000000000000000000000000",
            "000000000000000000000000000000000000000000000000",
            "000000000000000000000000000000000000000000000000",
            "000000000000000000000000000000000000000000000000",
            "000000000000000000000000000000000000000000000000",
            "000000000000000000000000000000000000000000000000",
            "000000000000000000000000000000000000000000000000",
            "000000000000000000000000000000000000000000000000",
            "000000000000000000000000000000000000000000000000",
            "000000000000000000000000000000000000000000000000",
            "000000000000000000000000000000000000000000000000",
            "000000000000000000000000000000000000000000000000",
            "000000000000000000000000000000000000000000000000",
            "000000000000000000000000000000000000000000000000",
            "000000000000000000000000000000000000000000000000",
            "000000000001111111100000000000000000000000000000",
            "000000000111111111111111000000000000000000000000",
            "000000011111111111111111111000000000000000000000",
            "000000111111111111111111111111100000000000000000",
            "000000111111111111111111111111111100000000000000",
            "000001111111111111111111111111111111110000000000",
            "000001111111111111111111111111111111111110000000",
            "000011111111111111111111111111111111111111111000",
            "000011111111111111111111111111111111111111111100",
            "000011111111111111111111111111111111111111110000",
            "000111111111111111111111111111111111111111000000",
            "000111111111111111111111111111111110000000000000",
            "001111111110000000000000111111110000000000000000",
            "001100000000000000000000000000000000000000000000",
            "000000000000000000000000000000000000000000000000",
            "000000000000000000000000000000000000000000000000",
            "000000000000000000000000000000000000000000000000",
            "000000000000000000000000000000000000000000000000",
            "000000000000000000000000000000000000000000000000",
            "000000000000000000000000000000000000000000000000",
            "000000000000000000000000000000000000000000000000",
            "000000000000000000000000000000000000000000000000",
            "000000000000000000000000000000000000000000000000",
            "000000000000000000000000000000000000000000000000",
            "000000000000000000000000000000000000000000000000",
            "000000000000000000000000000000000000000000000000",
            "000000000000000000000000000000000000000000000000",
            "000000000000000000000000000000000000000000000000",
            "000000000000000000000000000000000000000000000000",
            "000000000000000000000000000000000000000000000000",
            "000000000000000000000000000000000000000000000000"
          ]
        },
        "yz": {
          "encoding": "rows_top_to_bottom_1bit_text",
          "occupied_bbox_pixels": [
            10,
            17,
            37,
            30
          ],
          "occupied_fraction": 0.118923611,
          "occupied_pixel_count": 274,
          "origin": "bottom_left",
          "resolution": [
            48,
            48
          ],
          "rows": [
            "000000000000000000000000000000000000000000000000",
            "000000000000000000000000000000000000000000000000",
            "000000000000000000000000000000000000000000000000",
            "000000000000000000000000000000000000000000000000",
            "000000000000000000000000000000000000000000000000",
            "000000000000000000000000000000000000000000000000",
            "000000000000000000000000000000000000000000000000",
            "000000000000000000000000000000000000000000000000",
            "000000000000000000000000000000000000000000000000",
            "000000000000000000000000000000000000000000000000",
            "000000000000000000000000000000000000000000000000",
            "000000000000000000000000000000000000000000000000",
            "000000000000000000000000000000000000000000000000",
            "000000000000000000000000000000000000000000000000",
            "000000000000000000000000000000000000000000000000",
            "000000000000000000000000000000000000000000000000",
            "000000000000000000000000000000000000000000000000",
            "000000000000000000011111100000000000000000000000",
            "000000000000000001111111111000000000000000000000",
            "000000000000000011111111111110000000000000000000",
            "000000000000000111111111111111100000000000000000",
            "000000000000001111111111111111110000000000000000",
            "000000000000011111111111111111111000000000000000",
            "000000000000011111111111111111111100000000000000",
            "000000000000111111111111111111111110000000000000",
            "000000000000111111111111111111111111100000000000",
            "000000000001111111111111111111111111110000000000",
            "000000000001111111111111111111111111110000000000",
            "000000000011111111111111111111111111100000000000",
            "000000000011111111111111111111111110000000000000",
            "000000000000000011111111111111110000000000000000",
            "000000000000000000000000000000000000000000000000",
            "000000000000000000000000000000000000000000000000",
            "000000000000000000000000000000000000000000000000",
            "000000000000000000000000000000000000000000000000",
            "000000000000000000000000000000000000000000000000",
            "000000000000000000000000000000000000000000000000",
            "000000000000000000000000000000000000000000000000",
            "000000000000000000000000000000000000000000000000",
            "000000000000000000000000000000000000000000000000",
            "000000000000000000000000000000000000000000000000",
            "000000000000000000000000000000000000000000000000",
            "000000000000000000000000000000000000000000000000",
            "000000000000000000000000000000000000000000000000",
            "000000000000000000000000000000000000000000000000",
            "000000000000000000000000000000000000000000000000",
            "000000000000000000000000000000000000000000000000",
            "000000000000000000000000000000000000000000000000"
          ]
        }
      },
      "world_axis_aligned": {
        "xy": {
          "encoding": "rows_top_to_bottom_1bit_text",
          "occupied_bbox_pixels": [
            2,
            6,
            45,
            41
          ],
          "occupied_fraction": 0.557291667,
          "occupied_pixel_count": 1284,
          "origin": "bottom_left",
          "resolution": [
            48,
            48
          ],
          "rows": [
            "000000000000000000000000000000000000000000000000",
            "000000000000000000000000000000000000000000000000",
            "000000000000000000000000000000000000000000000000",
            "000000000000000000000000000000000000000000000000",
            "000000000000000000000000000000000000000000000000",
            "000000000000000000000000000000000000000000000000",
            "000000000000000011111111111111100000000000000000",
            "000000000000111111111111111111111000000000000000",
            "000000000011111111111111111111111110000000000000",
            "000000001111111111111111111111111101000000000000",
            "000000011111111111111111111111111111100000000000",
            "000000111111111111111111111111111111111000000000",
            "000000111111111111111111111111111111110110000000",
            "000001111111111111111111111111111111111111000000",
            "000001111111111111111111111111111111111111000000",
            "000001111111111111111111111111111111111111000000",
            "000011111111111111111111111111111111111111100000",
            "000011111111111111111111111111111111111111100000",
            "000011111111111111111111111111111111111111110000",
            "000111111111111111111111111111111111111111111000",
            "000111111111111111111111111111111111111111111000",
            "000111111111111111111111111111111111111111111000",
            "000111111111111111111111111111111111111111111000",
            "000111111111111111111111111111111111111111111000",
            "000111111111111111111111111111111111111111111000",
            "001111111111111111111111111111111111111111111100",
            "001111111111111111111111111111111111111111111100",
            "001111111111111111111111111111111111111111111100",
            "001111111111111111111111111111111111111111111100",
            "001111111111111111111111111111111111111111111100",
            "001111111111111111111111111111111111111111111100",
            "000111111111111111111111111111111111111111111100",
            "000111111111111111111111111111111111111111111100",
            "000111111111111111111111111111111111111111110000",
            "000011111111111111111111111111111111111111100000",
            "000001111111111111111111111111111111111110000000",
            "000000111111111111111111111111111111111100000000",
            "000000111111111111111111111111111111111000000000",
            "000000001111111111111111111111111111110000000000",
            "000000000001111111111111111111111111000000000000",
            "000000000000001111111111111111110000000000000000",
            "000000000000000001111111111110000000000000000000",
            "000000000000000000000000000000000000000000000000",
            "000000000000000000000000000000000000000000000000",
            "000000000000000000000000000000000000000000000000",
            "000000000000000000000000000000000000000000000000",
            "000000000000000000000000000000000000000000000000",
            "000000000000000000000000000000000000000000000000"
          ]
        },
        "xz": {
          "encoding": "rows_top_to_bottom_1bit_text",
          "occupied_bbox_pixels": [
            2,
            2,
            45,
            45
          ],
          "occupied_fraction": 0.369357639,
          "occupied_pixel_count": 851,
          "origin": "bottom_left",
          "resolution": [
            48,
            48
          ],
          "rows": [
            "000000000000000000000000000000000000000000000000",
            "000000000000000000000000000000000000000000000000",
            "000000000000000000000000000000000000000000011000",
            "000000000000000000000000000000000000000001111100",
            "000000000000000000000000000000000000000111111100",
            "000000000000000000000000000000000000011111111100",
            "000000000000000000000000000000000011111111111100",
            "000000000000000000000000000000001111111111111100",
            "000000000000000000000000000000111111111111111100",
            "000000000000000000000000000011111111111111111100",
            "000000000000000000000000001111111111111111111000",
            "000000000000000000000000111111111111111111110000",
            "000000000000000000000011111111111111111111110000",
            "000000000000000000001111111111111111111111100000",
            "000000000000000000111111111111111111111111000000",
            "000000000000000011111111111111111111111110000000",
            "000000000000000111111111111111111111111100000000",
            "000000000000011111111111111111111111111100000000",
            "000000000001111111111111111111111111111000000000",
            "000000000011111111111111111111111111111000000000",
            "000000000111111111111111111111111111111000000000",
            "000000001111111111111111111111111111110000000000",
            "000000111111111111111111111111111111110000000000",
            "000000111111111111111111111111111111000000000000",
            "000001111111111111111111111111111100000000000000",
            "000011111111111111111111111111111000000000000000",
            "000011111111111111111111111111110000000000000000",
            "000111111111111111111111111111000000000000000000",
            "000111111111111111111111111110000000000000000000",
            "000111111111111111111111111100000000000000000000",
            "000111111111111111111111111000000000000000000000",
            "000111111111111111111111110000000000000000000000",
            "001111111111111111111111100000000000000000000000",
            "001111111111111111111110000000000000000000000000",
            "001111111111111111111100000000000000000000000000",
            "000111111111111111111000000000000000000000000000",
            "000111111111111111100000000000000000000000000000",
            "000111111111111111100000000000000000000000000000",
            "000111111111111111000000000000000000000000000000",
            "000111111111111100000000000000000000000000000000",
            "000111111111111000000000000000000000000000000000",
            "000111111111111000000000000000000000000000000000",
            "000111111111100000000000000000000000000000000000",
            "000111111111000000000000000000000000000000000000",
            "000011111100000000000000000000000000000000000000",
            "000000110000000000000000000000000000000000000000",
            "000000000000000000000000000000000000000000000000",
            "000000000000000000000000000000000000000000000000"
          ]
        },
        "yz": {
          "encoding": "rows_top_to_bottom_1bit_text",
          "occupied_bbox_pixels": [
            6,
            2,
            41,
            45
          ],
          "occupied_fraction": 0.51953125,
          "occupied_pixel_count": 1197,
          "origin": "bottom_left",
          "resolution": [
            48,
            48
          ],
          "rows": [
            "000000000000000000000000000000000000000000000000",
            "000000000000000000000000000000000000000000000000",
            "000000000000000000000000111110000000000000000000",
            "000000000000000000000011111111110000000000000000",
            "000000000000000000001111111111101110000000000000",
            "000000000000000000111111111111111111000000000000",
            "000000000000000001111111111111111111100000000000",
            "000000000000000001111111111111111111010000000000",
            "000000000000000011111111111111111111111000000000",
            "000000000000000111111111111111111111111000000000",
            "000000000000001111111111111111111111111100000000",
            "000000000000001111111111111111111111111110000000",
            "000000000000011111111111111111111111111110000000",
            "000000000000011111111111111111111111111111000000",
            "000000000000111111111111111111111111111111000000",
            "000000000000111111111111111111111111111111000000",
            "000000000000111111111111111111111111111111000000",
            "000000000001111111111111111111111111111111000000",
            "000000000011111111111111111111111111111111000000",
            "000000000011111111111111111111111111111111000000",
            "000000000111111111111111111111111111111111000000",
            "000000000111111111111111111111111111111111000000",
            "000000001111111111111111111111111111111111000000",
            "000000001111111111111111111111111111111111000000",
            "000000001111111111111111111111111111111111000000",
            "000000011111111111111111111111111111111110000000",
            "000000011111111111111111111111111111111110000000",
            "000000011111111111111111111111111111111110000000",
            "000000111111111111111111111111111111111110000000",
            "000000111111111111111111111111111111111100000000",
            "000000111111111111111111111111111111111100000000",
            "000000111111111111111111111111111111111000000000",
            "000000111111111111111111111111111111111000000000",
            "000000111111111111111111111111111111111000000000",
            "000000111111111111111111111111111111110000000000",
            "000000111111111111111111111111111111110000000000",
            "000000111111111111111111111111111111100000000000",
            "000000111111111111111111111111111111000000000000",
            "000000011111111111111111111111111110000000000000",
            "000000011111111111111111111111111100000000000000",
            "000000011111111111111111111111111000000000000000",
            "000000001111111111111111111111110000000000000000",
            "000000001111111111111111111111100000000000000000",
            "000000000011111111111111111111100000000000000000",
            "000000000000111111111111111110000000000000000000",
            "000000000000001111100000000000000000000000000000",
            "000000000000000000000000000000000000000000000000",
            "000000000000000000000000000000000000000000000000"
          ]
        }
      }
    }
  },
  "schema_version": "1.0.0",
  "source": {
    "aggregate": false,
    "filename": "united-female-v1.5.glb",
    "format": "glb",
    "logical_mesh_index": 596,
    "logical_mesh_name": "VH_F_papillary_muscle_of_heart_med",
    "path": "/Users/eimis/Documents/HACKTHONS-2025/ServerPodHackathon/3D world/reference-atlas/models/hra/united-female-v1.5.glb",
    "sha256": "472567a56896b9b7890508da6501fbf858e56aaa30745365f7a71ade782b529c"
  },
  "surface_area": 7.2527e-05,
  "topology": {
    "boundary_edge_count": 16,
    "connected_component_count": 1,
    "inconsistently_wound_edge_count": 0,
    "is_edge_manifold": true,
    "is_watertight": false,
    "is_winding_consistent": true,
    "nonmanifold_edge_count": 0,
    "unique_edge_count": 131
  },
  "units": {
    "native": "source_units_unspecified",
    "note": "All physical measurements preserve source units; area and volume use squared/cubed source units."
  },
  "volume_if_watertight": null,
  "volume_orientation_repaired_in_memory": false
}
