{
  "bounds": {
    "center": [
      -0.014257709,
      0.792070001,
      -0.060650237
    ],
    "diagonal": 0.028766176,
    "dimensions": [
      0.013593741,
      0.017510831,
      0.018332317
    ],
    "max": [
      -0.007460838,
      0.800825417,
      -0.051484078
    ],
    "min": [
      -0.021054579,
      0.783314586,
      -0.069816396
    ]
  },
  "centroids": {
    "surface_area_weighted": [
      -0.014436489,
      0.793206016,
      -0.059190128
    ],
    "vertex_mean": [
      -0.013727617,
      0.792549019,
      -0.059310767
    ],
    "volume_if_watertight": null
  },
  "cleaning": {
    "degenerate_faces_removed": 0,
    "unused_vertices_removed": 0,
    "vertices_welded": 0,
    "weld_tolerance": 0.0
  },
  "counts": {
    "analyzed_face_count": 820,
    "analyzed_vertex_count": 409,
    "source_face_count": 820,
    "source_vertex_count": 409
  },
  "mesh_name": "Allen_ventral_anterior_nucleus_of_thalamus_L",
  "pca": {
    "basis": "exact_uniform_surface_moments",
    "eigenvalues": [
      3.7739e-05,
      8.227e-06,
      6.634e-06
    ],
    "oriented_bounds": {
      "center": [
        0.001027783,
        0.00037595,
        -0.000672951
      ],
      "dimensions": [
        0.023343793,
        0.011117203,
        0.009765382
      ],
      "max": [
        0.01269968,
        0.005934551,
        0.00420974
      ],
      "min": [
        -0.010644113,
        -0.005182652,
        -0.005555642
      ]
    },
    "principal_axes_world": [
      [
        -0.400782741,
        0.690020988,
        -0.602697462
      ],
      [
        -0.306114262,
        0.519180307,
        0.797963575
      ],
      [
        0.863520268,
        0.504304317,
        0.003146759
      ]
    ]
  },
  "sampling": {
    "cross_sections_pca": {
      "pca_axis_0": {
        "axis": 0,
        "in_plane_axes": [
          1,
          2
        ],
        "slices": [
          {
            "boundary_samples_normalized": [
              [
                -0.2139629,
                0.0093989
              ],
              [
                -0.1736616,
                0.0071979
              ],
              [
                -0.2124428,
                -0.0088441
              ],
              [
                -0.2046235,
                -0.0137141
              ],
              [
                -0.1828285,
                -0.0099542
              ],
              [
                -0.1908548,
                -0.0166147
              ],
              [
                -0.2040079,
                -0.0258459
              ],
              [
                -0.2048091,
                -0.0626077
              ],
              [
                -0.1852186,
                -0.0562812
              ],
              [
                -0.1941289,
                -0.0655361
              ],
              [
                -0.2042793,
                -0.0755237
              ],
              [
                -0.181278,
                -0.0560959
              ],
              [
                -0.2034922,
                -0.0782334
              ],
              [
                -0.2011888,
                -0.0809279
              ],
              [
                -0.1660903,
                -0.0567889
              ],
              [
                -0.1493686,
                -0.0496291
              ],
              [
                -0.1786371,
                -0.0957067
              ],
              [
                -0.1736015,
                -0.0981663
              ],
              [
                -0.1418859,
                -0.0496338
              ],
              [
                -0.167554,
                -0.0987934
              ],
              [
                -0.1399021,
                -0.0486258
              ],
              [
                -0.1302058,
                -0.0406553
              ],
              [
                -0.1349263,
                -0.0984861
              ],
              [
                -0.1164726,
                -0.0244515
              ],
              [
                -0.1112486,
                -0.094017
              ],
              [
                -0.0951482,
                -0.087539
              ],
              [
                -0.1054023,
                0.0026789
              ],
              [
                -0.0706941,
                -0.078269
              ],
              [
                -0.1056243,
                0.0060742
              ],
              [
                -0.055248,
                -0.0692982
              ],
              [
                -0.0363337,
                -0.0555013
              ],
              [
                -0.0234756,
                -0.0501192
              ],
              [
                0.003821,
                -0.0397236
              ],
              [
                0.0045904,
                -0.0393542
              ],
              [
                0.0360564,
                -0.0201655
              ],
              [
                0.048223,
                -0.0094764
              ],
              [
                0.0666404,
                0.0107714
              ],
              [
                0.0764372,
                0.0256454
              ],
              [
                0.0811697,
                0.0479631
              ],
              [
                0.0842165,
                0.0740621
              ],
              [
                0.0670234,
                0.0838048
              ],
              [
                0.0563415,
                0.1003581
              ],
              [
                0.0203952,
                0.1194628
              ],
              [
                -0.0035663,
                0.1346118
              ],
              [
                -0.0328882,
                0.1486375
              ],
              [
                -0.0543217,
                0.1578353
              ],
              [
                -0.0598279,
                0.1583506
              ],
              [
                -0.1078387,
                0.1718433
              ],
              [
                -0.1091985,
                0.17157
              ],
              [
                -0.1185503,
                0.1704863
              ],
              [
                -0.141408,
                0.1647881
              ],
              [
                -0.1571802,
                0.1447488
              ],
              [
                -0.1628858,
                0.1342952
              ],
              [
                -0.1703487,
                0.1245602
              ],
              [
                -0.1769289,
                0.1111943
              ],
              [
                -0.1982919,
                0.0848784
              ],
              [
                -0.2020293,
                0.0774941
              ],
              [
                -0.1338798,
                0.0240256
              ],
              [
                -0.1238376,
                0.0181495
              ],
              [
                -0.2129008,
                0.035027
              ],
              [
                -0.1528061,
                0.0150338
              ]
            ],
            "bounds_normalized": {
              "dimensions": [
                0.298179373,
                0.270636685
              ],
              "max": [
                0.084216464,
                0.171843314
              ],
              "min": [
                -0.213962909,
                -0.098793371
              ]
            },
            "centroid_normalized": [
              -0.108727373,
              0.012792915
            ],
            "fraction": 0.1,
            "mask": {
              "encoding": "rows_top_to_bottom_1bit_text",
              "occupied_bbox_pixels": [
                9,
                13,
                18,
                20
              ],
              "occupied_fraction": 0.05859375,
              "occupied_pixel_count": 60,
              "origin": "bottom_left",
              "resolution": [
                32,
                32
              ],
              "rows": [
                "00000000000000000000000000000000",
                "00000000000000000000000000000000",
                "00000000000000000000000000000000",
                "00000000000000000000000000000000",
                "00000000000000000000000000000000",
                "00000000000000000000000000000000",
                "00000000000000000000000000000000",
                "00000000000000000000000000000000",
                "00000000000000000000000000000000",
                "00000000000000000000000000000000",
                "00000000000000000000000000000000",
                "00000000000111110000000000000000",
                "00000000000111111100000000000000",
                "00000000001111111110000000000000",
                "00000000001111111110000000000000",
                "00000000011111111110000000000000",
                "00000000011011111100000000000000",
                "00000000001111111000000000000000",
                "00000000001111100000000000000000",
                "00000000000000000000000000000000",
                "00000000000000000000000000000000",
                "00000000000000000000000000000000",
                "00000000000000000000000000000000",
                "00000000000000000000000000000000",
                "00000000000000000000000000000000",
                "00000000000000000000000000000000",
                "00000000000000000000000000000000",
                "00000000000000000000000000000000",
                "00000000000000000000000000000000",
                "00000000000000000000000000000000",
                "00000000000000000000000000000000",
                "00000000000000000000000000000000"
              ]
            },
            "plane_coordinate_native": -0.008309734,
            "segment_count": 61
          },
          {
            "boundary_samples_normalized": [
              [
                -0.0812664,
                0.048914
              ],
              [
                -0.0320982,
                0.0534289
              ],
              [
                -0.1954587,
                0.0351686
              ],
              [
                -0.2011487,
                0.0277669
              ],
              [
                -0.2083,
                0.0053197
              ],
              [
                -0.2078889,
                -0.0116578
              ],
              [
                -0.0483867,
                0.0446787
              ],
              [
                -0.0622894,
                0.0389838
              ],
              [
                -0.052763,
                0.0418748
              ],
              [
                -0.2024302,
                -0.0316101
              ],
              [
                -0.194913,
                -0.0384484
              ],
              [
                -0.180103,
                -0.0547022
              ],
              [
                -0.1686037,
                -0.071085
              ],
              [
                -0.1583053,
                -0.081121
              ],
              [
                -0.1406916,
                -0.1055988
              ],
              [
                -0.1372341,
                -0.1112669
              ],
              [
                -0.1094109,
                -0.1368942
              ],
              [
                -0.1075033,
                -0.139899
              ],
              [
                -0.0990319,
                -0.143914
              ],
              [
                -0.0826931,
                -0.151993
              ],
              [
                -0.0782366,
                -0.153581
              ],
              [
                -0.0608354,
                -0.14892
              ],
              [
                -0.046259,
                -0.1472588
              ],
              [
                -0.0351946,
                -0.1436168
              ],
              [
                -0.0038239,
                -0.1370276
              ],
              [
                0.001626,
                -0.1356349
              ],
              [
                0.0270842,
                -0.1235858
              ],
              [
                0.0636613,
                -0.104455
              ],
              [
                0.1215693,
                -0.0536631
              ],
              [
                0.1508381,
                -0.0278659
              ],
              [
                0.1675285,
                -0.0132087
              ],
              [
                0.1911765,
                0.0107841
              ],
              [
                0.1941249,
                0.0208182
              ],
              [
                0.2128573,
                0.0475056
              ],
              [
                0.2191671,
                0.0612216
              ],
              [
                0.219326,
                0.0653108
              ],
              [
                0.2087796,
                0.1199432
              ],
              [
                0.2050145,
                0.1272028
              ],
              [
                0.1942378,
                0.1464806
              ],
              [
                0.1836647,
                0.1527215
              ],
              [
                0.1645566,
                0.1599157
              ],
              [
                0.1457764,
                0.165776
              ],
              [
                0.1366979,
                0.1680592
              ],
              [
                0.126219,
                0.1686553
              ],
              [
                0.1112687,
                0.1715512
              ],
              [
                0.0677588,
                0.178167
              ],
              [
                0.0309766,
                0.1768687
              ],
              [
                0.025647,
                0.1775818
              ],
              [
                0.0007852,
                0.1197762
              ],
              [
                -0.0125501,
                0.0877266
              ],
              [
                0.0070937,
                0.1763657
              ],
              [
                -0.0105508,
                0.1019576
              ],
              [
                -0.0037742,
                0.1364257
              ],
              [
                -0.0019211,
                0.1523759
              ],
              [
                -0.008426,
                0.1663249
              ],
              [
                -0.010562,
                0.1523547
              ],
              [
                -0.0189975,
                0.0725594
              ],
              [
                -0.0158427,
                0.1828918
              ],
              [
                -0.0264239,
                0.1576217
              ],
              [
                -0.0324279,
                0.16119
              ],
              [
                -0.0362782,
                0.1869243
              ],
              [
                -0.0363201,
                0.1551364
              ],
              [
                -0.0614189,
                0.1892921
              ],
              [
                -0.0556452,
                0.1454071
              ],
              [
                -0.0731928,
                0.1846412
              ],
              [
                -0.0816904,
                0.1829495
              ],
              [
                -0.0662352,
                0.1332807
              ],
              [
                -0.0984034,
                0.172102
              ],
              [
                -0.1045029,
                0.1683022
              ],
              [
                -0.080354,
                0.1070192
              ],
              [
                -0.1249504,
                0.1440279
              ],
              [
                -0.1398963,
                0.1247947
              ],
              [
                -0.0877821,
                0.0909857
              ],
              [
                -0.0884833,
                0.0865454
              ],
              [
                -0.1552311,
                0.0966322
              ],
              [
                -0.1554018,
                0.0963016
              ],
              [
                -0.1558014,
                0.0957969
              ],
              [
                -0.0873697,
                0.0718727
              ],
              [
                -0.0907699,
                0.0561977
              ]
            ],
            "bounds_normalized": {
              "dimensions": [
                0.427625981,
                0.342873027
              ],
              "max": [
                0.21932597,
                0.189292061
              ],
              "min": [
                -0.208300012,
                -0.153580966
              ]
            },
            "centroid_normalized": [
              -0.020742245,
              0.054474311
            ],
            "fraction": 0.25,
            "mask": {
              "encoding": "rows_top_to_bottom_1bit_text",
              "occupied_bbox_pixels": [
                10,
                11,
                22,
                21
              ],
              "occupied_fraction": 0.098632812,
              "occupied_pixel_count": 101,
              "origin": "bottom_left",
              "resolution": [
                32,
                32
              ],
              "rows": [
                "00000000000000000000000000000000",
                "00000000000000000000000000000000",
                "00000000000000000000000000000000",
                "00000000000000000000000000000000",
                "00000000000000000000000000000000",
                "00000000000000000000000000000000",
                "00000000000000000000000000000000",
                "00000000000000000000000000000000",
                "00000000000000000000000000000000",
                "00000000000000000000000000000000",
                "00000000000001111100000000000000",
                "00000000000011111111110000000000",
                "00000000000111111111110000000000",
                "00000000000111011111111000000000",
                "00000000001111111111111000000000",
                "00000000001111111111110000000000",
                "00000000001111111111110000000000",
                "00000000001111111111000000000000",
                "00000000000111111110000000000000",
                "00000000000011111100000000000000",
                "00000000000001110000000000000000",
                "00000000000000000000000000000000",
                "00000000000000000000000000000000",
                "00000000000000000000000000000000",
                "00000000000000000000000000000000",
                "00000000000000000000000000000000",
                "00000000000000000000000000000000",
                "00000000000000000000000000000000",
                "00000000000000000000000000000000",
                "00000000000000000000000000000000",
                "00000000000000000000000000000000",
                "00000000000000000000000000000000"
              ]
            },
            "plane_coordinate_native": -0.004808165,
            "segment_count": 79
          },
          {
            "boundary_samples_normalized": [
              [
                -0.1303202,
                0.0139811
              ],
              [
                -0.1143479,
                -0.0047037
              ],
              [
                -0.0957204,
                -0.0291676
              ],
              [
                -0.0796046,
                -0.0523391
              ],
              [
                -0.0756977,
                -0.0575807
              ],
              [
                -0.0626565,
                -0.0852474
              ],
              [
                -0.0333156,
                -0.1251864
              ],
              [
                -0.0209678,
                -0.1436538
              ],
              [
                -0.0179627,
                -0.1468963
              ],
              [
                -0.0134295,
                -0.1539232
              ],
              [
                0.0053924,
                -0.1812527
              ],
              [
                0.0293345,
                -0.2042079
              ],
              [
                0.0373628,
                -0.2081401
              ],
              [
                0.054044,
                -0.2020323
              ],
              [
                0.0581001,
                -0.2000807
              ],
              [
                0.0593121,
                -0.1998553
              ],
              [
                0.063948,
                -0.1963357
              ],
              [
                0.1246243,
                -0.1393716
              ],
              [
                0.1496094,
                -0.113195
              ],
              [
                0.1716632,
                -0.0822361
              ],
              [
                0.19175,
                -0.0436332
              ],
              [
                0.1981204,
                -0.0293394
              ],
              [
                0.203714,
                -0.0103832
              ],
              [
                0.2098504,
                0.0102946
              ],
              [
                0.209481,
                0.0509901
              ],
              [
                0.2089356,
                0.1075027
              ],
              [
                0.2037757,
                0.117125
              ],
              [
                0.1793314,
                0.1522671
              ],
              [
                0.1571274,
                0.1664229
              ],
              [
                0.1477363,
                0.1732358
              ],
              [
                0.1433223,
                0.1755838
              ],
              [
                0.1375545,
                0.1771741
              ],
              [
                0.1049978,
                0.1856121
              ],
              [
                0.042423,
                0.1801928
              ],
              [
                0.0340402,
                0.1802087
              ],
              [
                0.0310555,
                0.1801295
              ],
              [
                0.0278804,
                0.1804081
              ],
              [
                0.0220898,
                0.18007
              ],
              [
                -0.0193004,
                0.1824234
              ],
              [
                -0.0434468,
                0.1815001
              ],
              [
                -0.055895,
                0.1778664
              ],
              [
                -0.0821998,
                0.1657845
              ],
              [
                -0.0888703,
                0.1636295
              ],
              [
                -0.0952595,
                0.1564789
              ],
              [
                -0.1074211,
                0.1471486
              ],
              [
                -0.114066,
                0.1251829
              ],
              [
                -0.1221792,
                0.0972185
              ],
              [
                -0.1356919,
                0.0695906
              ],
              [
                -0.1386451,
                0.0514674
              ],
              [
                -0.1356461,
                0.0275782
              ]
            ],
            "bounds_normalized": {
              "dimensions": [
                0.348495545,
                0.393752282
              ],
              "max": [
                0.209850426,
                0.185612137
              ],
              "min": [
                -0.138645119,
                -0.208140145
              ]
            },
            "centroid_normalized": [
              0.028478645,
              0.023366118
            ],
            "fraction": 0.5,
            "mask": {
              "encoding": "rows_top_to_bottom_1bit_text",
              "occupied_bbox_pixels": [
                12,
                10,
                21,
                21
              ],
              "occupied_fraction": 0.092773438,
              "occupied_pixel_count": 95,
              "origin": "bottom_left",
              "resolution": [
                32,
                32
              ],
              "rows": [
                "00000000000000000000000000000000",
                "00000000000000000000000000000000",
                "00000000000000000000000000000000",
                "00000000000000000000000000000000",
                "00000000000000000000000000000000",
                "00000000000000000000000000000000",
                "00000000000000000000000000000000",
                "00000000000000000000000000000000",
                "00000000000000000000000000000000",
                "00000000000000000000000000000000",
                "00000000000000111111000000000000",
                "00000000000011111111110000000000",
                "00000000000011111111110000000000",
                "00000000000011111111110000000000",
                "00000000000011111111110000000000",
                "00000000000011111111110000000000",
                "00000000000011111111110000000000",
                "00000000000001111111110000000000",
                "00000000000000111111100000000000",
                "00000000000000111111100000000000",
                "00000000000000011110000000000000",
                "00000000000000001100000000000000",
                "00000000000000000000000000000000",
                "00000000000000000000000000000000",
                "00000000000000000000000000000000",
                "00000000000000000000000000000000",
                "00000000000000000000000000000000",
                "00000000000000000000000000000000",
                "00000000000000000000000000000000",
                "00000000000000000000000000000000",
                "00000000000000000000000000000000",
                "00000000000000000000000000000000"
              ]
            },
            "plane_coordinate_native": 0.001027783,
            "segment_count": 50
          },
          {
            "boundary_samples_normalized": [
              [
                -0.1541026,
                0.0310825
              ],
              [
                -0.1399737,
                0.0183487
              ],
              [
                -0.1197792,
                0.0004743
              ],
              [
                -0.1026867,
                -0.0149181
              ],
              [
                -0.0975236,
                -0.0192397
              ],
              [
                -0.0923478,
                -0.0240538
              ],
              [
                -0.0650429,
                -0.0566793
              ],
              [
                -0.0374022,
                -0.0899953
              ],
              [
                -0.0356632,
                -0.0917267
              ],
              [
                -0.0087393,
                -0.1303483
              ],
              [
                0.0002371,
                -0.1375138
              ],
              [
                0.0092317,
                -0.1455788
              ],
              [
                0.0136238,
                -0.1458906
              ],
              [
                0.0332189,
                -0.1448191
              ],
              [
                0.0383225,
                -0.1428736
              ],
              [
                0.0554414,
                -0.1200831
              ],
              [
                0.0690623,
                -0.0945021
              ],
              [
                0.0741165,
                -0.0855967
              ],
              [
                0.0817456,
                -0.0713216
              ],
              [
                0.089334,
                -0.0576314
              ],
              [
                0.101525,
                -0.0342092
              ],
              [
                0.1031409,
                -0.0221439
              ],
              [
                0.105601,
                -0.0006916
              ],
              [
                0.1125496,
                0.0625607
              ],
              [
                0.1135818,
                0.0943463
              ],
              [
                0.104663,
                0.1132805
              ],
              [
                0.0474695,
                0.1587066
              ],
              [
                0.0178337,
                0.1708382
              ],
              [
                -0.028903,
                0.1953802
              ],
              [
                -0.0527491,
                0.2018572
              ],
              [
                -0.0619036,
                0.2021705
              ],
              [
                -0.0744433,
                0.2007487
              ],
              [
                -0.0816246,
                0.1982179
              ],
              [
                -0.0866027,
                0.1957189
              ],
              [
                -0.113036,
                0.1787379
              ],
              [
                -0.1280872,
                0.1676501
              ],
              [
                -0.1565158,
                0.1395268
              ],
              [
                -0.1774756,
                0.1253081
              ],
              [
                -0.1812348,
                0.1218087
              ],
              [
                -0.1869533,
                0.1131119
              ],
              [
                -0.196471,
                0.0900911
              ],
              [
                -0.1989999,
                0.0780299
              ],
              [
                -0.1939203,
                0.0720843
              ],
              [
                -0.1833967,
                0.0570367
              ],
              [
                -0.1781485,
                0.051009
              ]
            ],
            "bounds_normalized": {
              "dimensions": [
                0.312581752,
                0.348061088
              ],
              "max": [
                0.113581846,
                0.202170453
              ],
              "min": [
                -0.198999907,
                -0.145890636
              ]
            },
            "centroid_normalized": [
              -0.043622852,
              0.031295752
            ],
            "fraction": 0.75,
            "mask": {
              "encoding": "rows_top_to_bottom_1bit_text",
              "occupied_bbox_pixels": [
                10,
                11,
                19,
                21
              ],
              "occupied_fraction": 0.069335938,
              "occupied_pixel_count": 71,
              "origin": "bottom_left",
              "resolution": [
                32,
                32
              ],
              "rows": [
                "00000000000000000000000000000000",
                "00000000000000000000000000000000",
                "00000000000000000000000000000000",
                "00000000000000000000000000000000",
                "00000000000000000000000000000000",
                "00000000000000000000000000000000",
                "00000000000000000000000000000000",
                "00000000000000000000000000000000",
                "00000000000000000000000000000000",
                "00000000000000000000000000000000",
                "00000000000011110000000000000000",
                "00000000000111111100000000000000",
                "00000000001111111010000000000000",
                "00000000001111111111000000000000",
                "00000000001111111111000000000000",
                "00000000000111111111000000000000",
                "00000000000011111110000000000000",
                "00000000000001111110000000000000",
                "00000000000000111110000000000000",
                "00000000000000011100000000000000",
                "00000000000000001100000000000000",
                "00000000000000000000000000000000",
                "00000000000000000000000000000000",
                "00000000000000000000000000000000",
                "00000000000000000000000000000000",
                "00000000000000000000000000000000",
                "00000000000000000000000000000000",
                "00000000000000000000000000000000",
                "00000000000000000000000000000000",
                "00000000000000000000000000000000",
                "00000000000000000000000000000000",
                "00000000000000000000000000000000"
              ]
            },
            "plane_coordinate_native": 0.006863732,
            "segment_count": 45
          },
          {
            "boundary_samples_normalized": [
              [
                -0.1861635,
                0.0152676
              ],
              [
                -0.1584681,
                -0.0091978
              ],
              [
                -0.1446776,
                -0.0184873
              ],
              [
                -0.1424622,
                -0.0199526
              ],
              [
                -0.0998599,
                -0.0517929
              ],
              [
                -0.0980869,
                -0.0535492
              ],
              [
                -0.0956173,
                -0.0553761
              ],
              [
                -0.0809534,
                -0.0636133
              ],
              [
                -0.0458273,
                -0.0786308
              ],
              [
                -0.0368377,
                -0.0779625
              ],
              [
                -0.0249993,
                -0.0710146
              ],
              [
                -0.0192945,
                -0.049432
              ],
              [
                -0.0141376,
                -0.0326462
              ],
              [
                -0.0054101,
                0.0081192
              ],
              [
                -0.0035525,
                0.022236
              ],
              [
                -0.0172806,
                0.0481468
              ],
              [
                -0.0333017,
                0.0596983
              ],
              [
                -0.0393153,
                0.0702185
              ],
              [
                -0.0702289,
                0.0905863
              ],
              [
                -0.0759469,
                0.0937734
              ],
              [
                -0.114611,
                0.1063114
              ],
              [
                -0.1297491,
                0.1121423
              ],
              [
                -0.1324067,
                0.113063
              ],
              [
                -0.1723987,
                0.1123443
              ],
              [
                -0.2200203,
                0.0926978
              ],
              [
                -0.2222806,
                0.089804
              ],
              [
                -0.2259159,
                0.0621128
              ],
              [
                -0.2230752,
                0.054956
              ],
              [
                -0.1981284,
                0.0256244
              ]
            ],
            "bounds_normalized": {
              "dimensions": [
                0.222363397,
                0.19169375
              ],
              "max": [
                -0.003552465,
                0.113062991
              ],
              "min": [
                -0.225915862,
                -0.078630759
              ]
            },
            "centroid_normalized": [
              -0.104517488,
              0.020532653
            ],
            "fraction": 0.9,
            "mask": {
              "encoding": "rows_top_to_bottom_1bit_text",
              "occupied_bbox_pixels": [
                9,
                13,
                15,
                19
              ],
              "occupied_fraction": 0.03125,
              "occupied_pixel_count": 32,
              "origin": "bottom_left",
              "resolution": [
                32,
                32
              ],
              "rows": [
                "00000000000000000000000000000000",
                "00000000000000000000000000000000",
                "00000000000000000000000000000000",
                "00000000000000000000000000000000",
                "00000000000000000000000000000000",
                "00000000000000000000000000000000",
                "00000000000000000000000000000000",
                "00000000000000000000000000000000",
                "00000000000000000000000000000000",
                "00000000000000000000000000000000",
                "00000000000000000000000000000000",
                "00000000000000000000000000000000",
                "00000000000110000000000000000000",
                "00000000011111100000000000000000",
                "00000000011111110000000000000000",
                "00000000001111110000000000000000",
                "00000000000111110000000000000000",
                "00000000000011110000000000000000",
                "00000000000000110000000000000000",
                "00000000000000000000000000000000",
                "00000000000000000000000000000000",
                "00000000000000000000000000000000",
                "00000000000000000000000000000000",
                "00000000000000000000000000000000",
                "00000000000000000000000000000000",
                "00000000000000000000000000000000",
                "00000000000000000000000000000000",
                "00000000000000000000000000000000",
                "00000000000000000000000000000000",
                "00000000000000000000000000000000",
                "00000000000000000000000000000000",
                "00000000000000000000000000000000"
              ]
            },
            "plane_coordinate_native": 0.010365301,
            "segment_count": 29
          }
        ]
      },
      "pca_axis_1": {
        "axis": 1,
        "in_plane_axes": [
          0,
          2
        ],
        "slices": [
          {
            "boundary_samples_normalized": [
              [
                -0.4564326,
                0.0319375
              ],
              [
                -0.465992,
                0.0168438
              ],
              [
                -0.4650079,
                0.0119874
              ],
              [
                -0.1971201,
                0.0212813
              ],
              [
                -0.4488529,
                -0.0008742
              ],
              [
                -0.4428489,
                -0.0030263
              ],
              [
                -0.445382,
                -0.0035009
              ],
              [
                -0.447239,
                -0.00398
              ],
              [
                -0.4132109,
                -0.0009258
              ],
              [
                -0.4092603,
                -0.0071192
              ],
              [
                -0.1967822,
                0.0128408
              ],
              [
                -0.3995051,
                -0.0168078
              ],
              [
                -0.3900848,
                -0.0252877
              ],
              [
                -0.2102556,
                -0.0031835
              ],
              [
                -0.3959377,
                -0.0501327
              ],
              [
                -0.3982774,
                -0.0595781
              ],
              [
                -0.2173557,
                -0.0160551
              ],
              [
                -0.415063,
                -0.0808571
              ],
              [
                -0.4048454,
                -0.086886
              ],
              [
                -0.2415357,
                -0.0356188
              ],
              [
                -0.3772109,
                -0.0928728
              ],
              [
                -0.3715703,
                -0.093605
              ],
              [
                -0.3351319,
                -0.0944744
              ],
              [
                -0.3059834,
                -0.0920517
              ],
              [
                -0.3015393,
                -0.0900487
              ],
              [
                0.4603108,
                0.0049323
              ],
              [
                0.4051322,
                0.017889
              ],
              [
                0.4797372,
                0.0186337
              ],
              [
                0.4799329,
                0.0201448
              ],
              [
                0.3846308,
                0.0223954
              ],
              [
                0.3520636,
                0.0345708
              ],
              [
                0.3284361,
                0.0448439
              ],
              [
                0.4615326,
                0.0498443
              ],
              [
                0.3104486,
                0.048173
              ],
              [
                0.2757093,
                0.0556829
              ],
              [
                0.4336055,
                0.0738798
              ],
              [
                0.2631139,
                0.0603403
              ],
              [
                0.4194569,
                0.0912135
              ],
              [
                0.2448395,
                0.069881
              ],
              [
                0.4130732,
                0.0980396
              ],
              [
                0.233427,
                0.0738743
              ],
              [
                0.3882166,
                0.1110426
              ],
              [
                0.2398392,
                0.0911756
              ],
              [
                0.3747443,
                0.1181718
              ],
              [
                0.3537763,
                0.1242133
              ],
              [
                0.3308958,
                0.1277676
              ],
              [
                0.2540703,
                0.1099004
              ],
              [
                0.3208752,
                0.1279557
              ],
              [
                0.2969269,
                0.1240768
              ],
              [
                0.268067,
                0.1173805
              ],
              [
                -0.33532,
                0.1037514
              ],
              [
                -0.3577385,
                0.1090444
              ],
              [
                -0.3710502,
                0.1079732
              ],
              [
                -0.3803747,
                0.1054964
              ],
              [
                -0.3124491,
                0.0885893
              ],
              [
                -0.3012314,
                0.0806831
              ],
              [
                -0.4049572,
                0.0917008
              ],
              [
                -0.4191465,
                0.080237
              ],
              [
                -0.2714731,
                0.0522057
              ],
              [
                -0.2295408,
                0.0337542
              ]
            ],
            "bounds_normalized": {
              "dimensions": [
                0.945924875,
                0.222430144
              ],
              "max": [
                0.479932886,
                0.127955742
              ],
              "min": [
                -0.465991989,
                -0.094474402
              ]
            },
            "centroid_normalized": [
              -0.062714081,
              0.032124388
            ],
            "fraction": 0.1,
            "mask": {
              "encoding": "rows_top_to_bottom_1bit_text",
              "occupied_bbox_pixels": [
                2,
                13,
                29,
                19
              ],
              "occupied_fraction": 0.061523438,
              "occupied_pixel_count": 63,
              "origin": "bottom_left",
              "resolution": [
                32,
                32
              ],
              "rows": [
                "00000000000000000000000000000000",
                "00000000000000000000000000000000",
                "00000000000000000000000000000000",
                "00000000000000000000000000000000",
                "00000000000000000000000000000000",
                "00000000000000000000000000000000",
                "00000000000000000000000000000000",
                "00000000000000000000000000000000",
                "00000000000000000000000000000000",
                "00000000000000000000000000000000",
                "00000000000000000000000000000000",
                "00000000000000000000000000000000",
                "00000100000000000000000111100000",
                "00001111000000000000001111111000",
                "00011111100000000000001111111100",
                "00111111111000000000000001111100",
                "00011111111000000000000000000000",
                "00001111110000000000000000000000",
                "00001111100000000000000000000000",
                "00000000000000000000000000000000",
                "00000000000000000000000000000000",
                "00000000000000000000000000000000",
                "00000000000000000000000000000000",
                "00000000000000000000000000000000",
                "00000000000000000000000000000000",
                "00000000000000000000000000000000",
                "00000000000000000000000000000000",
                "00000000000000000000000000000000",
                "00000000000000000000000000000000",
                "00000000000000000000000000000000",
                "00000000000000000000000000000000",
                "00000000000000000000000000000000"
              ]
            },
            "plane_coordinate_native": -0.004070931,
            "segment_count": 60
          },
          {
            "boundary_samples_normalized": [
              [
                -0.289797,
                0.0345521
              ],
              [
                -0.3878208,
                0.0276204
              ],
              [
                -0.4828786,
                0.0122967
              ],
              [
                -0.2955911,
                0.0231458
              ],
              [
                -0.4009814,
                0.0139633
              ],
              [
                -0.4862613,
                0.0007658
              ],
              [
                -0.316068,
                0.0060165
              ],
              [
                -0.4166534,
                -0.0073145
              ],
              [
                -0.4875728,
                -0.0168139
              ],
              [
                -0.4115737,
                -0.0131762
              ],
              [
                -0.4828135,
                -0.0291174
              ],
              [
                -0.3361997,
                -0.0075562
              ],
              [
                -0.4690061,
                -0.038782
              ],
              [
                -0.4026281,
                -0.0267914
              ],
              [
                -0.3789249,
                -0.0332166
              ],
              [
                -0.3707992,
                -0.0338812
              ],
              [
                -0.3562433,
                -0.0318102
              ],
              [
                -0.4289335,
                -0.0785643
              ],
              [
                -0.4081008,
                -0.0919534
              ],
              [
                -0.3781745,
                -0.1050232
              ],
              [
                -0.3501095,
                -0.1257229
              ],
              [
                -0.3473149,
                -0.1271132
              ],
              [
                -0.2956205,
                -0.1334461
              ],
              [
                -0.2601948,
                -0.1323161
              ],
              [
                -0.2091154,
                -0.1107264
              ],
              [
                -0.182688,
                -0.0911177
              ],
              [
                -0.1467958,
                -0.0673663
              ],
              [
                -0.1236183,
                -0.0554385
              ],
              [
                -0.1089246,
                -0.0430703
              ],
              [
                -0.0786434,
                -0.0162334
              ],
              [
                -0.0495873,
                -0.0083131
              ],
              [
                0.007747,
                0.0022331
              ],
              [
                0.0737723,
                0.0086155
              ],
              [
                0.4642997,
                -0.0601143
              ],
              [
                0.4799052,
                -0.0583229
              ],
              [
                0.4402379,
                -0.0511058
              ],
              [
                0.4250911,
                -0.0478217
              ],
              [
                0.4057764,
                -0.0387465
              ],
              [
                0.3387385,
                -0.0261178
              ],
              [
                0.3726566,
                -0.0312752
              ],
              [
                0.0885329,
                0.0143793
              ],
              [
                0.323966,
                -0.0211776
              ],
              [
                0.4951803,
                -0.0400537
              ],
              [
                0.2900118,
                -0.0102832
              ],
              [
                0.2890169,
                -0.0097949
              ],
              [
                0.119735,
                0.0152098
              ],
              [
                0.2496446,
                -8.62e-05
              ],
              [
                0.2280228,
                0.0045704
              ],
              [
                0.146334,
                0.017039
              ],
              [
                0.1799647,
                0.0156589
              ],
              [
                0.4878624,
                -0.0100818
              ],
              [
                0.4797257,
                0.0047865
              ],
              [
                0.4493245,
                0.0559939
              ],
              [
                0.4301751,
                0.0869553
              ],
              [
                0.4128987,
                0.1025389
              ],
              [
                0.4003636,
                0.1076069
              ],
              [
                0.3942112,
                0.1146781
              ],
              [
                0.3647086,
                0.1442948
              ],
              [
                0.3553505,
                0.1496003
              ],
              [
                0.341055,
                0.1552425
              ],
              [
                0.3102458,
                0.164226
              ],
              [
                0.2783766,
                0.1662438
              ],
              [
                0.2697072,
                0.1702709
              ],
              [
                0.1908219,
                0.1845719
              ],
              [
                0.1508441,
                0.1747082
              ],
              [
                0.1393244,
                0.1711236
              ],
              [
                0.1027874,
                0.1655911
              ],
              [
                0.0485144,
                0.1561837
              ],
              [
                0.0448619,
                0.1559154
              ],
              [
                0.0423263,
                0.1544417
              ],
              [
                -0.0042089,
                0.1029678
              ],
              [
                0.0401434,
                0.1536051
              ],
              [
                0.0101264,
                0.1200098
              ],
              [
                -0.0285105,
                0.0993348
              ],
              [
                -0.0946284,
                0.0979347
              ],
              [
                -0.1240473,
                0.0972033
              ],
              [
                -0.1418667,
                0.101968
              ],
              [
                -0.1644209,
                0.1126018
              ],
              [
                -0.1988728,
                0.1264389
              ],
              [
                -0.24227,
                0.1478032
              ],
              [
                -0.3335137,
                0.1770516
              ],
              [
                -0.3348437,
                0.1772304
              ],
              [
                -0.3998137,
                0.1704467
              ],
              [
                -0.4075672,
                0.1668106
              ],
              [
                -0.4191733,
                0.155036
              ],
              [
                -0.4441144,
                0.1069287
              ],
              [
                -0.4487751,
                0.1026086
              ],
              [
                -0.4511616,
                0.097302
              ],
              [
                -0.4541857,
                0.0932821
              ],
              [
                -0.3182664,
                0.0592911
              ],
              [
                -0.2945585,
                0.0564417
              ],
              [
                -0.3467109,
                0.0529307
              ],
              [
                -0.4680053,
                0.054345
              ],
              [
                -0.2854717,
                0.0469743
              ],
              [
                -0.3529246,
                0.0495926
              ],
              [
                -0.3541915,
                0.0477216
              ]
            ],
            "bounds_normalized": {
              "dimensions": [
                0.982753127,
                0.318305998
              ],
              "max": [
                0.495180323,
                0.18457185
              ],
              "min": [
                -0.487572804,
                -0.133734147
              ]
            },
            "centroid_normalized": [
              -0.06245617,
              0.038071191
            ],
            "fraction": 0.25,
            "mask": {
              "encoding": "rows_top_to_bottom_1bit_text",
              "occupied_bbox_pixels": [
                2,
                12,
                29,
                21
              ],
              "occupied_fraction": 0.165039062,
              "occupied_pixel_count": 169,
              "origin": "bottom_left",
              "resolution": [
                32,
                32
              ],
              "rows": [
                "00000000000000000000000000000000",
                "00000000000000000000000000000000",
                "00000000000000000000000000000000",
                "00000000000000000000000000000000",
                "00000000000000000000000000000000",
                "00000000000000000000000000000000",
                "00000000000000000000000000000000",
                "00000000000000000000000000000000",
                "00000000000000000000000000000000",
                "00000000000000000000000000000000",
                "00000000000000000000111000000000",
                "00001111110000000111111111100000",
                "00011111111100001111111111110000",
                "00011111111011111111111111111000",
                "00111111111111111111111111111000",
                "00111101111111111111111111111100",
                "00111111111111110000000111111100",
                "00111111111110000000000000011100",
                "00011111111100000000000000000000",
                "00000111111000000000000000000000",
                "00000000000000000000000000000000",
                "00000000000000000000000000000000",
                "00000000000000000000000000000000",
                "00000000000000000000000000000000",
                "00000000000000000000000000000000",
                "00000000000000000000000000000000",
                "00000000000000000000000000000000",
                "00000000000000000000000000000000",
                "00000000000000000000000000000000",
                "00000000000000000000000000000000",
                "00000000000000000000000000000000",
                "00000000000000000000000000000000"
              ]
            },
            "plane_coordinate_native": -0.002403351,
            "segment_count": 113
          },
          {
            "boundary_samples_normalized": [
              [
                -0.4369784,
                0.0052241
              ],
              [
                -0.4334467,
                -0.0075354
              ],
              [
                -0.4059382,
                -0.0368221
              ],
              [
                -0.3933311,
                -0.0460716
              ],
              [
                -0.3467738,
                -0.0775789
              ],
              [
                -0.2877689,
                -0.1164956
              ],
              [
                -0.2763365,
                -0.1229296
              ],
              [
                -0.256133,
                -0.1332666
              ],
              [
                -0.2247187,
                -0.1475259
              ],
              [
                -0.1772146,
                -0.1728308
              ],
              [
                -0.1496697,
                -0.1869435
              ],
              [
                -0.0970317,
                -0.2051709
              ],
              [
                -0.0906815,
                -0.2055449
              ],
              [
                -0.0880861,
                -0.2061886
              ],
              [
                -0.0374347,
                -0.1822084
              ],
              [
                -0.010941,
                -0.177873
              ],
              [
                0.0224246,
                -0.1643022
              ],
              [
                0.0432012,
                -0.1636782
              ],
              [
                0.0817978,
                -0.1589472
              ],
              [
                0.1678133,
                -0.1511339
              ],
              [
                0.1692198,
                -0.1510668
              ],
              [
                0.1754109,
                -0.1504914
              ],
              [
                0.184595,
                -0.1495856
              ],
              [
                0.2003988,
                -0.1479665
              ],
              [
                0.2545578,
                -0.1363467
              ],
              [
                0.2966298,
                -0.1275355
              ],
              [
                0.3005982,
                -0.1260557
              ],
              [
                0.3083653,
                -0.1228965
              ],
              [
                0.3129944,
                -0.1188156
              ],
              [
                0.3271971,
                -0.1122022
              ],
              [
                0.33091,
                -0.1096492
              ],
              [
                0.3314545,
                -0.1095887
              ],
              [
                0.3320993,
                -0.1094488
              ],
              [
                0.3345319,
                -0.1075674
              ],
              [
                0.3596495,
                -0.0859366
              ],
              [
                0.3665526,
                -0.0777365
              ],
              [
                0.3718312,
                -0.0710997
              ],
              [
                0.3757526,
                -0.0645414
              ],
              [
                0.3850037,
                -0.0348151
              ],
              [
                0.3967118,
                0.0184344
              ],
              [
                0.397193,
                0.0229415
              ],
              [
                0.3757395,
                0.0795782
              ],
              [
                0.3714229,
                0.0873877
              ],
              [
                0.3667422,
                0.0941019
              ],
              [
                0.3455074,
                0.1076889
              ],
              [
                0.3402614,
                0.1102091
              ],
              [
                0.316966,
                0.1356259
              ],
              [
                0.3029526,
                0.1466097
              ],
              [
                0.2987621,
                0.147859
              ],
              [
                0.2856559,
                0.1571578
              ],
              [
                0.2353533,
                0.1896693
              ],
              [
                0.2233369,
                0.1914247
              ],
              [
                0.1743346,
                0.2055139
              ],
              [
                0.1275289,
                0.2063869
              ],
              [
                0.1179249,
                0.205747
              ],
              [
                0.1121566,
                0.2054471
              ],
              [
                0.0496136,
                0.1920293
              ],
              [
                0.025953,
                0.1850133
              ],
              [
                -0.020527,
                0.1784096
              ],
              [
                -0.0605757,
                0.1776867
              ],
              [
                -0.0829524,
                0.1808601
              ],
              [
                -0.0929208,
                0.1771099
              ],
              [
                -0.1085097,
                0.174499
              ],
              [
                -0.1155649,
                0.1579598
              ],
              [
                -0.1329757,
                0.13698
              ],
              [
                -0.1491959,
                0.1306898
              ],
              [
                -0.2630097,
                0.1814276
              ],
              [
                -0.244598,
                0.1696574
              ],
              [
                -0.2660293,
                0.1818134
              ],
              [
                -0.2609566,
                0.176074
              ],
              [
                -0.2733922,
                0.1811142
              ],
              [
                -0.1682959,
                0.1193615
              ],
              [
                -0.2487013,
                0.1565343
              ],
              [
                -0.3180103,
                0.1761186
              ],
              [
                -0.2466631,
                0.1371115
              ],
              [
                -0.2065012,
                0.1079076
              ],
              [
                -0.3579344,
                0.1649289
              ],
              [
                -0.2508631,
                0.1189013
              ],
              [
                -0.2249176,
                0.108099
              ],
              [
                -0.2195187,
                0.1054526
              ],
              [
                -0.372167,
                0.1587073
              ],
              [
                -0.3935363,
                0.1399484
              ],
              [
                -0.3949541,
                0.1381562
              ],
              [
                -0.396169,
                0.1362653
              ],
              [
                -0.4194073,
                0.1125592
              ],
              [
                -0.4203565,
                0.109663
              ],
              [
                -0.4319931,
                0.0814303
              ],
              [
                -0.4377858,
                0.028779
              ]
            ],
            "bounds_normalized": {
              "dimensions": [
                0.834978751,
                0.41257547
              ],
              "max": [
                0.397192983,
                0.206386878
              ],
              "min": [
                -0.437785768,
                -0.206188592
              ]
            },
            "centroid_normalized": [
              -0.004481381,
              0.025248432
            ],
            "fraction": 0.5,
            "mask": {
              "encoding": "rows_top_to_bottom_1bit_text",
              "occupied_bbox_pixels": [
                3,
                10,
                27,
                21
              ],
              "occupied_fraction": 0.2265625,
              "occupied_pixel_count": 232,
              "origin": "bottom_left",
              "resolution": [
                32,
                32
              ],
              "rows": [
                "00000000000000000000000000000000",
                "00000000000000000000000000000000",
                "00000000000000000000000000000000",
                "00000000000000000000000000000000",
                "00000000000000000000000000000000",
                "00000000000000000000000000000000",
                "00000000000000000000000000000000",
                "00000000000000000000000000000000",
                "00000000000000000000000000000000",
                "00000000000000000000000000000000",
                "00000001100001111111111100000000",
                "00000111110011111111111110000000",
                "00001111111111111111111111000000",
                "00011111111111111111111110100000",
                "00011111111111111111111111100000",
                "00011111111111111111111111110000",
                "00011111111111111111111111100000",
                "00001111111111111111111111100000",
                "00000111111111111111111111100000",
                "00000001111111111111111111000000",
                "00000000011111111111111000000000",
                "00000000000111110000000000000000",
                "00000000000000000000000000000000",
                "00000000000000000000000000000000",
                "00000000000000000000000000000000",
                "00000000000000000000000000000000",
                "00000000000000000000000000000000",
                "00000000000000000000000000000000",
                "00000000000000000000000000000000",
                "00000000000000000000000000000000",
                "00000000000000000000000000000000",
                "00000000000000000000000000000000"
              ]
            },
            "plane_coordinate_native": 0.00037595,
            "segment_count": 88
          },
          {
            "boundary_samples_normalized": [
              [
                -0.3413843,
                0.0112521
              ],
              [
                -0.3360989,
                0.0060991
              ],
              [
                -0.3320102,
                0.0031136
              ],
              [
                -0.2518231,
                -0.0545639
              ],
              [
                -0.2028517,
                -0.0895
              ],
              [
                -0.1640512,
                -0.1050184
              ],
              [
                -0.1207395,
                -0.1171856
              ],
              [
                -0.0937406,
                -0.1204359
              ],
              [
                -0.0516901,
                -0.1319803
              ],
              [
                -0.0280577,
                -0.1395194
              ],
              [
                -0.0082411,
                -0.1435327
              ],
              [
                0.0280855,
                -0.1482193
              ],
              [
                0.0598652,
                -0.1489672
              ],
              [
                0.0661228,
                -0.1485943
              ],
              [
                0.0719504,
                -0.1491617
              ],
              [
                0.084761,
                -0.1455562
              ],
              [
                0.0949474,
                -0.1391175
              ],
              [
                0.1329382,
                -0.1147046
              ],
              [
                0.1780385,
                -0.0827131
              ],
              [
                0.1892402,
                -0.0693878
              ],
              [
                0.2185316,
                -0.0383727
              ],
              [
                0.2193137,
                -0.0362522
              ],
              [
                0.2384008,
                0.06207
              ],
              [
                0.2406155,
                0.1004372
              ],
              [
                0.2341535,
                0.1126387
              ],
              [
                0.2223905,
                0.1206502
              ],
              [
                0.1757717,
                0.1544624
              ],
              [
                0.1555682,
                0.16726
              ],
              [
                0.149429,
                0.1696062
              ],
              [
                0.1434448,
                0.1701289
              ],
              [
                0.0573279,
                0.1744707
              ],
              [
                0.0310332,
                0.1809013
              ],
              [
                0.0102129,
                0.1818219
              ],
              [
                -0.0180414,
                0.1822251
              ],
              [
                -0.0341414,
                0.1781157
              ],
              [
                -0.0945793,
                0.1746971
              ],
              [
                -0.0967609,
                0.1744363
              ],
              [
                -0.1285947,
                0.1708671
              ],
              [
                -0.1352455,
                0.1716788
              ],
              [
                -0.1954066,
                0.1729806
              ],
              [
                -0.2408947,
                0.169716
              ],
              [
                -0.2528789,
                0.1701452
              ],
              [
                -0.2675832,
                0.1690144
              ],
              [
                -0.3181747,
                0.1601452
              ],
              [
                -0.3190412,
                0.1596938
              ],
              [
                -0.3241303,
                0.1573513
              ],
              [
                -0.3429022,
                0.1469408
              ],
              [
                -0.3771274,
                0.0955668
              ],
              [
                -0.3775275,
                0.0805177
              ],
              [
                -0.3750548,
                0.0560103
              ]
            ],
            "bounds_normalized": {
              "dimensions": [
                0.618142997,
                0.331386788
              ],
              "max": [
                0.240615525,
                0.182225073
              ],
              "min": [
                -0.377527472,
                -0.149161715
              ]
            },
            "centroid_normalized": [
              -0.056532616,
              0.041644637
            ],
            "fraction": 0.75,
            "mask": {
              "encoding": "rows_top_to_bottom_1bit_text",
              "occupied_bbox_pixels": [
                5,
                11,
                22,
                21
              ],
              "occupied_fraction": 0.14453125,
              "occupied_pixel_count": 148,
              "origin": "bottom_left",
              "resolution": [
                32,
                32
              ],
              "rows": [
                "00000000000000000000000000000000",
                "00000000000000000000000000000000",
                "00000000000000000000000000000000",
                "00000000000000000000000000000000",
                "00000000000000000000000000000000",
                "00000000000000000000000000000000",
                "00000000000000000000000000000000",
                "00000000000000000000000000000000",
                "00000000000000000000000000000000",
                "00000000000000000000000000000000",
                "00000000000000011100000000000000",
                "00000011111111111111100000000000",
                "00000111111111111111111000000000",
                "00000111111111111111111000000000",
                "00000111111111111111111000000000",
                "00000111111111111111111000000000",
                "00000011111111111111111000000000",
                "00000000111111111111111000000000",
                "00000000011111111111110000000000",
                "00000000000111111111000000000000",
                "00000000000000011110000000000000",
                "00000000000000000000000000000000",
                "00000000000000000000000000000000",
                "00000000000000000000000000000000",
                "00000000000000000000000000000000",
                "00000000000000000000000000000000",
                "00000000000000000000000000000000",
                "00000000000000000000000000000000",
                "00000000000000000000000000000000",
                "00000000000000000000000000000000",
                "00000000000000000000000000000000",
                "00000000000000000000000000000000"
              ]
            },
            "plane_coordinate_native": 0.00315525,
            "segment_count": 50
          },
          {
            "boundary_samples_normalized": [
              [
                -0.3062394,
                0.0722968
              ],
              [
                -0.2765686,
                0.0335724
              ],
              [
                -0.2592933,
                0.0219171
              ],
              [
                -0.2521317,
                0.0115512
              ],
              [
                -0.2051644,
                -0.0205793
              ],
              [
                -0.1281514,
                -0.0431066
              ],
              [
                -0.1193048,
                -0.0443133
              ],
              [
                -0.0969325,
                -0.0439288
              ],
              [
                -0.062351,
                -0.0391796
              ],
              [
                -0.0516693,
                -0.043865
              ],
              [
                -0.0422673,
                -0.0460367
              ],
              [
                0.0013577,
                -0.0460448
              ],
              [
                0.0114264,
                -0.0430509
              ],
              [
                0.0299186,
                -0.0234206
              ],
              [
                0.0995469,
                0.0499004
              ],
              [
                0.0985974,
                0.0698582
              ],
              [
                0.0854509,
                0.1010942
              ],
              [
                0.0543613,
                0.1220935
              ],
              [
                0.0273756,
                0.1357489
              ],
              [
                0.0258121,
                0.1363464
              ],
              [
                0.0231593,
                0.1365781
              ],
              [
                0.0198468,
                0.1373845
              ],
              [
                0.0173789,
                0.1383501
              ],
              [
                -0.0076118,
                0.1352834
              ],
              [
                -0.0202363,
                0.1441168
              ],
              [
                -0.0334266,
                0.1498431
              ],
              [
                -0.0536097,
                0.152533
              ],
              [
                -0.0775611,
                0.1543214
              ],
              [
                -0.1412316,
                0.1567256
              ],
              [
                -0.1512131,
                0.1573205
              ],
              [
                -0.2074591,
                0.1604641
              ],
              [
                -0.2098532,
                0.1599778
              ],
              [
                -0.2426163,
                0.1519574
              ],
              [
                -0.2603461,
                0.144111
              ],
              [
                -0.2800331,
                0.1268629
              ],
              [
                -0.297867,
                0.1100372
              ],
              [
                -0.307493,
                0.0889978
              ]
            ],
            "bounds_normalized": {
              "dimensions": [
                0.407039895,
                0.206508933
              ],
              "max": [
                0.099546925,
                0.160464139
              ],
              "min": [
                -0.30749297,
                -0.046044794
              ]
            },
            "centroid_normalized": [
              -0.097199995,
              0.074749138
            ],
            "fraction": 0.9,
            "mask": {
              "encoding": "rows_top_to_bottom_1bit_text",
              "occupied_bbox_pixels": [
                7,
                14,
                18,
                20
              ],
              "occupied_fraction": 0.067382812,
              "occupied_pixel_count": 69,
              "origin": "bottom_left",
              "resolution": [
                32,
                32
              ],
              "rows": [
                "00000000000000000000000000000000",
                "00000000000000000000000000000000",
                "00000000000000000000000000000000",
                "00000000000000000000000000000000",
                "00000000000000000000000000000000",
                "00000000000000000000000000000000",
                "00000000000000000000000000000000",
                "00000000000000000000000000000000",
                "00000000000000000000000000000000",
                "00000000000000000000000000000000",
                "00000000000000000000000000000000",
                "00000000111111110000000000000000",
                "00000001111111111100000000000000",
                "00000001111111111110000000000000",
                "00000001111111111110000000000000",
                "00000000111111111110000000000000",
                "00000000011111111100000000000000",
                "00000000000111111000000000000000",
                "00000000000000000000000000000000",
                "00000000000000000000000000000000",
                "00000000000000000000000000000000",
                "00000000000000000000000000000000",
                "00000000000000000000000000000000",
                "00000000000000000000000000000000",
                "00000000000000000000000000000000",
                "00000000000000000000000000000000",
                "00000000000000000000000000000000",
                "00000000000000000000000000000000",
                "00000000000000000000000000000000",
                "00000000000000000000000000000000",
                "00000000000000000000000000000000",
                "00000000000000000000000000000000"
              ]
            },
            "plane_coordinate_native": 0.004822831,
            "segment_count": 37
          }
        ]
      },
      "pca_axis_2": {
        "axis": 2,
        "in_plane_axes": [
          0,
          1
        ],
        "slices": [
          {
            "boundary_samples_normalized": [
              [
                -0.1679184,
                0.0233881
              ],
              [
                -0.1692754,
                0.0209778
              ],
              [
                -0.2056362,
                -0.0207884
              ],
              [
                -0.2098061,
                -0.0289144
              ],
              [
                -0.2120289,
                -0.0396137
              ],
              [
                -0.2086356,
                -0.0595085
              ],
              [
                -0.1790689,
                -0.0623769
              ],
              [
                -0.1409845,
                -0.046299
              ],
              [
                -0.1086037,
                -0.038787
              ],
              [
                -0.0550659,
                -0.0195567
              ],
              [
                -0.0505438,
                -0.0177538
              ],
              [
                -0.0450662,
                -0.016819
              ],
              [
                0.0237212,
                0.0024495
              ],
              [
                0.0505754,
                0.0030934
              ],
              [
                0.086538,
                0.0060856
              ],
              [
                0.1535088,
                0.0102853
              ],
              [
                0.1671852,
                0.0141485
              ],
              [
                0.1937841,
                0.0203612
              ],
              [
                0.1953052,
                0.0283507
              ],
              [
                0.1939434,
                0.0384796
              ],
              [
                0.1789546,
                0.0556774
              ],
              [
                0.1659273,
                0.0589103
              ],
              [
                0.1349228,
                0.0656551
              ],
              [
                0.1154321,
                0.0786152
              ],
              [
                0.0930271,
                0.0925773
              ],
              [
                0.0734327,
                0.0986368
              ],
              [
                0.0567039,
                0.0967913
              ],
              [
                0.0397772,
                0.0980272
              ],
              [
                0.0192519,
                0.0974878
              ],
              [
                -0.0351815,
                0.0900076
              ],
              [
                -0.0525219,
                0.0840223
              ],
              [
                -0.1105279,
                0.0622647
              ],
              [
                -0.1454393,
                0.04006
              ],
              [
                -0.1562377,
                0.0360153
              ]
            ],
            "bounds_normalized": {
              "dimensions": [
                0.407334032,
                0.16101366
              ],
              "max": [
                0.195305168,
                0.098636799
              ],
              "min": [
                -0.212028864,
                -0.062376861
              ]
            },
            "centroid_normalized": [
              -0.009133851,
              0.025645606
            ],
            "fraction": 0.1,
            "mask": {
              "encoding": "rows_top_to_bottom_1bit_text",
              "occupied_bbox_pixels": [
                10,
                14,
                21,
                18
              ],
              "occupied_fraction": 0.0390625,
              "occupied_pixel_count": 40,
              "origin": "bottom_left",
              "resolution": [
                32,
                32
              ],
              "rows": [
                "00000000000000000000000000000000",
                "00000000000000000000000000000000",
                "00000000000000000000000000000000",
                "00000000000000000000000000000000",
                "00000000000000000000000000000000",
                "00000000000000000000000000000000",
                "00000000000000000000000000000000",
                "00000000000000000000000000000000",
                "00000000000000000000000000000000",
                "00000000000000000000000000000000",
                "00000000000000000000000000000000",
                "00000000000000000000000000000000",
                "00000000000000000000000000000000",
                "00000000000001111111000000000000",
                "00000000000111111111110000000000",
                "00000000001111111111110000000000",
                "00000000001111111000000000000000",
                "00000000001110000000000000000000",
                "00000000000000000000000000000000",
                "00000000000000000000000000000000",
                "00000000000000000000000000000000",
                "00000000000000000000000000000000",
                "00000000000000000000000000000000",
                "00000000000000000000000000000000",
                "00000000000000000000000000000000",
                "00000000000000000000000000000000",
                "00000000000000000000000000000000",
                "00000000000000000000000000000000",
                "00000000000000000000000000000000",
                "00000000000000000000000000000000",
                "00000000000000000000000000000000",
                "00000000000000000000000000000000"
              ]
            },
            "plane_coordinate_native": -0.004579104,
            "segment_count": 34
          },
          {
            "boundary_samples_normalized": [
              [
                -0.3135843,
                -0.0110236
              ],
              [
                -0.3412617,
                -0.040386
              ],
              [
                -0.3443802,
                -0.0444005
              ],
              [
                -0.3507873,
                -0.0554255
              ],
              [
                -0.3781933,
                -0.1043975
              ],
              [
                -0.378731,
                -0.1180107
              ],
              [
                -0.3849557,
                -0.1324138
              ],
              [
                -0.3853131,
                -0.1478529
              ],
              [
                -0.377786,
                -0.1663697
              ],
              [
                -0.355513,
                -0.1722888
              ],
              [
                -0.3370764,
                -0.1730448
              ],
              [
                -0.3207341,
                -0.1706616
              ],
              [
                -0.2715813,
                -0.1516996
              ],
              [
                -0.2871695,
                -0.1643176
              ],
              [
                -0.2452744,
                -0.1391729
              ],
              [
                -0.1536163,
                -0.0976886
              ],
              [
                -0.1040986,
                -0.08116
              ],
              [
                -0.0692313,
                -0.0664422
              ],
              [
                -0.0514469,
                -0.063381
              ],
              [
                -0.013454,
                -0.0513519
              ],
              [
                0.0358572,
                -0.0407245
              ],
              [
                0.0510618,
                -0.0394594
              ],
              [
                0.0735378,
                -0.0380499
              ],
              [
                0.089545,
                -0.0374807
              ],
              [
                0.1562849,
                -0.0331664
              ],
              [
                0.232685,
                -0.027938
              ],
              [
                0.3225406,
                -0.0215203
              ],
              [
                0.3264666,
                -0.0204651
              ],
              [
                0.3289773,
                -0.0161152
              ],
              [
                0.3394067,
                -0.0125797
              ],
              [
                0.3446343,
                -0.0082318
              ],
              [
                0.3391014,
                -0.0009358
              ],
              [
                0.3240684,
                0.0118181
              ],
              [
                0.3196929,
                0.0144709
              ],
              [
                0.3173793,
                0.0180149
              ],
              [
                0.2245997,
                0.0809153
              ],
              [
                0.1963531,
                0.0962956
              ],
              [
                0.1923894,
                0.0980859
              ],
              [
                0.1590265,
                0.1140987
              ],
              [
                0.1056154,
                0.1365188
              ],
              [
                0.0605737,
                0.1555874
              ],
              [
                0.0553342,
                0.1572532
              ],
              [
                0.0343138,
                0.1600389
              ],
              [
                0.0260918,
                0.1600381
              ],
              [
                -0.013867,
                0.1534631
              ],
              [
                -0.0173067,
                0.1521971
              ],
              [
                -0.0409764,
                0.1465387
              ],
              [
                -0.0600324,
                0.1411179
              ],
              [
                -0.0690717,
                0.1389376
              ],
              [
                -0.1230533,
                0.132075
              ],
              [
                -0.1635017,
                0.1197026
              ],
              [
                -0.1971296,
                0.1065183
              ],
              [
                -0.2496264,
                0.0638202
              ],
              [
                -0.2961712,
                0.0137367
              ]
            ],
            "bounds_normalized": {
              "dimensions": [
                0.729947447,
                0.333083653
              ],
              "max": [
                0.344634329,
                0.160038873
              ],
              "min": [
                -0.385313117,
                -0.17304478
              ]
            },
            "centroid_normalized": [
              -0.037766444,
              -0.001424319
            ],
            "fraction": 0.25,
            "mask": {
              "encoding": "rows_top_to_bottom_1bit_text",
              "occupied_bbox_pixels": [
                5,
                11,
                25,
                20
              ],
              "occupied_fraction": 0.116210938,
              "occupied_pixel_count": 119,
              "origin": "bottom_left",
              "resolution": [
                32,
                32
              ],
              "rows": [
                "00000000000000000000000000000000",
                "00000000000000000000000000000000",
                "00000000000000000000000000000000",
                "00000000000000000000000000000000",
                "00000000000000000000000000000000",
                "00000000000000000000000000000000",
                "00000000000000000000000000000000",
                "00000000000000000000000000000000",
                "00000000000000000000000000000000",
                "00000000000000000000000000000000",
                "00000000000000000000000000000000",
                "00000000000000111110000000000000",
                "00000000001111111111100000000000",
                "00000000011111111111111000000000",
                "00000000111111111111111100000000",
                "00000001111111111111111111000000",
                "00000011111111111111111111000000",
                "00000011111111111111000000000000",
                "00000111111111000000000000000000",
                "00000111111100000000000000000000",
                "00000111100000000000000000000000",
                "00000000000000000000000000000000",
                "00000000000000000000000000000000",
                "00000000000000000000000000000000",
                "00000000000000000000000000000000",
                "00000000000000000000000000000000",
                "00000000000000000000000000000000",
                "00000000000000000000000000000000",
                "00000000000000000000000000000000",
                "00000000000000000000000000000000",
                "00000000000000000000000000000000",
                "00000000000000000000000000000000"
              ]
            },
            "plane_coordinate_native": -0.003114297,
            "segment_count": 54
          },
          {
            "boundary_samples_normalized": [
              [
                -0.3263815,
                -0.0743837
              ],
              [
                -0.333408,
                -0.075483
              ],
              [
                -0.4756644,
                -0.083081
              ],
              [
                -0.4782143,
                -0.0880637
              ],
              [
                -0.3163262,
                -0.078388
              ],
              [
                -0.3723562,
                -0.089842
              ],
              [
                -0.3751986,
                -0.0928094
              ],
              [
                -0.3894621,
                -0.0999509
              ],
              [
                -0.3086618,
                -0.0927106
              ],
              [
                -0.4051523,
                -0.1096952
              ],
              [
                -0.4077451,
                -0.1110561
              ],
              [
                -0.4887031,
                -0.1281803
              ],
              [
                -0.4912737,
                -0.1390405
              ],
              [
                -0.4913753,
                -0.1403934
              ],
              [
                -0.4925663,
                -0.1711224
              ],
              [
                -0.3303182,
                -0.1276534
              ],
              [
                -0.4261874,
                -0.1559103
              ],
              [
                -0.3303775,
                -0.1290598
              ],
              [
                -0.4281621,
                -0.1571872
              ],
              [
                -0.3309345,
                -0.1308288
              ],
              [
                -0.4834371,
                -0.1775227
              ],
              [
                -0.4771044,
                -0.1851375
              ],
              [
                -0.4135614,
                -0.1755687
              ],
              [
                -0.450288,
                -0.1903062
              ],
              [
                -0.3831878,
                -0.1683918
              ],
              [
                -0.3566417,
                -0.159182
              ],
              [
                -0.3603117,
                -0.1629273
              ],
              [
                -0.4084389,
                -0.1820846
              ],
              [
                -0.4250317,
                -0.2044726
              ],
              [
                -0.4207699,
                -0.2060591
              ],
              [
                -0.3935169,
                -0.2154024
              ],
              [
                -0.3781096,
                -0.2178976
              ],
              [
                -0.3690614,
                -0.2171218
              ],
              [
                -0.3079388,
                -0.2198701
              ],
              [
                -0.2938567,
                -0.2164905
              ],
              [
                -0.2645226,
                -0.2121458
              ],
              [
                -0.2114154,
                -0.1919414
              ],
              [
                -0.1455741,
                -0.1671225
              ],
              [
                -0.1398679,
                -0.1643917
              ],
              [
                -0.1356238,
                -0.161777
              ],
              [
                -0.1002243,
                -0.1401715
              ],
              [
                -0.07497,
                -0.1337239
              ],
              [
                -0.0511189,
                -0.12408
              ],
              [
                -0.0376063,
                -0.1242819
              ],
              [
                0.0052531,
                -0.1175428
              ],
              [
                0.0913852,
                -0.1112031
              ],
              [
                0.1040414,
                -0.108697
              ],
              [
                0.4648788,
                -0.186126
              ],
              [
                0.3701085,
                -0.1609347
              ],
              [
                0.1188969,
                -0.10842
              ],
              [
                0.3182729,
                -0.1477715
              ],
              [
                0.3127577,
                -0.145024
              ],
              [
                0.4887117,
                -0.1782626
              ],
              [
                0.3017735,
                -0.1398192
              ],
              [
                0.4891142,
                -0.1675229
              ],
              [
                0.2840611,
