{
  "bounds": {
    "center": [
      0.019941797,
      0.222876638,
      -0.010995679
    ],
    "diagonal": 0.023188219,
    "dimensions": [
      0.018401337,
      0.007672071,
      0.011841606
    ],
    "max": [
      0.029142465,
      0.226712674,
      -0.005074875
    ],
    "min": [
      0.010741129,
      0.219040602,
      -0.016916482
    ]
  },
  "centroids": {
    "surface_area_weighted": [
      0.019634374,
      0.222816364,
      -0.011378744
    ],
    "vertex_mean": [
      0.019578872,
      0.222648145,
      -0.011597117
    ],
    "volume_if_watertight": null
  },
  "cleaning": {
    "degenerate_faces_removed": 0,
    "unused_vertices_removed": 0,
    "vertices_welded": 0,
    "weld_tolerance": 0.0
  },
  "counts": {
    "analyzed_face_count": 131485,
    "analyzed_vertex_count": 63986,
    "source_face_count": 131485,
    "source_vertex_count": 63986
  },
  "mesh_name": "Yao_blood_vasculature",
  "pca": {
    "basis": "exact_uniform_surface_moments",
    "eigenvalues": [
      2.0159e-05,
      6.242e-06,
      2.354e-06
    ],
    "oriented_bounds": {
      "center": [
        0.000368531,
        0.000235201,
        -0.000245874
      ],
      "dimensions": [
        0.018512468,
        0.011581656,
        0.007821378
      ],
      "max": [
        0.009624765,
        0.006026029,
        0.003664815
      ],
      "min": [
        -0.008887703,
        -0.005555627,
        -0.004156563
      ]
    },
    "principal_axes_world": [
      [
        0.990170954,
        0.135450198,
        0.034852921
      ],
      [
        -0.024927195,
        -0.074297043,
        0.996924563
      ],
      [
        0.137623098,
        -0.987994531,
        -0.07019038
      ]
    ]
  },
  "sampling": {
    "cross_sections_pca": {
      "pca_axis_0": {
        "axis": 0,
        "in_plane_axes": [
          1,
          2
        ],
        "slices": [
          {
            "boundary_samples_normalized": [
              [
                -0.1532366,
                -0.0145167
              ],
              [
                -0.0781361,
                -0.0152712
              ],
              [
                -0.0873466,
                -0.016534
              ],
              [
                -0.1724249,
                -0.022799
              ],
              [
                -0.1166877,
                -0.0228308
              ],
              [
                -0.1288595,
                -0.0255137
              ],
              [
                -0.1479725,
                -0.0316352
              ],
              [
                -0.127795,
                -0.0311541
              ],
              [
                -0.1324542,
                -0.0340768
              ],
              [
                -0.122435,
                -0.0371351
              ],
              [
                -0.1086932,
                -0.0434877
              ],
              [
                -0.1019591,
                -0.0461272
              ],
              [
                -0.1018024,
                -0.0570887
              ],
              [
                -0.0791394,
                -0.0469594
              ],
              [
                -0.097918,
                -0.0692495
              ],
              [
                -0.0929466,
                -0.0921303
              ],
              [
                -0.091568,
                -0.1075231
              ],
              [
                -0.0440117,
                -0.045607
              ],
              [
                -0.038836,
                -0.0466433
              ],
              [
                -0.0289987,
                -0.0893642
              ],
              [
                -0.0181519,
                -0.1210832
              ],
              [
                -0.0288487,
                -0.0421968
              ],
              [
                -0.006168,
                -0.121517
              ],
              [
                -0.004614,
                -0.1168302
              ],
              [
                -0.020767,
                -0.0533761
              ],
              [
                -0.0081442,
                -0.0701398
              ],
              [
                0.0162335,
                -0.1036333
              ],
              [
                -0.0010445,
                -0.0699218
              ],
              [
                0.0256347,
                -0.1031486
              ],
              [
                0.0212811,
                -0.0948538
              ],
              [
                0.0380962,
                -0.1123267
              ],
              [
                0.0411716,
                -0.1113878
              ],
              [
                -0.0092372,
                -0.0464612
              ],
              [
                0.0604854,
                -0.1289885
              ],
              [
                -0.0096556,
                -0.0426322
              ],
              [
                -0.0165685,
                -0.033641
              ],
              [
                0.0382346,
                -0.0745855
              ],
              [
                0.0331359,
                -0.0672861
              ],
              [
                0.0328805,
                -0.0614765
              ],
              [
                0.0258308,
                -0.0514764
              ],
              [
                -0.0067675,
                -0.0301251
              ],
              [
                0.044104,
                -0.054487
              ],
              [
                0.0332012,
                -0.0453646
              ],
              [
                0.135158,
                -0.0797318
              ],
              [
                0.1257347,
                -0.0611692
              ],
              [
                0.1256068,
                -0.0573796
              ],
              [
                0.121116,
                -0.0544986
              ],
              [
                0.1093711,
                -0.0420998
              ],
              [
                0.1095099,
                -0.0353085
              ],
              [
                0.0252563,
                -0.0193616
              ],
              [
                0.115396,
                -0.0211237
              ],
              [
                0.0999579,
                -0.0134436
              ],
              [
                0.0722887,
                -0.010221
              ],
              [
                0.1248252,
                -0.006356
              ],
              [
                0.0759278,
                -0.0048459
              ],
              [
                0.1117972,
                0.0006796
              ],
              [
                0.1368964,
                0.0115484
              ],
              [
                0.130523,
                0.0202008
              ],
              [
                0.0817344,
                0.01581
              ],
              [
                0.0853845,
                0.023228
              ],
              [
                0.1194568,
                0.0491351
              ],
              [
                -0.00681,
                0.0103079
              ],
              [
                0.0577054,
                0.1082014
              ],
              [
                0.0548442,
                0.1120336
              ],
              [
                0.0084842,
                0.0504288
              ],
              [
                0.0066952,
                0.0538716
              ],
              [
                0.0001692,
                0.0573069
              ],
              [
                -0.0182609,
                0.0404801
              ],
              [
                -0.0260033,
                0.0899615
              ],
              [
                -0.0328158,
                0.0792429
              ],
              [
                -0.0373556,
                0.0996236
              ],
              [
                -0.0425951,
                0.0098491
              ],
              [
                -0.0461386,
                0.0169306
              ],
              [
                -0.0486019,
                0.01411
              ],
              [
                -0.1019469,
                0.0943114
              ],
              [
                -0.1049555,
                0.0934729
              ],
              [
                -0.093349,
                0.0691773
              ],
              [
                -0.0499635,
                0.0060907
              ],
              [
                -0.1126791,
                0.0850603
              ],
              [
                -0.1117934,
                0.0786516
              ],
              [
                -0.1258156,
                0.0787872
              ],
              [
                -0.0996716,
                0.0488505
              ],
              [
                -0.0987569,
                0.044314
              ],
              [
                -0.1567556,
                0.0730053
              ],
              [
                -0.1637739,
                0.0726803
              ],
              [
                -0.1655399,
                0.0706787
              ],
              [
                -0.1378373,
                0.035747
              ],
              [
                -0.1463123,
                0.0252311
              ],
              [
                -0.2207368,
                0.0265913
              ],
              [
                -0.2233751,
                0.018845
              ],
              [
                -0.2061186,
                0.0126397
              ],
              [
                -0.1157005,
                -0.0039617
              ],
              [
                -0.2060596,
                0.003108
              ],
              [
                -0.0819357,
                -0.0099588
              ],
              [
                -0.1925334,
                -0.0024831
              ],
              [
                -0.1394179,
                -0.0094968
              ]
            ],
            "bounds_normalized": {
              "dimensions": [
                0.360780817,
                0.242944148
              ],
              "max": [
                0.137394316,
                0.113034137
              ],
              "min": [
                -0.2233865,
                -0.129910011
              ]
            },
            "centroid_normalized": [
              -0.035130881,
              -0.013954403
            ],
            "fraction": 0.1,
            "mask": {
              "encoding": "rows_top_to_bottom_1bit_text",
              "occupied_bbox_pixels": [
                9,
                12,
                19,
                19
              ],
              "occupied_fraction": 0.044921875,
              "occupied_pixel_count": 46,
              "origin": "bottom_left",
              "resolution": [
                32,
                32
              ],
              "rows": [
                "00000000000000000000000000000000",
                "00000000000000000000000000000000",
                "00000000000000000000000000000000",
                "00000000000000000000000000000000",
                "00000000000000000000000000000000",
                "00000000000000000000000000000000",
                "00000000000000000000000000000000",
                "00000000000000000000000000000000",
                "00000000000000000000000000000000",
                "00000000000000000000000000000000",
                "00000000000000000000000000000000",
                "00000000000000000000000000000000",
                "00000000000000000100000000000000",
                "00000000000111110000000000000000",
                "00000000000111011001000000000000",
                "00000000011110110011000000000000",
                "00000000001111011111000000000000",
                "00000000000111111101000000000000",
                "00000000000001011101000000000000",
                "00000000000001011100000000000000",
                "00000000000000000000000000000000",
                "00000000000000000000000000000000",
                "00000000000000000000000000000000",
                "00000000000000000000000000000000",
                "00000000000000000000000000000000",
                "00000000000000000000000000000000",
                "00000000000000000000000000000000",
                "00000000000000000000000000000000",
                "00000000000000000000000000000000",
                "00000000000000000000000000000000",
                "00000000000000000000000000000000",
                "00000000000000000000000000000000"
              ]
            },
            "plane_coordinate_native": -0.007036456,
            "segment_count": 686
          },
          {
            "boundary_samples_normalized": [
              [
                -0.2277468,
                -0.0051619
              ],
              [
                -0.2317956,
                -0.0081807
              ],
              [
                -0.1810845,
                -0.0067829
              ],
              [
                -0.2238393,
                -0.0186395
              ],
              [
                -0.2241377,
                -0.0267831
              ],
              [
                -0.2277359,
                -0.0317536
              ],
              [
                -0.1908585,
                -0.0431556
              ],
              [
                -0.1913901,
                -0.0517561
              ],
              [
                -0.151292,
                -0.0513619
              ],
              [
                -0.1535609,
                -0.0569981
              ],
              [
                -0.1350317,
                -0.0575633
              ],
              [
                -0.1395571,
                -0.0704736
              ],
              [
                -0.1266431,
                -0.0864702
              ],
              [
                -0.0769461,
                -0.049714
              ],
              [
                -0.1088333,
                -0.0846035
              ],
              [
                -0.1181609,
                -0.0970672
              ],
              [
                -0.1001251,
                -0.0888216
              ],
              [
                -0.1066122,
                -0.1065642
              ],
              [
                -0.0217263,
                -0.1042361
              ],
              [
                -0.015138,
                -0.0811447
              ],
              [
                -0.0096307,
                -0.1252099
              ],
              [
                -0.0025415,
                -0.0587227
              ],
              [
                0.0064903,
                -0.1212371
              ],
              [
                0.0150293,
                -0.0583113
              ],
              [
                0.0499329,
                -0.1432824
              ],
              [
                0.0831638,
                -0.1399726
              ],
              [
                0.0342037,
                -0.045799
              ],
              [
                0.0922875,
                -0.1244296
              ],
              [
                0.0352507,
                -0.0403686
              ],
              [
                0.0954892,
                -0.1195866
              ],
              [
                0.0422596,
                -0.0438858
              ],
              [
                0.1046826,
                -0.0952809
              ],
              [
                0.1312127,
                -0.058473
              ],
              [
                0.1104445,
                -0.0359218
              ],
              [
                0.199481,
                -0.0670766
              ],
              [
                0.1117943,
                -0.0290264
              ],
              [
                0.0750555,
                -0.0121433
              ],
              [
                0.1251274,
                -0.0260404
              ],
              [
                0.2034364,
                -0.0439207
              ],
              [
                0.0797846,
                -0.0063505
              ],
              [
                0.0319582,
                0.0075352
              ],
              [
                0.14557,
                -0.0011924
              ],
              [
                0.1621105,
                -0.0008976
              ],
              [
                0.1923408,
                0.0053683
              ],
              [
                0.1801776,
                0.0127265
              ],
              [
                0.1344776,
                0.0154717
              ],
              [
                0.1290532,
                0.0256788
              ],
              [
                0.1092754,
                0.0291232
              ],
              [
                0.0758923,
                0.0264092
              ],
              [
                0.1059937,
                0.0319319
              ],
              [
                0.1341079,
                0.040774
              ],
              [
                0.1312016,
                0.0435283
              ],
              [
                0.161453,
                0.0529227
              ],
              [
                0.1701002,
                0.0592469
              ],
              [
                0.1786666,
                0.071521
              ],
              [
                0.1677315,
                0.0752089
              ],
              [
                0.0041862,
                0.018667
              ],
              [
                0.0688891,
                0.0457221
              ],
              [
                0.1562265,
                0.0862885
              ],
              [
                0.1518441,
                0.0886845
              ],
              [
                0.1555901,
                0.0977014
              ],
              [
                0.1511335,
                0.0992263
              ],
              [
                0.1294896,
                0.095985
              ],
              [
                0.1347954,
                0.1052887
              ],
              [
                0.0929948,
                0.0984281
              ],
              [
                0.0893983,
                0.109045
              ],
              [
                0.0495894,
                0.0987293
              ],
              [
                0.0424351,
                0.1064636
              ],
              [
                0.0470719,
                0.1314545
              ],
              [
                0.003797,
                0.0390466
              ],
              [
                0.0293468,
                0.1373613
              ],
              [
                0.0033187,
                0.0559824
              ],
              [
                0.0076806,
                0.1427895
              ],
              [
                -0.0032524,
                0.1375674
              ],
              [
                -0.014463,
                0.1452376
              ],
              [
                -0.0210319,
                0.1463002
              ],
              [
                -0.0209875,
                0.1101999
              ],
              [
                -0.0148999,
                0.0512002
              ],
              [
                -0.0503576,
                0.1415128
              ],
              [
                -0.0567765,
                0.1405369
              ],
              [
                -0.0478333,
                0.0682406
              ],
              [
                -0.1022992,
                0.117312
              ],
              [
                -0.1613248,
                0.1304688
              ],
              [
                -0.0276758,
                0.0302242
              ],
              [
                -0.1775847,
                0.117433
              ],
              [
                -0.0857747,
                0.0590264
              ],
              [
                -0.1405533,
                0.0813958
              ],
              [
                -0.1430937,
                0.0801543
              ],
              [
                -0.1320075,
                0.0690494
              ],
              [
                -0.2282095,
                0.1034882
              ],
              [
                -0.2524631,
                0.0867697
              ],
              [
                -0.2504788,
                0.0729958
              ],
              [
                -0.1081381,
                0.0346265
              ],
              [
                -0.2206478,
                0.0488695
              ],
              [
                -0.2189639,
                0.0422184
              ],
              [
                -0.2211423,
                0.0381379
              ]
            ],
            "bounds_normalized": {
              "dimensions": [
                0.466047873,
                0.303412513
              ],
              "max": [
                0.209231169,
                0.154430447
              ],
              "min": [
                -0.256816704,
                -0.148982066
              ]
            },
            "centroid_normalized": [
              -0.005206079,
              0.015035756
            ],
            "fraction": 0.25,
            "mask": {
              "encoding": "rows_top_to_bottom_1bit_text",
              "occupied_bbox_pixels": [
                8,
                11,
                21,
                20
              ],
              "occupied_fraction": 0.075195312,
              "occupied_pixel_count": 77,
              "origin": "bottom_left",
              "resolution": [
                32,
                32
              ],
              "rows": [
                "00000000000000000000000000000000",
                "00000000000000000000000000000000",
                "00000000000000000000000000000000",
                "00000000000000000000000000000000",
                "00000000000000000000000000000000",
                "00000000000000000000000000000000",
                "00000000000000000000000000000000",
                "00000000000000000000000000000000",
                "00000000000000000000000000000000",
                "00000000000000000000000000000000",
                "00000000000000000000000000000000",
                "00000000000000111100000000000000",
                "00000000011101111110000000000000",
                "00000000111110111111110000000000",
                "00000000110011111111110000000000",
                "00000000010011011111110000000000",
                "00000000011001000011110000000000",
                "00000000011111011101010000000000",
                "00000000000111010110000000000000",
                "00000000000010011010000000000000",
                "00000000000000000110000000000000",
                "00000000000000000000000000000000",
                "00000000000000000000000000000000",
                "00000000000000000000000000000000",
                "00000000000000000000000000000000",
                "00000000000000000000000000000000",
                "00000000000000000000000000000000",
                "00000000000000000000000000000000",
                "00000000000000000000000000000000",
                "00000000000000000000000000000000",
                "00000000000000000000000000000000",
                "00000000000000000000000000000000"
              ]
            },
            "plane_coordinate_native": -0.004259586,
            "segment_count": 900
          },
          {
            "boundary_samples_normalized": [
              [
                -0.2394495,
                -0.0006486
              ],
              [
                -0.2890465,
                -0.0294136
              ],
              [
                -0.2892494,
                -0.0371329
              ],
              [
                -0.2007922,
                -0.0267344
              ],
              [
                -0.2779652,
                -0.0469263
              ],
              [
                -0.2207124,
                -0.036541
              ],
              [
                -0.2769872,
                -0.0553353
              ],
              [
                -0.2810644,
                -0.069683
              ],
              [
                -0.2252943,
                -0.0576144
              ],
              [
                -0.2687888,
                -0.0800444
              ],
              [
                -0.2731122,
                -0.0863782
              ],
              [
                -0.1892609,
                -0.0554956
              ],
              [
                -0.2583385,
                -0.0872123
              ],
              [
                -0.2658465,
                -0.0968959
              ],
              [
                -0.1927995,
                -0.073402
              ],
              [
                -0.1597654,
                -0.069351
              ],
              [
                -0.0893776,
                -0.030847
              ],
              [
                -0.1284243,
                -0.0663754
              ],
              [
                -0.1136149,
                -0.0683279
              ],
              [
                -0.0792024,
                -0.036592
              ],
              [
                -0.1423777,
                -0.1234913
              ],
              [
                -0.1138793,
                -0.0922615
              ],
              [
                -0.1068188,
                -0.0878733
              ],
              [
                -0.0688054,
                -0.0405004
              ],
              [
                -0.0759867,
                -0.0848843
              ],
              [
                -0.0631799,
                -0.0728959
              ],
              [
                -0.0549367,
                -0.082799
              ],
              [
                -0.0479454,
                -0.0569913
              ],
              [
                -0.0392844,
                -0.0568357
              ],
              [
                -0.0229479,
                -0.098742
              ],
              [
                -0.0165251,
                -0.0984359
              ],
              [
                -0.016152,
                -0.0771072
              ],
              [
                -0.0347318,
                -0.0293046
              ],
              [
                -0.0277625,
                -0.0291434
              ],
              [
                -0.0286418,
                -0.0223227
              ],
              [
                -0.0306667,
                -0.0121062
              ],
              [
                0.2616189,
                -0.1220581
              ],
              [
                0.2945742,
                -0.1261074
              ],
              [
                0.2735571,
                -0.10866
              ],
              [
                0.3032447,
                -0.1128096
              ],
              [
                -0.0087335,
                -0.0118062
              ],
              [
                0.25036,
                -0.0829398
              ],
              [
                0.2970499,
                -0.0887513
              ],
              [
                0.2823971,
                -0.0792559
              ],
              [
                0.3001846,
                -0.0724118
              ],
              [
                0.2907261,
                -0.0659703
              ],
              [
                0.0833586,
                -0.0221602
              ],
              [
                0.1012251,
                -0.023527
              ],
              [
                0.1301032,
                -0.0181618
              ],
              [
                -0.001095,
                -0.0021247
              ],
              [
                0.0626394,
                0.0007611
              ],
              [
                0.0643828,
                0.0072942
              ],
              [
                0.1679879,
                0.0165373
              ],
              [
                0.1580687,
                0.0218317
              ],
              [
                0.1151197,
                0.0201987
              ],
              [
                0.1632126,
                0.0277738
              ],
              [
                0.1165259,
                0.0265586
              ],
              [
                0.1115533,
                0.0364838
              ],
              [
                0.1338,
                0.07123
              ],
              [
                0.0128615,
                0.028617
              ],
              [
                0.0851346,
                0.0657208
              ],
              [
                -0.0177128,
                0.0173192
              ],
              [
                0.0813508,
                0.0796566
              ],
              [
                -0.0185191,
                0.0296139
              ],
              [
                0.0422734,
                0.1060393
              ],
              [
                0.0904267,
                0.1711878
              ],
              [
                0.0832883,
                0.169752
              ],
              [
                0.0384275,
                0.1185698
              ],
              [
                0.0641328,
                0.1576779
              ],
              [
                0.0569424,
                0.1513677
              ],
              [
                0.0121647,
                0.0940839
              ],
              [
                0.00517,
                0.0917026
              ],
              [
                -0.001862,
                0.1002902
              ],
              [
                -0.0537292,
                0.1033606
              ],
              [
                -0.0733021,
                0.0463911
              ],
              [
                -0.1465369,
                0.159098
              ],
              [
                -0.1506732,
                0.151655
              ],
              [
                -0.0847472,
                0.0473227
              ],
              [
                -0.1709829,
                0.1376501
              ],
              [
                -0.1779528,
                0.1397236
              ],
              [
                -0.0871009,
                0.0369949
              ],
              [
                -0.1478074,
                0.0725225
              ],
              [
                -0.1834441,
                0.0821207
              ],
              [
                -0.2350556,
                0.1114452
              ],
              [
                -0.1817083,
                0.0766988
              ],
              [
                -0.2345004,
                0.103648
              ],
              [
                -0.2073748,
                0.0865125
              ],
              [
                -0.0827225,
                0.0112872
              ],
              [
                -0.1993207,
                0.0437139
              ],
              [
                -0.2463557,
                0.0504726
              ],
              [
                -0.2234698,
                0.030224
              ],
              [
                -0.2490502,
                0.0297619
              ],
              [
                -0.252022,
                0.0247802
              ],
              [
                -0.282445,
                0.0220529
              ],
              [
                -0.2799155,
                0.0175203
              ],
              [
                -0.236727,
                0.0076609
              ]
            ],
            "bounds_normalized": {
              "dimensions": [
                0.603194496,
                0.306066927
              ],
              "max": [
                0.306734039,
                0.176684689
              ],
              "min": [
                -0.296460457,
                -0.129382238
              ]
            },
            "centroid_normalized": [
              -0.049703369,
              0.000474644
            ],
            "fraction": 0.5,
            "mask": {
              "encoding": "rows_top_to_bottom_1bit_text",
              "occupied_bbox_pixels": [
                7,
                12,
                24,
                20
              ],
              "occupied_fraction": 0.0703125,
              "occupied_pixel_count": 72,
              "origin": "bottom_left",
              "resolution": [
                32,
                32
              ],
              "rows": [
                "00000000000000000000000000000000",
                "00000000000000000000000000000000",
                "00000000000000000000000000000000",
                "00000000000000000000000000000000",
                "00000000000000000000000000000000",
                "00000000000000000000000000000000",
                "00000000000000000000000000000000",
                "00000000000000000000000000000000",
                "00000000000000000000000000000000",
                "00000000000000000000000000000000",
                "00000000000000000000000000000000",
                "00000000001110000110000000000000",
                "00000000011100111100000000000000",
                "00000000011100111111100000000000",
                "00000000011101000011000000000000",
                "00000001110001011111100000000000",
                "00000001011001011111000000000000",
                "00000001111111110000000110000000",
                "00000000101111110000001110000000",
                "00000000000110000000000110000000",
                "00000000000000000000000000000000",
                "00000000000000000000000000000000",
                "00000000000000000000000000000000",
                "00000000000000000000000000000000",
                "00000000000000000000000000000000",
                "00000000000000000000000000000000",
                "00000000000000000000000000000000",
                "00000000000000000000000000000000",
                "00000000000000000000000000000000",
                "00000000000000000000000000000000",
                "00000000000000000000000000000000",
                "00000000000000000000000000000000"
              ]
            },
            "plane_coordinate_native": 0.000368531,
            "segment_count": 840
          },
          {
            "boundary_samples_normalized": [
              [
                -0.1823093,
                -0.0033115
              ],
              [
                -0.2112111,
                -0.020398
              ],
              [
                -0.2089201,
                -0.0276001
              ],
              [
                -0.1438686,
                -0.0212054
              ],
              [
                -0.2390772,
                -0.0483268
              ],
              [
                -0.1969566,
                -0.0421379
              ],
              [
                -0.1400968,
                -0.0290324
              ],
              [
                -0.1411527,
                -0.0323462
              ],
              [
                -0.1464904,
                -0.0361689
              ],
              [
                -0.2357216,
                -0.0726781
              ],
              [
                -0.2077471,
                -0.0722882
              ],
              [
                -0.145642,
                -0.0574533
              ],
              [
                -0.1805824,
                -0.0766932
              ],
              [
                -0.2062717,
                -0.1029124
              ],
              [
                -0.0689856,
                -0.0272381
              ],
              [
                -0.1504143,
                -0.0864444
              ],
              [
                -0.1847183,
                -0.1169467
              ],
              [
                -0.0839566,
                -0.0439413
              ],
              [
                -0.1743727,
                -0.1172441
              ],
              [
                -0.1734876,
                -0.1193227
              ],
              [
                -0.0819869,
                -0.0482834
              ],
              [
                -0.0782811,
                -0.0490692
              ],
              [
                -0.1302994,
                -0.1127884
              ],
              [
                -0.1281531,
                -0.1242772
              ],
              [
                -0.0994925,
                -0.0990359
              ],
              [
                -0.0929095,
                -0.109657
              ],
              [
                -0.0632292,
                -0.1089833
              ],
              [
                -0.0342234,
                -0.0423202
              ],
              [
                -0.0381731,
                -0.0693635
              ],
              [
                -0.0344544,
                -0.0764396
              ],
              [
                -0.0259224,
                -0.044308
              ],
              [
                -0.0199005,
                -0.1271599
              ],
              [
                -0.0050667,
                -0.066198
              ],
              [
                0.0083401,
                -0.0985439
              ],
              [
                0.0149741,
                -0.0975953
              ],
              [
                0.020964,
                -0.095734
              ],
              [
                0.0259193,
                -0.0998666
              ],
              [
                0.0038385,
                -0.0429068
              ],
              [
                0.0458091,
                -0.0923829
              ],
              [
                0.054498,
                -0.0933959
              ],
              [
                0.0517634,
                -0.0686074
              ],
              [
                -0.0151131,
                -0.0013628
              ],
              [
                -0.0150883,
                -0.000819
              ],
              [
                0.1368326,
                -0.0796631
              ],
              [
                0.0803194,
                -0.0477402
              ],
              [
                0.1468649,
                -0.0763522
              ],
              [
                0.0933658,
                -0.0481497
              ],
              [
                0.1012378,
                -0.0461954
              ],
              [
                0.0205494,
                -0.0107124
              ],
              [
                0.1384712,
                -0.0429878
              ],
              [
                0.1398268,
                -0.0369017
              ],
              [
                0.0895787,
                -0.0121054
              ],
              [
                0.1218755,
                -0.0034869
              ],
              [
                0.1953391,
                0.001959
              ],
              [
                0.1229437,
                0.0171622
              ],
              [
                0.1523767,
                0.0293488
              ],
              [
                0.1827085,
                0.0408837
              ],
              [
                0.1211117,
                0.0372527
              ],
              [
                0.1079497,
                0.0369231
              ],
              [
                0.128652,
                0.0486228
              ],
              [
                0.1232417,
                0.0516273
              ],
              [
                0.2114088,
                0.0879387
              ],
              [
                0.1546788,
                0.0845924
              ],
              [
                0.1035017,
                0.0664903
              ],
              [
                0.0917704,
                0.0669223
              ],
              [
                0.0903699,
                0.0743199
              ],
              [
                0.1394334,
                0.1209869
              ],
              [
                0.1388943,
                0.1293479
              ],
              [
                0.1235015,
                0.1342786
              ],
              [
                0.1480843,
                0.166963
              ],
              [
                0.1359665,
                0.1711305
              ],
              [
                0.0726791,
                0.1491477
              ],
              [
                0.0413124,
                0.1364227
              ],
              [
                0.0504186,
                0.1647913
              ],
              [
                0.0429185,
                0.1526657
              ],
              [
                0.0564973,
                0.1913324
              ],
              [
                0.0353178,
                0.1554832
              ],
              [
                0.0132047,
                0.1579742
              ],
              [
                -0.007351,
                0.1419835
              ],
              [
                -0.0157318,
                0.1320769
              ],
              [
                -0.0198728,
                0.150668
              ],
              [
                -0.0342185,
                0.0685921
              ],
              [
                -0.037203,
                0.0456317
              ],
              [
                -0.0682956,
                0.1079817
              ],
              [
                -0.1070569,
                0.1344996
              ],
              [
                -0.0795409,
                0.0802568
              ],
              [
                -0.0507726,
                0.0325023
              ],
              [
                -0.0486669,
                0.0224702
              ],
              [
                -0.1163113,
                0.06172
              ],
              [
                -0.1572459,
                0.0804254
              ],
              [
                -0.1659379,
                0.0778116
              ],
              [
                -0.1632046,
                0.0714635
              ],
              [
                -0.1851524,
                0.0614901
              ],
              [
                -0.1814343,
                0.0388246
              ],
              [
                -0.2319065,
                0.0267289
              ],
              [
                -0.2248321,
                0.0233108
              ]
            ],
            "bounds_normalized": {
              "dimensions": [
                0.463042166,
                0.321547143
              ],
              "max": [
                0.216185717,
                0.193933736
              ],
              "min": [
                -0.246856449,
                -0.127613407
              ]
            },
            "centroid_normalized": [
              -0.020918917,
              0.003294529
            ],
            "fraction": 0.75,
            "mask": {
              "encoding": "rows_top_to_bottom_1bit_text",
              "occupied_bbox_pixels": [
                9,
                12,
                22,
                21
              ],
              "occupied_fraction": 0.08203125,
              "occupied_pixel_count": 84,
              "origin": "bottom_left",
              "resolution": [
                32,
                32
              ],
              "rows": [
                "00000000000000000000000000000000",
                "00000000000000000000000000000000",
                "00000000000000000000000000000000",
                "00000000000000000000000000000000",
                "00000000000000000000000000000000",
                "00000000000000000000000000000000",
                "00000000000000000000000000000000",
                "00000000000000000000000000000000",
                "00000000000000000000000000000000",
                "00000000000000000000000000000000",
                "00000000000000000100000000000000",
                "00000000000000011111100000000000",
                "00000000000011111101100000000000",
                "00000000001101111011111000000000",
                "00000000001110110111010000000000",
                "00000000011110110001110000000000",
                "00000000001111111011010000000000",
                "00000000011101111111100000000000",
                "00000000011111111111100000000000",
                "00000000011111110000000000000000",
                "00000000000000000000000000000000",
                "00000000000000000000000000000000",
                "00000000000000000000000000000000",
                "00000000000000000000000000000000",
                "00000000000000000000000000000000",
                "00000000000000000000000000000000",
                "00000000000000000000000000000000",
                "00000000000000000000000000000000",
                "00000000000000000000000000000000",
                "00000000000000000000000000000000",
                "00000000000000000000000000000000",
                "00000000000000000000000000000000"
              ]
            },
            "plane_coordinate_native": 0.004996648,
            "segment_count": 998
          },
          {
            "boundary_samples_normalized": [
              [
                -0.1350458,
                0.008352
              ],
              [
                -0.1224107,
                0.0016561
              ],
              [
                -0.1335672,
                -0.0024507
              ],
              [
                -0.1284465,
                -0.0050424
              ],
              [
                -0.1608566,
                -0.0190501
              ],
              [
                -0.1538404,
                -0.0215739
              ],
              [
                -0.1409827,
                -0.0225965
              ],
              [
                -0.1377434,
                -0.0253447
              ],
              [
                -0.140823,
                -0.0327513
              ],
              [
                -0.1324179,
                -0.0310717
              ],
              [
                -0.0776626,
                -0.0115514
              ],
              [
                -0.0865296,
                -0.0210821
              ],
              [
                -0.0761403,
                -0.0217603
              ],
              [
                -0.1289103,
                -0.0584912
              ],
              [
                -0.1421194,
                -0.0697722
              ],
              [
                -0.1278636,
                -0.065131
              ],
              [
                -0.137985,
                -0.0772136
              ],
              [
                -0.1336513,
                -0.0871848
              ],
              [
                -0.1275548,
                -0.0865542
              ],
              [
                -0.1178166,
                -0.0838327
              ],
              [
                -0.1045485,
                -0.0738429
              ],
              [
                -0.1121714,
                -0.0889866
              ],
              [
                -0.0812583,
                -0.0679192
              ],
              [
                -0.0685923,
                -0.0600111
              ],
              [
                -0.0756399,
                -0.0812969
              ],
              [
                -0.0570847,
                -0.060304
              ],
              [
                -0.0528292,
                -0.0607711
              ],
              [
                -0.0509548,
                -0.0651683
              ],
              [
                -0.0545566,
                -0.0885643
              ],
              [
                -0.0315771,
                -0.0238066
              ],
              [
                -0.0261621,
                -0.024145
              ],
              [
                -0.0242217,
                -0.0158354
              ],
              [
                0.00577,
                -0.0470772
              ],
              [
                0.0077396,
                -0.0376115
              ],
              [
                0.0161742,
                -0.0344226
              ],
              [
                0.0456068,
                -0.036529
              ],
              [
                0.0445171,
                -0.0314725
              ],
              [
                0.04577,
                -0.0237256
              ],
              [
                0.0155051,
                -0.0073481
              ],
              [
                0.0577659,
                -0.0222996
              ],
              [
                0.0456973,
                -0.0148379
              ],
              [
                0.0124294,
                -0.0026317
              ],
              [
                0.0118241,
                -0.0008552
              ],
              [
                0.1208078,
                -0.0242897
              ],
              [
                0.0891498,
                -0.0159817
              ],
              [
                0.0486036,
                -0.0067701
              ],
              [
                0.1292664,
                -0.0202528
              ],
              [
                0.0961634,
                -0.0129071
              ],
              [
                0.0884602,
                -0.0079799
              ],
              [
                0.0266956,
                0.0028159
              ],
              [
                0.0217376,
                0.0054494
              ],
              [
                0.0348053,
                0.0069645
              ],
              [
                0.0410788,
                0.0085921
              ],
              [
                0.0772996,
                0.0100493
              ],
              [
                0.084687,
                0.031815
              ],
              [
                0.0836079,
                0.0336935
              ],
              [
                0.0419941,
                0.0271079
              ],
              [
                0.0447508,
                0.030334
              ],
              [
                0.0786133,
                0.0471866
              ],
              [
                0.0574417,
                0.0562928
              ],
              [
                0.0430295,
                0.0500333
              ],
              [
                0.0826345,
                0.0747418
              ],
              [
                0.0630178,
                0.0639814
              ],
              [
                0.0524753,
                0.0597309
              ],
              [
                0.0607399,
                0.0686013
              ],
              [
                0.0726964,
                0.0803218
              ],
              [
                0.0499016,
                0.0665791
              ],
              [
                0.0507748,
                0.0730871
              ],
              [
                0.0402351,
                0.096771
              ],
              [
                0.0312721,
                0.0934795
              ],
              [
                0.0283681,
                0.0944982
              ],
              [
                0.0265646,
                0.0959879
              ],
              [
                0.0287083,
                0.1092347
              ],
              [
                0.0232686,
                0.1032913
              ],
              [
                0.0053262,
                0.0720131
              ],
              [
                0.0095866,
                0.0870877
              ],
              [
                0.0172594,
                0.1188981
              ],
              [
                0.0123433,
                0.1225301
              ],
              [
                0.0045636,
                0.1142561
              ],
              [
                -0.0278879,
                0.0223679
              ],
              [
                -0.0583472,
                0.0710297
              ],
              [
                -0.0647602,
                0.0732323
              ],
              [
                -0.0648091,
                0.0583149
              ],
              [
                -0.0618091,
                0.0481438
              ],
              [
                -0.0896739,
                0.0649867
              ],
              [
                -0.0773057,
                0.0487627
              ],
              [
                -0.1195018,
                0.0750895
              ],
              [
                -0.1183085,
                0.0710174
              ],
              [
                -0.1223621,
                0.0705357
              ],
              [
                -0.124227,
                0.0700667
              ],
              [
                -0.1236437,
                0.0552324
              ],
              [
                -0.1291494,
                0.0526894
              ],
              [
                -0.10191,
                0.0245591
              ],
              [
                -0.0980427,
                0.0171928
              ],
              [
                -0.1329575,
                0.0172466
              ],
              [
                -0.0993784,
                0.0108848
              ]
            ],
            "bounds_normalized": {
              "dimensions": [
                0.305438058,
                0.212913612
              ],
              "max": [
                0.131024008,
                0.122530136
              ],
              "min": [
                -0.17441405,
                -0.090383476
              ]
            },
            "centroid_normalized": [
              -0.027357322,
              0.008793972
            ],
            "fraction": 0.9,
            "mask": {
              "encoding": "rows_top_to_bottom_1bit_text",
              "occupied_bbox_pixels": [
                11,
                13,
                19,
                19
              ],
              "occupied_fraction": 0.037109375,
              "occupied_pixel_count": 38,
              "origin": "bottom_left",
              "resolution": [
                32,
                32
              ],
              "rows": [
                "00000000000000000000000000000000",
                "00000000000000000000000000000000",
                "00000000000000000000000000000000",
                "00000000000000000000000000000000",
                "00000000000000000000000000000000",
                "00000000000000000000000000000000",
                "00000000000000000000000000000000",
                "00000000000000000000000000000000",
                "00000000000000000000000000000000",
                "00000000000000000000000000000000",
                "00000000000000000000000000000000",
                "00000000000000000000000000000000",
                "00000000000000001100000000000000",
                "00000000000011101110000000000000",
                "00000000000011101110000000000000",
                "00000000000011011110000000000000",
                "00000000000111011111000000000000",
                "00000000000111101100000000000000",
                "00000000000111100000000000000000",
                "00000000000000000000000000000000",
                "00000000000000000000000000000000",
                "00000000000000000000000000000000",
                "00000000000000000000000000000000",
                "00000000000000000000000000000000",
                "00000000000000000000000000000000",
                "00000000000000000000000000000000",
                "00000000000000000000000000000000",
                "00000000000000000000000000000000",
                "00000000000000000000000000000000",
                "00000000000000000000000000000000",
                "00000000000000000000000000000000",
                "00000000000000000000000000000000"
              ]
            },
            "plane_coordinate_native": 0.007773518,
            "segment_count": 520
          }
        ]
      },
      "pca_axis_1": {
        "axis": 1,
        "in_plane_axes": [
          0,
          2
        ],
        "slices": [
          {
            "boundary_samples_normalized": [
              [
                -0.1889368,
                -0.0201621
              ],
              [
                -0.2115211,
                -0.0289198
              ],
              [
                -0.2120178,
                -0.0382001
              ],
              [
                -0.0765087,
                -0.0399702
              ],
              [
                -0.0703305,
                -0.0477221
              ],
              [
                -0.1030521,
                -0.0805265
              ],
              [
                -0.1065672,
                -0.0900227
              ],
              [
                -0.0194474,
                -0.0326954
              ],
              [
                -0.0264392,
                -0.0568741
              ],
              [
                -0.0327819,
                -0.0841092
              ],
              [
                -0.0262612,
                -0.0877156
              ],
              [
                -0.0121135,
                -0.0875448
              ],
              [
                -0.0066168,
                -0.0838843
              ],
              [
                0.0041011,
                -0.0713684
              ],
              [
                0.0420389,
                -0.1268471
              ],
              [
                0.0284038,
                -0.0860457
              ],
              [
                0.0331513,
                -0.0865168
              ],
              [
                0.0296162,
                -0.0740751
              ],
              [
                0.0380615,
                -0.0792618
              ],
              [
                0.0140484,
                -0.04107
              ],
              [
                0.0826146,
                -0.1141587
              ],
              [
                0.0830067,
                -0.1050413
              ],
              [
                0.0995384,
                -0.1150034
              ],
              [
                0.0576635,
                -0.0663473
              ],
              [
                0.0401272,
                -0.0484815
              ],
              [
                0.1440343,
                -0.1052093
              ],
              [
                0.0600418,
                -0.055335
              ],
              [
                0.1195045,
                -0.0856811
              ],
              [
                0.1403759,
                -0.0922561
              ],
              [
                0.1433281,
                -0.0879312
              ],
              [
                0.1470228,
                -0.0883007
              ],
              [
                0.0116596,
                -0.0264696
              ],
              [
                0.0997621,
                -0.0572869
              ],
              [
                0.0784383,
                -0.0460839
              ],
              [
                0.0503372,
                -0.0353463
              ],
              [
                0.1916132,
                -0.0712903
              ],
              [
                0.1788758,
                -0.0628676
              ],
              [
                0.1512731,
                -0.0538697
              ],
              [
                0.1972365,
                -0.0601518
              ],
              [
                0.2015277,
                -0.0568781
              ],
              [
                0.1943206,
                -0.0532888
              ],
              [
                0.0542582,
                -0.028693
              ],
              [
                0.241299,
                -0.0473738
              ],
              [
                0.2192847,
                -0.0426985
              ],
              [
                0.240152,
                -0.0406197
              ],
              [
                0.2306907,
                -0.0374229
              ],
              [
                0.1421613,
                -0.0243325
              ],
              [
                0.1357547,
                -0.0173414
              ],
              [
                0.1299724,
                -0.0143308
              ],
              [
                0.1299228,
                -0.0118235
              ],
              [
                0.0806165,
                -0.0130152
              ],
              [
                0.0728731,
                -0.0103804
              ],
              [
                0.2067515,
                0.0132052
              ],
              [
                0.2030291,
                0.0139251
              ],
              [
                0.238675,
                0.0230942
              ],
              [
                0.0496377,
                -0.0086989
              ],
              [
                0.0733202,
                -0.0012905
              ],
              [
                0.0821677,
                0.0023353
              ],
              [
                0.140567,
                0.0223972
              ],
              [
                0.1304154,
                0.0240789
              ],
              [
                0.0624942,
                0.003877
              ],
              [
                0.0181486,
                -0.0113151
              ],
              [
                0.032485,
                0.0023469
              ],
              [
                0.0294633,
                0.0059487
              ],
              [
                0.0555627,
                0.0303912
              ],
              [
                0.0401332,
                0.0180862
              ],
              [
                0.0467973,
                0.07498
              ],
              [
                0.0065877,
                0.0240084
              ],
              [
                -0.007153,
                0.0257624
              ],
              [
                -0.0275126,
                0.0537362
              ],
              [
                -0.0851644,
                0.04418
              ],
              [
                -0.0856137,
                0.0378387
              ],
              [
                -0.0720362,
                0.0256928
              ],
              [
                -0.2038695,
                0.0730206
              ],
              [
                -0.1990497,
                0.0664103
              ],
              [
                -0.2488123,
                0.0852231
              ],
              [
                -0.2443525,
                0.07877
              ],
              [
                -0.2602177,
                0.0822149
              ],
              [
                -0.2053567,
                0.0578506
              ],
              [
                -0.2426095,
                0.0690844
              ],
              [
                -0.2540407,
                0.0696606
              ],
              [
                -0.2193587,
                0.0560117
              ],
              [
                -0.2620085,
                0.0674737
              ],
              [
                -0.2507037,
                0.0572312
              ],
              [
                -0.0693904,
                -0.0009816
              ],
              [
                -0.1722772,
                0.0170238
              ],
              [
                -0.0876163,
                -0.0020803
              ],
              [
                -0.1691439,
                0.0095691
              ],
              [
                -0.2863859,
                0.0199157
              ],
              [
                -0.1263367,
                -0.0044238
              ],
              [
                -0.30018,
                0.0157905
              ],
              [
                -0.3454877,
                0.0189069
              ],
              [
                -0.3328967,
                0.0147099
              ],
              [
                -0.2896314,
                0.0081735
              ],
              [
                -0.1893506,
                -0.0107769
              ],
              [
                -0.192624,
                -0.0165873
              ]
            ],
            "bounds_normalized": {
              "dimensions": [
                0.58887956,
                0.221758061
              ],
              "max": [
                0.243391906,
                0.090937043
              ],
              "min": [
                -0.345487653,
                -0.130821018
              ]
            },
            "centroid_normalized": [
              -0.003425289,
              -0.019942293
            ],
            "fraction": 0.1,
            "mask": {
              "encoding": "rows_top_to_bottom_1bit_text",
              "occupied_bbox_pixels": [
                6,
                12,
                22,
                18
              ],
              "occupied_fraction": 0.056640625,
              "occupied_pixel_count": 58,
              "origin": "bottom_left",
              "resolution": [
                32,
                32
              ],
              "rows": [
                "00000000000000000000000000000000",
                "00000000000000000000000000000000",
                "00000000000000000000000000000000",
                "00000000000000000000000000000000",
                "00000000000000000000000000000000",
                "00000000000000000000000000000000",
                "00000000000000000000000000000000",
                "00000000000000000000000000000000",
                "00000000000000000000000000000000",
                "00000000000000000000000000000000",
                "00000000000000000000000000000000",
                "00000000000000000000000000000000",
                "00000000000000000000000000000000",
                "00000000111000000100000000000000",
                "00000000111011010000000000000000",
                "00000011100101011111111000000000",
                "00000000011011111111100000000000",
                "00000000011001111111111000000000",
                "00000000000011011111110000000000",
                "00000000000000000110100000000000",
                "00000000000000000000000000000000",
                "00000000000000000000000000000000",
                "00000000000000000000000000000000",
                "00000000000000000000000000000000",
                "00000000000000000000000000000000",
                "00000000000000000000000000000000",
                "00000000000000000000000000000000",
                "00000000000000000000000000000000",
                "00000000000000000000000000000000",
                "00000000000000000000000000000000",
                "00000000000000000000000000000000",
                "00000000000000000000000000000000"
              ]
            },
            "plane_coordinate_native": -0.004397461,
            "segment_count": 767
          },
          {
            "boundary_samples_normalized": [
              [
                -0.4278811,
                0.0058379
              ],
              [
                -0.4235346,
                0.0037872
              ],
              [
                -0.4097041,
                -0.0021773
              ],
              [
                -0.1872216,
                -0.0014816
              ],
              [
                -0.2020964,
                -0.0043341
              ],
              [
                -0.1863105,
                -0.0085986
              ],
              [
                -0.392556,
                -0.0321514
              ],
              [
                -0.1869454,
                -0.0180234
              ],
              [
                -0.1968496,
                -0.023682
              ],
              [
                -0.2990769,
                -0.0438049
              ],
              [
                -0.2992934,
                -0.0527766
              ],
              [
                -0.306158,
                -0.0618964
              ],
              [
                -0.2866867,
                -0.0702302
              ],
              [
                -0.2117306,
                -0.0722478
              ],
              [
                -0.2135442,
                -0.0834924
              ],
              [
                -0.1593321,
                -0.0729084
              ],
              [
                -0.1551655,
                -0.0830905
              ],
              [
                -0.0770035,
                -0.0473551
              ],
              [
                -0.0748507,
                -0.0543455
              ],
              [
                -0.0858022,
                -0.0835642
              ],
              [
                -0.0275624,
                -0.0940489
              ],
              [
                0.0033233,
                -0.0734696
              ],
              [
                0.0103045,
                -0.1238254
              ],
              [
                0.0508461,
                -0.081032
              ],
              [
                0.1123668,
                -0.1063224
              ],
              [
                0.0914247,
                -0.0763581
              ],
              [
                0.0913476,
                -0.0714574
              ],
              [
                0.1036025,
                -0.0625362
              ],
              [
                0.1631126,
                -0.0969772
              ],
              [
                0.220453,
                -0.1227781
              ],
              [
                0.2326645,
                -0.1228636
              ],
              [
                0.2756205,
                -0.1300196
              ],
              [
                0.2722884,
                -0.1209106
              ],
              [
                0.2119356,
                -0.0841185
              ],
              [
                0.2544124,
                -0.0893262
              ],
              [
                0.278295,
                -0.087151
              ],
              [
                0.2785452,
                -0.0812946
              ],
              [
                0.2643305,
                -0.0670978
              ],
              [
                0.259657,
                -0.0597896
              ],
              [
                0.1667535,
                -0.0299288
              ],
              [
                0.3157886,
                -0.0582083
              ],
              [
                0.3429293,
                -0.0592004
              ],
              [
                0.2972372,
                -0.0425464
              ],
              [
                0.2583348,
                -0.0278619
              ],
              [
                0.343035,
                -0.0352266
              ],
              [
                0.3453452,
                -0.0329846
              ],
              [
                0.3372757,
                -0.0279687
              ],
              [
                0.4004579,
                -0.0222417
              ],
              [
                0.3455164,
                -0.0141523
              ],
              [
                0.3600908,
                -0.0084212
              ],
              [
                0.3410339,
                -0.0004835
              ],
              [
                0.0560625,
                0.0059127
              ],
              [
                0.3079822,
                0.0111711
              ],
              [
                0.3028157,
                0.0183048
              ],
              [
                0.3374802,
                0.0330046
              ],
              [
                0.3796682,
                0.0483555
              ],
              [
                0.1994381,
                0.034954
              ],
              [
                0.2890182,
                0.0602484
              ],
              [
                0.2825772,
                0.0673874
              ],
              [
                0.2169025,
                0.0679864
              ],
              [
                0.2067648,
                0.0720685
              ],
              [
                0.225953,
                0.1002122
              ],
              [
                0.1882734,
                0.1012345
              ],
              [
                0.1516652,
                0.1011534
              ],
              [
                0.152319,
                0.1154896
              ],
              [
                0.025633,
                0.0209519
              ],
              [
                0.1206259,
                0.1521389
              ],
              [
                0.078879,
                0.1024114
              ],
              [
                0.0989662,
                0.1409318
              ],
              [
                0.0492966,
                0.0974193
              ],
              [
                0.0411096,
                0.1235816
              ],
              [
                0.0243067,
                0.1422255
              ],
              [
                0.0105949,
                0.1534462
              ],
              [
                -0.0085678,
                0.1248863
              ],
              [
                -0.0180993,
                0.1145806
              ],
              [
                -0.0260975,
                0.0627945
              ],
              [
                -0.0264382,
                0.0504101
              ],
              [
                -0.0855885,
                0.0927234
              ],
              [
                -0.1176402,
                0.1091938
              ],
              [
                -0.0822255,
                0.0757017
              ],
              [
                -0.1839904,
                0.1424313
              ],
              [
                -0.0838968,
                0.0706186
              ],
              [
                -0.2113878,
                0.1408413
              ],
              [
                -0.1580953,
                0.1037612
              ],
              [
                -0.1537231,
                0.0903058
              ],
              [
                -0.0747717,
                0.0428415
              ],
              [
                -0.1792564,
                0.073351
              ],
              [
                -0.24622,
                0.085407
              ],
              [
                -0.1393269,
                0.035604
              ],
              [
                -0.3867406,
                0.0790503
              ],
              [
                -0.4034163,
                0.0737569
              ],
              [
                -0.2264458,
                0.039728
              ],
              [
                -0.3111582,
                0.0386388
              ],
              [
                -0.3120197,
                0.0296257
              ],
              [
                -0.27481,
                0.0196625
              ],
              [
                -0.2704163,
                0.0117056
              ]
            ],
            "bounds_normalized": {
              "dimensions": [
                0.837180198,
                0.304089694
              ],
              "max": [
                0.400457858,
                0.156520041
              ],
              "min": [
                -0.436722339,
                -0.147569653
              ]
            },
            "centroid_normalized": [
              0.013101912,
              0.005939576
            ],
            "fraction": 0.25,
            "mask": {
              "encoding": "rows_top_to_bottom_1bit_text",
              "occupied_bbox_pixels": [
                3,
                11,
                27,
                20
              ],
              "occupied_fraction": 0.134765625,
              "occupied_pixel_count": 138,
              "origin": "bottom_left",
              "resolution": [
                32,
                32
              ],
              "rows": [
                "00000000000000000000000000000000",
                "00000000000000000000000000000000",
                "00000000000000000000000000000000",
                "00000000000000000000000000000000",
                "00000000000000000000000000000000",
                "00000000000000000000000000000000",
                "00000000000000000000000000000000",
                "00000000000000000000000000000000",
                "00000000000000000000000000000000",
                "00000000000000000000000000000000",
                "00000000000000000000000000000000",
                "00000000011111001101000000000000",
                "00000000011110011111100000000000",
                "00001110011111111111111111000000",
                "00011111011111111100111111100000",
                "00011111101010001100111111110000",
                "00001110101001000110111111110000",
                "00001111110111110011111111100000",
                "00000001011111111111111111000000",
                "00000000000000001011101100000000",
                "00000000000000000000100000000000",
                "00000000000000000000000000000000",
                "00000000000000000000000000000000",
                "00000000000000000000000000000000",
                "00000000000000000000000000000000",
                "00000000000000000000000000000000",
                "00000000000000000000000000000000",
                "00000000000000000000000000000000",
                "00000000000000000000000000000000",
                "00000000000000000000000000000000",
                "00000000000000000000000000000000",
                "00000000000000000000000000000000"
              ]
            },
            "plane_coordinate_native": -0.002660213,
            "segment_count": 1757
          },
          {
            "boundary_samples_normalized": [
              [
                -0.4346641,
                0.0231814
              ],
              [
                -0.4307906,
                0.017276
              ],
              [
                -0.4436448,
                0.0087157
              ],
              [
                -0.2271802,
                0.0120471
              ],
              [
                -0.2496151,
                0.0043341
              ],
              [
                -0.3812585,
                -0.0171726
              ],
              [
                -0.3686949,
                -0.0236694
              ],
              [
                -0.3451091,
                -0.0319771
              ],
              [
                -0.4365832,
                -0.0579597
              ],
              [
                -0.4052117,
                -0.0579227
              ],
              [
                -0.3736906,
                -0.0583082
              ],
              [
                -0.3590396,
                -0.0620011
              ],
              [
                -0.1860011,
                -0.0243454
              ],
              [
                -0.174007,
                -0.0262619
              ],
              [
                -0.2527757,
                -0.0588207
              ],
              [
                -0.4068297,
                -0.1205299
              ],
              [
                -0.173093,
                -0.0475477
              ],
              [
                -0.27642,
                -0.1142809
              ],
              [
                -0.2660664,
                -0.1162352
              ],
              [
                -0.230964,
                -0.1032543
              ],
              [
                -0.2181654,
                -0.1131658
              ],
              [
                -0.1548441,
                -0.0807071
              ],
              [
                -0.2028521,
                -0.1263797
              ],
              [
                -0.0172565,
                0.013044
              ],
              [
                0.0110127,
                -0.02433
              ],
              [
                0.0160674,
                -0.0238351
              ],
              [
                0.0187704,
                -0.0110861
              ],
              [
                0.1482085,
                -0.1219464
              ],
              [
                0.0037166,
                0.0114145
              ],
              [
                0.1610975,
                -0.1021989
              ],
              [
                0.1699612,
                -0.0911402
              ],
              [
                0.1704073,
                -0.0807258
              ],
              [
                0.1671932,
                -0.0723748
              ],
              [
                0.2440142,
                -0.1041816
              ],
              [
                0.06663,
                -0.01125
              ],
              [
                0.2781535,
                -0.0905453
              ],
              [
                0.2440577,
                -0.0692951
              ],
              [
                0.0595578,
                -0.0001111
              ],
              [
                0.1991406,
                -0.0423295
              ],
              [
                0.0506258,
                0.0077809
              ],
              [
                0.3898065,
                -0.0681795
              ],
              [
                0.3877848,
                -0.0592575
              ],
              [
                0.4453566,
                -0.0506248
              ],
              [
                0.4289352,
                -0.0441306
              ],
              [
                0.2846475,
                -0.0162696
              ],
              [
                0.3016204,
                -0.0090314
              ],
              [
                0.0015497,
                0.023251
              ],
              [
                0.4590131,
                -0.0109505
              ],
              [
                0.4105059,
                0.000698
              ],
              [
                0.388484,
                0.0134375
              ],
              [
                0.4442251,
                0.0354715
              ],
              [
                0.3809808,
                0.0454338
              ],
              [
                0.3750641,
                0.0533761
              ],
              [
                0.4433681,
                0.0676607
              ],
              [
                0.0312547,
                0.0301989
              ],
              [
                0.4197527,
                0.0978201
              ],
              [
                0.3929449,
                0.1106698
              ],
              [
                0.3861471,
                0.1170117
              ],
              [
                0.2467361,
                0.0908755
              ],
              [
                0.2480805,
                0.0978805
              ],
              [
                0.3479232,
                0.1472237
              ],
              [
                0.3224542,
                0.1573945
              ],
              [
                0.2892259,
                0.1556098
              ],
              [
                0.022613,
                0.0418155
              ],
              [
                0.2057982,
                0.1473208
              ],
              [
                0.1823629,
                0.1450355
              ],
              [
                0.0929685,
                0.0961925
              ],
              [
                0.1114403,
                0.1177731
              ],
              [
                0.1002129,
                0.118731
              ],
              [
                0.047431,
                0.0811944
              ],
              [
                0.1260947,
                0.1923557
              ],
              [
                0.0123798,
                0.0804027
              ],
              [
                -0.0118307,
                0.0347454
              ],
              [
                -0.0256234,
                0.1415539
              ],
              [
                -0.0355616,
                0.1753284
              ],
              [
                -0.0572554,
                0.1930152
              ],
              [
                -0.0644537,
                0.1859265
              ],
              [
                -0.1070538,
                0.1469731
              ],
              [
                -0.1804719,
                0.1954142
              ],
              [
                -0.163118,
                0.1264593
              ],
              [
                -0.201772,
                0.1383716
              ],
              [
                -0.220656,
                0.1298665
              ],
              [
                -0.2160784,
                0.122153
              ],
              [
                -0.2492148,
                0.1311662
              ],
              [
                -0.2762801,
                0.1294393
              ],
              [
                -0.3334039,
                0.1348486
              ],
              [
                -0.3653785,
                0.1305881
              ],
              [
                -0.340063,
                0.1086001
              ],
              [
                -0.3352669,
                0.0998973
              ],
              [
                -0.2815107,
                0.0795306
              ],
              [
                -0.2050831,
                0.0564112
              ],
              [
                -0.252353,
                0.0565879
              ],
              [
                -0.3904034,
                0.0634169
              ],
              [
                -0.2548252,
                0.0410468
              ],
              [
                -0.4712433,
                0.0442838
              ],
              [
                -0.4826829,
                0.0358
              ]
            ],
            "bounds_normalized": {
              "dimensions": [
                0.973067593,
                0.327016384
              ],
              "max": [
                0.482632531,
                0.198342591
              ],
              "min": [
                -0.490435062,
                -0.128673793
              ]
            },
            "centroid_normalized": [
              -0.011968194,
              0.024584091
            ],
            "fraction": 0.5,
            "mask": {
              "encoding": "rows_top_to_bottom_1bit_text",
              "occupied_bbox_pixels": [
                2,
                12,
                29,
                21
              ],
              "occupied_fraction": 0.150390625,
              "occupied_pixel_count": 154,
              "origin": "bottom_left",
              "resolution": [
                32,
                32
              ],
              "rows": [
                "00000000000000000000000000000000",
                "00000000000000000000000000000000",
                "00000000000000000000000000000000",
                "00000000000000000000000000000000",
                "00000000000000000000000000000000",
                "00000000000000000000000000000000",
                "00000000000000000000000000000000",
                "00000000000000000000000000000000",
                "00000000000000000000000000000000",
                "00000000000000000000000000000000",
                "00000000001100110001110000000000",
                "00000001110010110000111111000000",
                "00000111111110110011010011111000",
                "00010111111100011111001100111000",
                "00101111111000011011100100111000",
                "00111000110000011100001110111000",
                "00011110011111111100011111001100",
                "00111111111100000001111111111000",
                "00111110111100000111111110000000",
                "00001001111100000111101000000000",
                "00000000000000000000000000000000",
                "00000000000000000000000000000000",
                "00000000000000000000000000000000",
                "00000000000000000000000000000000",
                "00000000000000000000000000000000",
                "00000000000000000000000000000000",
                "00000000000000000000000000000000",
                "00000000000000000000000000000000",
                "00000000000000000000000000000000",
                "00000000000000000000000000000000",
                "00000000000000000000000000000000",
                "00000000000000000000000000000000"
              ]
            },
            "plane_coordinate_native": 0.000235201,
            "segment_count": 1968
          },
          {
            "boundary_samples_normalized": [
              [
                -0.3339048,
                0.0382376
              ],
              [
                -0.1724503,
                0.0349478
              ],
              [
                -0.178322,
                0.0317632
              ],
              [
                -0.0943399,
                0.0340282
              ],
              [
                -0.2111672,
                0.0258274
              ],
              [
                -0.0865603,
                0.0320431
              ],
              [
                -0.0861564,
                0.0313465
              ],
              [
                -0.2207504,
                0.0176045
              ],
              [
                -0.2359848,
                0.0143726
              ],
              [
                -0.1760788,
                0.0175003
              ],
              [
                -0.2058219,
                0.0101556
              ],
              [
                -0.1138899,
                0.0158539
              ],
              [
                -0.1417932,
                0.0089088
              ],
              [
                -0.119324,
                0.0108789
              ],
              [
                -0.1974554,
                -0.0087735
              ],
              [
                -0.2141208,
                -0.0172955
              ],
              [
                -0.2335453,
                -0.0356665
              ],
              [
                -0.2353678,
                -0.0402762
              ],
              [
                -0.3587713,
                -0.0894472
              ],
              [
                -0.352002,
                -0.0925494
              ],
              [
                -0.1551232,
                -0.0297423
              ],
              [
                -0.161874,
                -0.0506233
              ],
              [
                -0.1904188,
                -0.0791316
              ],
              [
                -0.1206478,
                -0.0688126
              ],
              [
                0.0043458,
                0.0117668
              ],
              [
                0.0859158,
                -0.0390229
              ],
              [
                0.1748224,
                -0.1108909
              ],
              [
                0.1777214,
                -0.1008057
              ],
              [
                0.1271385,
                -0.0492062
              ],
              [
                0.199666,
                -0.0943551
              ],
              [
                0.1701697,
                -0.0620511
              ],
              [
                0.1871092,
                -0.0644946
              ],
              [
                0.18058,
                -0.0545882
              ],
              [
                0.2317366,
                -0.0735192
              ],
              [
                0.1703212,
                -0.0356133
              ],
              [
                0.0736263,
                0.0130893
              ],
              [
                0.0786409,
                0.0184574
              ],
              [
                0.2676977,
                -0.0394782
              ],
              [
                0.1805337,
                -0.0093936
              ],
              [
                0.291352,
                -0.0336718
              ],
              [
                0.1851696,
                -0.00178
              ],
              [
                0.3359875,
                -0.0270151
              ],
              [
                0.0845855,
                0.0265162
              ],
              [
                0.1592372,
                0.0219617
              ],
              [
                0.2965781,
                0.0200675
              ],
              [
                0.2850965,
                0.0272152
              ],
              [
                0.2540959,
                0.0353905
              ],
              [
                0.3046191,
                0.0381622
              ],
              [
                0.3141701,
                0.049069
              ],
              [
                0.2702361,
                0.0536821
              ],
              [
                0.2645478,
                0.0595868
              ],
              [
                0.2771175,
                0.0667204
              ],
              [
                0.3317182,
                0.0788984
              ],
              [
                0.1693825,
                0.0605986
              ],
              [
                0.1651783,
                0.0632291
              ],
              [
                0.2810106,
                0.0862029
              ],
              [
                0.3200443,
                0.0981082
              ],
              [
                0.2748918,
                0.0921866
              ],
              [
                0.3093801,
                0.1048544
              ],
              [
                0.2589547,
                0.0981152
              ],
              [
                0.1568244,
                0.0765778
              ],
              [
                0.2995232,
                0.1203952
              ],
              [
                0.2683471,
                0.1155607
              ],
              [
                0.2892924,
                0.1258755
              ],
              [
                0.2766901,
                0.1280015
              ],
              [
                0.1596592,
                0.0983363
              ],
              [
                0.1610788,
                0.1124607
              ],
              [
                0.2181211,
                0.1500184
              ],
              [
                0.0923484,
                0.0903795
              ],
              [
                0.2102386,
                0.1919475
              ],
              [
                0.1573612,
                0.1591082
              ],
              [
                0.1343275,
                0.1539764
              ],
              [
                0.0568183,
                0.0901685
              ],
              [
                0.0389604,
                0.0875424
              ],
              [
                0.0613363,
                0.1657782
              ],
              [
                0.0527815,
                0.1719868
              ],
              [
                0.034532,
                0.1762755
              ],
              [
                0.0184885,
                0.1692334
              ],
              [
                -0.0307409,
                0.1124141
              ],
              [
                -0.1243089,
                0.1539424
              ],
              [
                -0.0406749,
                0.0720871
              ],
              [
                -0.2062791,
                0.1117261
              ],
              [
                -0.2088902,
                0.1094978
              ],
              [
                -0.1458836,
                0.0861949
              ],
              [
                -0.1514967,
                0.0843964
              ],
              [
                -0.2085335,
                0.0916369
              ],
              [
                -0.2507287,
                0.0943167
              ],
              [
                -0.2489421,
                0.0845644
              ],
              [
                -0.2440787,
                0.0755689
              ],
              [
                -0.1819362,
                0.0618362
              ],
              [
                -0.2854128,
                0.0681501
              ],
              [
                -0.1536101,
                0.0531332
              ],
              [
                -0.2861209,
                0.0600414
              ],
              [
                -0.3289372,
                0.0546878
              ],
              [
                -0.3158691,
                0.0517581
              ],
              [
                -0.1920346,
                0.0421768
              ]
            ],
            "bounds_normalized": {
              "dimensions": [
                0.729200064,
                0.308136054
              ],
              "max": [
                0.361361089,
                0.196392837
              ],
              "min": [
                -0.367838975,
                -0.111743217
              ]
            },
            "centroid_normalized": [
              0.016421806,
              0.039309964
            ],
            "fraction": 0.75,
