{
  "bounds": {
    "center": [
      -0.050899666,
      0.03673385,
      -0.068116531
    ],
    "diagonal": 0.070481371,
    "dimensions": [
      0.047190912,
      0.028150948,
      0.044138029
    ],
    "max": [
      -0.02730421,
      0.050809324,
      -0.046047516
    ],
    "min": [
      -0.074495122,
      0.022658376,
      -0.090185545
    ]
  },
  "centroids": {
    "surface_area_weighted": [
      -0.057505411,
      0.031331066,
      -0.065390538
    ],
    "vertex_mean": [
      -0.054588659,
      0.031091159,
      -0.063315527
    ],
    "volume_if_watertight": null
  },
  "cleaning": {
    "degenerate_faces_removed": 0,
    "unused_vertices_removed": 0,
    "vertices_welded": 0,
    "weld_tolerance": 0.0
  },
  "counts": {
    "analyzed_face_count": 2332,
    "analyzed_vertex_count": 1175,
    "source_face_count": 2332,
    "source_vertex_count": 1175
  },
  "mesh_name": "VH_F_right_uterine_vein",
  "pca": {
    "basis": "exact_uniform_surface_moments",
    "eigenvalues": [
      0.000410904,
      4.5396e-05,
      5.77e-07
    ],
    "oriented_bounds": {
      "center": [
        0.001356838,
        0.003003369,
        -7.7956e-05
      ],
      "dimensions": [
        0.062991586,
        0.024306327,
        0.004159115
      ],
      "max": [
        0.032852631,
        0.015156533,
        0.002001601
      ],
      "min": [
        -0.030138955,
        -0.009149794,
        -0.002157513
      ]
    },
    "principal_axes_world": [
      [
        0.698032859,
        -0.281048949,
        0.658605813
      ],
      [
        0.567297956,
        0.778292348,
        -0.269135747
      ],
      [
        -0.436947546,
        0.561491326,
        0.702712127
      ]
    ]
  },
  "sampling": {
    "cross_sections_pca": {
      "pca_axis_0": {
        "axis": 0,
        "in_plane_axes": [
          1,
          2
        ],
        "slices": [
          {
            "boundary_samples_normalized": [
              [
                -0.0413,
                0.0122602
              ],
              [
                -0.0413873,
                0.0116368
              ],
              [
                -0.0393057,
                0.0067028
              ],
              [
                -0.0391294,
                0.0063122
              ],
              [
                -0.0390654,
                0.0062638
              ],
              [
                -0.0335079,
                0.0021381
              ],
              [
                -0.0311623,
                0.001328
              ],
              [
                -0.0262562,
                -0.0004597
              ],
              [
                -0.0231703,
                -0.0006499
              ],
              [
                -0.018253,
                -0.000948
              ],
              [
                -0.0169757,
                -0.0006374
              ],
              [
                -0.0120306,
                0.0005405
              ],
              [
                -0.0108897,
                0.0007564
              ],
              [
                -0.010601,
                0.0008122
              ],
              [
                -0.0054941,
                0.0035766
              ],
              [
                -0.0042001,
                0.0042344
              ],
              [
                -0.0016787,
                0.0077578
              ],
              [
                -0.000581,
                0.0092739
              ],
              [
                4.13e-05,
                0.0131572
              ],
              [
                0.0004121,
                0.0150154
              ],
              [
                -0.0010882,
                0.0192827
              ],
              [
                -0.0015099,
                0.0206591
              ],
              [
                -0.0024493,
                0.0214502
              ],
              [
                -0.0063722,
                0.0251558
              ],
              [
                -0.0065084,
                0.0252024
              ],
              [
                -0.0069964,
                0.0253358
              ],
              [
                -0.0122895,
                0.0267424
              ],
              [
                -0.0137488,
                0.027098
              ],
              [
                -0.0184485,
                0.0272294
              ],
              [
                -0.021943,
                0.0271969
              ],
              [
                -0.0247437,
                0.0266324
              ],
              [
                -0.0298251,
                0.0254794
              ],
              [
                -0.0308284,
                0.0249525
              ],
              [
                -0.0358767,
                0.0222752
              ],
              [
                -0.0362509,
                0.0220563
              ],
              [
                -0.0363246,
                0.0220145
              ],
              [
                -0.0401238,
                0.0177604
              ],
              [
                -0.0406063,
                0.0172012
              ]
            ],
            "bounds_normalized": {
              "dimensions": [
                0.041799321,
                0.028177325
              ],
              "max": [
                0.00041207,
                0.027229359
              ],
              "min": [
                -0.041387251,
                -0.000947967
              ]
            },
            "centroid_normalized": [
              -0.020012333,
              0.013757784
            ],
            "fraction": 0.1,
            "mask": {
              "encoding": "rows_top_to_bottom_1bit_text",
              "occupied_bbox_pixels": [
                14,
                15,
                16,
                16
              ],
              "occupied_fraction": 0.00390625,
              "occupied_pixel_count": 4,
              "origin": "bottom_left",
              "resolution": [
                32,
                32
              ],
              "rows": [
                "00000000000000000000000000000000",
                "00000000000000000000000000000000",
                "00000000000000000000000000000000",
                "00000000000000000000000000000000",
                "00000000000000000000000000000000",
                "00000000000000000000000000000000",
                "00000000000000000000000000000000",
                "00000000000000000000000000000000",
                "00000000000000000000000000000000",
                "00000000000000000000000000000000",
                "00000000000000000000000000000000",
                "00000000000000000000000000000000",
                "00000000000000000000000000000000",
                "00000000000000000000000000000000",
                "00000000000000000000000000000000",
                "00000000000000111000000000000000",
                "00000000000000010000000000000000",
                "00000000000000000000000000000000",
                "00000000000000000000000000000000",
                "00000000000000000000000000000000",
                "00000000000000000000000000000000",
                "00000000000000000000000000000000",
                "00000000000000000000000000000000",
                "00000000000000000000000000000000",
                "00000000000000000000000000000000",
                "00000000000000000000000000000000",
                "00000000000000000000000000000000",
                "00000000000000000000000000000000",
                "00000000000000000000000000000000",
                "00000000000000000000000000000000",
                "00000000000000000000000000000000",
                "00000000000000000000000000000000"
              ]
            },
            "plane_coordinate_native": -0.023839797,
            "segment_count": 38
          },
          {
            "boundary_samples_normalized": [
              [
                -0.1233189,
                0.0003372
              ],
              [
                -0.1229172,
                -0.0006805
              ],
              [
                -0.121647,
                -0.0038748
              ],
              [
                -0.1201044,
                -0.0052298
              ],
              [
                -0.1179116,
                -0.0071387
              ],
              [
                -0.1146226,
                -0.0082796
              ],
              [
                -0.1128137,
                -0.0089077
              ],
              [
                -0.1077912,
                -0.0089672
              ],
              [
                -0.1071196,
                -0.0089787
              ],
              [
                -0.1036475,
                -0.0080272
              ],
              [
                -0.1015681,
                -0.0074844
              ],
              [
                -0.0975762,
                -0.0050319
              ],
              [
                -0.0969547,
                -0.0046323
              ],
              [
                -0.0945328,
                -0.0013672
              ],
              [
                -0.0940658,
                -0.0007199
              ],
              [
                -0.0934801,
                0.0032048
              ],
              [
                -0.093406,
                0.0036863
              ],
              [
                -0.0946399,
                0.0068746
              ],
              [
                -0.0950191,
                0.0078785
              ],
              [
                -0.0951576,
                0.0080058
              ],
              [
                -0.0985413,
                0.0111594
              ],
              [
                -0.0998609,
                0.0116521
              ],
              [
                -0.1034835,
                0.0130173
              ],
              [
                -0.1063914,
                0.0131114
              ],
              [
                -0.1091743,
                0.0131934
              ],
              [
                -0.1131928,
                0.0121381
              ],
              [
                -0.1148245,
                0.0116909
              ],
              [
                -0.1158805,
                0.0110124
              ],
              [
                -0.1195584,
                0.0087483
              ],
              [
                -0.1200159,
                0.0081207
              ],
              [
                -0.1225607,
                0.0047687
              ],
              [
                -0.1226741,
                0.0040777
              ]
            ],
            "bounds_normalized": {
              "dimensions": [
                0.02991297,
                0.022172113
              ],
              "max": [
                -0.093405966,
                0.013193377
              ],
              "min": [
                -0.123318936,
                -0.008978737
              ]
            },
            "centroid_normalized": [
              -0.107951643,
              0.002292418
            ],
            "fraction": 0.25,
            "mask": {
              "encoding": "rows_top_to_bottom_1bit_text",
              "occupied_bbox_pixels": [
                12,
                15,
                13,
                16
              ],
              "occupied_fraction": 0.00390625,
              "occupied_pixel_count": 4,
              "origin": "bottom_left",
              "resolution": [
                32,
                32
              ],
              "rows": [
                "00000000000000000000000000000000",
                "00000000000000000000000000000000",
                "00000000000000000000000000000000",
                "00000000000000000000000000000000",
                "00000000000000000000000000000000",
                "00000000000000000000000000000000",
                "00000000000000000000000000000000",
                "00000000000000000000000000000000",
                "00000000000000000000000000000000",
                "00000000000000000000000000000000",
                "00000000000000000000000000000000",
                "00000000000000000000000000000000",
                "00000000000000000000000000000000",
                "00000000000000000000000000000000",
                "00000000000000000000000000000000",
                "00000000000011000000000000000000",
                "00000000000011000000000000000000",
                "00000000000000000000000000000000",
                "00000000000000000000000000000000",
                "00000000000000000000000000000000",
                "00000000000000000000000000000000",
                "00000000000000000000000000000000",
                "00000000000000000000000000000000",
                "00000000000000000000000000000000",
                "00000000000000000000000000000000",
                "00000000000000000000000000000000",
                "00000000000000000000000000000000",
                "00000000000000000000000000000000",
                "00000000000000000000000000000000",
                "00000000000000000000000000000000",
                "00000000000000000000000000000000",
                "00000000000000000000000000000000"
              ]
            },
            "plane_coordinate_native": -0.014391059,
            "segment_count": 32
          },
          {
            "boundary_samples_normalized": [
              [
                -0.1908849,
                0.0037708
              ],
              [
                -0.1900249,
                0.0006502
              ],
              [
                -0.1888109,
                -0.0007036
              ],
              [
                -0.1866747,
                -0.0031172
              ],
              [
                -0.1843255,
                -0.0043178
              ],
              [
                -0.1815981,
                -0.0057796
              ],
              [
                -0.1782596,
                -0.0063756
              ],
              [
                -0.1755477,
                -0.0069317
              ],
              [
                -0.1718605,
                -0.006579
              ],
              [
                -0.1695341,
                -0.0064286
              ],
              [
                -0.1663074,
                -0.0050726
              ],
              [
                -0.1644667,
                -0.0043627
              ],
              [
                -0.1632084,
                -0.0031535
              ],
              [
                -0.1610625,
                -0.0010348
              ],
              [
                -0.1605789,
                0.0006547
              ],
              [
                -0.1598523,
                0.0030867
              ],
              [
                -0.16046,
                0.0051473
              ],
              [
                -0.161059,
                0.0073027
              ],
              [
                -0.1631027,
                0.0094579
              ],
              [
                -0.1645172,
                0.010951
              ],
              [
                -0.168101,
                0.0127351
              ],
              [
                -0.1697114,
                0.0135045
              ],
              [
                -0.1744399,
                0.0144018
              ],
              [
                -0.1758285,
                0.0146259
              ],
              [
                -0.1807571,
                0.0142757
              ],
              [
                -0.1818197,
                0.0141664
              ],
              [
                -0.1826482,
                0.0138144
              ],
              [
                -0.1867756,
                0.0122133
              ],
              [
                -0.1873301,
                0.0116584
              ],
              [
                -0.1900489,
                0.0090268
              ],
              [
                -0.1902909,
                0.0081846
              ],
              [
                -0.191196,
                0.0049343
              ]
            ],
            "bounds_normalized": {
              "dimensions": [
                0.031343655,
                0.021557611
              ],
              "max": [
                -0.159852349,
                0.014625865
              ],
              "min": [
                -0.191196004,
                -0.006931746
              ]
            },
            "centroid_normalized": [
              -0.17565886,
              0.004084553
            ],
            "fraction": 0.5,
            "mask": {
              "encoding": "rows_top_to_bottom_1bit_text",
              "occupied_bbox_pixels": [
                10,
                15,
                11,
                16
              ],
              "occupied_fraction": 0.00390625,
              "occupied_pixel_count": 4,
              "origin": "bottom_left",
              "resolution": [
                32,
                32
              ],
              "rows": [
                "00000000000000000000000000000000",
                "00000000000000000000000000000000",
                "00000000000000000000000000000000",
                "00000000000000000000000000000000",
                "00000000000000000000000000000000",
                "00000000000000000000000000000000",
                "00000000000000000000000000000000",
                "00000000000000000000000000000000",
                "00000000000000000000000000000000",
                "00000000000000000000000000000000",
                "00000000000000000000000000000000",
                "00000000000000000000000000000000",
                "00000000000000000000000000000000",
                "00000000000000000000000000000000",
                "00000000000000000000000000000000",
                "00000000001100000000000000000000",
                "00000000001100000000000000000000",
                "00000000000000000000000000000000",
                "00000000000000000000000000000000",
                "00000000000000000000000000000000",
                "00000000000000000000000000000000",
                "00000000000000000000000000000000",
                "00000000000000000000000000000000",
                "00000000000000000000000000000000",
                "00000000000000000000000000000000",
                "00000000000000000000000000000000",
                "00000000000000000000000000000000",
                "00000000000000000000000000000000",
                "00000000000000000000000000000000",
                "00000000000000000000000000000000",
                "00000000000000000000000000000000",
                "00000000000000000000000000000000"
              ]
            },
            "plane_coordinate_native": 0.001356838,
            "segment_count": 32
          },
          {
            "boundary_samples_normalized": [
              [
                -0.1120787,
                -0.0062851
              ],
              [
                -0.1112226,
                -0.0072801
              ],
              [
                -0.1089804,
                -0.0098372
              ],
              [
                -0.1070813,
                -0.0109888
              ],
              [
                -0.1041419,
                -0.0127985
              ],
              [
                -0.1011015,
                -0.0137257
              ],
              [
                -0.0985283,
                -0.0145704
              ],
              [
                -0.0945734,
                -0.0146155
              ],
              [
                -0.0927984,
                -0.0147006
              ],
              [
                -0.0915633,
                -0.0143381
              ],
              [
                -0.0878024,
                -0.0129478
              ],
              [
                -0.0872305,
                -0.0124626
              ],
              [
                -0.0844052,
                -0.0097055
              ],
              [
                -0.0842534,
                -0.0092402
              ],
              [
                -0.0832822,
                -0.0057009
              ],
              [
                -0.0834444,
                -0.005175
              ],
              [
                -0.0845684,
                -0.0016343
              ],
              [
                -0.085261,
                -0.0009576
              ],
              [
                -0.0880163,
                0.0018061
              ],
              [
                -0.0896022,
                0.0025688
              ],
              [
                -0.0929749,
                0.0041979
              ],
              [
                -0.0955432,
                0.0047348
              ],
              [
                -0.0984984,
                0.005296
              ],
              [
                -0.1018157,
                0.0052514
              ],
              [
                -0.1039427,
                0.0051409
              ],
              [
                -0.1054154,
                0.004534
              ],
              [
                -0.1086109,
                0.0035211
              ],
              [
                -0.1093743,
                0.0027793
              ],
              [
                -0.1118026,
                0.0007761
              ],
              [
                -0.112041,
                4.1e-05
              ],
              [
                -0.1130178,
                -0.0026004
              ],
              [
                -0.1128149,
                -0.003409
              ]
            ],
            "bounds_normalized": {
              "dimensions": [
                0.02973563,
                0.019996586
              ],
              "max": [
                -0.083282172,
                0.00529595
              ],
              "min": [
                -0.113017802,
                -0.014700636
              ]
            },
            "centroid_normalized": [
              -0.09830586,
              -0.00444769
            ],
            "fraction": 0.75,
            "mask": {
              "encoding": "rows_top_to_bottom_1bit_text",
              "occupied_bbox_pixels": [
                12,
                15,
                13,
                16
              ],
              "occupied_fraction": 0.00390625,
              "occupied_pixel_count": 4,
              "origin": "bottom_left",
              "resolution": [
                32,
                32
              ],
              "rows": [
                "00000000000000000000000000000000",
                "00000000000000000000000000000000",
                "00000000000000000000000000000000",
                "00000000000000000000000000000000",
                "00000000000000000000000000000000",
                "00000000000000000000000000000000",
                "00000000000000000000000000000000",
                "00000000000000000000000000000000",
                "00000000000000000000000000000000",
                "00000000000000000000000000000000",
                "00000000000000000000000000000000",
                "00000000000000000000000000000000",
                "00000000000000000000000000000000",
                "00000000000000000000000000000000",
                "00000000000000000000000000000000",
                "00000000000011000000000000000000",
                "00000000000011000000000000000000",
                "00000000000000000000000000000000",
                "00000000000000000000000000000000",
                "00000000000000000000000000000000",
                "00000000000000000000000000000000",
                "00000000000000000000000000000000",
                "00000000000000000000000000000000",
                "00000000000000000000000000000000",
                "00000000000000000000000000000000",
                "00000000000000000000000000000000",
                "00000000000000000000000000000000",
                "00000000000000000000000000000000",
                "00000000000000000000000000000000",
                "00000000000000000000000000000000",
                "00000000000000000000000000000000",
                "00000000000000000000000000000000"
              ]
            },
            "plane_coordinate_native": 0.017104734,
            "segment_count": 32
          },
          {
            "boundary_samples_normalized": [
              [
                0.0170821,
                -0.0108574
              ],
              [
                0.0170835,
                -0.0108932
              ],
              [
                0.0171332,
                -0.0109684
              ],
              [
                0.0197793,
                -0.0149618
              ],
              [
                0.0232563,
                -0.0170015
              ],
              [
                0.024746,
                -0.0178855
              ],
              [
                0.0265737,
                -0.0182571
              ],
              [
                0.0311751,
                -0.0190803
              ],
              [
                0.0366265,
                -0.0185541
              ],
              [
                0.0379926,
                -0.0184252
              ],
              [
                0.0394826,
                -0.0178677
              ],
              [
                0.0441454,
                -0.0161929
              ],
              [
                0.0466733,
                -0.0142458
              ],
              [
                0.0486475,
                -0.0126987
              ],
              [
                0.0496122,
                -0.0108306
              ],
              [
                0.0507607,
                -0.0085083
              ],
              [
                0.0505114,
                -0.0061555
              ],
              [
                0.0502609,
                -0.0041444
              ],
              [
                0.0472989,
                -0.0002369
              ],
              [
                0.0472865,
                -0.00022
              ],
              [
                0.0472714,
                -0.0002111
              ],
              [
                0.0423268,
                0.0026336
              ],
              [
                0.0364718,
                0.0038902
              ],
              [
                0.0361158,
                0.0039657
              ],
              [
                0.0357006,
                0.0039373
              ],
              [
                0.0295098,
                0.0034989
              ],
              [
                0.0241699,
                0.0015441
              ],
              [
                0.0235684,
                0.0013232
              ],
              [
                0.0233513,
                0.001149
              ],
              [
                0.0223889,
                0.0003765
              ],
              [
                0.0197208,
                -0.00166
              ],
              [
                0.0191017,
                -0.0021176
              ],
              [
                0.017262,
                -0.0055565
              ],
              [
                0.016827,
                -0.0063389
              ]
            ],
            "bounds_normalized": {
              "dimensions": [
                0.033933702,
                0.023045982
              ],
              "max": [
                0.050760721,
                0.003965727
              ],
              "min": [
                0.016827019,
                -0.019080255
              ]
            },
            "centroid_normalized": [
              0.032938642,
              -0.007104436
            ],
            "fraction": 0.9,
            "mask": {
              "encoding": "rows_top_to_bottom_1bit_text",
              "occupied_bbox_pixels": [
                16,
                15,
                17,
                16
              ],
              "occupied_fraction": 0.00390625,
              "occupied_pixel_count": 4,
              "origin": "bottom_left",
              "resolution": [
                32,
                32
              ],
              "rows": [
                "00000000000000000000000000000000",
                "00000000000000000000000000000000",
                "00000000000000000000000000000000",
                "00000000000000000000000000000000",
                "00000000000000000000000000000000",
                "00000000000000000000000000000000",
                "00000000000000000000000000000000",
                "00000000000000000000000000000000",
                "00000000000000000000000000000000",
                "00000000000000000000000000000000",
                "00000000000000000000000000000000",
                "00000000000000000000000000000000",
                "00000000000000000000000000000000",
                "00000000000000000000000000000000",
                "00000000000000000000000000000000",
                "00000000000000001100000000000000",
                "00000000000000001100000000000000",
                "00000000000000000000000000000000",
                "00000000000000000000000000000000",
                "00000000000000000000000000000000",
                "00000000000000000000000000000000",
                "00000000000000000000000000000000",
                "00000000000000000000000000000000",
                "00000000000000000000000000000000",
                "00000000000000000000000000000000",
                "00000000000000000000000000000000",
                "00000000000000000000000000000000",
                "00000000000000000000000000000000",
                "00000000000000000000000000000000",
                "00000000000000000000000000000000",
                "00000000000000000000000000000000",
                "00000000000000000000000000000000"
              ]
            },
            "plane_coordinate_native": 0.026553472,
            "segment_count": 34
          }
        ]
      },
      "pca_axis_1": {
        "axis": 1,
        "in_plane_axes": [
          0,
          2
        ],
        "slices": [
          {
            "boundary_samples_normalized": [
              [
                -0.1619097,
                0.0002453
              ],
              [
                -0.1644335,
                -0.0033954
              ],
              [
                -0.0594746,
                -0.0010181
              ],
              [
                -0.1629011,
                -0.0048896
              ],
              [
                -0.1600759,
                -0.0078366
              ],
              [
                -0.1580813,
                -0.0084995
              ],
              [
                -0.0622945,
                -0.003
              ],
              [
                -0.1534293,
                -0.0100575
              ],
              [
                -0.1505722,
                -0.0109709
              ],
              [
                -0.1494693,
                -0.0113191
              ],
              [
                -0.0672978,
                -0.0042801
              ],
              [
                -0.141605,
                -0.0122513
              ],
              [
                -0.1345966,
                -0.0130884
              ],
              [
                -0.1324318,
                -0.0130905
              ],
              [
                -0.1296597,
                -0.0131042
              ],
              [
                -0.0781026,
                -0.0076655
              ],
              [
                -0.1225366,
                -0.0130796
              ],
              [
                -0.0871039,
                -0.0092513
              ],
              [
                -0.1167954,
                -0.0130564
              ],
              [
                -0.1078472,
                -0.0121976
              ],
              [
                -0.0974097,
                -0.0112118
              ],
              [
                0.1183772,
                -0.0059288
              ],
              [
                0.1292046,
                -0.0059925
              ],
              [
                0.1322472,
                -0.0060209
              ],
              [
                0.1086537,
                -0.0046769
              ],
              [
                0.1357783,
                -0.0056174
              ],
              [
                0.1042414,
                -0.0041691
              ],
              [
                0.1440701,
                -0.0047088
              ],
              [
                0.0978006,
                -0.0023401
              ],
              [
                0.1512102,
                -0.002833
              ],
              [
                0.1532399,
                -0.0023473
              ],
              [
                0.1538754,
                -0.0020333
              ],
              [
                0.0923036,
                -0.0008308
              ],
              [
                0.0915061,
                -0.0002342
              ],
              [
                0.1588635,
                0.0004923
              ],
              [
                0.1592583,
                0.0015293
              ],
              [
                0.1600107,
                0.0036792
              ],
              [
                0.0881024,
                0.0026509
              ],
              [
                0.0871117,
                0.0031604
              ],
              [
                0.0867696,
                0.0033673
              ],
              [
                0.1573524,
                0.0060734
              ],
              [
                0.0878229,
                0.0042481
              ],
              [
                0.1565759,
                0.006788
              ],
              [
                0.152052,
                0.0083521
              ],
              [
                0.1490542,
                0.0094394
              ],
              [
                0.1464533,
                0.0099038
              ],
              [
                0.0897971,
                0.0073329
              ],
              [
                0.1385095,
                0.0112836
              ],
              [
                0.092063,
                0.0080228
              ],
              [
                0.1288779,
                0.011926
              ],
              [
                0.1257937,
                0.0121318
              ],
              [
                0.1209143,
                0.0120165
              ],
              [
                0.0991637,
                0.0102127
              ],
              [
                0.1069592,
                0.0110082
              ],
              [
                0.1123418,
                0.011793
              ],
              [
                -0.0790928,
                0.0079014
              ],
              [
                -0.0761364,
                0.0073415
              ],
              [
                -0.0864071,
                0.0082313
              ],
              [
                -0.0938707,
                0.0086369
              ],
              [
                -0.0993074,
                0.0091254
              ],
              [
                -0.0969366,
                0.0089011
              ],
              [
                -0.0713971,
                0.0065169
              ],
              [
                -0.0665322,
                0.0059284
              ],
              [
                -0.062359,
                0.0054584
              ],
              [
                -0.107321,
                0.0090817
              ],
              [
                -0.1160178,
                0.0090744
              ],
              [
                -0.1177566,
                0.0091019
              ],
              [
                -0.119159,
                0.0091256
              ],
              [
                -0.1322368,
                0.0081154
              ],
              [
                -0.05917,
                0.0036405
              ],
              [
                -0.1368634,
                0.0077586
              ],
              [
                -0.1379122,
                0.0075598
              ],
              [
                -0.1515183,
                0.0050357
              ],
              [
                -0.0555196,
                0.0017109
              ],
              [
                -0.1585018,
                0.0021934
              ],
              [
                -0.1613654,
                0.0011155
              ]
            ],
            "bounds_normalized": {
              "dimensions": [
                0.324444123,
                0.02523602
              ],
              "max": [
                0.160010673,
                0.012131828
              ],
              "min": [
                -0.16443345,
                -0.013104192
              ]
            },
            "centroid_normalized": [
              -0.007461226,
              0.000871251
            ],
            "fraction": 0.1,
            "mask": {
              "encoding": "rows_top_to_bottom_1bit_text",
              "occupied_bbox_pixels": [
                11,
                15,
                20,
                16
              ],
              "occupied_fraction": 0.013671875,
              "occupied_pixel_count": 14,
              "origin": "bottom_left",
              "resolution": [
                32,
                32
              ],
              "rows": [
                "00000000000000000000000000000000",
                "00000000000000000000000000000000",
                "00000000000000000000000000000000",
                "00000000000000000000000000000000",
                "00000000000000000000000000000000",
                "00000000000000000000000000000000",
                "00000000000000000000000000000000",
                "00000000000000000000000000000000",
                "00000000000000000000000000000000",
                "00000000000000000000000000000000",
                "00000000000000000000000000000000",
                "00000000000000000000000000000000",
                "00000000000000000000000000000000",
                "00000000000000000000000000000000",
                "00000000000000000000000000000000",
                "00000000000111100011100000000000",
                "00000000000111100011100000000000",
                "00000000000000000000000000000000",
                "00000000000000000000000000000000",
                "00000000000000000000000000000000",
                "00000000000000000000000000000000",
                "00000000000000000000000000000000",
                "00000000000000000000000000000000",
                "00000000000000000000000000000000",
                "00000000000000000000000000000000",
                "00000000000000000000000000000000",
                "00000000000000000000000000000000",
                "00000000000000000000000000000000",
                "00000000000000000000000000000000",
                "00000000000000000000000000000000",
                "00000000000000000000000000000000",
                "00000000000000000000000000000000"
              ]
            },
            "plane_coordinate_native": -0.006719161,
            "segment_count": 76
          },
          {
            "boundary_samples_normalized": [
              [
                -0.2426192,
                -2.73e-05
              ],
              [
                -0.3125483,
                -0.0006183
              ],
              [
                -0.3118173,
                -0.0009809
              ],
              [
                -0.2432156,
                -0.0012537
              ],
              [
                -0.3095258,
                -0.0021036
              ],
              [
                -0.2473632,
                -0.0028437
              ],
              [
                -0.3054163,
                -0.0039358
              ],
              [
                -0.3039599,
                -0.0045662
              ],
              [
                -0.2513343,
                -0.0045462
              ],
              [
                -0.2978711,
                -0.005862
              ],
              [
                -0.2594396,
                -0.0059303
              ],
              [
                -0.2920034,
                -0.0070208
              ],
              [
                -0.289947,
                -0.0071246
              ],
              [
                -0.2867118,
                -0.0072581
              ],
              [
                -0.2637866,
                -0.0066579
              ],
              [
                -0.2648259,
                -0.006696
              ],
              [
                -0.266231,
                -0.0067591
              ],
              [
                -0.2815427,
                -0.0075088
              ],
              [
                -0.2731615,
                -0.0072568
              ],
              [
                -0.2780417,
                -0.0076541
              ],
              [
                0.2539063,
                -0.0149203
              ],
              [
                0.24784,
                -0.0144135
              ],
              [
                0.243149,
                -0.0141718
              ],
              [
                0.2553656,
                -0.0147981
              ],
              [
                0.2588941,
                -0.0145739
              ],
              [
                0.2628507,
                -0.0142405
              ],
              [
                0.2645309,
                -0.0141254
              ],
              [
                0.2346355,
                -0.0121765
              ],
              [
                0.2339303,
                -0.012028
              ],
              [
                0.233626,
                -0.0118986
              ],
              [
                0.2698281,
                -0.0128419
              ],
              [
                0.2738651,
                -0.0118863
              ],
              [
                0.2760189,
                -0.0107316
              ],
              [
                0.2271717,
                -0.0088912
              ],
              [
                0.2261526,
                -0.0075476
              ],
              [
                0.2801028,
                -0.0085003
              ],
              [
                0.2805139,
                -0.0076829
              ],
              [
                0.2246757,
                -0.0053051
              ],
              [
                0.2255858,
                -0.0037549
              ],
              [
                0.282146,
                -0.0044279
              ],
              [
                0.281673,
                -0.0036315
              ],
              [
                0.2268756,
                -0.0016578
              ],
              [
                0.2289592,
                -0.0006757
              ],
              [
                0.2798786,
                -0.0002947
              ],
              [
                0.2773736,
                0.00105
              ],
              [
                0.2336066,
                0.0015594
              ],
              [
                0.2345635,
                0.0017911
              ],
              [
                0.2369453,
                0.0023587
              ],
              [
                0.2737023,
                0.0031965
              ],
              [
                0.2415165,
                0.0035882
              ],
              [
                0.2432394,
                0.0040545
              ],
              [
                0.2658893,
                0.0049243
              ],
              [
                0.2488972,
                0.0047854
              ],
              [
                0.2647058,
                0.005214
              ],
              [
                0.2640705,
                0.0052357
              ],
              [
                0.2625048,
                0.0052516
              ],
              [
                0.256507,
                0.0053849
              ],
              [
                0.2539853,
                0.005361
              ],
              [
                -0.2832998,
                0.0156732
              ],
              [
                -0.2798155,
                0.0153961
              ],
              [
                -0.2747083,
                0.0149889
              ],
              [
                -0.2712814,
                0.0146968
              ],
              [
                -0.2688674,
                0.0144838
              ],
              [
                -0.2881561,
                0.0154668
              ],
              [
                -0.295156,
                0.0151598
              ],
              [
                -0.262946,
                0.0131837
              ],
              [
                -0.2964058,
                0.0150854
              ],
              [
                -0.2972521,
                0.0150382
              ],
              [
                -0.3000804,
                0.0144117
              ],
              [
                -0.2557606,
                0.0116183
              ],
              [
                -0.2548552,
                0.0112282
              ],
              [
                -0.2525239,
                0.0102557
              ],
              [
                -0.3083514,
                0.0125867
              ],
              [
                -0.2478366,
                0.0083429
              ],
              [
                -0.2458132,
                0.0075334
              ],
              [
                -0.3136489,
                0.0096675
              ],
              [
                -0.3151286,
                0.008737
              ],
              [
                -0.3152701,
                0.0082609
              ],
              [
                -0.242922,
                0.0046489
              ],
              [
                -0.3164396,
                0.0040996
              ],
              [
                -0.2412197,
                0.0029676
              ],
              [
                -0.3156487,
                0.0031219
              ]
            ],
            "bounds_normalized": {
              "dimensions": [
                0.598585595,
                0.03059342
              ],
              "max": [
                0.282145989,
                0.015673156
              ],
              "min": [
                -0.316439606,
                -0.014920264
              ]
            },
            "centroid_normalized": [
              -0.032866667,
              -1.6735e-05
            ],
            "fraction": 0.25,
            "mask": {
              "encoding": "rows_top_to_bottom_1bit_text",
              "occupied_bbox_pixels": [
                7,
                15,
                23,
                16
              ],
              "occupied_fraction": 0.009765625,
              "occupied_pixel_count": 10,
              "origin": "bottom_left",
              "resolution": [
                32,
                32
              ],
              "rows": [
                "00000000000000000000000000000000",
                "00000000000000000000000000000000",
                "00000000000000000000000000000000",
                "00000000000000000000000000000000",
                "00000000000000000000000000000000",
                "00000000000000000000000000000000",
                "00000000000000000000000000000000",
                "00000000000000000000000000000000",
                "00000000000000000000000000000000",
                "00000000000000000000000000000000",
                "00000000000000000000000000000000",
                "00000000000000000000000000000000",
                "00000000000000000000000000000000",
                "00000000000000000000000000000000",
                "00000000000000000000000000000000",
                "00000001110000000000001100000000",
                "00000001110000000000001100000000",
                "00000000000000000000000000000000",
                "00000000000000000000000000000000",
                "00000000000000000000000000000000",
                "00000000000000000000000000000000",
                "00000000000000000000000000000000",
                "00000000000000000000000000000000",
                "00000000000000000000000000000000",
                "00000000000000000000000000000000",
                "00000000000000000000000000000000",
                "00000000000000000000000000000000",
                "00000000000000000000000000000000",
                "00000000000000000000000000000000",
                "00000000000000000000000000000000",
                "00000000000000000000000000000000",
                "00000000000000000000000000000000"
              ]
            },
            "plane_coordinate_native": -0.003073212,
            "segment_count": 82
          },
          {
            "boundary_samples_normalized": [
              [
                -0.4147254,
                -0.0014942
              ],
              [
                -0.4274376,
                -0.0017924
              ],
              [
                -0.4172975,
                -0.0024229
              ],
              [
                -0.4182665,
                -0.002476
              ],
              [
                -0.4245221,
                -0.0027193
              ],
              [
                0.3617508,
                -0.0245255
              ],
              [
                0.3628289,
                -0.0244212
              ],
              [
                0.3577265,
                -0.0236807
              ],
              [
                0.367567,
                -0.0240176
              ],
              [
                0.35541,
                -0.0232522
              ],
              [
                0.3685009,
                -0.0239183
              ],
              [
                0.3687157,
                -0.0238961
              ],
              [
                0.3523696,
                -0.0213362
              ],
              [
                0.3742281,
                -0.0217948
              ],
              [
                0.3506434,
                -0.0202116
              ],
              [
                0.3753197,
                -0.0213727
              ],
              [
                0.3792522,
                -0.0183522
              ],
              [
                0.3482472,
                -0.0161764
              ],
              [
                0.3804167,
                -0.0174402
              ],
              [
                0.3481412,
                -0.0159889
              ],
              [
                0.3481763,
                -0.0149515
              ],
              [
                0.3827161,
                -0.0136095
              ],
              [
                0.3832508,
                -0.012707
              ],
              [
                0.3483381,
                -0.0111491
              ],
              [
                0.3487101,
                -0.0105529
              ],
              [
                0.3835017,
                -0.0080836
              ],
              [
                0.383508,
                -0.0079817
              ],
              [
                0.3833214,
                -0.00766
              ],
              [
                0.3512661,
                -0.0064617
              ],
              [
                0.3521178,
                -0.0058518
              ],
              [
                0.3812965,
                -0.0038056
              ],
              [
                0.3800576,
                -0.003029
              ],
              [
                0.3565317,
                -0.0026714
              ],
              [
                0.3571606,
                -0.0024514
              ],
              [
                0.3610876,
                -0.0010878
              ],
              [
                0.3767164,
                -0.0008198
              ],
              [
                0.3629523,
                -0.000429
              ],
              [
                0.3632589,
                -0.0003147
              ],
              [
                0.3739887,
                -0.0002744
              ],
              [
                0.3687354,
                0.0002054
              ],
              [
                0.3703799,
                0.0003628
              ],
              [
                -0.4131102,
                0.0258537
              ],
              [
                -0.4106858,
                0.0254041
              ],
              [
                -0.4192856,
                0.025676
              ],
              [
                -0.4209132,
                0.0255496
              ],
              [
                -0.4214852,
                0.0253603
              ],
              [
                -0.4059356,
                0.0243241
              ],
              [
                -0.4032208,
                0.0219515
              ],
              [
                -0.4278991,
                0.0232093
              ],
              [
                -0.4013825,
                0.020488
              ],
              [
                -0.4302924,
                0.0215088
              ],
              [
                -0.4008768,
                0.0187481
              ],
              [
                -0.4335374,
                0.0191919
              ],
              [
                -0.3996141,
                0.0150604
              ],
              [
                -0.4356863,
                0.0157652
              ],
              [
                -0.3999578,
                0.0131807
              ],
              [
                -0.4368586,
                0.013943
              ],
              [
                -0.4005526,
                0.0092131
              ],
              [
                -0.4372723,
                0.0097505
              ],
              [
                -0.4374193,
                0.0083227
              ],
              [
                -0.4021043,
                0.006789
              ],
              [
                -0.4368849,
                0.0070346
              ],
              [
                -0.4039925,
                0.0038148
              ],
              [
                -0.4354925,
                0.0031008
              ],
              [
                -0.4339517,
                0.0018709
              ],
              [
                -0.4085358,
                0.0009074
              ],
              [
                -0.4100973,
                -0.0001249
              ],
              [
                -0.4309226,
                -0.000812
              ]
            ],
            "bounds_normalized": {
              "dimensions": [
                0.820927288,
                0.050379202
              ],
              "max": [
                0.383508018,
                0.025853654
              ],
              "min": [
                -0.43741927,
                -0.024525549
              ]
            },
            "centroid_normalized": [
              -0.003412152,
              -0.000875462
            ],
            "fraction": 0.5,
            "mask": {
              "encoding": "rows_top_to_bottom_1bit_text",
              "occupied_bbox_pixels": [
                3,
                15,
                26,
                16
              ],
              "occupied_fraction": 0.006835938,
              "occupied_pixel_count": 7,
              "origin": "bottom_left",
              "resolution": [
                32,
                32
              ],
              "rows": [
                "00000000000000000000000000000000",
                "00000000000000000000000000000000",
                "00000000000000000000000000000000",
                "00000000000000000000000000000000",
                "00000000000000000000000000000000",
                "00000000000000000000000000000000",
                "00000000000000000000000000000000",
                "00000000000000000000000000000000",
                "00000000000000000000000000000000",
                "00000000000000000000000000000000",
                "00000000000000000000000000000000",
                "00000000000000000000000000000000",
                "00000000000000000000000000000000",
                "00000000000000000000000000000000",
                "00000000000000000000000000000000",
                "00011000000000000000000000100000",
                "00011000000000000000000001100000",
                "00000000000000000000000000000000",
                "00000000000000000000000000000000",
                "00000000000000000000000000000000",
                "00000000000000000000000000000000",
                "00000000000000000000000000000000",
                "00000000000000000000000000000000",
                "00000000000000000000000000000000",
                "00000000000000000000000000000000",
                "00000000000000000000000000000000",
                "00000000000000000000000000000000",
                "00000000000000000000000000000000",
                "00000000000000000000000000000000",
                "00000000000000000000000000000000",
                "00000000000000000000000000000000",
                "00000000000000000000000000000000"
              ]
            },
            "plane_coordinate_native": 0.003003369,
            "segment_count": 68
          },
          {
            "boundary_samples_normalized": [
              [
                -0.4682217,
                0.0024143
              ],
              [
                -0.4473648,
                0.0017474
              ],
              [
                -0.4686258,
                0.001604
              ],
              [
                -0.4470626,
                0.0009181
              ],
              [
                -0.470403,
                -0.0022413
              ],
              [
                -0.4457372,
                -0.0028477
              ],
              [
                -0.4458109,
                -0.0037588
              ],
              [
                -0.4707192,
                -0.0060738
              ],
              [
                -0.470865,
                -0.007288
              ],
              [
                -0.4461709,
                -0.007796
              ],
              [
                -0.4696489,
                -0.0107947
              ],
              [
                -0.4693031,
                -0.0119076
              ],
              [
                -0.4480781,
                -0.0119052
              ],
              [
                -0.4483018,
                -0.012438
              ],
              [
                -0.4666981,
                -0.0147642
              ],
              [
                -0.4660394,
                -0.0154984
              ],
              [
                -0.4518548,
                -0.0157607
              ],
              [
                -0.451979,
                -0.0158824
              ],
              [
                -0.4537864,
                -0.0165497
              ],
              [
                -0.4622504,
                -0.0172415
              ],
              [
                -0.4616322,
                -0.0175212
              ],
              [
                -0.45698,
                -0.0176222
              ],
              [
                -0.4567054,
                -0.0176255
              ],
              [
                0.4496393,
                -0.0004761
              ],
              [
                0.451418,
                -0.000205
              ],
              [
                0.4474225,
                3.08e-05
              ],
              [
                0.4557491,
                0.0002525
              ],
              [
                0.4565903,
                0.0006343
              ],
              [
                0.4445749,
                0.0007874
              ],
              [
                0.4423268,
                0.0028618
              ],
              [
                0.461974,
                0.0028196
              ],
              [
                0.4620041,
                0.002844
              ],
              [
                0.4623592,
                0.0031111
              ],
              [
                0.4412759,
                0.0039049
              ],
              [
                0.4669178,
                0.0065118
              ],
              [
                0.4672977,
                0.0067731
              ],
              [
                0.4403807,
                0.0076769
              ],
              [
                0.4402432,
                0.008308
              ],
              [
                0.470679,
                0.0113452
              ],
              [
                0.4709884,
                0.0117525
              ],
              [
                0.4415211,
                0.0131954
              ],
              [
                0.4415847,
                0.0134318
              ],
              [
                0.4724291,
                0.016951
              ],
              [
                0.4724516,
                0.0170338
              ],
              [
                0.4723414,
                0.0175513
              ],
              [
                0.4449197,
                0.0185043
              ],
              [
                0.4450678,
                0.0187209
              ],
              [
                0.4712741,
                0.0217988
              ],
              [
                0.470705,
                0.0223398
              ],
              [
                0.4496525,
                0.0227368
              ],
              [
                0.4502439,
                0.0232215
              ],
              [
                0.4677488,
                0.0253196
              ],
              [
                0.4656129,
                0.0258831
              ],
              [
                0.45492,
                0.025479
              ],
              [
                0.4563806,
                0.0260998
              ],
              [
                0.4601208,
                0.0266395
              ],
              [
                0.4625289,
                0.0268362
              ],
              [
                -0.4597214,
                0.0077447
              ],
              [
                -0.4595867,
                0.0077399
              ],
              [
                -0.459733,
                0.0077402
              ],
              [
                -0.4547965,
                0.0075765
              ],
              [
                -0.4544387,
                0.0073903
              ],
              [
                -0.4644147,
                0.0058689
              ],
              [
                -0.4647869,
                0.0055427
              ],
              [
                -0.4504647,
                0.0054682
              ],
              [
                -0.4500037,
                0.0049138
              ]
            ],
            "bounds_normalized": {
              "dimensions": [
                0.943316641,
                0.044461702
              ],
              "max": [
                0.472451607,
                0.026836229
              ],
              "min": [
                -0.470865033,
                -0.017625473
              ]
            },
            "centroid_normalized": [
              0.01316907,
              0.004118598
            ],
            "fraction": 0.75,
            "mask": {
              "encoding": "rows_top_to_bottom_1bit_text",
              "occupied_bbox_pixels": [
                2,
                15,
                29,
                16
              ],
              "occupied_fraction": 0.006835938,
              "occupied_pixel_count": 7,
              "origin": "bottom_left",
              "resolution": [
                32,
                32
              ],
              "rows": [
                "00000000000000000000000000000000",
                "00000000000000000000000000000000",
                "00000000000000000000000000000000",
                "00000000000000000000000000000000",
                "00000000000000000000000000000000",
                "00000000000000000000000000000000",
                "00000000000000000000000000000000",
                "00000000000000000000000000000000",
                "00000000000000000000000000000000",
                "00000000000000000000000000000000",
                "00000000000000000000000000000000",
                "00000000000000000000000000000000",
                "00000000000000000000000000000000",
                "00000000000000000000000000000000",
                "00000000000000000000000000000000",
                "00110000000000000000000000001100",
                "00110000000000000000000000001000",
                "00000000000000000000000000000000",
                "00000000000000000000000000000000",
                "00000000000000000000000000000000",
                "00000000000000000000000000000000",
                "00000000000000000000000000000000",
                "00000000000000000000000000000000",
                "00000000000000000000000000000000",
                "00000000000000000000000000000000",
                "00000000000000000000000000000000",
                "00000000000000000000000000000000",
                "00000000000000000000000000000000",
                "00000000000000000000000000000000",
                "00000000000000000000000000000000",
                "00000000000000000000000000000000",
                "00000000000000000000000000000000"
              ]
            },
            "plane_coordinate_native": 0.009079951,
            "segment_count": 66
          },
          {
            "boundary_samples_normalized": [
              [
                -0.4716498,
                0.0016361
              ],
              [
                -0.4695723,
                0.0014354
              ],
              [
                -0.4655552,
                0.0009549
              ],
              [
                -0.476812,
                0.0002424
              ],
              [
                -0.4778388,
                -4.02e-05
              ],
              [
                -0.4629752,
                -0.0002908
              ],
              [
                -0.4604466,
                -0.0016118
              ],
              [
                -0.483007,
                -0.0038362
              ],
              [
                -0.4831277,
                -0.0039213
              ],
              [
                -0.4831903,
                -0.0040199
              ],
              [
                -0.4583069,
                -0.0041631
              ],
              [
                -0.4840838,
                -0.0054232
              ],
              [
                -0.456994,
                -0.0058123
              ],
              [
                -0.4866638,
                -0.0089107
              ],
              [
                -0.4869554,
                -0.0093094
              ],
              [
                -0.4560697,
                -0.0092588
              ],
              [
                -0.4556673,
                -0.011021
              ],
              [
                -0.4880464,
                -0.0147976
              ],
              [
                -0.4881633,
                -0.0153931
              ],
              [
                -0.4563101,
                -0.0146287
              ],
              [
                -0.4566829,
                -0.0164808
              ],
              [
                -0.4864028,
                -0.020847
              ],
              [
                -0.4863561,
                -0.0209945
              ],
              [
                -0.4585781,
                -0.0196036
              ],
              [
                -0.4856537,
                -0.0216577
              ],
              [
                -0.4598334,
                -0.0215345
              ],
              [
                -0.4620752,
                -0.0233311
              ],
              [
                -0.4823916,
                -0.0252437
              ],
              [
                -0.4818527,
                -0.0254738
              ],
              [
                -0.464701,
                -0.0254738
              ],
              [
                -0.4682207,
                -0.0267545
              ],
              [
                -0.476891,
                -0.0275779
              ],
              [
                -0.4753172,
                -0.0275912
              ],
              [
                -0.4706796,
                -0.027615
              ],
              [
                0.4839311,
                0.0078509
              ],
              [
                0.4810063,
                0.0080209
              ],
              [
                0.4789731,
                0.008196
              ],
              [
                0.4860373,
                0.0084357
              ],
              [
                0.489122,
                0.0090725
              ],
              [
                0.490388,
                0.0098825
              ],
              [
                0.475673,
                0.0098677
              ],
              [
                0.4750307,
                0.0101919
              ],
              [
                0.4937726,
                0.0117685
              ],
              [
                0.4943801,
                0.012519
              ],
              [
                0.4733758,
                0.0128268
              ],
              [
                0.472676,
                0.0139629
              ],
              [
                0.4726459,
                0.0142643
              ],
              [
                0.4971492,
                0.0156985
              ],
              [
                0.497409,
                0.0164849
              ],
              [
                0.4722947,
                0.0187734
              ],
              [
                0.4987319,
                0.0204575
              ],
              [
                0.4726037,
                0.0197986
              ],
              [
                0.4986472,
                0.0217147
              ],
              [
                0.47388,
                0.0237987
              ],
              [
                0.4983832,
                0.0254163
              ],
              [
                0.474721,
                0.0249526
              ],
              [
                0.4973706,
                0.027337
              ],
              [
                0.4772363,
                0.0282973
              ],
              [
                0.4961443,
                0.0297205
              ],
              [
                0.478276,
                0.0290396
              ],
              [
                0.4933629,
                0.0315946
              ],
              [
                0.4819335,
                0.0315478
              ],
              [
                0.4826163,
                0.0317484
              ],
              [
                0.4922784,
                0.0323529
              ],
              [
                0.4868662,
                0.0329036
              ],
              [
                0.4873659,
                0.0329974
              ],
              [
                0.4872256,
                0.0329937
              ],
              [
                0.4872838,
                0.0330082
              ]
            ],
            "bounds_normalized": {
              "dimensions": [
                0.986895251,
                0.060623167
              ],
              "max": [
                0.498731921,
                0.033008165
              ],
              "min": [
                -0.488163329,
                -0.027615002
              ]
            },
            "centroid_normalized": [
              0.00634882,
              0.00381099
            ],
            "fraction": 0.9,
            "mask": {
              "encoding": "rows_top_to_bottom_1bit_text",
              "occupied_bbox_pixels": [
                2,
                15,
                30,
                16
              ],
              "occupied_fraction": 0.004882812,
              "occupied_pixel_count": 5,
              "origin": "bottom_left",
              "resolution": [
                32,
                32
              ],
              "rows": [
                "00000000000000000000000000000000",
                "00000000000000000000000000000000",
                "00000000000000000000000000000000",
                "00000000000000000000000000000000",
                "00000000000000000000000000000000",
                "00000000000000000000000000000000",
                "00000000000000000000000000000000",
                "00000000000000000000000000000000",
                "00000000000000000000000000000000",
                "00000000000000000000000000000000",
                "00000000000000000000000000000000",
                "00000000000000000000000000000000",
                "00000000000000000000000000000000",
                "00000000000000000000000000000000",
                "00000000000000000000000000000000",
                "00100000000000000000000000000110",
                "00110000000000000000000000000000",
                "00000000000000000000000000000000",
                "00000000000000000000000000000000",
                "00000000000000000000000000000000",
                "00000000000000000000000000000000",
                "00000000000000000000000000000000",
                "00000000000000000000000000000000",
                "00000000000000000000000000000000",
                "00000000000000000000000000000000",
                "00000000000000000000000000000000",
                "00000000000000000000000000000000",
                "00000000000000000000000000000000",
                "00000000000000000000000000000000",
                "00000000000000000000000000000000",
                "00000000000000000000000000000000",
                "00000000000000000000000000000000"
              ]
            },
            "plane_coordinate_native": 0.0127259,
            "segment_count": 68
          }
        ]
      },
      "pca_axis_2": {
        "axis": 2,
        "in_plane_axes": [
          0,
          1
        ],
        "slices": [
          {
            "boundary_samples_normalized": [
              [
                -0.4864313,
                0.1606143
              ],
              [
                -0.4820512,
                0.1570964
              ],
              [
                -0.4742811,
                0.1482214
              ],
              [
                -0.4706544,
                0.1480639
              ],
              [
                -0.4682052,
                0.1479982
              ],
              [
                -0.4674176,
                0.1531681
              ],
              [
                -0.4666211,
                0.1597782
              ],
              [
                -0.4670808,
                0.1630128
              ],
              [
                -0.467591,
                0.1668143
              ],
              [
                -0.469981,
                0.1755929
              ],
              [
                -0.4732921,
                0.1890351
              ],
              [
                -0.4738151,
                0.1905952
              ],
              [
                -0.4974246,
                0.1724506
              ]
            ],
            "bounds_normalized": {
              "dimensions": [
                0.03080358,
                0.042596992
              ],
              "max": [
                -0.466621053,
                0.190595231
              ],
              "min": [
                -0.497424632,
                0.147998239
              ]
            },
            "centroid_normalized": [
              -0.473268873,
              0.162576561
            ],
            "fraction": 0.1,
            "mask": {
              "encoding": "rows_top_to_bottom_1bit_text",
              "occupied_bbox_pixels": [
                1,
                20,
                2,
                21
              ],
              "occupied_fraction": 0.002929688,
              "occupied_pixel_count": 3,
              "origin": "bottom_left",
              "resolution": [
                32,
                32
              ],
              "rows": [
                "00000000000000000000000000000000",
                "00000000000000000000000000000000",
                "00000000000000000000000000000000",
                "00000000000000000000000000000000",
                "00000000000000000000000000000000",
                "00000000000000000000000000000000",
                "00000000000000000000000000000000",
                "00000000000000000000000000000000",
                "00000000000000000000000000000000",
                "00000000000000000000000000000000",
                "00100000000000000000000000000000",
                "01100000000000000000000000000000",
                "00000000000000000000000000000000",
                "00000000000000000000000000000000",
                "00000000000000000000000000000000",
                "00000000000000000000000000000000",
                "00000000000000000000000000000000",
                "00000000000000000000000000000000",
                "00000000000000000000000000000000",
                "00000000000000000000000000000000",
                "00000000000000000000000000000000",
                "00000000000000000000000000000000",
                "00000000000000000000000000000000",
                "00000000000000000000000000000000",
                "00000000000000000000000000000000",
                "00000000000000000000000000000000",
                "00000000000000000000000000000000",
                "00000000000000000000000000000000",
                "00000000000000000000000000000000",
                "00000000000000000000000000000000",
                "00000000000000000000000000000000",
                "00000000000000000000000000000000"
              ]
            },
            "plane_coordinate_native": -0.001741602,
            "segment_count": 12
          },
          {
            "boundary_samples_normalized": [
              [
                0.2731497,
                -0.0857351
              ],
              [
                0.2730599,
                -0.0848232
              ],
              [
                0.2750797,
                -0.0851782
              ],
              [
                0.2771512,
                -0.0846622
              ],
              [
                0.2744444,
                -0.0801508
              ],
              [
                0.274359,
                -0.0791046
              ],
              [
                0.2743704,
                -0.0789622
              ],
              [
                0.2835259,
                -0.0839306
              ],
              [
                0.286622,
                -0.0836647
              ],
              [
                0.2931434,
                -0.0812604
              ],
              [
                0.2812676,
                -0.0715773
              ],
              [
                0.3003111,
                -0.0785983
              ],
              [
                0.3040003,
                -0.0766508
              ],
              [
                0.3085142,
                -0.0741157
              ],
              [
                0.2890558,
                -0.0638968
              ],
              [
                0.2894426,
                -0.0635893
              ],
              [
                0.2896997,
                -0.0633936
              ],
              [
                0.315476,
                -0.0694005
              ],
              [
                0.3201974,
                -0.0661313
              ],
              [
                0.2988295,
                -0.0543849
              ],
              [
                0.3287584,
                -0.0572123
              ],
              [
                0.3048647,
                -0.0486731
              ],
              [
                0.309763,
                -0.0433994
              ],
              [
                0.3351698,
                -0.0505186
              ],
              [
                0.3410618,
                -0.0439692
              ],
              [
                0.3177975,
                -0.0349247
              ],
              [
                0.3215317,
                -0.0305215
              ],
              [
                0.3479811,
                -0.036556
              ],
              [
                0.3512023,
                -0.0330058
              ],
              [
                0.3286937,
                -0.0222149
              ],
              [
                0.359355,
                -0.0242031
              ],
              [
                0.3314539,
                -0.0190075
              ],
              [
                0.3601486,
                -0.0233391
              ],
              [
                0.3634872,
                -0.0197485
              ],
              [
                0.3384573,
                -0.0110509
              ],
              [
                0.3685291,
                -0.0139503
              ],
              [
                0.3695491,
                -0.0127813
              ],
              [
                0.3403318,
                -0.0089335
              ],
              [
                0.3770938,
                -0.0043066
              ],
              [
                0.3478534,
                -0.0006312
              ],
              [
                0.3789315,
                -0.0022241
              ],
              [
                0.3489704,
                0.000564
              ],
              [
                0.3864861,
                0.0059902
              ],
              [
                0.3878667,
                0.0074975
              ],
              [
                0.3572291,
                0.0092443
              ],
              [
                0.3578671,
                0.0098758
              ],
              [
                0.391688,
                0.0116866
              ],
              [
                0.3957516,
                0.0167426
              ],
              [
                0.3666441,
                0.0184806
              ],
              [
                0.3689086,
                0.0204993
              ],
              [
                0.3987224,
                0.0207144
              ],
              [
                0.4026602,
                0.0259492
              ],
              [
                0.3761373,
                0.0269076
              ],
              [
                0.4056444,
                0.0301095
              ],
              [
                0.3848407,
                0.0341401
              ],
              [
                0.408026,
                0.0358072
              ],
              [
                0.385802,
                0.034771
              ],
              [
                0.3896128,
                0.0371538
              ],
              [
                0.4104151,
                0.041135
              ],
              [
                0.3968925,
                0.0417073
              ],
              [
                0.3986841,
                0.0428781
              ],
              [
                0.408751,
                0.0443453
              ],
              [
                0.4035198,
                0.0443251
              ],
              [
                0.4080428,
                0.0457291
              ],
              [
                -0.4691359,
                0.1927922
              ],
              [
                -0.4641023,
                0.1790819
              ],
              [
                -0.4610277,
                0.1704686
              ],
              [
                -0.499986,
                0.1692414
              ],
              [
                -0.4992516,
                0.1682986
              ],
              [
                -0.4567453,
                0.154559
              ],
              [
                -0.4550256,
                0.1467373
              ],
              [
                -0.4868755,
                0.153215
              ],
              [
                -0.482765,
                0.1451579
              ],
              [
                -0.453866,
                0.1354398
              ],
              [
                -0.4776095,
                0.1349447
              ],
              [
                -0.4523051,
                0.1222004
              ],
              [
                -0.4523038,
                0.1221302
              ],
              [
                -0.4523016,
                0.1220538
              ],
              [
                -0.4747866,
                0.124954
              ],
              [
                -0.4707158,
                0.1142622
              ],
              [
                -0.4524938,
                0.1103821
              ],
              [
                -0.4670376,
                0.1025341
              ],
              [
                -0.4526015,
                0.1003802
              ],
              [
                -0.4528914,
                0.0992755
              ],
              [
                -0.4536537,
                0.0965237
              ],
              [
                -0.4620976,
                0.0931373
              ],
              [
                -0.4550788,
                0.0914496
              ],
              [
                -0.4606208,
                0.0901372
              ],
              [
                -0.4598116,
                0.0900121
              ],
              [
                -0.4556134,
                0.0893621
              ]
            ],
            "bounds_normalized": {
              "dimensions": [
                0.910401094,
                0.278527234
              ],
              "max": [
                0.410415051,
                0.192792173
              ],
              "min": [
                -0.499986043,
                -0.085735061
              ]
            },
            "centroid_normalized": [
              0.116255446,
              0.019029052
            ],
            "fraction": 0.25,
            "mask": {
              "encoding": "rows_top_to_bottom_1bit_text",
              "occupied_bbox_pixels": [
                1,
                13,
                27,
                21
              ],
              "occupied_fraction": 0.01953125,
              "occupied_pixel_count": 20,
              "origin": "bottom_left",
              "resolution": [
                32,
                32
              ],
              "rows": [
                "00000000000000000000000000000000",
                "00000000000000000000000000000000",
                "00000000000000000000000000000000",
                "00000000000000000000000000000000",
                "00000000000000000000000000000000",
                "00000000000000000000000000000000",
                "00000000000000000000000000000000",
                "00000000000000000000000000000000",
                "00000000000000000000000000000000",
                "00000000000000000000000000000000",
                "00100000000000000000000000000000",
                "01110000000000000000000000000000",
                "00110000000000000000000000000000",
                "00110000000000000000000000000000",
                "00000000000000000000000000110000",
                "00000000000000000000000001110000",
                "00000000000000000000000011100000",
                "00000000000000000000000011000000",
                "00000000000000000000000110000000",
                "00000000000000000000000000000000",
                "00000000000000000000000000000000",
                "00000000000000000000000000000000",
                "00000000000000000000000000000000",
                "00000000000000000000000000000000",
                "00000000000000000000000000000000",
                "00000000000000000000000000000000",
                "00000000000000000000000000000000",
                "00000000000000000000000000000000",
                "00000000000000000000000000000000",
                "00000000000000000000000000000000",
                "00000000000000000000000000000000",
                "00000000000000000000000000000000"
              ]
            },
            "plane_coordinate_native": -0.001117735,
            "segment_count": 89
          },
          {
            "boundary_samples_normalized": [
              [
                -0.3682221,
                -0.058118
              ],
              [
                -0.327205,
                -0.0621211
              ],
              [
                -0.312085,
                -0.0699909
              ],
              [
                -0.3414505,
                -0.0803644
              ],
              [
                -0.2804423,
                -0.0833638
              ],
              [
                -0.3254281,
                -0.0903394
              ],
              [
                -0.3109722,
                -0.0975014
              ],
              [
                -0.2474508,
                -0.0948616
              ],
              [
                -0.289241,
                -0.106723
              ],
              [
                -0.2690426,
                -0.1150844
              ],
              [
                -0.2139575,
                -0.1055334
              ],
              [
                -0.2464207,
                -0.1247215
              ],
              [
                -0.1935893,
                -0.1118956
              ],
              [
                -0.2240205,
                -0.1330195
              ],
              [
                -0.2022673,
                -0.1406134
              ],
              [
                -0.1818076,
                -0.147461
              ],
              [
                -0.1351813,
                -0.1322385
              ],
              [
                -0.1269824,
                -0.1353536
              ],
              [
                -0.1385007,
                -0.1631087
              ],
              [
                -0.1022512,
                -0.1435254
              ],
              [
                -0.0883403,
                -0.1474578
              ],
              [
                -0.0978724,
                -0.1768102
              ],
              [
                -0.0682973,
                -0.1522879
              ],
              [
                -0.077271,
                -0.1822189
              ],
              [
                -0.0480136,
                -0.1563207
              ],
              [
                -0.0463526,
                -0.1868625
              ],
              [
                -0.030112,
                -0.188361
              ],
              [
                -0.0132978,
                -0.1892868
              ],
              [
                0.0027557,
                -0.189458
              ],
              [
                0.0118143,
                -0.1613034
              ],
              [
                0.0335036,
                -0.1888348
              ],
              [
                0.0331448,
                -0.1617427
              ],
              [
                0.0417293,
                -0.1615841
              ],
              [
                0.0509624,
                -0.1617453
              ],
              [
                0.0671624,
                -0.1601794
              ],
              [
                0.0791996,
                -0.157484
              ],
              [
                0.1119482,
                -0.1736927
              ],
              [
                0.1069554,
                -0.1481182
              ],
              [
                0.1178379,
                -0.1427651
              ],
              [
                0.1626316,
                -0.1523622
              ],
              [
                0.1432957,
                -0.1319189
              ],
              [
                0.1904366,
                -0.1390154
              ],
              [
                0.2088025,
                -0.1312123
              ],
              [
                0.1803179,
                -0.1178676
              ],
              [
                0.2271867,
                -0.1234193
              ],
              [
                0.2069368,
                -0.106801
              ],
              [
                0.2165019,
                -0.1030586
              ],
              [
                0.2662234,
                -0.1037229
              ],
              [
                0.2833642,
                -0.0942112
              ],
              [
                0.2544978,
                -0.0837851
              ],
              [
                0.3060344,
                -0.0791767
              ],
              [
                0.2817611,
                -0.068328
              ],
              [
                0.3262966,
                -0.0618686
              ],
              [
                0.3099287,
                -0.0501657
              ],
              [
                0.341592,
                -0.0462097
              ],
              [
                0.3266916,
                -0.0341575
              ],
              [
                0.3350652,
                -0.0262029
              ],
              [
                0.3628263,
                -0.0162281
              ],
              [
                0.3522176,
                -0.0109005
              ],
              [
                0.3586774,
                -0.0050308
              ],
              [
                0.3697515,
                0.0027963
              ],
              [
                0.3754832,
                0.0078665
              ],
              [
                0.3909014,
                0.0157298
              ],
              [
                0.4002628,
                0.022088
              ],
              [
                0.4098818,
                0.0282453
              ],
              [
                0.3870335,
                0.0288902
              ],
              [
                0.4270114,
                0.0417655
              ],
              [
                0.4332856,
                0.0481354
              ],
              [
                0.3994248,
                0.0461571
              ],
              [
                0.4078093,
                0.0559158
              ],
              [
                0.4129691,
                0.0627697
              ],
              [
                0.4223164,
                0.0733295
              ],
              [
                0.4530784,
                0.0844683
              ],
              [
                0.4549844,
                0.0952834
              ],
              [
                0.4516996,
                0.097674
              ],
              [
                -0.4734809,
                0.1872746
              ],
              [
                -0.4921811,
                0.17302
              ],
              [
                -0.4789109,
                0.1574406
              ],
              [
                -0.4557622,
                0.133665
              ],
              [
                -0.4714124,
                0.1382186
              ],
              [
                -0.4700624,
                0.1157072
              ],
              [
                -0.4702767,
                0.111239
              ],
              [
                -0.4690411,
                0.0919078
              ],
              [
                -0.4429218,
                0.0758664
              ],
              [
                -0.4394375,
                0.0570004
              ],
              [
                -0.4346435,
                0.0439523
              ],
              [
                -0.4301322,
                0.0332932
              ],
              [
                -0.453181,
                0.0281497
              ],
              [
                -0.4487686,
                0.0200689
              ],
              [
                -0.4373039,
                0.0056245
              ],
              [
                -0.4268435,
                -0.0051421
              ],
              [
                -0.4010162,
                -0.0133111
              ],
              [
                -0.4074329,
                -0.0206733
              ],
              [
                -0.382178,
                -0.0314562
              ],
              [
                -0.3752254,
                -0.0393868
              ],
              [
                -0.3586358,
                -0.0467078
              ]
            ],
            "bounds_normalized": {
              "dimensions": [
                0.947165487,
                0.376773685
              ],
              "max": [
                0.454984434,
                0.187274642
              ],
              "min": [
                -0.492181052,
                -0.189499043
              ]
            },
            "centroid_normalized": [
              -0.014549535,
              -0.055358188
            ],
            "fraction": 0.5,
            "mask": {
              "encoding": "rows_top_to_bottom_1bit_text",
              "occupied_bbox_pixels": [
                2,
                10,
                28,
                21
              ],
              "occupied_fraction": 0.063476562,
              "occupied_pixel_count": 65,
              "origin": "bottom_left",
              "resolution": [
                32,
                32
              ],
              "rows": [
                "00000000000000000000000000000000",
                "00000000000000000000000000000000",
